0.7745301027360363,-0.44598534929339095,0.3925589997026224,-0.7992445434305897,0.760535215030222,0.26006980058892903,-0.44823240808803333,0.42624436389361997,-0.4269477866500022,0.4552924743044491,0.909814141505513,0.6198895189807161,0.8247537108108931,-0.30826337078947463,0.19168132227317447,0.6377353163176084,0.16953960177978566,-0.1439633368047204,-0.4136361462947664,0.8304445515712837,-0.8342555930725839,0.4940327426357869,0.7521409574729516,-0.03126271707058903,0.44527901498817757,0.44684044911182763,-0.18676349698680017,-0.7812951882964065,0.8003378274824422,-0.19889387031300365,-0.3324907608311485,0.01056557481314746,0.2934464968443953,0.040964212972499324,-0.17479239246504213,0.1854612556439022,0.3039296140515229,-0.013013814723491378,-0.7880628491794913,-0.8417133727953419,-0.4623031200256675,0.6130512411653177,0.8924437369230064,9.612873956312242E-4,0.4777847245152613,-0.8311086221771667,-0.4832318214807578,0.32855639363117156,-0.5416987338818068,0.1413459077013792,0.4260939314136622,0.6607598209932605,-0.34872826322096606,-0.4280166246425523,-0.1625886426603349,0.5401713195213496,-0.41356793012489934,-0.021036920487408572,0.28598717343040625,-0.9067213644516574,0.5155351643367232,-0.2844453800068654,0.5985644516500603,-0.041417280246638655,-0.06326140150953617,0.9818187891657677,-0.9167273443366282,0.5725786748461481,-0.08586411141704405,0.9124596200252247,0.27637119893780615,0.5359586768583194,-0.6099781821499389,0.17254453833791375,-0.19637255886050295,-0.27586377268638196,-0.4511213667326006,-0.9261118212813338,-0.36976501938089756,0.7297460041594366,-0.9271398721627755,-0.1784575818892766,0.21265360866503258,0.6880977565970572,-0.26284453464664304,-0.8595539514914614,0.29331919103002474,-0.3841448491430759,-0.7281771349348902,0.6671316303063982,-0.6266077898253559,-0.32221615445917645,-0.10115840532535066,0.5780468193036324,-0.5092523341478883,-0.16492300117608386,0.6825149123135484,0.8778217665283583,-0.7924684894596424,-0.7786916643095834,0.05380657864659099,-0.2944922397073259,0.435032312016156,-0.625020696115711,-0.08045037366307621,0.14382049717730697,0.7894511355795927,-0.5226008398224093,-0.10641627939453904,0.2538216772731067,-0.6092606228320486,-0.8761303953308768,-0.17658774951332545,-0.18520921069333424,0.20841667872640016,-0.1212815334521194,0.6932606567594302,0.12774024651305066,0.6000555844959737,-0.8871068203410273,0.3152559421780112,-0.9300868640397688,-0.20220888231778744,0.6054553294973465,0.5577518193609611,0.9026093601305415,-0.3712035988884132,0.9292697886963527,0.5496389270035937,-0.6068704697057586,0.5165809432624285,-0.1439189545853087,-0.8359883360721486,0.41833327188287645,0.461193296050682,-0.3013616897805261,-0.7108357002492675,-0.6264039054604532,-0.3575787192401338,0.8352301982750817,-0.7547951697596236,-0.2073282844344985,0.34285998414960506,-0.2105531278891605,-0.2925638705843924,-0.759024729899581,-0.5831908503262575,-0.30165255024355553,0.7034077353131978,0.465141237379258,-0.15776186759567856,0.573887071579784,0.11592377112470915,0.23950905282399904,-0.4839980022644801,-0.09931419640118305,-0.2714930246578086,0.5886330491365124,0.2802392174643007,-0.26958421730887117,-0.7656425298989324,-0.9340314841971654,0.6749792369373918,0.007839208437424267,0.7609370768653133,-0.6640947165471485,-0.21907076389500177,0.5855729122662063,-0.7983525043206401,0.3379717455325318,-0.700373058232903,-0.38189729830600344,-0.9556389769883114,-0.8470387628248178,0.6397536166471574,0.10036107015758083,0.0790506408128877,-4.905173158402817E-4,-0.856058978948109,0.07173930567985128,-0.08861981279350345,-0.7676353208144777,0.3197757664995926,0.9308296172728406,0.43968883819295146,0.7627599379325989,-1.1332789025674668,-0.7642874709988295,-0.7146597020330033,-0.6355639501038187,-0.4180755529128642,0.5932280626896187,-0.39060164073962544,0.8080649901301143,0.5262569285215406,0.7998262724690928,0.19923209770017866,-0.9663811227108742,-0.8667314067019971,-0.19009646824919,0.014188636901601406,-0.15667294703938547,-0.07237957672648009,-0.1709672400205658,-0.16373946234069162,1.1933579100170975,-0.439164230001101,-0.5559480710835453,0.03101248178586071,0.12990588298881958,0.8868349007714642,0.7751750019711688,-0.37563311596057597,0.3678221819613904,0.07981036832868212,-1.0286737963378614,-0.05456241128849319,0.4019201102656282,0.3500189856181249,-0.44500437171865603,-0.23624868477464872,-0.2663348083623732,0.4532253777607531,0.6228742557762573,-0.601453921274743,-0.2693024753809554,-0.8804896373046649,0.7732793969534537,0.6827197169254209,-0.6561921525226644,0.11324524719071401,0.957804705346004,0.30364566458662057,-0.42425100603343985,0.46810090295920975,0.2232827978130444,0.837263150625457,0.5507388515765413,0.20927024400874533,0.26731592045658836,-0.467910186998994,0.11271851613818058,0.05276548437028082,-0.842622629686779,0.4429515637349137,-0.8250883840916478,0.014604987415305321,0.007784922691590047,0.04350341957230571,-0.3368056311116691,-0.7544092224037373,0.3704297725351028,-0.8434341581222006,-0.984755954116928,0.051882235367846676,0.5931009589220294,0.3801841352228565,-0.4433541100325577,-0.48872230927726845,-0.07047946664177529,0.7824811314329437,0.43229237782604873,0.7130502345515047,-0.6810096136589061,0.003985557803193947,-0.11622172552009175,0.8400302811332968,-0.25607730443470933,0.6511300883351229,-0.35232287696280384,0.4879345900081119,0.018929166371729474,-0.7413340470388329,0.5727548362251392,0.6823327145967198,0.3153884046836568,0.07532842534492247,0.39595076997124073,0.6834961601062888,0.5167522912874674,-0.63802901199404,0.228813115366299,0.6584247750727147,-0.4725747626310293,0.7679865392212674,-0.3786815948898517,-0.23162336418665253,-0.4168194600071433,1.0828012625003,-0.4608492468268635,-0.39446997740194173,-0.23751338979190656,0.340462588576789,0.751991766673829,1.0316211811799239,-0.48774843042043226,-0.4425364547868076,0.038752471830370304,-0.4057712144219069,0.7306870149473152,-0.7763112774953641,-0.7931672784954807,0.16146395928753515,0.20189182499331426,0.4475658201422362,-0.6106138282583647,-0.014955679555911141,0.0024476900037453298,0.6028410422113019,0.44260905800223616,0.9389677190716694,-0.01902714412585327,-0.7091025516972251,0.6637154442900368,-0.23381568148111154,-0.9192321853251856,0.42515208367394663,0.3525160795819669,1.194780322965364,0.7699175204402212,-0.16826033465340398,0.6708299143023624,0.9937751389495942,0.3476200585584648,-0.43974144200539944,-0.6474221771173316,-0.16945977139169052,0.9643204671654705,0.4610133654146155,0.4500206071027788,0.5363154499803475,-0.04285585730021709,0.4072915569754766,-0.2822367432672865,-0.8648639101515204,0.822869039201965,0.809970715233978,0.7649948650832636,0.07606155440042962,-0.8739901672138933,0.6101371444362025,0.10049716285596132,-0.6618551859763867,0.8650312524563377,-0.15000606607488273,0.8028440899697544,-0.3321396069998212,1.2053976943867049,-0.019030760183641884,0.15652733870647545,-0.2037511861327591,0.29096649551102927,0.4767180329888086,-0.18712375025515943,-0.7179203580317338,0.8610292193238216,0.9743407720014688,0.1324754458928705,0.7960529793694585,0.9264652664177405,0.742372070805194,-0.898010034248765,0.1924088555831408,-0.6990427834586224,0.8415869732622508,-0.004598819963589248,0.44302274059748364,0.8073726296332453,-0.620146261630975,0.15195117933920357,0.7170606139273344,0.7814994993924406,0.9503463499465136,1.1399517231334177,-0.11864891770925952,0.07733938533459202,-0.1991280849410487,-0.16843640024036607,0.45749364720779195,-0.38597606606542034,-0.22582956924478884,-1.1540272102363218,0.08500969832830287,0.013832887693822763,-0.04356940969131178,-0.4702053459690546,-0.1734795407891075,-0.12672174191354865,0.4694082729662242,0.10692178433746445,-0.036740600567361344,-0.32357613210259834,0.45482119677223193,0.18845759727428749,-0.7956849789848411,0.9060843663393451,0.8716169182704082,-0.1858043803878436,-0.32935287865094426,0.2183901065812951,0.3953652673087442,-0.47387694011687903,0.9493456630494451,-0.5062693528196535,0.3449941695290895,-0.7801342770168471,0.4589369667484905,-0.5059946516189926,0.6690589673559824,-0.08044412402916734,-0.5026996772687394,0.6917379657871267,0.5727494505105162,0.9369540058595804,0.6659889123564778,0.4180467883159655,-0.09637589564208447,0.14274831079834066,-0.9033106737271198,0.5892795148515034,-0.6961254230839261,-0.3991409916541239,0.5478283064098406,-0.7432716973124017,0.6153653984782169,-0.24623400004747278,-0.4770584476180962,-0.17785086647878254,0.5519886858798416,-0.4642558097602379,0.04662851636368522,0.06890862931871825,-0.674568753539578,-0.20049623287061713,-0.34839185344990053,0.10167473439169619,-0.10772227285622854,0.9666790175115899,-0.4517728682069345,-0.019364491163329285,0.5066052257726182,0.7536592354001013,0.3486893456757465,0.5267650439506698,0.29094510629018683,-0.7351195234220264,-0.18932967790696276,-0.438598720450574,-0.03556872895977019,0.3271923610339717,-0.7598080413811251,0.8838385466368451,-0.20882170474721112,0.8139388609795574,0.7446448751195934,1.0573952652342076,0.5882351655622393,-0.11764739802384544,0.22590707110088773,-0.9676056370769441,0.6124426597757925,-0.8031999971610672,-0.15080881880385058,0.4960334740021498,-0.5093649256344236,0.9762237179225043,0.1817635944855433,0.5824359779945953,0.4970209878243359,0.38062785349058753,0.6610034935007311,0.6838394612820601,-0.44101586999547143,-0.7589250666841794,0.5282966097498168,0.9940355392382224,-0.4547298700963367,0.3750344500907502,0.15541159561802745,-0.5534458321061371,0.34982364439531943,0.7630200735467096,0.6749020637907504,-0.4601324833549856,-0.06133890508486787,0.07186754021969248,0.10582723648871202,-1.0775758958892294,0.011348206588582826,0.2629895658847473,0.22043874350965972,0.2127604436658322,0.8172781427601328,0.7845480324185639,0.5686085459712468,1.1102792641712877,0.831241825545868,-0.6723246194151082,-0.5076501479239873,-0.469948929985083,-0.9050988785670155,0.11784757092205365,-0.3251280893929255,-0.8992404120548233,-0.809198328912438,-0.9462741086485055,0.8454383379023267,0.30753868072654056,0.8144222788667386,0.7319833018437448,-0.14046784545750984,0.8255293588946933,-0.18740672260315508,0.9927263272069964,0.2985285205474588,-0.4892540111386222,0.567401395869662,-0.8121112734689532,1.1812128465344267,0.9842521869799238,-0.06356507489323013,0.9569779545291887,-0.4908881428579769,0.07586498053558888,0.7514583669525454,-0.5325627387145789,0.8348904641286113,-0.7894417165033429,-0.44220217540875306,0.3668748636743545,-5.909006234931028E-5,0.8039839047365196,0.7100675020060458,0.3762762826757423,0.24045577448031272,-0.6255163061690849,0.8919533900494453,-0.5080402599002647,0.4065083656169287,1.0148003181271075,-0.3087367619755452,-0.8661467432369311,-0.3925793336178572,0.1375990447312518,0.5909867079457598,0.5211582943021486,0.5515109343797691,0.48209598018324085,1.255650928924424,-0.19022685289716587,-0.11125652766328574,0.5421026779937026,0.09358455502134806,0.015071283103400829,-0.7595491630548665,-0.1936616980324366,-0.5739167091107158,0.03815026003761456,0.05741853020998271,-0.8698881437270389,0.6868760886663454,-0.31508653866223113,-0.8597323142613649,0.7769472133827778,-0.8207158049145328,-0.675752219996734,0.09308921116778862,-0.1212199722923441,0.7579372886135496,0.3774161539069661,-0.20949175271600812,-0.7086620127693876,-0.040957421784656826,1.3274919531738854,1.741753629657788,0.26810846765656027,0.31599467077035204,0.9137774198211402,1.2678219212510509,-0.26770929425448864,-0.791611318806288,-0.2283053664416854,-0.824305609506341,0.7667619805082794,0.7651771778449984,0.9388060593681056,-0.41602369907968223,0.5491906114187578,0.7323665961857886,-0.09384138461910507,-0.9036696709531407,0.673354201846611,0.08565283746238059,0.7673999245533618,0.30189085909245233,0.18877016735849847,-0.026800765251569263,-0.5849163496277158,-0.5848835306363572,0.6856724513487275,0.6647730098004153,0.3588947368016761,0.31183670039055633,-0.2763740090084402,-0.18546469070110275,0.30242131617003576,0.5962012606250814,-0.3114257386556112,-0.3683163540307549,-0.8419710408947366,0.5641609136961694,0.011061044871661471,-0.5441171027139473,0.12337137141455529,-0.9573208136458313,0.46800220330509346,0.03551981249841183,-0.27173489916841714,0.8854179982765363,0.03244506790518369,0.08633513497440909,-1.1134304898990555,-0.6495200706429648,0.5823059267817225,0.41886514783596773,-0.471594088335684,0.26302600344970406,-0.657531629849083,0.5300224692326871,0.8031591074266281,-0.27735938798025805,0.6066614491499114,0.14393275682453605,-0.8574397076444293,0.3234855249527698,0.7229206497831208,0.3347668914752288,0.08479065066861817,-0.07810779663348164,-0.4837606164038249,0.13923306123799772,0.877732712256262,0.5486093178120391,-0.45304271135762214,-0.9513615869920955,0.5646001810269149,-0.8879900515608147,0.2219314793711744,-0.2231454561501494,-0.9632845404514311,-0.06441935003400777,0.07666040307079716,0.6981763162049386,-0.6278682193736561,0.4321353956967637,-0.18412039571683791,0.8163837773332769,0.8188549565530462,0.601017195991441,-0.007391008070935344,-7.51057351406135E-4,-1.020316883344277,0.2685447140754338,-0.05691353720094492,0.43513015643434066,-0.8411204425338584,0.8991570086610395,0.22838081526373338,0.7815781964572592,-0.7168047557465409,0.47272438436280995,-0.4506833388145257,-0.9859158578841813,0.42551820386644756,0.6513660823524154,0.4186876918274025,0.12528860508406275,0.6544743548540658,-0.6841160241426445,0.2242993206506613,-0.9304049223664429,0.05160721266828565,-0.657265549131327,0.5683656065037701,0.2847505367520057,0.5151009361374782,0.12289505029253198,0.34454895318075934,0.9044509939185429,-0.6867742679076038,-0.10871970737747018,-0.14821562390509907,-0.40671540424023184,0.8039323657665303,0.0862926911027812,-0.8702551113885664,0.30177943038902966,0.5474576150016462,-0.8454579474447175,-0.7364050059007237,-0.90486731669421,0.7717707353756773,-0.008799091324994221,0.9401057256445412,-0.08420470377070638,-0.03600145584879645,0.3871205137487066,0.47031966602569214,-0.5264985995667983,0.48967628937610613,0.5814946943402961,0.3902794752392494,0.5062797951961719,0.15991709462741058,1.0734129153978396,-0.8368436606025134,1.0653936681946523,-0.6648131059810831,-0.026506711990072075,0.06524435455357774,0.910404153885717,-0.08001129436263954,-0.5982550759252324,0.5966044228555104,-0.5090451946338888,0.061796680227069356,0.418138288794526,0.5045421971989374,-0.8820324097145984,-0.9463535603746027,0.42009126662186347,-0.9032436461245222,0.08420262322450031,0.7049726682448515,-0.1002263552631481,-0.8184350836447999,0.2314587456386429,-0.5515847233332098,-0.3147727390760322,0.8446134404542375,0.9831228109182782,0.8028967403445418,-0.8102009517438946,-0.2389691093233395,-0.09641568180561848,-0.835785338377524,0.870852534057734,-0.3065458619481759,0.9985024949856453,0.19842418922979566,0.240771768413933,-0.021152850903818694,-0.32314823681248306,-0.2982438519159997,-0.8186238479200674,-0.6336984019932304,-0.6365265059659606,0.9644448221074213,-0.34040197208092615,0.3185405515034514,0.47687517841593563,-0.5489907671493695,-0.4970078226276957,0.5926475205890802,-0.36165509484233377,0.7884840917654801,0.8764761719958405,-0.3085410271231185,-0.8256359085218066,-0.5684421376708149,-0.1672147277993489,0.9608974895327176,0.9682932953452145,0.6961246416072655,0.4308927661080127,-0.1307776559601169,0.34761251892514045,-0.26659231190519295,-0.3321025800546372,-0.3964244904822181,0.6732408086731161,0.038373324591644664,-0.8730640767962823,0.7547832665249832
-0.5333717726573297,0.4459740346233887,0.6402465327720099,0.01827273037086008,0.5523972807342703,0.2191544130284362,-0.9168677452395135,-0.07034364878305421,-0.5067238338894233,0.077626993308054,0.29119591941490675,-0.2701209525894319,-0.18322250823642097,0.980680604961299,0.004286707701955701,0.0034465770809123573,-0.9891345329157242,0.45674887255624386,-0.9579569113960238,-0.6241345824470352,0.07647271697685798,-0.06569906482708698,-0.9979867169363896,-0.12045074344900497,0.5434199813689087,0.04359706613278669,0.3136660711104664,0.7673058924053759,0.2879355605307856,0.18111854440435793,0.3194952195147942,0.5310338645512163,0.23411085222791447,-0.2367532827140863,-0.7952191376322717,-0.3258013343985448,0.07810802705744369,-0.4570266007909599,0.06267478781016733,0.38932449093905813,0.5369680051331048,0.1202615011911285,0.1436013969857433,-0.2782971096964308,0.3620086207978159,-0.6260223150964379,-0.5444254177881211,-0.04203686430036494,0.1384170384661748,0.8403469102363151,0.2597665999116101,0.2122921282822983,0.6515544388642005,-0.5686255244399916,0.692206662529741,-0.28392184580081725,-0.38452087925346645,0.6932888518957125,-0.1595117182294714,-0.6842010738843868,-0.9881063202311151,-0.22599954230854874,-0.10897657453521249,-1.8897237133939975E-4,0.3296167828576884,-0.0639463039724482,-0.37459568722143266,0.5695070926530197,-0.8544515792890728,-0.6720982579725311,0.38775870442580285,0.06406091141487662,-0.44150816321457576,-0.6566111139748566,0.7221999063047634,-0.3833726175934982,0.6867273915268961,0.02892599016337096,0.38068891777074787,0.22597493895934653,0.97336979433858,-0.9597253120373936,-0.233681341114087,0.5081039078940546,0.7378207009151365,0.24483122872113405,-0.08150601434309243,0.9538350919061296,0.7241054249252439,-0.36267816844307177,-0.5887609156795871,-0.3078858282628873,0.41906629040431864,1.2844269671006305,-0.38332945104371535,0.03194003410731283,-0.12374186225801288,0.0643313544522478,0.35998834130948626,0.4350798317747123,-0.19170475430506537,0.1947000241684067,0.05574993208554382,1.5439948784438564,0.6171814948118921,0.45065133313237443,-0.45306185235919083,-0.4623670234154716,0.4773917200908347,-0.39208379906581536,-0.8995564682658592,0.697613200074858,0.29710491537593686,0.4862401561258379,0.11732217636643481,-0.06046791981591556,0.23971781823227592,0.5697428817393558,-0.4716951327809202,-0.04887725716198208,1.168912179129931,-0.2500054021643605,-0.34196511708603194,0.7461600034276373,1.4592742844820175,1.11661666184459,0.19948178861423738,0.6820953331952676,-0.4545733280959754,0.04253004700126994,-1.0695781659247143,-0.33861068606997324,0.04155913400660384,1.0987296063233727,0.565826807698726,-0.12063365354040917,0.06994851708766249,0.8265515605777125,-0.8946569313765924,-0.15321490119912098,0.3883740906902635,0.2552822334753532,-0.3537660996910349,-0.7878436443862027,0.0402806542427351,0.9550057907095676,-0.2952559124502799,-0.6967582415236474,-0.9586634339385179,-0.2792760267247702,-1.3606147425523756,0.7458629949864547,-0.21572515139953252,-0.11314641333612004,0.15417924453033105,0.309001476308914,0.21391109878287037,0.2027175903478161,0.25756290380354724,0.9596441883734865,-0.11300256613719765,0.20944548603220262,0.8633101933995848,-0.43825372395852585,0.6903872756615324,-0.19728599609177622,-0.17803578888441599,0.5798889502271402,-0.3847627041863777,0.0599082820622871,0.3829034645275207,-0.07973388207960502,0.2179384116677958,-0.40523384549664615,-0.6988251847671776,-0.6473227044930342,-0.0442379753450304,-0.04994379480669946,0.045483751186754656,-0.07599870223469159,-0.677670283881272,-0.2658015384420279,-0.21692216958452007,0.8853313553351698,-0.2774003463722629,0.13204842049376647,0.46518789179694675,0.05366420971215839,-0.26552511924101047,-0.08975882297668601,-0.5348281924871652,0.23582872802931656,1.0795078492926515,-0.5426033715466886,0.22744583115989234,-0.8136409604089079,0.7435885368287317,0.6036097274688247,0.5357159818929695,0.151439733346871,0.33816555187832564,0.7916297796515874,-1.838342838025942,-0.12320688842276357,-0.5922753279206696,-1.5351865073935875,-0.12033894926491628,-0.26020318709068324,-0.16967639163309567,0.07143590771735366,1.0382450265356635,0.5139115010427658,-0.9257454365444691,-0.10297485868457007,-0.8643119536049384,-0.26974304653348263,0.47990312764439674,-0.9500629616878304,-0.15326619515885892,-0.352643890034781,-0.23553747160466273,-0.918301922088586,0.49757272195098046,0.359560949681461,0.5948615901554523,0.18407693515703336,-0.023890336705130813,-0.48379263803582434,-0.876602599637613,0.3372083101180529,-1.4306127820681966,-0.625306303810421,-2.1143198869701325,-0.3858411142352503,-0.8594286051199502,-0.5168001779600339,-1.166308989075338,0.1034341354803526,-0.9395011202009812,-0.7301585224322984,0.17797538844563637,0.08782821746991668,-0.8971992050937379,-0.6806316167296595,-0.4534380803400635,-0.2558080248575085,-1.2868868762651593,-0.7160357713816259,-0.10608480399082001,0.6417853395960709,0.6590769488339311,0.7701412804738921,0.0848984820386603,0.18655126413229695,-0.91818952008101,-1.6252599564992858,-0.5671403310617649,-1.1600637221314116,-0.7604756509671426,-0.6685442583615213,0.2978807707095168,-1.2040248198530292,-0.5464928591830661,0.05498068949448774,-1.1207407381525865,0.9749820373409842,-0.6451681637064293,-1.1054387425812626,-0.08531312818574156,-0.7684947356588403,-0.1601642815779681,-0.22254359105110755,-0.07169735879848478,-1.0684544955994197,-0.05541656713589561,0.18867664472928034,0.2663812497921538,-0.39974829675256657,-0.9246788282642459,0.1383361322853298,-0.5476574335267435,0.2882335511945417,-1.2871426243981179,-0.290897996024764,-0.3359699376964061,-0.5602097242367657,-0.8760035460798797,-0.5743671487861571,-0.5107625729259184,-1.1922365990685557,-0.25922802505937287,-1.958671155250332,-1.0456346448758393,-2.2972126737330014,-1.5131522762387075,-1.4517543379948312,-0.4006495117764478,-1.0778718726206722,-0.6499275926017689,-0.6141361453975445,-0.0595671935110893,-0.1515904335695386,-0.7485029442987944,0.4524460211230597,-0.5275885013756633,-0.36512563818994725,-0.25491316017613624,0.9868362326205042,0.1177565609853933,-1.0865158514489026,-0.6847833777863014,-0.7136412557766283,-1.2034407418702193,0.04591963993012243,0.9748458817186901,1.0079409426466721,0.34110601847051114,-0.8284338277815845,-0.41244466804791446,-0.292013440181151,-0.5275526966373376,-0.08007790175785173,0.9854965587455414,-0.5365114942106858,-0.41127202710211197,0.1326236133532967,0.11028276984635854,-0.2628259344938523,0.16684722983713818,-1.4718849228597555,-0.47370581017279145,1.5185445271445877,0.38096658137748574,0.014874715557579013,-0.5908511184871044,0.6764767595562945,-0.9123233339929786,0.3239951697843335,-1.0832000302318663,0.01777800951467261,0.3114637097991465,0.05625975354238552,0.5499415108382925,-0.7668054146045679,0.3012266485355578,0.2795334974421561,0.201892792259185,0.40743577950525806,1.317009297755273,3.178486469802206,1.5114774713881796,-0.210253253624311,-0.17109745573141494,-1.0699037763371821,-0.7171634972587515,1.14004174051659,-0.22689542656729483,1.9476998627652653,0.900098557421254,1.4899653179225003,0.5138352040812555,0.5523572250852988,0.6046633610955098,0.6665102379697153,0.5913722720369614,-0.29972539341271254,-1.2001670624939251,1.1777045860573203,1.9454737837256006,0.6284144087739001,-0.1376119140221627,0.12397745992497844,0.44490661724137054,0.2743949714956304,0.6047456296366936,0.11153222010308857,2.301686963406099,3.897416775207097,1.5728794737847152,2.046816706897691,1.7477163069970993,0.8364994013823405,0.6812801078224562,1.197729771528424,0.4109946815020837,1.297813378557155,0.6506853541135286,1.5433885349642131,-0.3816448804619165,-0.6807861001432751,-0.012925628677597212,-4.652946774046526E-4,-0.475711993263076,0.23544945299479875,0.6155704763208794,0.8241407022458646,-0.042173810197332365,-0.3402088520342863,0.2919965526555895,1.483629749859125,-0.5044647294291501,0.8339311892106249,-0.6536877458706709,1.0645958852671442,2.47118609345495,0.8729046270571544,0.2853049938694661,1.9017048133687908,0.4715838809488259,2.180697195137749,1.1143379063418066,0.7102447346145272,-0.29399351142433133,0.34225499586214836,-1.7293865302789255,-0.6237735087403675,-0.38124085471842767,0.267984085907181,-0.36047320426765916,0.4775184967793514,0.663966390531692,0.47103139685407724,-0.5787792685551332,0.05312278393943918,-0.026074652563361115,0.08145881455084687,0.983590634722283,-0.3169333037090766,1.3786603565462632,1.3132291041548538,0.7674507005329361,2.377618126989698,1.0112841402575123,1.4481272685804905,0.21556178340967627,0.4656267353935905,0.9632380748459919,-0.011571559545713823,-0.3567717535142027,0.2437712616746794,-1.0251672525482256,-0.6415460508044067,-0.745411462661864,-0.04284584665507153,-1.095762707775218,-0.041189773390122156,-1.160662110059055,0.3860110752901043,-0.8809730269908014,-0.9045240526908003,0.07867180784350296,1.1279552539551325,1.193231708620486,1.3128405000474639,0.8720022850554404,0.5364996724396752,0.6811683529756719,0.1888532628033485,0.30613363108684116,3.232259936939925,-0.3494830836108083,0.007325263905756806,0.8252072761719786,0.24378478209659213,0.05523265826551102,0.3984220191885946,-0.12307580004773692,-1.0343430199467039,-0.2205211117048328,-1.1224617786229276,-0.5148872905277864,-1.730151950142029,-1.2111123078508554,-0.7987831140259133,0.20346331685913263,0.09218548136846368,0.28724838559874555,-0.9199113444053386,-0.8987996344602625,0.41100740352070203,0.7749240748566644,0.2253598336978302,0.799243588501335,0.4175632502731436,1.0005628450798145,0.5864148429555439,0.6027395061162656,2.073627310014295,-0.6626458465538129,0.799079631888956,-0.029615403853186915,0.7143463380040106,0.6490119997958467,-0.44319473312905594,-0.04049878631848329,0.022694259647367265,0.3826457779154746,0.335158039402947,0.9385767432787261,-0.33099446621940104,-1.0908739313988562,0.5006523513521214,-0.23124703492026052,0.836250443159021,-0.4251507010030254,-0.5418746994867594,-0.46557373557289566,-0.13041431664674427,-0.2631175953129286,0.20366292412126266,0.6649511423828179,0.13322722843674187,0.790009771993971,-0.4589539811837301,1.2021007820297644,1.4711520272975682,-1.0568042416624597,-0.9108911686587874,0.034623468675299876,-0.029198962902759713,0.25442049092786506,-0.12647589367282022,0.3386833450169241,0.10800665714207924,-0.39457763019518594,-0.18878356470797153,0.893667459994675,0.8259635438194244,-0.08474521418939109,0.7375406468534634,0.5426353968342933,-0.07779028853805203,-0.6172248801170923,-0.18829074264942774,0.3934985951126367,0.36014288027683194,-0.659688932550361,-0.1599616442800723,1.710650862390623,0.8563801062323547,-0.5692393961926534,-1.0442058562867147,0.42926165394773563,1.4257295792653883,0.7789913848531311,0.039671522701135296,-0.31644792273471734,0.4245419915893179,0.6238517211947583,-0.14129858389044134,1.550270421085916,1.216920313119002,-0.3779369725901335,-0.94926599028057,-0.48711633341762905,-0.05979186479700055,0.5736024778930043,-0.7187618580508327,-0.014128060597157465,-0.20492511998251275,-0.9967736452702414,0.28144918709267963,0.02685444537742759,-0.21958917517626783,-0.2377694546455202,0.5066234517927333,0.5783730144985919,0.5593917448399486,-0.5646795176757433,-0.22811363021314773,0.026074619173402848,-0.5798311779090024,-1.290444030996325,-0.7772203065627289,0.5551138577776296,0.5370144421452003,0.8396895072253322,0.9226317561570029,0.8075332640265346,0.5898026846967496,1.2333980549660453,0.6848353659632985,0.6975301325199339,0.17216037931910755,0.545636206883206,0.5609409034898133,0.12835916867080205,0.589687314803584,-0.9144220854842954,-0.5282621562047135,0.21129168548608265,-0.5031589630918866,0.24603718670508826,1.081026595989155,-0.36228716032628405,-0.40902413540969884,-1.1127866657001395,-1.991665814255357,-0.7151302688915072,-0.6935177729891637,-0.1777424773256973,-1.0593600631316198,-1.0287735027816647,-0.2781481190603105,0.17826703425589838,0.4620328705811262,-1.0456720954726695,0.5309925781164221,1.0634995552437856,-0.576629364392093,-0.035866538725612025,1.0506042725965983,0.06094190640889187,-0.913110651435276,0.8338550484803838,0.06704665698487536,0.5010174649658357,-0.5066967698385073,0.963720396849485,0.9555325937920128,-0.5511406725053343,0.7993140837317233,-0.7979246069355379,-0.13012195306351637,-0.35050911459856554,-1.7483427426956404,-0.05752728990358322,-0.8478605827203901,-0.38846404264802176,-0.7110254400872302,-0.7480411335564011,-1.1874880438609523,-1.3714202871514325,-0.8183109710845626,-1.0527122445889623,-0.8107337338643452,0.5243330012425036,0.8787432969723818,0.2906933238930514,0.6523706713378203,0.32932778380438255,0.7724500602858848,-0.2486151114440912,0.22548716666054613,-0.17372321255184398,-0.8730548468744886,0.7725873014740152,-0.502209714995823,-0.6024520437257314,-1.1788449275997392,0.22597965621701468,-0.4055739858475003,0.5933806679437038,0.028855430248771116,0.05563986045686605,-0.1850498916215738,0.16184853837039076,0.42295258248161116,-1.6769766815893112,0.6352970277743987,-0.853475615055299,-0.049344484455967834,0.2686546959754576,-1.4867084843278267,0.7973974905023296,0.8887672185722304,1.4158134436573635,1.4827619482068763,-0.061768189783246205,-0.8356263950863797,0.475359837253083,-0.5833538365105921,0.5561171601633308,0.257490223885082,0.8659686056507517,-0.0760886330438259,0.7644478892058684,0.06883162299285125,-0.9388413997042315,0.4794879436590186,0.8386518145333108,0.587283230420993,1.355587403476172,-0.018521235364748208,2.170177325112837,-0.4412891455131701,-0.47207565476918373,-0.3072386501383218,0.15538053417273698,-0.0710634705265421,-0.04231901885545875,1.6116920617556938,1.3499386351978917,0.31776679392379287,0.07827245894463332,1.4690319771920601,0.1660483976751146,-0.5686004676872263,-0.48294781791342944,-0.25931643805453786,-0.4734066681481859,-0.9141243821539753,0.5944374698929307,-0.352590580490423,0.15278495507395293,0.3668314393269115,0.054034479112368465,0.8995721397943018,0.1562695061664249,-0.8718771323793203,0.9517203477050371,-0.7113498591896309,0.02911557984074143,0.13586339955784,1.0066598355525431,0.3104750215146438,-0.12141290319002698,-0.044428011968908186,0.3337818671098744,-0.2651025318544063,0.2340828006904389,-0.09114802152047709,0.706215730187328,-0.1460684707478287,-0.9515485215875383,0.8221499398118945,0.1899800772274755,0.25862007209922555,-0.4828559729530939,-0.2470388681554434,-0.12028325077370683,-0.5785236070882276,0.026153721063617092,0.16207623470458343,0.36063496846462234,-0.38704725747542895,-0.4623008969891329,-0.1924294800404801,0.5678388518180537,-0.9071163850711074,0.17201277150444794,0.373241407624178,0.5728956432950164,-0.4595223468880527,0.0922420657123522,0.5368287635073574,-0.031908055458678274,-1.447996191777778,-0.7012609526359609,0.11694945031214021,-0.18450842527720152,0.08881436422561788,-0.8690634793559431,0.6134291029017858,0.5265360106427768,0.9676879240093468,-0.318988084025039,0.5518652428049708,0.19029670040777602,-0.9308537637791483,0.8880522633371448,-0.1861545396957644,0.4156507887561429,-0.6071566630650485,-0.8996904466383648,0.20416856242516895,-0.8438592371405856,0.27643866401189415,-0.39361319303328335,-0.4435668705253605,0.37254795091102005,0.40972577738722465,0.10363715220989317,-0.0060315983226748035,-0.2965121249386174,-0.5504985053291699,-0.07790772088405233,-0.5353343725420173,-0.7222785708826741,-0.6528776477156031,-0.9184369164363171,0.4867422890420492,-0.7109585028867904,0.5903182621397693
-0.6772284553919363,0.1650527258227361,-0.819691483867824,-0.09816158039764322,-0.7902187656003368,0.0328725502539009,0.3709698907336645,0.8822531491835539,-0.8048415113065037,-0.9125528748316059,0.5560572410406102,0.7594774302622531,0.06563685688559613,0.06277963824966364,-0.28787849095487145,0.7982156848486525,-0.48720020584040435,0.21821186433482187,0.09774325678029294,0.7325289172701821,-0.14992626099020745,0.9111948324939141,-0.5528421110967028,-0.743183406452701,-0.7462260235994576,0.9482563160565118,-0.7112745104893854,-0.9817405861619479,-0.4016630960680396,-0.690364372244584,-0.5858427804957895,-0.21745447554709818,-0.05858765146459352,-0.7950397396110528,0.9510114202017979,-0.45802346517644343,0.04708770869732041,-0.37274566800196685,-0.0344072714196064,-0.29173239606764023,0.7122198144380336,0.5158503882514751,0.29875949975411553,0.035803956812856495,0.7923037544757295,-0.10112871476721107,-0.3681880717031647,-0.5667404522934288,0.6797993624185773,-0.4783521490340716,-0.6630064433884303,0.7099086504875048,0.2560653707221672,0.024375278930929056,0.5640899935597063,0.7318327774641844,-0.04303216051818426,-0.19086434453408785,0.7219518220909089,-0.5469466968873715,-0.3380240708075808,0.5205796840107723,0.13880583025798185,-0.4016456073774719,0.9109960390774131,1.241032536594482,1.076884757302274,-0.052857908179107446,0.04113624592992026,-0.1034767417304426,0.4307429180522259,1.0489469113082928,0.5917966213900628,-0.2771692719230671,0.45969475557818434,0.5704705194378977,0.03395679021173483,0.15662542435951055,0.40808750830228135,-0.5316891404895268,0.682647337277553,0.054703875702366664,-0.5051089517603868,0.6803494732192492,-0.4235653042077123,0.4322244512871358,0.566741435296178,0.34262395245222765,0.7884066303787297,-0.770626838183137,-0.26289812605456586,0.6396244434921408,1.2527786777991479,0.5354054434429041,0.14298302443168767,0.27288758912355976,-0.003113167314779901,0.5266695509753492,-0.025127919132492748,0.5313838947363262,0.09177017416343822,0.504748049226348,0.32636032341048654,0.9593511610391934,1.4148268821544623,-0.4438430821738641,0.6568289288233531,0.8753164085779582,1.1362607114209502,0.5028638426365634,-0.393109706218491,0.9632259887762475,0.6616414014692007,0.8487216724939474,0.9043096837895415,-0.4272429124784949,-0.12532358321066428,-0.24409966012074336,0.2801563084619327,-0.33290306874683073,0.5895890380284035,0.5621412006034109,1.1289886743756872,-0.11816281929938834,-0.005777242737664704,0.24341516579852376,0.6974140181861612,0.06685919859714778,0.12079624309213058,-0.12087553472997929,-0.3139460925710991,0.7069755457729419,-0.37769038154945983,-0.3767692496752514,0.17551440456157683,-0.23930258096351303,-0.2869912269219827,0.16811424595020807,-0.023282634813479943,-0.8090227187950572,0.28364850990846735,-0.2496030422706282,0.24865490093289863,-0.7112858027564031,0.04167478892168518,-0.04311469295302525,-0.24693743295613532,0.35055764443409226,0.019536424684122606,0.36435163555805533,0.6731233487641332,-0.7437545260414004,-0.6240131347744593,-0.37634583743206806,-0.1443157717411561,-0.09355283302545975,-1.0734380055354191,-1.2407983132223739,-0.3506903556864343,0.11437477827503865,-0.001233877333880508,0.19945481754169275,-0.622145565756635,0.3603646526460979,-0.9538313382105399,-0.5643755124907988,0.2909203490608599,-0.35722078211749064,0.4301768956594716,0.568867830997005,-0.007059013135545136,0.5528879880485034,-0.9325161390197932,-0.0013918400553483558,-0.1692867176754728,0.9868071054634274,-0.0510604856841238,-0.05635249164106714,-0.22898123631035291,0.975800411436268,-0.018171116281824322,-0.782241858276421,-0.9149663280078941,-0.769022714228036,0.4830174906102974,-0.7896657666836421,-0.15166526588801563,-1.271992321243814,-0.4158591301014951,0.2764078555078094,-1.2509845919857876,-0.5079123534571733,-1.1293048397508938,-0.10846471504238808,0.06226915542659818,0.1828166480477515,0.11996354279476878,0.28818285983480496,-0.8934577262412436,-0.9160512800012746,-0.9792817658530305,-0.49398568837994905,-0.4285352743016211,-0.4624425244823957,-0.5427765067493254,-0.7680440156530688,0.3342072971858357,0.00821886237136229,0.7407918995953113,-0.3460398481106969,0.3137911931028289,0.43801930220186314,-0.17349479017753067,0.2906929747203652,-0.5195935908876288,-0.09279568978947013,-0.19254779727372479,-0.2972184015653989,-1.9479987490920976,-0.6148117021381697,-0.7414627710183662,-0.5798191060218297,-0.8219896525582913,-0.13462103185599403,0.803751892397112,-0.3358867967463933,0.3491691187593917,0.5316601129817382,0.44692818385811584,-0.46248778875639657,0.12771301649006234,-1.0500629694388235,0.5548753932621323,-1.204577455582561,-0.6846691475052092,0.014582938061310101,-0.18232867673854275,-0.4863363785300233,1.0364661058009887,-0.5590853107191529,-0.4496771629553959,0.16049874013446072,-0.5673902425924067,-0.5373859262335009,-1.2888547685842207,-0.8522927182949643,-0.7884707887317004,-2.17371229196866,-1.963516218340946,-0.6009103098977948,-0.051492255171019,0.4227331634663511,0.8335908267094211,0.41455437780322146,-0.15821018521720603,-0.7291285656811177,0.2311557725063132,-0.3014595870771264,-0.09348616719990196,0.15555683697376796,-0.015696960392156182,-1.194707636960626,0.5569868920719955,-0.3971738753035645,-0.24969970306173833,-0.4609304306819231,-0.09719557347953808,-0.5052471095135673,-0.14010915323185338,-0.6029748784054872,-0.6606173425289221,-1.0312372586117255,-0.09983543625675742,0.411124816334126,0.16299403469971993,-1.7092046709057191,-3.2200132568603173,-2.019323212434682,-0.9339772856860693,-0.40695228244570103,0.5046580983436416,-0.4969192479587548,-0.05246498044023954,-0.5342425135132188,-1.445614429509865,-0.41800126469731624,-1.3199096256527656,-0.16587808992709266,0.24952303863759318,-1.340067066262957,-1.1267032755407758,-0.4247764978071178,-1.610490740656023,-0.3718464898294395,-0.9328559287881724,0.781565817804567,-1.131896588397992,-0.8838853823254833,-2.1105841493309745,-1.4284252654625231,-0.8841620436953428,-0.9354110804277559,-0.38211240292828896,-0.7389176375260347,-2.2362144513072195,-0.8709662502313079,-0.8555648038978847,0.41069093784070354,0.16079409965825484,0.8385448694973562,-0.9280407733058417,0.06604517256556648,-0.24880897223882822,-1.0420837827088876,-2.3155891927391807,-0.9839699558903872,-1.4946673051514416,-1.4652847284311776,-1.249797806663308,-1.659083496928521,-1.4377779519638683,-1.2591451779598197,0.07054047513190308,0.42381942471168427,0.4413091117329634,0.3194977874551758,0.2027854429920806,0.8269497996826252,-1.1264405985353996,0.46741963346281873,-0.06682646270186168,0.23154795438818193,1.177229637104424,-0.615733795651651,-0.9467910771173926,0.8438263872261687,-0.10230389298439294,0.8464242492981605,-0.3131305957596457,-0.8539675893880004,-1.4447329406085287,-1.004228053889012,-1.069030185200353,-1.612833521255051,-0.3626605160373433,-0.385361704254151,-2.0131346357174604,-1.727930364585708,0.10006791548182377,-0.21181622738207828,0.4732517169940342,0.7469577569406706,-0.2680685656780337,0.17253874111114825,0.19412650157335298,0.7742658843241313,0.3563486220055073,1.596862166156214,0.8020395923536083,1.3332969867511666,0.36370422978022315,-0.7575978298211344,-0.8698132206390626,0.1599058223146817,0.7687814848216854,0.21906887620924312,0.429635279367315,0.49030561368038966,-0.3766463015001796,-1.0846222382983426,-0.8678267399905502,-0.14256783636115902,-0.2953539371661049,-0.013526325474229479,-0.22739244242592194,0.29111580763919015,0.3811911292567289,0.3261667711957936,0.757919299739859,0.4767588256034607,0.45228530316140575,-0.1632427208076119,-0.785858960575174,-0.7719120850337605,0.15705284089769353,1.205236072671932,-0.19793157202284312,1.6806958580689249,0.47990669429337296,0.44233805152465855,0.5025486680839766,-1.0367622763475888,-0.1429540197100932,0.9678558927802398,-0.6331358191570186,0.5737813601995743,-0.24201568929025388,-0.4461126773326516,1.1435587199348698,0.7187102554353043,-0.06221683197991581,-0.1415426930272549,0.7231721504137723,-0.7791478739660389,0.7387773838847624,1.1286491441017403,0.5611503112630667,-0.09979778744740815,-0.4782861307191661,-0.15752226831403085,-0.0855496262470822,0.30933260867583434,0.5690676846261236,-0.03865244025162152,0.9226469081864619,-0.23174457091294873,-0.03230702682527866,-0.9938919411991751,-0.5462053739023942,0.5903559278640726,-0.725918224427371,-0.26358014180084244,0.07337369069735973,-0.3262800485049578,0.810742736767425,-0.06897501784054014,0.2885640050657131,1.1270354408778982,0.3426829143007578,0.3453870166884098,0.1518712464390513,0.8538832733483164,-0.7166434090078765,0.5436676412305266,0.034115112892650304,0.5053593262710576,0.5127852381747063,0.35151796619063264,-1.4404984255517037,0.4684256820649982,-0.5909260700256721,0.28942662231315175,0.16108771376914913,0.6176099012160455,-0.41905914582032877,0.5401222524081322,-0.766935368003957,-0.5044077760238166,0.008097098201869268,0.5283175943493148,0.35294101008570006,-0.010561700832151532,-0.1599013451122344,0.7369058473961783,1.2268777751909794,0.8218453150835536,-0.05046226255611409,0.5264902796305821,0.15679132066801693,0.520995425785717,0.42297806047882835,1.6643779677577049,0.891959107239271,0.13264243752096574,0.08832445701884811,-0.18303167438732762,0.581518658069576,-0.19331122204728765,-0.39092780742499333,0.5247529316101737,-0.4481675692916365,-0.4106156475515937,-0.41128946873240757,0.7804516879632244,0.5165517233424051,-0.6553010249513478,-0.3961803694954995,0.8122475121425697,-0.2844037031062804,0.9156956847341826,-0.2570592044300721,-0.8188653087236606,0.6107271313119423,-0.2014591735843828,-0.6049605992417649,0.32256482807026565,-0.16429561291102918,0.8407793677048754,1.2378042755582987,0.10880310419021749,1.140889813890582,-0.010045720555921822,-1.031841632986566,-0.31052788960180255,0.03927872138725,-0.6005959256894763,0.6864950933882064,-0.09270398516226332,0.5784122778051816,-0.6962175210685236,0.6169866928716918,0.98356657315645,0.9567651075119488,0.5252671268894741,-0.10008686089012185,0.47807548398611505,-0.3123342847709003,0.47528088214760233,0.2516221019083429,0.5808423155148543,-0.9327486114792956,-0.3468347131717338,0.35618933688989274,0.23007287058248418,0.5250474721970124,0.399303959761815,0.27712538025157013,1.1871562128511657,0.9970121396929074,0.19303466910557504,-0.24281759609656123,0.3123725046735212,0.7338323201371666,0.7845731677632559,-0.12111788813332652,0.2531685047443655,0.020372193863263655,0.16331522858412714,1.1692565534688701,1.1727824716804853,-0.22017557832126933,-0.19239733250872287,-0.5189840530405286,0.04046615004787537,-0.5425658259857679,-0.7305272367423499,0.035121202963704815,-0.01766887114081162,-1.449575406045147,0.6844896420523466,-0.4287140273444397,0.30656598691407083,-0.4724851569711885,1.1032607105433463,0.6302297783535765,0.7144697251173094,-0.08824901295871536,0.857982228592964,0.5111945489817106,-0.032643962613843024,-0.1557630707084007,0.5889054123054421,-0.10898686096665551,0.9016104102955493,-0.4304369088277272,0.6810777054619235,0.9925262437431277,0.1828229956588625,-0.8219960870056051,1.0290120419656745,-0.8786300520665131,-1.0956129978736429,-0.8997651789562876,-1.2065050689159011,0.8629925824617899,-1.049399245202602,-0.598638967560668,-0.2003710935498066,0.11654349100446344,0.7006282798783176,-0.5937080415589471,1.5419084461452377,0.9532400678013958,0.6225645665151983,0.9076713710664591,0.5300347472516147,0.19622567718657025,0.6596211854092876,-0.6467138084997528,-0.31992373034034455,0.2979735197394947,-0.13978885361382684,-0.4776436641374015,-0.3161977251809184,-1.0127583314574329,-0.42863176065272707,0.7978774380539099,0.6831754101189329,-0.6970586044536493,0.44656956888447824,0.5618921487692604,-0.1799169549702719,-1.190678045391834,-0.7379182943160861,-1.412831412892143,0.8399839011449793,-0.5237919482446617,0.9353132108818139,1.1691607184039936,-0.17304977132615912,0.8813261436576026,0.46642460376776634,0.8737753079648651,0.7971060264844199,-0.4148343810137381,0.10422778992978249,0.7547212365926312,-0.3514402536039241,0.4304163632576969,-0.13089053747154933,0.256499532684444,0.41966223073659875,-0.7579954410538301,0.2472275884823909,0.9207007344689314,-0.41847332009097227,0.8853974322352242,0.042164194736289635,-0.38205230984735417,0.5377059725589091,0.5444880326315436,0.4488905720965522,-1.0800715529421017,-0.626193713564704,-0.031137250180862382,0.13348725959293517,-0.28930055820976336,-0.7350525431196868,-0.7935421071256082,-0.7477906252755016,-0.47520033946657425,-0.11485212017751584,-0.38535362455824923,-0.27395635844066296,-0.66166327302504,0.5219480105453568,-0.610843939831819,-0.7595715254842399,-1.587890647956984,0.08198437948455047,-0.20621324472784106,0.25193801097964535,-0.9053884317423816,0.3946538877713166,-0.8128797793068803,0.8569029110940488,0.01145741997273989,-1.112905987133023,-0.31344507422689294,0.9274314473144983,0.7579455961552407,0.05168078764940117,-0.7869080911847294,-0.6197233230272197,-0.9531706453559207,-1.3118474290973972,-0.6795045689714786,-0.8707993616480191,-1.848411353249734,-0.5189411786792925,-0.1538357485639332,-0.004855611847987521,-0.8626228624240175,-0.8534516719902022,-0.12870281910767928,-0.17398251804848353,-1.5107015796821786,-1.3836851605748617,0.6549820669931848,0.24334447728842273,-0.2075242829530061,-0.9725784321539275,0.10512098799866787,-0.014460171621025752,0.2677317113573593,-1.0000550652833016,0.4218418045202331,-0.3060418018512162,0.5795466074505577,0.32433179495606174,-0.3491589489266598,0.1770654760019661,-0.3320101272355137,-0.08090015456344506,0.47506135285697815,-0.04943235689564929,-0.08644629093106704,0.3582315233831956,0.17462210375718581,0.4190854994582624,-0.7769976719576474,-0.04366208754250815,-0.08892163882417334,-0.21782283012819428,0.39094610076263087,0.5384144775615537,0.9959548758657482,-0.6202490959186062,0.22533211601819966,-0.5453985742161698,0.4586276249437795,-0.42236158988461336,-0.6540207394876516,0.4939564315260288,0.08803699662221462,0.017435503542977286,-0.6480697118279415,0.7404151455014215,0.16249039229350834,0.16384749294335837,-0.5842702426015121,-1.7262143416923514,0.14403946468911868,-1.060162731413711,-1.4098978523695265,0.17857535416070447,-0.10729125270207472,-0.8356561509996504,-0.10523134558786029,-0.8418890316996654,-0.631540265750191,0.5495625714973148,0.31613443709633426,0.34961715404906996,-0.7976141107799911,-0.12155618685094727,-0.8605962326328076,0.3112549075858957,-0.514536213314974,-0.3644156844914117,-0.3233915530745324,0.5282215516980742,-0.8098355573952379,0.3742259395769997,-0.2651351007636766,-0.753774529828779,0.513768721691205,-0.2220981165166553,-0.4138283914983135,-0.051140932732015476,-0.6788997106987488,-0.37538367797578115,0.3827573682228355,-0.39958609364900083,-0.6270520741994897,0.09516471798229757,-0.15599228590069028,0.5096306032316911,0.4223189166474312,-0.9357846613990104,0.8747888042749892,0.6871602950234968,-0.8503825776678521,-0.7329529050903172,-0.380950077988238,0.9135155132434962,0.35152227502914046,-0.06905833911293224,0.33779228412406903,-0.9599321973821469,-0.03445647993875812,-0.9492596522027955,0.5607122910710132,-0.36250278912206196,0.5660117352002028,-0.8214335335642888,-0.9348765828225368,0.06684717072402303,-0.9416452713215857,-0.04417652370609258,-0.4992541740117099,0.043689321014964505,-1.0001322610310044,-0.015123842096570344,-0.3497448753310692,-0.8281192124611482,-0.6317986378435768,0.8562973218942912,-0.08166845299876667,-0.05948700573562527,0.8730055847359643,-0.689664052749769,0.2979953682889229,-0.21631640775112237
-0.3468914671533667,0.8744982382680411,-0.12794135197424827,0.41461162257098216,0.2316857864661379,0.8998421459597241,0.28689431004350063,0.3770503801724874,0.994801778374405,0.015482760814688135,0.4043711040236826,-0.8709084402495255,0.14100055730882316,-0.5785920687056484,-0.1065851427667349,0.20079143173129796,-0.010581073553885378,-0.22898588864097835,-0.9236002608416296,-0.9847981876926661,-0.9801764539064157,-0.027292336492429126,0.04422437200948237,-0.1860357707044633,-0.7162690233299296,-0.5277258034484915,0.07306040624354715,-0.205437587019478,-0.8015471453668153,0.3719160984770078,0.7205526137203409,-0.954868600229386,0.6272147319568143,0.5990782150009624,0.6326987282866464,0.16579879410090234,0.07847403472453687,-0.727338291093273,1.088947289696107,-0.4260248711729428,0.17540518385905773,-0.12674432190369347,0.023206730563565692,0.8335628424069127,-0.32584676807164215,-0.11514953473772879,0.21463183312230796,-1.0028695627968736,-0.30806993936328353,-0.2457325581533584,0.1603834879295033,0.1389353494679177,-0.19905042960684294,-0.45555417826556277,0.5787449799240885,0.7764814549898174,-0.15115137862270456,-0.41832551255519546,0.26575306126740766,-0.7452620874391596,0.4310120551519746,0.7879300309265566,-0.8293813405108027,0.8580464307628716,0.8744232268637101,0.5507417315065298,-0.14675925460209968,1.2183310768267674,0.6018546801253808,1.8140434697939734,-0.43966302984612,-0.962712396089501,0.8207275257977067,0.9272673469050149,0.7948427865366765,-0.46189925183396635,-0.5560587140979342,-0.8160950403996737,-0.7725838791149063,-0.2839437908447849,0.427194304107986,-0.7429013805555358,-0.7336555928607262,0.8464662157730554,-0.11848685866011888,-0.935742349384977,0.540342214285786,0.4751775555802001,-0.9394248506368604,-0.202011623788036,0.0972142417248131,-0.5539923859882417,-0.05474478855366088,1.4282556196410343,0.2690972623979031,1.421707810999251,-0.8475215928468594,1.5527283303291612,0.9857154846345467,-1.0588272539922443,-0.8814682397747088,0.018880212207230657,0.04769367440075341,-0.548724398033299,-0.7380252796743215,-0.10479317015257933,-1.1663133090862012,0.12108049536918414,-0.16375725908816258,0.5163697749051206,0.9988093749538535,-0.17746893784189077,0.2054089401724224,0.07131481204461677,-0.058512078173156526,-0.8189459429216236,0.744234081404632,-0.8397364319442171,-0.1865445705655729,-0.02149567955451269,0.6686168124743596,-0.030420536027578732,0.2497925630514512,0.22070812408228885,-0.9528568094932843,1.5899212433740746,-0.7919461869526493,-0.8034263032292359,0.7475604879118939,-0.8955970971893265,-0.3567113343733844,-0.061344043428062205,-0.39039063594301154,-0.5225172689219335,1.1870272781568194,0.02134418142905996,-1.1826652702268767,-0.11931563568842739,-0.8430328011723662,-0.09666608198987103,-0.18209558157465056,-0.3292884345027958,-0.2475869326470306,-0.16234985896374837,0.2368935650925375,0.17005771884584533,-0.48897325764361027,-0.03919225440268416,-0.3750392040188564,0.37003252609531934,-0.06614237685377229,-0.7773285417101252,-0.11185393242586407,0.5826389332044888,0.40634748684783684,0.32766161397329596,-0.047374229614326545,1.083035997520653,0.4736021909463852,0.04648300663854161,-0.37575031623640703,-0.843113230683984,-0.9318725444785514,-0.7732688276483786,-0.9016942126815245,-0.21999073810593225,0.36269061242491346,0.07995305796236311,-0.8657077485838864,-0.9615798344830635,-0.12522998720876866,-0.9219532847006152,-0.3940302326612283,-0.7520961678845647,-0.9614113996286138,-0.4313761910902021,-0.9854580183776561,-0.8481991379555188,-0.6390955837170156,-0.5987924071515304,-0.09073486866159448,-0.44300619031388283,0.19720038923646427,0.24976042611842025,0.37891555282032924,-0.5042296945710864,0.0028742374606435814,-0.40092516150854474,-0.26670452351337737,0.7361342362652961,-0.39737503442129923,-0.554299514418135,-1.732598116292763,-1.4635065094393225,0.18409101753441826,0.423137501129118,0.2537076062704135,-0.4298551997060548,0.15028385414500012,0.10192677209220845,0.3133385142435883,-0.6853501582119942,1.220415687689946,0.4061185401749088,-0.3107571857187338,0.3264841045292809,-0.460075651938663,-0.6676053061689311,0.15654221513045544,-0.31540552347519096,-0.0598846610378181,-0.7506929228645826,-0.6645145667067509,0.09622360116249094,0.17336738403853397,0.11152008891590515,-0.012649516587073195,-0.5920274228542155,-0.6975188489120493,-1.911919917316993,-2.6350795293605564,-2.81971337957796,-0.579999044014996,0.8678708424114252,-0.1524139734114925,-0.5006985228739279,-0.5652212202776619,0.44657996897925295,-1.0916717679189671,-0.6211185406482704,-0.1966432008995349,-1.3145353364375867,-0.7784232046886612,-0.608715428240988,-0.5569140792637863,0.4171163459269399,-0.7756845360349249,0.13977269399365846,-0.3936280915012583,0.6909339964145383,0.33325821987382875,-0.026857437175329388,-0.5430612476781788,-0.7681453126928739,-0.42397943398652066,-0.2340536498831575,-0.8370773565439441,0.6134632011104868,-2.6050211962253935,-2.600366516739022,-0.08506781305275816,0.5799234515975499,0.13994227911771465,0.21146581284346966,-0.883776513233859,1.0141199994678263,-0.36869795980032866,-0.8131847736951952,-1.0321193913214393,-0.7450397337129155,-0.4731055335048762,-0.6456971997006183,0.49875692395990223,-0.6278739592586484,0.5178541705012448,0.31650027099921973,0.5523666351315111,0.4888624308441056,-0.49211117770995444,-1.2450426774687875,0.8842072240610783,0.24626312667553238,0.19723166952838475,-0.47279379252391673,-0.2744408062076705,0.4029428613534481,-1.4495472852885602,-2.678376748562806,-0.3028300717718903,-0.36388579188352876,0.5205594762711776,-0.48568217694388593,-0.03230086715299845,0.6506844932575586,-1.2966578486035711,0.5389471420813088,-0.09323424425958719,-0.20086661360014146,-0.5239165260284212,-0.6139816548337501,-1.446143379144797,-1.4384143867973664,-0.03510326368986223,-0.7384704939582529,-0.8917186826275648,1.091171378262196,0.5346937086497836,0.9696976060766509,-1.1436018408238708,-0.505905036706468,-0.31336398072184424,-0.42291684803269386,-1.1342511389088588,-0.3795403237505107,-1.8624162266731612,-1.5509560806997646,-0.026501215701774924,-0.34835056665453823,0.36233723697635584,-0.18030761993375258,-0.2758550292709119,0.7868969245302746,-0.7026208874285774,-0.015573326954717083,-0.36157735055348245,-1.0936892347598786,0.015427607904614737,-0.7288591966662314,-0.3635051774815115,-0.1683428676335534,-1.1329588804086417,-1.4179232556570456,-1.788253901887589,-1.7073275970227169,-0.6314878030906612,-1.1636591986497529,0.23226983612016777,0.9820381404434078,0.45378019730008207,0.6683947275053548,-0.5557261595604902,-0.8626649961420626,-0.80476615342652,-2.0704575202413316,-1.7225044865249575,0.7807166066112983,-0.8286486216317391,-0.3333325836365574,-0.28460516179726947,-1.108843529801063,-1.216917394423062,-1.168537164259517,0.1610015395670537,-0.05120492354455706,0.24165918349502186,-1.0312293290166947,-0.7663257111774442,-1.2398383732603455,0.36182802333078945,-1.124187967067468,-2.5150758420929114,-0.5865622292058689,-0.21223635023449286,0.3885437469482735,0.06477806543550778,0.3848807556553236,-0.936377258337642,0.7864348171620968,1.6340882676628001,0.4540562600012722,0.657252053615252,-2.0299037150049553,-1.8840324205848216,-0.727043958972079,0.6015298267944482,-0.8632957539788814,-0.19559341658417234,0.3546469895860214,0.04309901528879154,-0.2123071383030787,-0.70422200988026,-1.0611863374803088,-0.9447392084381812,-0.20989198508258625,0.2715792368253296,-0.385034821535701,-1.9312107990401297,-0.43394512027173726,-0.4691131745521274,-1.5615532096595672,-0.18122855319100845,-0.8339494085250215,-1.4199788137338463,-0.4020508459566121,-0.9894811795631338,0.4160245461660898,0.3610286325230079,2.4469901330233483,1.473193819209637,-0.7065744705915077,-0.3699293615980137,0.167846956791954,0.6929756141099888,0.3942347342080856,0.2800516052713292,0.6138650310782034,-0.09121030698937271,0.1345430671947954,0.30180432636056664,-0.05287275876488533,0.7434038829110838,1.163150338649752,-0.4008462766305302,0.8493340502932117,-1.1575558677627873,-0.5452378676797348,-1.568106072504033,-0.6900788940317731,-1.4872584616197801,-0.5658421322414603,0.3182055066941579,-1.3430280586937364,-0.03507131917186798,0.12713672320086497,0.03459335971629195,1.6237365099493126,1.116782838179159,-0.32626276811195193,0.9243761989002651,0.5064067710307006,-0.40685211140718025,-0.5391662880131818,0.039232932530468806,0.542231983329934,1.389948846336225,1.6488399778166518,1.9787693781057836,2.285098925338871,0.8706625312584201,1.1462437043398146,0.7279213382230799,0.3073703274025607,-0.4905273825006193,0.11418456971007687,-0.039652275196028944,-0.8268507167749525,-0.47296157298533253,-0.3009518152401064,-0.5629588265797084,-1.3345202612224367,0.2903372593682629,-0.44364021122513286,-0.4431248000070686,-0.27638361492804064,1.0221296374061721,2.0444392384177417,-0.5452189594440158,0.7491298357354881,0.1494962022229388,0.5830833353808331,0.6169374653875279,-0.6382415290241529,1.3459930075324658,0.8130598890239124,1.1682348985491562,1.4004857099845203,0.43493665010591337,0.5641490798466655,0.7455145271916688,0.7025253039167679,-0.7217441736987638,0.20839332925023835,-0.9461315221639374,-1.3566852536335545,0.2340874656971005,-0.0261888972798658,0.8063104638053278,1.420548380446684,0.08898275719870266,1.115113115996584,0.9017804881655999,-1.0301227001787372,0.5953923334012222,0.7054218275175851,0.9501522727230127,0.3155014065877926,0.06546204191921023,0.7915049831409849,0.9159134839175366,-0.918470570137206,0.04101837832835425,0.36720595875252515,0.675244969351298,-0.002937701532142672,1.813900773605541,1.2285568821590376,1.9136094363282428,0.37525465635977234,-0.7743403520178871,-0.5989666793594657,0.73920173892053,0.24647473994805516,0.8346641832949877,-0.30013631618361103,0.42345453537001587,0.2657763354726428,0.35011997548999013,-0.5998689277750916,0.5160085233692415,0.6648077286046102,0.4077061497358544,2.617008712780216,1.3974126315220754,0.853567934122429,0.805999517555524,-0.3702754902535506,-0.8073026840417677,0.8235667728939475,-0.9482117857175967,1.0612030601732498,0.21119594201840036,0.01459550756695483,0.6632803619459295,0.8248929269345134,2.446923113420789,0.3594017182879377,2.0334059431103975,-0.7100861628057942,0.063387513168009,0.49716104932308103,0.48107982080566325,0.1706781678802258,1.1663853549750518,-0.046280665116083294,0.04942744628264705,0.1693824610321725,1.2976168914406971,1.2138932455909466,0.6147917103602193,1.0211283617226974,0.7182040220705498,-0.5863364813449826,0.12420135345450925,-0.27492656400945914,0.34557267463440444,-0.6440384135688488,0.38562536584528184,0.009291450343938962,0.4499166649549572,0.7123916710723436,0.13427729896579657,-0.927875265864725,0.6098349765548745,2.621314874550048,0.6770437124378148,0.5902850187323128,1.1222801877845217,0.46313509783571766,0.061527626074547336,0.54743868294891,0.004909921266219733,1.0111753940488384,-0.13286994153104148,-0.01695848325931522,-0.18181243626133858,0.27733856775837895,1.36005139053575,0.26935837478122765,-0.8442276539359652,-0.9323095893800849,-0.06289355987782841,0.8643664201605646,0.2583810677182842,0.6209271400358156,0.09350866984747011,0.06810476720215297,-0.3408711966673068,0.7285031535054389,-0.021119813025645612,2.3334955815577376,0.955672888346369,0.9506118587022242,-0.4353913518495489,0.6847737418680129,1.0394412351763738,0.5271432712860371,0.9092980210817658,-0.6952224180970019,1.1428040225780398,0.683931136744658,0.9309572871317418,0.43938657113780266,0.14782634224958158,1.3241486907117055,1.4447870586571625,0.9647669545572746,-0.5851414849724474,0.9067839673540122,-0.6395383969452888,0.8445524939159463,-0.1396559771703348,0.6029848416877022,0.6135960650934528,0.5516654154171571,0.8204236002807435,0.2786780468358016,-0.4888147918467104,-0.31097466563580944,0.20052742258995987,0.5867800266519395,0.3819363711258595,-0.4537351426118089,-0.28757034028115463,0.5155811395312062,0.935514528258773,0.35414647630694074,0.7291182079401759,0.6942049825792618,0.41543276669427126,0.20729761229123955,0.9222303826222871,0.7773748689295371,0.8057194487641589,-0.0353309725380035,-0.1953434289868997,-0.2953838986555336,-0.07490009213080188,0.1944936328036846,0.03667716336558052,0.3523219220070036,-0.26601933493619934,-0.5985710271084499,0.6620490213400307,-0.8881209640353739,0.445449973657743,0.9778611290509767,-0.3293220796441294,1.0666045479210249,0.8063950685644885,0.19197297728404356,-1.3852281806198328,0.37188161190696567,-0.07375587550818113,0.3219089104308496,0.674369865608181,0.7341633629165001,0.3839846746313892,1.2645053149461425,0.6973429976827108,1.2739838387122373,1.6986262900349969,1.0920078112738014,-0.7209806211260706,-0.35543142241693765,0.45414578263230077,-0.1444084202644476,-0.48006146392621174,-0.25845313671281234,-0.7008468298687407,1.056129757268323,0.8695467194037774,0.7770109148956043,0.9225583032430476,0.5267992389089561,0.3620949957943569,1.1126814633590958,-0.1405192073980244,-0.13441137571452388,0.3083285192844499,-1.2179683808596171,-1.1153593301476599,-2.649759140163711E-4,0.3907805997405736,0.6898273694042435,0.8059530012541414,1.0891660609987603,0.9065994053699071,0.8361037156709156,-0.027779862966700257,0.3400730516432316,0.39494085075446866,-0.11325527183269513,0.6870503263537457,0.3959242646920986,-0.33507382592632023,-0.966343511177591,-1.2096720029814712,-1.217766217647265,-0.32616004515298896,-0.6178926182278014,-0.22519795507141485,0.45215154256811574,-1.0710396995452511,-0.5439271514496483,1.1985379226360158,-0.3972102642531212,0.1352863722307045,-0.2851405315067516,-1.2091859830677256,-1.4395632318326592,-0.5239027805140455,-1.1943486228435507,0.9658428756713616,0.6095803903782783,-0.752075393604068,0.6779816097551328,0.19445120289188347,0.6908801593367959,0.211105374231365,-0.6815273525909191,-0.4534215643198394,0.6029043346963376,-0.3198827385809782,0.19710876785580064,-0.9435900591283735,-0.8390843633659761,-1.4074605543563272,-1.1885405631532657,-0.9591841150933447,-2.5172203221598064,-1.674129469885868,-2.708665154803698,-2.4589242378374214,-2.169934835669642,-1.836631914954927,-1.9648091214691172,-1.4786456692156038,-1.627379535271251,-0.6351278247528842,-1.1371588448332317,-1.6915903010844184,-0.8134719133546331,-0.822132367037617,-0.37118967543055487,-0.5024800570711991,0.9667104183405536,0.2699646980305887,-0.9351196417139123,-0.06146372791288712,-0.08198551150446987,-0.9159300828776471,0.7699433715367564,0.34463382892113004,0.5409538201011638,-0.9281240115722927,-1.32063319011518,-1.4162393105116933,-1.2455906733268771,0.3089971683962204,-0.5727601193664531,-0.7879125520686376,-0.12987922952405753,-0.10584180739747508,-0.10440192930120591,-1.1831795858291096,0.4919187690484658,-1.0927247054623745,-0.21829532212259886,0.5937001622404462,0.4509565675245948,-0.3047388928617905,-0.002737511327022813,-0.5449232787297967,0.28435044716666347,-0.7960324745592822,0.25335332106109787,-0.8442418287419824,0.17728863559897912,0.16941694253825967,0.9135594678938503,0.34628611185937574,0.11741392944543165,0.6079417794454317,0.4279473452746723,0.17827733263638246,-0.9254002349257524,-0.4264542716445335,-0.7122682405242247,0.41303865231076864,0.7134271255140868,-0.8527025517732536,-0.5801589072398493,0.8560717296829519,-0.6440746133349952,-0.22607989170234527,0.14981777024079776,0.47942114728847424,0.4963109501624707,-0.08015362045018004,0.30943674390851494,0.2801516257302825,0.2108443628916301,-0.7876463665786835,-0.8707719498389159
0.32694474358834835,-0.10931763341230227,0.6511565389806375,-0.4183700151348302,-0.9772216861440199,-0.3741386161257516,-0.16246464804213634,0.32460894733858625,0.9668369498940081,0.870203740234265,-0.2872932383025777,0.8879071122989184,-0.7158859778993885,0.9548257579458147,0.1557522099998158,-0.7613676111022696,0.5505894288196342,0.5266149661870312,0.32193482949613683,-0.7309037789863391,0.755440887350233,0.7865249291538865,-0.2700899095633156,0.0915452461293258,0.6366236861491616,0.6146241523591667,-0.7641649298326729,-0.08891095376615032,-0.0923898720332268,0.7406904473350617,0.6202631980104591,0.9766399510157748,0.387367855123825,-0.9957675587684285,-0.5890392623306427,0.6456659831157461,-0.14975704973581733,-0.555169636988699,-0.19747138861864286,0.9931009289318925,-0.46774581544506266,0.4640851560192845,0.9727754642516135,-0.5860332056841665,0.7281133226913453,-0.29820066084202806,-0.8928854830961486,-0.05094242717616334,-0.6587421948915296,-0.8777595691145154,0.3686250428456184,0.4659873636995061,-0.9749700982696123,0.3219503906061125,-0.28834607475667173,-0.24744909920616398,0.9545313852083197,-0.8846628192872925,0.08731806207109223,-0.17156699436267378,0.7652262979097469,0.6015782672681115,0.7184025421492778,-0.9466171698178435,-0.2709605968574731,-1.1280879172473688,-0.5348788524271632,0.5478172310315454,-0.17891116573809193,-0.18372584020797142,-0.28794140563899545,-0.8967211594122736,0.11503918274247965,-0.6258258813602013,-0.4681168687573624,0.5109138701418477,0.2458686863526554,-0.5023741633223323,-0.5993724404203918,0.9350428207072129,0.8331916494902276,-0.07374753738698983,-0.4861713396932157,-0.1565762595119926,-0.14326484428987163,-0.6870711363694539,-0.22674839259715088,-0.15307221146637243,0.11818032381598588,0.8346068413269516,0.4074759980762486,-0.10609032554150903,-0.3453981437184915,-1.0489258531141386,-0.6972023977159598,-0.35261733262110906,0.9983886810738369,-0.5297170372890051,-0.38280350096436044,-0.6339546081247288,0.013884214042609647,-0.709115010944845,-0.5356978440760369,0.19685895043176488,0.6652713351985556,-0.209412230246094,0.030304026094458095,-0.2680290719786508,-0.010917141728828057,-0.9478765463970538,0.09981152871521065,0.036675572539495604,-0.6848027736114968,-0.4342750650460767,0.3171378027145149,-0.2786883923141917,-0.6423713064507857,-0.44707295784620976,0.3394258868244114,-0.8005844003143702,-0.06655524281827672,0.9950096196995009,-0.19425244045628806,0.15686239495360554,0.29922697111892216,0.404021039926404,-0.04337918313716315,0.5444013828048461,0.1250436512058565,0.21123042215656573,0.5866818110262273,0.14662074396909752,-0.8951391103492313,-0.5658626137541889,-0.259586772542307,1.0079565088093823,0.8073475935482461,0.06807000308899504,0.21191000667453186,-0.5713806786702303,0.6700700017716299,-0.7730521643354831,-0.21577083618363668,0.7015092541237224,-0.18552753651139287,-1.1815450603823936,1.0416038950789752,0.04068115945711714,0.18244991100533786,-0.09845526384376829,0.49540816831228857,0.05992329779119017,0.2185720732349139,0.14304277858327055,-0.6032033998711128,-0.18749345136286383,0.4150858279823713,0.46075143111224015,-0.32550517786005245,0.021613706188902838,1.071219730514753,-0.47236195283201715,0.20682583932378673,-0.37710251568583764,1.2658476078500978,0.7237532866477568,-0.8742386878357088,0.033199161764147694,0.16839564282317654,-0.6496771752980125,0.1736729246545288,-0.2285071699353579,0.7235989333084649,-0.7599394802311058,0.18328544317508652,0.8610447726822565,-0.5509949388200773,0.015535369332727313,1.0025405869780386,0.31371982108677393,0.1494410618256617,1.333158209553521,0.22491434735469842,-0.07872110237996884,-0.02543212749515463,0.11028644634454653,0.20987913319522897,-0.17824630868366195,0.25500202617164647,0.9796924250908795,0.014303588344678195,0.27189967668067383,1.0996656744765647,0.4904334504690476,0.8742202075341963,-0.7941679701420129,0.44691187026884865,-0.5389456142396116,-0.8166261188186423,-0.9851717359454631,-0.5959451892228562,-0.09307000097929034,0.5494905172002374,0.21525050890541975,-0.14990994713009276,0.2119366517232936,-0.3647437726747927,0.6753154437691712,0.21075819322210626,-0.11980517588632685,0.37787348317536334,-0.4896548409761709,0.8625816531178431,-0.031702434859092195,0.6458275402973048,-0.13253665842991427,0.8639825882937621,0.2686426176879403,0.13363199443235274,-0.025803143488645888,0.7788044135136787,1.1150007781520757,0.4146487904880001,0.3499945310428362,0.37365648174120514,0.5610206772122928,-0.2060180392940168,-0.6284159594166315,-0.6555588330938845,-0.19116165014301795,-0.20259433600471805,-0.9417396313242667,-0.8570760060932656,0.12869285551402565,-0.004442414107030675,0.5298923955715467,0.35346618701344534,0.3014186275776077,0.24166944800266454,0.39589799034853146,0.45552841547912676,-0.2109805678831581,0.33125049866497386,-0.3469492820919668,-0.4279512326190943,-1.004723147715112,0.17109803726096204,0.5855737524103214,1.0767974068110124,0.27100586660612563,1.1371110142746912,-0.6916135470986123,-0.5513537606524597,0.5119879534329589,0.36409122627341756,-0.8135990276425306,-0.9988696560516918,-1.6083443690684578,1.055090079073213,-0.9981817132247636,0.6126078275308955,-0.7910946631584869,0.37906631876440133,0.11140590152871802,-0.194731234738217,0.4916348053664915,0.5409720794406911,-0.1062396016111991,-0.05659882946629132,0.41279671174187244,0.25217593722314624,0.5275373615617768,-0.10350819052635923,0.9416385570120488,0.4940192899462023,-0.8772017276838081,2.136538349088305,1.298860107906715,-0.7485337553044988,-0.009511903629735445,-0.7912193056105941,0.14721499583923578,0.2990565849634315,0.7905475911603186,0.7802251269447028,0.19589884717725153,-0.2366207234995355,-0.08433518588147666,0.6555826308230545,0.4462117398964292,-1.0166327163222932,-0.8923417036833647,-0.6828605078617317,0.4082664566847041,-0.8783389804791267,-0.6473306346181946,-0.17988036067496896,-0.9177539136655215,-0.6789275956040816,-0.08235512966486055,0.45570206692255094,0.5255996938987626,-0.3544827086124116,-0.15314576467609828,0.3932352893818683,0.8086350506377078,0.8282683334551937,0.3184720533488483,-0.488519369011934,0.3315747065014394,-0.014978829995302282,-0.3519455129956603,-0.9484671200575077,-0.2508134450161857,-0.17502936044241024,0.020321580971267957,-0.41365343070530874,-0.9157612927349879,0.01390056159789689,0.8328220798346013,-0.025400331404652175,1.0806270345677516,-0.20594625219446513,-0.023590916571240537,-0.4715974554523861,0.3013311797542039,0.015930057052379373,-0.32116957364186366,-0.7993739646315914,-1.220527456090787,-0.6968518074712742,-0.8520731325985917,0.8013184072990381,0.039685455086533476,0.048944406607450384,0.3611541342936964,0.196566004869811,0.019285968177968828,-0.8991820453509108,-1.6608721140928453,0.6170065040903384,-0.8734523416188822,-0.4208205046132118,0.6364641182662466,-0.3537552967099623,-0.1636766783165909,1.0216302855227397,-0.05295106347423937,-0.11585592798170932,-0.42394029241882153,-0.12930602990554518,-0.8759872116560244,-0.248365473359915,-0.2890365072141704,-0.6159844265604388,-0.8773583866813175,-0.26431412674416205,-2.4275985491025183,-0.7477482005329195,0.017778281338942863,-0.05047247291482606,0.5224476615405291,0.3621143237961813,-0.30282991365407763,0.41835828264103686,-0.6168114688721118,-0.8093884750200888,0.1644371523499195,-0.8567311491574636,0.022122001941873564,-0.05542058498594106,0.01657854813265599,-0.8367542720683743,0.6524267135702873,0.7974557996928147,-0.4639927082259922,0.43382402084227856,0.4467159120161807,0.1600727126383981,-0.931753416574256,-0.3426077362874598,-1.1520484057575728,-0.8321727299311464,-0.6661502255064877,-0.2728969334231027,0.3332403949572009,0.09240972432602974,-0.10618560465532469,-0.5621073889334905,0.8061924351196924,0.1275312534221964,-0.03176401038078914,0.9604558287488654,-0.8055995474764069,-0.9641611096180936,-0.4041730535482184,-0.2516271738838999,-0.08476401010006236,-1.1471906463452484,1.115920177657051,0.9956920297006501,-0.0865089740424389,0.1658397853657446,-0.6801992098601045,-0.46624362541642195,-0.0408711618667273,-0.6285778774836887,-0.06094113635332565,-0.5185158886740066,-0.7027412563666573,-0.48098213177906135,-0.5697997898601084,-0.04542889558915963,0.1612722739318661,0.5427307403719887,-0.9923437027037357,-0.5329636170712609,0.12532461834867958,-0.2141134437239485,0.00624866289003964,0.9939369475648285,-0.6247193136672236,-0.0423556145837406,0.6722176887900493,0.578691454698091,0.28063446426910843,0.0028753794571097797,0.28422155949101,-0.37622467506197904,-0.3428825914504178,0.4602352624345751,-0.4381259427691386,-0.2966228446242298,-0.5554445554821336,-0.6073998183431764,-0.418430291010877,-1.3726748846919135,-1.2302443317984455,-0.8521988857956129,0.668951631364822,0.6002948330445108,0.47090585953126607,0.39220651631575404,-0.1903249887625944,0.030576440285363365,0.4476202433187209,-0.9168935042727799,-0.9879735081558925,0.1365311974231085,0.3333629420813449,0.2918471224171966,-0.4840501878621154,0.45443428350220755,-0.16518822874735584,-1.1938341404142863,-1.6518783482449277,-1.5540150042525265,-1.822243599743828,0.15085838785696862,0.12075565559834205,0.2925831122853855,0.7907067189746638,-0.30301834041555015,-1.7556301504990592,-0.5432267726051959,-0.33530569919938896,0.6123553599133275,0.7301272296441187,0.883385801297045,0.1583548692138189,-0.08976983453303408,0.9720660824926189,-0.9431374371137192,-1.1308264998679423,-0.33624229722003174,0.3002199166092524,-0.7870107044835584,-0.8401837068439463,0.6235753003396396,0.7629725412021651,1.2967415901184132,0.6128016168238897,-0.5231573977328071,-2.37104954209252,-2.386892391937129,-2.3234148050704366,-2.368096941621539,-1.421474181628458,-1.0819164459699586,-1.3996943444360124,-1.416277202312546,-1.3301233692760897,-0.39735313616427165,1.2898418885212768,1.1396815326338288,0.457319223007426,0.955530934595432,-0.15205255554567776,0.2633472517327546,0.5514917312795097,0.05209379541012409,-0.806540853366259,-0.8141410718003484,-0.8757427025851616,0.8624956586326629,-0.5523026780891455,0.5581763136908776,0.831446024407935,2.0263824766111616,0.6677922523697989,0.5322760305635892,-0.8700479047047773,-1.1185793111602662,-2.282427347399433,-3.1180397283088945,-4.1524006631915515,-3.147610762533105,-3.3329716515896317,-1.758856170415402,0.14274834154621882,1.2697671792072731,-0.05355414125613001,0.5237690908647349,0.4208430179755734,0.009277931394982232,0.6572012565710561,-0.017531090694258337,0.1489453170120898,-0.6538510289930111,0.709527081933689,0.7314294301253245,0.6836682150685517,0.07795879137191182,-0.517534501125104,-0.7533315837358403,0.4645819505193461,2.3279830686558913,1.1391396115895953,0.12392666473809515,-0.017867711677010505,-0.11495717219308578,-1.1961337592358767,0.10578822419527593,-0.5901314532061227,-0.12158567728828348,-0.41390525531252154,-0.31425495751764054,0.43791524487114186,0.35151592565482986,-0.611090258929261,-0.23820252986641463,-0.3265691010448481,0.04807983365634779,0.6725833552886192,0.34341349686782197,-0.014049971556051357,0.09065075236833574,0.03432257683861913,-0.6549930673162067,0.9082828238884696,0.8672452317271886,0.1748995342549272,0.22220556263033725,0.559536907220599,1.2139696804092899,0.5553574892959636,1.2871128173689637,-0.885889816439783,0.30454641380826986,0.21169277205318748,1.5569239006184488,0.8750095974369231,0.6335932226664426,0.6402684065251286,0.380809980984523,-0.3518250649075218,-0.5405825731771341,0.7850249233347907,1.2677594273295596,0.20018807235315725,1.1809694890447797,0.17497769486497666,0.5063805288252289,0.5860327285217899,-0.41478285090959316,-0.5855850485387993,0.5276320025256247,0.6479623184763829,0.550455042455455,-0.5897679186445394,0.04507691790833604,0.945933897986538,0.9004945700160016,1.2358382324889867,-0.39865191236562014,0.25443564407927355,1.8590132685064975,-0.15280873370239775,0.27336863845983944,-0.4459384953524409,0.2513911703145505,-0.1614708103625896,1.1549259788810329,-0.13607200715393808,0.4470235003560051,-0.8908707756487414,-0.17657661711176542,-0.5319262484036437,0.1388213659191065,0.10851884748147568,0.9499303626031066,0.14148091745252606,-0.38941334242487347,0.19211760804184097,0.8126096354196861,-0.47789029716066894,-0.3146289503259487,0.8052118815357227,-0.22780526694369865,-0.17722937349442633,-0.14803170126841836,-0.022021674367738733,0.07679883096564757,-0.03998313080822273,-0.21896508114579524,-0.40667252428759465,0.6806455011315773,0.7224346146405219,0.8219366961725523,0.5744140086071338,0.3096833737197014,0.2288168912428567,0.38941283529128506,0.06066909927721485,-0.47366936804258275,0.15820202171981837,0.47831818342295235,0.018519604473460606,-0.37136764910333353,0.9537216405606794,0.025460979237609246,0.9061855032010522,0.1509215402121261,-0.7613493011926605,-0.6942937327660046,0.30054769430177547,-0.06979014804511179,-0.5767455666338209,0.512588574758152,0.6749373378896202,1.3441027368158134,0.2575078940473451,0.4729959814349324,1.8532800935798477,0.3553393341126216,-0.14509064701827992,0.6960172432008166,-0.7220158472967604,0.5229708414201066,0.21118624042743925,0.06298968739888502,0.3249998766820759,-0.14769833396754767,0.549707722870598,-0.7404491850853804,0.37824509561941055,0.3657120133924817,-0.24712317380654467,-0.7345373557698536,-0.8956507128574238,0.0028687187810980297,-0.9266642229601798,0.02092777329329687,0.30119387744333803,0.14691010712555475,-0.5087538764912817,-0.3762735996865614,0.050022925154181594,1.1605366834843311,0.2859444602922212,1.300646100853384,-0.14965868820356767,0.765024185754767,0.17633371952588756,0.7211793522322557,0.5607052118868008,0.2589376715384728,0.13120430679727774,0.06993498076918184,-0.09938363864618505,-0.5898141536645133,0.4161120249930411,-0.9605205647482408,0.5038497335273839,-0.5445298717531053,-0.014719384978989744,-0.8234761182071368,-0.14198704086582728,-0.07227638472820251,-0.7391420848975028,-0.41554099426079394,0.07425328167194101,0.6599552408379161,0.5040325395556311,-0.30141472630490707,-0.8442265252122554,0.8219891316173007,1.1588227945509761,-0.1990591387244603,-0.27610519589441174,0.2715735979053011,0.7959138440011977,-0.10199079764902146,0.42585806008787247,-0.37075409831106126,-0.06063260564848094,-0.637100065555904,0.5542554299923993,0.4394821186200573,-0.14590454869796582,1.2280826497647208,0.5532090613194736,0.46488961345512664,0.34499926305453826,0.760194231989788,0.9129260759591733,0.04095315142713136,0.34256400047711333,0.7810291038210908,0.6563674167852738,-0.04461797652622579,-0.8734776451818875,0.11087520666803155,0.8451801581524047,0.7376603227337096,0.5847347542646916,-1.0386026298443514,-1.0350910407023486,-0.9978499160651753,-1.2058519899406688,-0.3648513830590904,-0.4074405276147773,-0.1732181480984421,-0.5882348367977049,0.6323363801825501,-0.8981684951195924,0.8290024354369658,0.6296546329403356,0.09644515211345601,-0.5909723001174229,0.06567432606312036,0.30700454824715817,0.9867860191644136,0.5458576370787953,0.6648792758198985,0.747854952656785,-0.08442106799297022,0.9133370010764683,0.018072877579182522,0.11636171233316772,-0.2765039928229489,-0.5910436671106161,0.7532274281839536,-0.9121068284560003,0.7428836705319365,0.8985028417332491,0.6206778075418335,-0.28501695897786145,0.454291915169172,0.5411834868999036,-0.5935583515858044,0.0779743336462157,-0.21134026216064083,0.35398772018407293,-0.9138865666114798,0.7798366910555187,-0.9276187911392741,-0.17965251119022702,-0.12771382931604053,-0.3468445661624029,0.30859332697845,-0.041528180421291916,-0.3185925815267774,0.7299652830979453
-0.19472565363592742,0.38018385760929396,-0.7454777823441514,0.7870870772288647,0.13881731593733027,-0.32549337028973624,0.00859389623332052,-0.1399213133524142,-0.28476396271346194,-0.6455666189531617,0.8099254645559195,0.4431978721705856,0.07797664147648499,0.3059850799262283,-0.8440095535929975,-0.3480148852982577,-0.13893779020708008,-0.33651020449507807,0.27573498342271496,-0.7187903898848238,0.08507207604954825,0.7296851883735871,-0.13342228699005787,0.02834642758111028,0.6091031911103026,-0.9325262999691035,0.7079905846603389,0.31796214680975354,-0.017182896516592328,0.21035302158107938,0.2287943417831455,-0.8591255794560708,0.687364409181415,0.5749689604794409,-0.7438152912964193,0.11308814466044266,0.8114744672426409,-0.8942284184065041,-0.3699020230243222,0.5696643745254829,-0.39413408138351885,0.9575528463094262,0.18970700561052828,0.8835613747076094,-0.17967475810093664,-0.01537851339921389,0.5946697869223412,-0.4919691828085166,-0.6431999005309826,0.4832260602151039,-0.9660687476077846,0.2922057150416169,0.2449172388866543,-0.5080568626081383,0.43684050810433894,0.1752792601219244,0.8133857571289831,-0.052382462959711384,0.912506881333172,0.58949039998608,0.6148249270556035,0.36818227204789067,-0.611829838063656,0.8372232980096347,0.6721851719956651,0.4558520637141133,-0.8914074738763211,0.012004903287279716,0.4301122165821131,0.45280210272731636,-0.06336975527884332,-0.7002627900967434,0.07724304928855938,0.47786156803587343,0.3568136007431516,-0.15180630898155562,-0.45669518931377134,0.7912055005433143,0.7683697832347984,-0.45528592703251997,0.8172364595650331,-0.26472180983023086,0.7183973545069937,-0.8288802382221683,-0.5908219505233643,0.9065130609153709,-0.3317160569073393,-0.03215781303703372,0.38320132381466926,0.5380803246337132,-0.06297192665083734,-0.7788149384187588,-1.0626521774804953,-0.29409705811784,-1.2589730921055682,0.08526171170285941,-0.9167400918817716,-0.5872752229835303,-0.5689463776835707,0.07846091136287393,-0.3982301495977285,0.49135415630929136,-0.4728245768954254,0.2206873935848684,-0.20039864724031933,-0.32957613253524615,-1.3793205246325528,-0.3284810893283442,-0.7515045091187709,-0.49225960300898713,0.4346545243862252,-0.9254196164229254,-0.40533236731307287,0.7068958339173599,-0.028177591796971196,1.0047708538162483,-0.7921141959339862,0.5911063623315385,-0.29680477130726757,-0.3944210817932494,0.2124710245882037,0.6630045733060699,0.5895919344067034,0.34059426314338614,0.7225640020576377,1.5254066477146955,-0.3393293141082144,1.5254968612844262,-0.2774100153082006,0.895331125099336,-0.1414859719552303,0.021795371630079337,0.6340112850755307,0.16539737610749572,0.6141214966797288,0.4479448395002926,-0.4805039444490372,0.7555936971513662,-0.13057171275902804,-0.9257344654275281,-0.2676711699857235,-0.04451700823791644,0.8410182664343272,0.2964935720254866,0.1913587227997768,-0.7791300270087551,-0.5706402624682593,-0.6255816517678132,-0.04027003799001127,-0.709683215792001,-0.1974724512319685,0.017067275125833364,-0.13495964673248897,0.12916710855352015,0.3186731635351962,-0.2015275015846163,-0.6091074584708429,-1.0584611230098413,-0.22252877850768174,-0.5224776023501132,-0.2886592260512513,0.21162535650339903,0.19841309685441316,0.45066487531273147,-0.5781056850874627,0.35467201593470293,0.03188342620078118,0.7885861188675974,0.962723593499978,-0.798023099550809,-0.8799536496998366,0.08755934713734552,0.056807590562767594,-0.09942097190829816,-0.15491539902428256,0.7310884239128645,-0.8003352058620584,-0.49127812659364767,-0.3609618932300298,-0.22168712915567385,0.39353300859893603,-0.07712750488987234,0.7944409073487793,0.12611515900757533,-0.012168266015338892,1.3555544638219816,0.5807998232564071,0.6645295861539575,-0.22708577590916548,-0.7358632989295275,0.8618455638776208,-1.2646294369723527,0.5790624203907551,-0.938846523087985,-0.26747226704014576,0.14683565954024386,0.34448532462877923,0.11896692949537017,-0.12170577399354994,-0.37762271771651906,-0.17199832319135178,0.018764013081759477,0.2774119952208198,0.47625125273578256,0.1289318833628128,0.12488099931611789,-0.33662205537791356,0.024205620985698728,1.2770109842539248,1.1281866165041914,1.1929328253553844,0.8889828528676805,0.9282299153796888,0.6520074863232186,0.6824512716501849,0.2298942405288876,0.8493029139144485,1.4272924482472396,-0.7889517693290737,0.5304106621567634,-0.9547689039712288,0.16988971796334829,-0.8461828201869281,-0.19749315071407667,0.4988704685911733,-0.6121489998671458,0.5491335723046779,1.0117783892909549,0.019081741320141232,-0.7095458759045461,-0.5816551913461755,0.20924956621437993,-0.23912485129148245,0.7012014915124448,0.304830215861002,1.2618124995792133,1.0027967679806071,-0.04578608508048773,1.2192886729245493,0.03268389046006706,1.817986291579523,0.4383967173719004,0.6047291211229144,0.48553804253619265,1.166203913315947,0.5947263524079855,0.9767615109732204,1.207820751334,0.6984363187073467,-0.8884462437237372,-0.3071467625332781,0.8442054742826391,-0.3296388872086063,0.8300906489828447,-0.6046594288122394,0.8979388436440334,-0.015573117618085707,-0.18607379633185714,-0.1340606822658436,0.45713006686154634,0.09163144520242761,-0.28412339743752124,0.10226984897926918,-0.39491357293502577,-0.07500717283424183,1.3141298965200918,1.778773526780883,1.2916488023000132,-0.18801714200498648,1.3364810360395771,1.4712910033411686,1.0900857147268406,-0.13943768840663415,0.30280766354757715,-0.09876907153643934,-0.08498860608911352,-0.37860952990905017,-0.561716536724081,-0.43050494533016903,-0.7163291812548132,-0.39213935758780605,-0.40000532712594045,-0.014379965565271293,0.11070679569587916,-0.940481166612477,-0.23363823422801783,-0.5763586549201875,-1.1621509108999135,0.042013547533881326,-0.21732681110065735,-0.7690500829556606,0.1584957838440938,-0.9279791779610379,-0.6010767900926121,-0.18049950734926212,1.3503136945602905,0.7841977180542838,0.0924014246825218,-0.21735547462210492,0.4875971192955508,0.19115513723978836,0.6068881841133014,0.8788868583843357,-0.1516890334667762,1.001015435462455,0.13724454452772264,0.7763753118831863,-0.9795853875672326,-0.6444086402682704,0.4067911157599011,0.18579133957707303,0.7974536103096764,1.6928970220959763,-0.17075490426191084,-0.2209704160855364,0.8921374154541479,-0.12049438619120036,-0.1880087590270795,-0.9776234433265126,0.07593759957334868,-0.7531978239990021,-1.6172486692020729,0.32206983745880013,-0.14015002337479723,0.34509311207581517,0.6393467515559297,-0.8086418427052855,0.15409033858059146,0.1739985244186709,0.8932109973997808,0.7127457858407579,1.6533779771471124,1.656262641640549,-0.8049610963853576,0.7785785048031786,-0.21123670309192763,0.9081358392545228,0.09612811362886635,0.8198491827229882,1.868382126887018,1.8720980822764415,1.056810541450785,1.0982370279052383,0.7792593603256124,-0.6918234392658791,0.17289085235112958,0.8815152661537592,-0.8541500921738083,0.6791463020398161,-0.18879161450193127,-1.112018214388828,0.8096286506794431,-0.5511835945960897,0.6373982641870368,-0.42526025297114395,0.5225363969439516,0.3684585565048932,-0.07725989966725416,-0.18616869320336843,1.2272548851306684,-0.8886007489648906,0.0630750601511103,-0.35708687844294146,-0.9715639910526539,-0.2579117414890972,-0.651056100398687,0.07827532508079921,0.40465002596634136,0.8084986897749257,0.973042009929328,0.9332083805603777,0.5833876949399756,0.7356378413883821,0.5720028635727689,0.1233524953050571,0.32745970541763986,0.4142335303818755,-0.7506616378945523,-0.4451553724158635,-0.1513963017345481,0.7757896356731098,-0.7849032753306504,0.2281598235096308,-0.4517059668307383,0.08879918533806644,-0.028786729993548265,0.3078562152138435,-0.09113179632347751,-0.4324208596112264,-0.7451718069903508,-0.5448945261402306,-0.0736462755815383,-0.5168295505033796,0.06883210512827105,-0.6528781975048504,0.7759930105823886,0.5691561787123781,0.12742588589405046,-0.3768498322176632,0.08794755977549455,0.04730341265800087,-0.5760434162191362,0.36204788410775696,-0.2731621282174692,0.07929546701772289,-1.2566725169917867,-1.4617944303256227,0.15159086405949507,-1.1487775815425494,0.2133129552807364,-0.2809052128355554,0.25569286706501737,0.37152738536823615,0.03523971666021801,0.14758409518470872,0.6000749708655206,-0.4135543277798964,-0.15740039350283425,-0.7515407401186784,-0.8325765161604383,-0.6011676680739495,0.8466531440256337,0.7544595833482275,-0.4424122364351208,0.37568928678379,-0.28178842248710545,-0.5207824107504317,0.8618955573979793,0.04688770486518574,-0.3226660888750428,0.3909329251184012,-0.7192621906362309,-0.06055556877765213,-1.796645595868471,-1.1933096101989442,-0.045509275737497405,-0.3720198145013437,-0.31032492351372415,0.6937134689478597,-0.1562562320861001,0.06355381947058457,-0.05479498893573207,0.052054193566620006,0.3835242200058411,0.37655767012348723,-0.7569309711493142,-0.05104495892813949,0.19397812026874334,0.01545593822044042,0.7707631538645108,0.13786087175913467,0.24444185696542375,-0.06580312336237484,1.2571815193031375,-0.3095471787778428,-0.0736587613786133,0.3312737212977573,0.15745731941004298,-0.6796350098590686,0.7674864733777826,-0.5982135758165825,-1.9426605936930377,-1.9402702711544313,-0.8773447043227383,-0.0027504045852922354,0.5332065013823064,-0.3362315609294546,-1.2342904438843771,0.4589324090043489,-0.8012769053345135,-0.5835349810355979,-0.1773751927410105,0.18589372210563057,-1.0278189888136506,0.13588482016202963,-0.19365005968128118,-0.013433303022828857,0.2977095262574191,-0.4271732542909794,-1.3766264010723934,0.3321440842159908,1.0842243953441926,-0.05595888971605701,0.34048601250508703,0.23938687978501066,0.0140564607824612,-0.02779508697581634,-0.12839052040159704,-0.15704934691330022,-0.7623590405800297,-1.4774913669263348,-0.2528282472394017,-0.7195831069945291,-0.5474847367277251,-0.12986215449521543,-0.6032163179125146,-0.624543735224826,0.3418790189942447,-0.367775954234214,-0.43536203108043886,-0.8466548382162699,0.18104570736320616,0.49012351974108087,-0.3689677920071895,0.31877429745134095,-0.8360678134165479,-0.5494606944051034,-0.6617361337514389,-1.5370538824891045,-0.3625010614487544,-0.22645336881653388,0.42999695056310233,-0.17462953982008783,-0.03746693875619128,0.12660295323595255,-0.5975038070893475,-0.6056139567361951,-0.6122773055488724,-0.26180059237536607,-0.4256647424589851,-0.5803380592310318,0.026036714626393898,0.5732523411773074,-0.6501567767786652,0.27557155201627587,-0.6590815086455565,-0.29369872578655254,-0.19653624542198853,-0.3888365019746446,-0.09677226445215964,0.148529921757678,0.8542414837020716,0.22609518228867775,0.15010094520576436,0.9496452482920273,-0.5452654287703506,0.4989914535504274,-0.21792493151014783,-0.4796145055614065,-1.5350607908004523,0.24456401996698665,-0.3843270425379362,-0.2230245622956849,-0.12360264241906514,0.8956963626793804,-1.081654328085016,0.32602612333961584,-0.17373075150885633,-1.0378913909214962,-0.2434180054149838,-0.31604885553978757,-0.4958182527970575,-0.23396062496996953,0.1515625636143956,-0.48290218435809507,-0.5571482203458991,-0.4861396872623865,-0.9650701997665825,0.334221978287453,0.3506999331279953,0.3118250262409439,0.7022568983199479,-1.0110672013695172,-0.20215550306761743,-1.3841627817158435,-0.2080585815252422,-0.08697472585673127,-0.6597187415917267,-0.5363109528800243,-0.5674874573913239,0.06752509379543094,-0.5819271615187083,-0.41767993801176195,0.6728719221278526,-0.1803654831996024,-1.0559807109036827,-0.8569321161476353,-0.6251638267780439,-0.29227213631388066,-0.26550336314548983,-0.9338167263673847,-0.4850819482011002,-0.5968909908764323,-0.9898008904645733,-0.16287021511558367,0.7223138754211,-0.9104371529475116,-0.7608194163438381,-0.7536709686232294,-0.7962702540751179,0.4391258755784122,-0.770008864487773,-1.0945625267869035,-0.8571401257569317,-0.6840215876797514,0.190950388655403,-0.3306815793763013,-0.13749534471161004,-0.1338695677029592,0.8672047809389407,-0.17916052064266924,-0.512627839290989,-0.42779619856381745,0.19646482196022014,0.37983048917825535,-1.7833920107861234,0.1372216911136859,-0.8649667494919703,0.39409660333202134,-1.0548240334212888,-1.1071194621510752,-0.9626382414992658,-0.28709401833582,0.12465036273413982,0.19679149489840883,0.1538382773027976,-0.05971806498564177,-0.03504734739834008,-0.9418926493186589,-1.1209676436427447,-0.6541130994030346,-0.5935843533689968,-0.6919766575448024,0.3651319950156313,0.3477207858519282,-0.948145337322308,-0.35167344877181195,-0.3105033396360967,-0.005476811512044673,-0.0032268225562315945,-0.1214780326213065,0.24490266172159927,-0.18001587789715778,-0.29083234790065327,-1.468322509450785,0.09116517692933643,-0.6684460301839611,-0.10434512561287462,-1.043776999070144,-0.44683075688655766,-0.05774056160378752,0.45833352628771845,-0.7786016682206724,-0.42660056219064035,0.08345270531927418,-0.9411756544818548,0.1584085029044201,0.6176296909444786,-0.1778354800194544,-1.4815860903170792,0.5052096233042785,0.15338248806066548,-1.0090718115186126,-0.898422405258795,0.5861004514812352,0.14189045981643356,-0.8816457848270763,-0.024699975144820203,0.17669696935044737,-0.026815479881155714,-1.4471280061656375,0.19536400684044364,-0.7149055344030524,-1.763887514066382,-0.8956953045527417,-1.249068171259414,-0.2248456946260166,0.3890254906620058,-0.2061294091411165,-0.6299391874733076,0.1986076464527224,-0.6698294497133237,0.0670007445560421,0.37790005317102016,-0.5490885267457077,-0.14979518507446216,0.00889087132491779,0.9509244511546734,0.4271670331378581,0.026028845230336026,0.9028177768770851,-0.5839700240210757,0.010177035706907254,-1.192217042183308,0.5021742173035016,0.824146756423813,-0.36815656444369643,0.538806866426508,0.4543801558681224,0.5971966833216777,0.8610744511093839,-0.1029891982007726,-0.5064031545784126,0.37306413648574327,0.5170464251332875,0.43304969547736777,0.06352507923154928,0.27289144263615717,0.23978187485302582,-0.24024871155089533,0.60584416991049,0.3358164733585782,0.4475869437742831,0.6007800080579291,0.406744900187883,0.4286549847570126,0.13573261794418842,1.6217478989731926,2.1140396848253484,0.9206179236589005,0.9337509701255559,1.9128766324281588,0.7183028628556912,1.2289903719020396,2.3043698779516415,2.1419337787130384,2.048272207123399,2.8888148561905274,1.8678551997408532,1.1447417621496274,0.666011367769754,1.093305600977804,1.099578026233516,-0.6198392858047623,-0.5067898491221524,-0.028880021082838995,0.3161384978026228,-0.8221368924820105,0.8727932474573585,0.4708024662957495,0.31981166781671955,0.5905546076332897,0.2484743559789365,0.16910052137103054,1.0398809404651208,1.189363769700454,0.34066599606858805,1.4073906941229004,1.4968731465762337,0.45962944487985696,1.1355639498796506,1.975068661593736,1.2507179374861561,1.810992045147145,0.9234295882506101,-0.06289325813179077,1.8275592428953964,0.6707573552229806,1.2340565115566378,-0.16886258291873701,0.30979029625557897,-0.06291190312006087,-0.8984927028375029,0.4738811996264485,-0.7277316390702318,-0.2730255688299288,-0.3621903288706887,0.6948696204174958,0.5997252851914809,-0.062317606029159256,0.26603138060711135,-0.933877018204729,-0.911085213428105,0.6653107874579205,0.03507445380824157,0.40017426704515424,0.16908076396413682,-0.2558751959344885,-0.577921613466799,1.0512218386978798,0.4652388340240975,-0.3150049086320828,-0.31090577039342276,-0.6059689592524956,0.2265097369928142,-0.552457544721764,0.9036280358084767,0.7346252793079816,-0.8290626185736398,0.7110487232596892,0.22063526175497739,0.4620664368659817,0.8400192076917694,0.7366483990578498
