-0.07866496170667747,0.9188658563394032,0.6923916367632459,0.8155420340070698,-0.007456437471849542,0.43239967807861057,0.08883532709649145,-0.5785312342816649,-0.3060508254429295,-0.09735901005908643,0.3149851894505902,-0.4784395172695295,-0.8147483540394871,0.17769139339446685,0.8163309777489005,0.8138013976766535,-0.309137987438163,-0.6116811033184675,-0.8428835340806451,-0.33377913329575226,0.9816563116165264,0.8063732846861591,-0.79773400737851,0.37137832371404844,0.5172219411833767,-0.30311852699577946,0.19687315349163081,-0.6868165324419311,-0.16774665063431793,-0.00793486646280206,-0.2872816077515319,-0.9156418737590493,-0.5204995064462665,0.11308890424077427,0.31929463701772826,-0.5066317698466799,0.3711449416477939,-0.9322845105363298,0.5324649291296948,0.6126159331974997,0.8056101386506777,-0.9085291133461008,-0.9719686084995255,-0.5445092575032946,0.29731127493903126,-0.5349426369107952,0.03825263404216515,-0.5808868332971625,-0.9364043261620972,0.011434020789708352,-0.14520334792860845,0.29954590696982286,0.6082985211759351,-0.3184855978742467,0.5643563776682636,-0.9061861677323078,0.8860419063452698,0.127977051799663,-0.4076262326928982,-0.5789791554560036,-0.3621186749128041,-0.22709288088392865,-0.564637745052701,0.3831510017439608,0.5757307922935394,0.8825187150658417,-0.7622286836014021,-0.3608222865132597,-0.19914932404622326,0.5177732445438126,-0.4101185855432183,-0.9540756831717254,0.27272911696933744,0.7328363100306674,0.13961991172161425,-0.4363771784747755,0.665758926774761,0.6340031071088044,-0.049545809036824366,-0.1787812363220448,-0.2837504005916892,0.879710544814472,0.404691567725167,0.7840729395964039,0.07659813124398629,-0.26660837066192067,-0.9060108116218926,-0.13246781245241196,-0.9971279121837227,-0.9134432959387445,-0.21010603488499052,-0.6057150535018779,-0.6680506795388359,0.621204087421899,-0.5527138008008317,-0.29506964877747166,0.07152672541357401,0.3598603931515562,-0.8056432932666434,0.2835560393186655,0.49483326995283444,-0.15237083210524893,0.5681231155156062,-0.2980961528773242,0.3209037218508134,-1.2044976953706605,-0.9389712131196337,-0.5543957105827214,0.5036940108577442,0.5932906308114853,0.1831738510697662,0.8850321268860699,0.9668096864555,0.5700986971248541,0.65438729911215,0.715088525449605,0.08863711270139818,-0.22858880850712962,-0.6218016727038763,0.6357570458850678,0.7421262967060483,1.0088395679766098,-1.0422904539963587,0.5319639129040357,0.02839389061797295,0.6435746000280689,-0.4506811595681221,0.18651287061875205,0.38611477812971706,0.002230318206136433,0.37928296652968013,-0.5062819922161541,-0.8645918903642317,0.7878285888985399,0.2002909173689771,0.9638027852959118,-0.1032653884863003,0.06384042163269266,0.23024895018633168,-0.3940112573028692,-0.6680856772189867,-0.566119849356532,-0.043209617857617115,-0.5721756557239469,-0.40361700392424255,1.1501757256641627,0.023498301923122474,0.5789364873618621,0.011593640879398435,-0.607428312853239,0.3880137158844248,0.005048042649612623,0.45359954828361776,-0.1107835813678413,-0.41762212022788975,0.6561853870105069,-0.0021042541516375283,-0.7071761605690667,0.9170097772604914,0.21856039173807,-0.17482528727109295,0.5271577018918804,0.09687898910898869,1.204007777564489,-0.22133136467482156,0.46697472298379245,-0.6868672734666326,-0.33600204419250107,0.796796203901436,-0.32567571074314566,-0.415124699931033,0.4063264971737265,-0.22975210033948795,0.47852483431562554,0.37776844949606975,-0.8550853669429127,0.7489260598472492,0.481852847094786,0.05072587389217466,0.3178626021588836,-0.11016481267361806,0.30164463536279956,-0.0471383692057572,-0.40402586501318766,0.8672648620378476,0.4523923850779418,0.0446623181836331,0.07023024707831013,-0.40836376589534823,-0.04925886214594338,0.5678691395112776,-0.03781488995987094,0.3822459396525642,-0.0463506967594098,-0.06966336596256491,-0.07942885992631271,0.7268362375312755,0.016469910453358504,0.40659738555462643,0.680701917156954,-0.7426551968184032,-0.1509083953303408,0.0769237123136554,-0.1679891391911611,-0.43538062553659146,-0.23746640560763269,-0.15861060182988132,-0.30255076165638756,0.8872490688534248,0.1966383102833143,0.8641588798954116,0.31456686054244204,-0.29545299690975346,0.4977389394387556,0.15203585633799402,-0.04689878741798011,0.6219561695826167,0.6145402995276282,-0.40258444192960985,-0.006351839118881742,-0.224711055584199,0.9122061918556472,0.7672114796289504,0.8859646721733618,0.7348315299124357,0.010759095306823193,-0.9711078579073051,-1.109208615768997,-0.5599785043532863,0.0731495127841127,0.25731706294546147,0.27880351506671674,0.36508751332165695,-0.3828417511432037,0.6319205485872873,-0.7514284064354215,0.018473698886926362,-0.15750325802859083,-0.5292081084115907,0.04098314610765361,0.14438816641029403,0.18485783299558836,0.5369221657319745,0.3034692832158298,-0.6433588984383986,-0.10762149300205295,-0.5188789820734472,0.3915420167474622,0.5463489385167416,0.5854061983518103,-0.05587858319134413,0.009110413518128503,-0.043101064802415226,0.555550814723405,-0.09060337816950355,0.045616646529585705,0.9221648431399329,0.21824875912558347,0.4594979640461097,0.3609058979133351,0.2548049424292375,0.1158702581363823,-0.14052633007210458,0.4058952558384778,0.2982054241825366,-0.030275142150017746,-0.23857950415585527,0.062439973307852115,0.22241822157835134,0.3437861961347522,-0.33514851820875596,-0.7905783327345344,0.5124402397304068,-0.22196015131836536,1.7041823569119448,0.009537499880580913,1.2853333611184405,0.06522744293613103,0.5541960301244235,0.1574734225776136,0.7371019368078379,-0.0491178171631246,-0.8404190886100471,0.1501314191409801,-0.5220906213331613,-0.5839324708807963,0.30699271725121424,-0.6873353237999827,-0.021457425911828,0.20282837365769218,-0.12472544427417798,0.15598487007315862,0.28971575566384594,0.7525082312114217,0.46115141906763507,-0.3573198933885159,-0.2957610054573963,-0.31944284466850625,-0.023185122193114804,-0.5687460101276773,-0.12409575775808575,0.0909671628107937,-0.4066530357919986,-0.24510058458932343,0.45731749232331287,-0.08776193509198871,1.0684677764650992,0.10759649325825833,-0.4953972953356262,-0.28361770164779604,-0.3110608329125605,0.8746841211634466,-0.013584572357652192,-0.3000355656453197,-0.4327331245009892,-0.2502709315879092,0.5344635598527093,-0.5852081896106808,-0.7272159911172829,-0.08021262904343285,0.6869960364115374,-0.7231498634947321,0.2813304309847939,0.6574258566949575,0.2295318786469666,0.9760583178389755,0.28452927933724365,0.045296107435380435,0.06624506915004547,-1.1760578922522518,-1.116631927193525,-0.6812025831320266,-0.011817363993517026,1.225583519252353,-0.17189860033866627,-0.20848063674015357,0.5107406839518941,-0.7245551670320373,-0.8131873134362873,-0.4395174225743923,-0.9742414022262919,-0.7530722023390566,-0.7941140252211218,0.5645451742317723,0.0756006814533039,0.8576599009695816,0.5881736738623496,0.30337024228795795,0.36987723111048376,0.04173910121571822,1.0289366880207589,-0.15667639986605916,0.04670188439882592,-0.20376604813090776,0.0997573961046547,-0.2256601037046682,1.2587791804617818,-0.5898138133716577,-0.489002022873454,-0.7384086422609946,-1.0506098375422213,-0.7677126762588242,1.0493887643316144,0.6304929367115432,0.6102788359435165,0.2933715078923857,-0.8965856322155017,-0.1632650658772901,0.7199965909108891,0.1797105248862459,0.2838963002792347,-0.2155125811525793,0.12594300472637968,-0.921968886833796,0.9175829318114788,-0.016544806813661776,0.18883774418628058,0.7738832946526151,0.7771631291134756,0.20068861207610825,0.36398204853850374,0.5863824821144118,-0.3858608954705266,-0.27049467531542987,0.198993775857145,-0.3910838130966027,0.45794200745662783,-0.856586483163771,-1.5406287970916037,-0.0759081047139796,-0.9000741773048111,-0.31363894153306693,-0.48839840454925176,0.8444629016536259,-0.009424870752227971,-0.6492411819668449,0.14173671018742545,-1.5312120419037207,-0.8908608066920144,0.7431629675227749,-0.3225635065468056,-0.17563114139786415,0.45198763413611254,-0.2924876427916195,0.6192237364317102,0.5798853670856631,-0.24474855954586827,0.7665945687553345,-0.30190214749813254,9.562537272289693E-4,-0.4923723585016684,-1.576628083039683,-0.876086485386192,-1.0850295890741302,-1.6648090569071574,-0.037192284997611125,-0.820064481840474,0.556881081743277,-0.18119810898947816,0.42597719609281587,-0.16807536572125503,0.7690863305479428,0.024139528370158803,0.13591726384734742,-0.8444957796680667,-1.9240271200691341,-0.3759696741054222,-0.9238509216210402,-0.14756002462094417,-0.0299798284630701,0.22025777849180633,1.134878580812315,0.6361860637627399,0.10227235233978439,0.172130248413952,-0.17911275534119417,0.08442062471103527,0.2429907285395239,0.15651505558260367,0.1959074393841108,1.101733457177705,-0.511642679755297,0.27234005227600455,-0.06906435944425642,1.0047415987873818,-1.0735208857881675,-0.11619773356449577,-0.5977086558239006,0.8984326581346483,0.27960267133417765,-0.6850899402256568,0.033969950159434395,-1.4563535478228053,-1.1337649117006665,-2.333566921974256,-3.415842538553912,-1.3893109389205254,-0.576520873292548,0.8352685484995964,1.1676542845955007,1.3577054220491176,0.054003389427011744,-0.15341654597984963,-0.23005228063785427,-0.486703968765304,-0.019780841316246505,-0.45575855901711587,0.560385587873253,0.14913319913129172,-0.1833912396180437,0.5705740939853033,-0.12047913915808668,0.6412508064701157,-0.01681664279885394,-0.5354227004127163,0.9442683547659045,-0.46977538635023475,-0.8142984402329807,0.36285846160586926,0.15868967032202386,-0.5213665583530503,-1.3651134480931175,-0.9689142979088355,-3.473498343688585,-4.449760230173583,-5.91609302175855,-5.022996484870019,-3.2404400479911852,-2.260907502054138,-0.24800529703217047,-0.8470521234022812,0.14546801405447485,-0.10011993917070695,-0.4726821867999131,-0.07862268301637379,0.18962668444897438,0.09480152950193224,0.293097610117747,-0.14923483691870876,0.539106820487002,0.17514934817733555,-0.7170595883982803,0.740370807195651,0.5474477766311935,0.008294895944261282,0.42861913192762324,-0.724529236435863,1.1000409067961943,0.4940442248679753,-0.09865165932846996,-0.6850775094914067,-0.46458866153918693,-2.022146490556884,-4.592677583642937,-3.8742923315096074,-4.470606175028604,-4.338766469184226,-1.8849995799421315,-1.2601570226863315,-0.14479278776367865,0.12101314857382114,-0.03846393831967534,0.0469874336636407,0.7464567024423966,-0.7169993242325107,0.9287441695589672,0.08439738222972028,-0.1711003841763094,0.9028807210590477,0.03697316605956529,-0.1382080116690213,0.7577144365359827,0.11276807982724357,-0.699790272056933,-0.8352063001838004,1.8411342982656733,0.6596102083991743,0.7136726227629788,0.7407998421759592,1.384520388986589,1.3793401769840201,2.2484185756333863,0.5687000687011884,-0.17366482983938256,-0.830059186534629,-1.0816806361517353,-1.81987381247563,-1.3024011383964287,-0.9277326775015291,0.48435110697805633,-0.22696692034125715,-0.4698527913216941,0.3013706277420274,0.853094522094181,-0.07663952883794577,0.3801140316630987,-0.6662322872333835,0.25207824312867505,-0.5204227615268806,0.9489505579147898,0.45422326867335694,0.09115274123003854,-0.21106426097899994,1.7568934813605224,0.8022807634842088,-0.1256463838876772,0.6125771458620973,0.9654809780309305,0.13282494815338455,0.7623845251946187,0.5550668449480587,0.8237039306055406,0.1529320472715391,-0.25713767010638133,0.21013188056956147,-0.7115614583738147,-0.2955691160697911,-0.7949287629611514,0.2795706720582259,0.2272675820445789,-0.08769420168437521,-0.20213187678667818,-0.012620575407610395,-0.52920600453185,0.6337156504154076,0.07995461579954366,-0.01444737995427262,0.9749751109275178,0.3757181476290679,0.01683633182427312,-0.4310432476457857,1.0208104833888365,-0.04571147771162343,0.3422794427943389,-0.007164153803097761,-0.4087212650501741,1.2881069297238965,0.1965094976247657,0.4431536220351712,-0.5460946329573256,0.6053609514212619,0.23127382305653757,0.423036269817329,-0.27199301492810557,-0.2319853895866835,-0.2631651521265028,-0.23568044216275505,0.032220151556489336,0.6364522005153284,0.2782509104871944,0.12742155575883596,-0.3791840278929466,0.6829723929944953,-0.7997650852197317,-0.03384356334088775,-0.9381718280820166,-0.5806836520027707,0.9088811054976487,-0.7808299500604472,0.5136434367747011,-0.04346523341933709,0.09707862209853264,0.45884652990421687,-0.4365617443188514,0.4265370677743878,0.15225232753915005,0.621977470927539,0.556113451389108,-0.20837940907540917,0.2904668377994849,-0.25915413733985293,0.6204945422250637,0.027346893113744032,-0.010051100869781577,-0.9418289411486421,0.35579343239604083,-0.016402489981888826,1.1915014972629199,-0.5941903642291609,0.43251117068437095,-1.1898490541467426,-0.5978741896164638,0.45147364916524874,-0.34999614396892864,0.7768727812628533,0.394420824121299,-0.8317792550451539,0.7371554970069175,1.4137484482006841,0.9307762506282247,0.1790222222701172,-0.8703575729637603,0.6071577949210225,0.1960763079025652,0.17892197161495826,0.06605758122000414,0.22455935742847055,-0.4751212592997242,-0.017398648987723597,-0.4062211632089715,-0.11637619897739826,0.19923869663836966,-0.39444973844370285,-1.027944068072359,0.12080046399621715,-0.9861147601577923,0.15428673830046513,-0.550794643573984,-0.22494396989314394,-0.2994096342891638,0.6101310026362837,0.9797445091054258,0.24254531781107347,0.5784409504492054,0.5803959106202807,-0.25861281233590677,1.0584291714010747,1.0378948518137414,0.9528840642261105,0.4436605037246515,1.1122214711866985,-0.30105807898005027,0.5530866061931387,0.6615617103865192,-0.7515314515090661,0.3712754114533694,0.4661056800428364,-0.17700702135794188,-0.21724480325195622,0.6017060052474592,-1.266789471476046,-0.6555775780093605,-0.2555621269023461,0.8250271502377237,0.09985318086276135,-0.19124048529526824,-0.19590742935156436,0.4642078109925119,0.8134025861820261,0.35344279186899374,0.9775322364674772,0.5965444583482513,-0.49495630982441885,0.1854453838196979,-0.5173141341840231,1.295891236652031,0.13165725611768564,1.5973009018826485,0.7020273401205478,0.07998091284782381,-0.052250821529110536,0.5348432730503134,0.5563851752809211,0.2696858956757546,0.15796179684208445,-0.8555469671323821,0.46664866469956207,-0.3412028579985315,-0.34141827551063414,0.45989489445128495,0.2949063194655804,-0.8070970946339988,0.2496583919405059,0.1461308587606878,0.4415558858430893,0.644564979586896,-0.03755684937681923,-0.6560267731079603,0.8761987487628333,-0.8625857953984506,0.1464554145649699,0.9188912533440369,0.9473218076812022,0.9957348361861282,0.9324791112323425,-0.6643875682257752,0.2821211655787068,-0.0017042528909575363,0.2750519438312945,0.6660519271891931,-0.574594738924634,0.7432138721437682,-0.2831175590996118,0.4937413876408815,0.13993450178107933,0.5859806535748677,0.6471125550698349,0.12077688981435457,0.23140177044879337,-0.31159483556479156,0.8754238528298266,-0.3877176698740754,-0.09267641291689174,-0.34456383073762825,0.9938659095920406,-0.25566701700266226,-0.5120640150719886,-0.5955235388113003,0.9523888555621995,-0.8568595931405607,-0.32895321883499595,-0.5382313540129814,-0.2149104796170571,0.3148808821403402,0.9403264492358007,0.6378059334763593,-0.8575853660590731,-0.6400433169956441,-0.3771900969642791,0.14694648772413363,0.4314331192988654,0.7687685819446832,0.6890304444308303,0.14426949188619104,0.9654418468455347,0.8667191602854571,0.40288034459760025,0.06851468400921289,0.3227734122586786,0.683917069841343,0.08418347792840852,-0.5844407087949195,-0.42888718184085906,-0.23342313218997623
-0.6967735673648581,0.6061439250322596,-0.7443155088923186,-0.43942973790987216,-0.303040849864054,-0.3096451783347771,0.9294086826816033,0.30320261292543327,-0.7432987753062053,0.2602763960507537,0.85880147050799,-0.12624325231407996,-0.055725536560502664,0.10802732229730629,-0.878324086977651,0.3755556520663386,-0.2861498675657781,0.7467574533241057,-0.2136081056588881,0.2929449127018269,0.7417384112064966,-0.1723029463952399,0.5291328500078407,0.24573014921199365,0.897579655518506,-0.4131070913764039,0.75468289999379,0.8984307183496327,-0.2468100478135573,0.8702477136007607,-0.6459163284691334,0.40900515244948377,-0.6735926861231274,0.04294651649883656,-0.3931021850179787,0.025998406486659357,-0.372175137840593,-0.8306124179001295,0.3208303334646939,-0.5974084174582258,-0.6090754273752843,0.08265786634032644,1.2024203707744352,1.057636934688857,0.5198192100039523,0.6483317453576379,0.2019403322904928,0.9988158368817243,0.3707105041477414,-0.13254889851308838,-0.17058572848596062,0.18857161902607134,-0.19871628043974865,0.5027020552765531,-0.9024012825346153,0.9138602389771391,-0.49957073129971774,0.47248896953137787,-0.540596435421333,-0.4478623552409764,0.2072306749548328,0.16280598774750038,0.16404384359289825,0.10101448329448516,-0.3505392054984573,-0.11219954157827519,0.19691135669578877,0.4010596003273147,1.1488702981464933,0.20124389704445816,0.772001223587291,-0.0011976669882962435,1.1119362822747396,0.48405033460684976,1.1368112253323506,-0.06528870066753906,-0.10806951253386676,0.08685179953379195,0.5095980140002534,0.6159755833320663,-0.3041713890852518,-0.015949950419148106,0.8526159735821626,-0.19073732383556274,-0.4849893284610882,-0.54961671360906,-0.022168719812888916,-0.16092320061059096,-0.7395599685180427,0.7821630781075052,-0.7365451932168221,0.4972533352499612,-0.09552966410149177,-1.0321059462489395,0.028493731145801608,-0.47627706699751793,-0.14622879425311736,-0.7430603000067476,0.49322616305634215,-0.24124109856572354,0.3856156177985138,0.28383290499444935,0.9988214268443434,2.0847711267099194,1.7924966351495715,1.9393395665297,1.6726226261983657,1.2286030105550318,-0.8260811260507008,-0.058211164173948164,0.9263920973692409,0.8998395897534741,0.03293140710221243,0.043310118778412864,-0.6251256137773747,0.8727870916270175,0.6768939775576848,0.7405408524444306,-0.4910697632223292,0.07990956076750111,0.4773698369470196,-0.12055317787297777,0.06999267649817326,-0.954884278388826,-0.8688878011202452,-1.1911307611255344,-1.4731329292781987,-0.45527458349916555,-0.17292509175302007,-0.6852772278728058,-0.043125041581416786,0.9392118817958709,0.6838219175006811,1.966100850739552,1.242390787342956,0.18885421209203376,-0.4509941274601749,-1.194825675024813,-0.29012067718912676,0.9406174647441286,0.785439843769848,-0.044079599302757844,0.3234688916913292,0.15860643179149936,-0.31550978352467896,-0.751668358520376,0.8482733512030384,0.06651182315507252,0.450299120224699,0.5434734566262691,-1.1063466162905948,0.14355678304584826,-0.6486512434183627,-0.033776016663360206,-0.8247529089472055,-0.3959731628070891,-0.9146400062254781,-0.7528072353262798,-0.6672921076255336,-0.5409372739865775,-0.5407906136867847,0.4272879981300916,0.8855289858869018,0.9588240557368779,-0.062366794887310145,0.08162972407837443,-0.7885886206922991,-0.8615833800133507,-0.1339091025574275,-0.8137571059146207,-0.34843864410971287,-0.47639824447823054,-1.0283733731333404,-0.1972326139746302,0.641248348067412,0.358272925097731,-0.08658845679054822,-0.3705898504047686,-0.10089231734264359,-0.009892669985468502,-0.1261813082913233,-0.6041158995429533,-0.08304637695008031,0.2336032833061147,0.14386938392344348,-0.2170667190041332,0.7414177508065262,-0.9681332360414728,-0.39410158604786044,0.44109688400041924,-1.166524693724121,-2.220607512585333,-0.17887442416082713,-1.062301442762353,0.6751950873237038,0.2869554197423648,0.26842495090614993,-0.9755835295540469,0.6455593848219844,0.11503283361495731,-0.23351564760281418,-0.5457664196685392,0.18978442073485322,0.21763391648247019,-0.9943073170152793,-0.38163829253508946,-0.3449601585659354,0.8231631622444467,0.47714386583745355,0.1786840357405149,-0.09316743020108892,-0.9581319795522949,0.04352709057447721,0.7755127593654049,-0.8120111357752079,0.7259726527584226,0.6391979579417942,-0.42076272953790134,-0.31170064246660323,-0.9595280200326174,-0.9260000773269703,-0.25260393722920804,-0.49731058491261415,-0.7744080111670483,0.48070991800838636,-0.5188540696744223,0.5046664036187576,0.35295696484728195,-0.3550737122855782,-0.5922164041507514,-0.45825635330057807,-0.5894889871147035,0.8592323810768919,0.07285014993164386,-0.1520863456949869,-1.0035906661141438,-0.6792046124224146,-0.40436488404130344,-0.07180501025350867,0.24221717850660265,0.04018533879414963,0.4248158674187155,0.09381595066267244,-0.6904443151856688,-0.46506401728547925,0.10421307344414632,-1.0408280909578418,-0.2638334309795755,-1.840697699176976,-0.8851414011051959,-0.13508130422412973,-1.0802047133576633,0.5652646616450455,-0.13234445875754852,-0.7502700772350805,-0.47660729316168066,0.1883131714292679,0.050525402228090245,-0.02588476109405465,-0.11503955970727936,-0.6233203398021302,-0.04502135082129273,-0.217544434294734,0.5670658884557518,0.9810863243355421,0.6449572107860292,-0.26539341278620704,0.4660984805212703,0.21782829705172863,0.19158295293143446,-0.05986664849752625,0.03507112874901322,-0.7543635166994349,-1.042544635681347,-0.19547916764178538,-0.6148981727249785,-1.5601209205492599,-1.1990447520372451,-0.06217519969227784,-0.49042897308363553,-0.12220946065178284,0.34152930418358374,0.8902261720654784,-0.24122716993159862,-1.2876849787908204,-0.3730199918500341,0.03694952977376362,-0.8529475886165218,-0.240855877091185,0.21341503120441657,-0.3256684322247103,-1.0806831056192352,-0.7529532460116736,0.30290674446857435,-0.117863866743132,1.2333068373429288,0.1583867550623211,0.08246300939420907,0.6357249492494609,-0.04732968178007056,-0.24941188177238321,-0.2946435126858646,-0.896421437848891,-1.7938060319186433,-1.2290976096293547,-2.004714999312048,-1.076403420615157,-0.13001843966346194,0.9997446379501606,0.5998775798504099,-0.5330805534126065,0.6470782338331934,0.5980708809033847,0.0716506043642534,0.8034743255880175,0.38206022268196543,-0.31978571799598,0.38008676058649243,0.3293118354728385,1.0050868670281503,0.41691067096600803,-0.20472255771891493,1.1771839217863282,0.8105133586007239,0.6202536990867659,0.7416932569639954,-0.38219179943388343,-0.12069591505486324,1.5290858095201132,0.20873051516675725,0.05711732727411381,-2.1653634375017883,-2.226706116832548,-2.1790867895307393,-0.3846959396867271,0.5246558234751777,0.5578589874924156,0.9850527683626052,-0.596048327321457,-0.21473111879220907,0.27595458552349145,0.5587177313866496,0.544352613566014,1.859779851489275,0.5844294310328602,0.1265478937479829,1.0176173610443062,0.014494800385840943,-0.48523237198274777,-0.25984810847976797,-0.5366060335076723,0.9750261529282346,0.9212093394096303,0.5133022388486747,0.8484563487940198,0.6347220798281487,0.21024550546483897,0.2399965045628131,0.5864993082429393,-1.0160416545937303,-0.7245184471295468,-0.658223674614621,0.4465272766138136,-0.7920835201803096,-0.6011745713817359,0.9151725663075191,-0.8268092760013384,-0.3001605045758876,1.591867013827942,1.199631705887,0.3728177792659301,0.9540881691514329,0.5126216271031734,-0.20969328108229776,0.4682901479617207,-1.077711771055013,-0.7639983981858718,0.13445962122139316,0.9817599299916204,0.8567454297782043,1.1597837414902703,1.3651757075123974,0.46029375305997394,0.877242586810539,0.5099377281467397,1.794347483802831,0.19191080355352758,-0.31978933406352367,-0.3146882815705615,-0.11234355470522062,-0.8954915820988134,0.9022117148747849,0.06167301380946955,0.09738756516482766,0.01157417799178653,0.003070913836571591,1.76422079042701,0.99442778531508,0.8952834460008124,0.47222220890565175,0.1576418703001679,0.6094975118692267,-0.48651903538653407,-0.2836702010107217,0.39047262417947826,-0.036214158782992605,-0.46762747910334895,0.9192751990099514,0.024709365501188036,-0.3247386011932435,0.7066254269960921,-0.04905472665031764,1.5429629835083258,1.5412007256947748,0.732664459908555,0.7109236376677804,0.38551063795341184,-0.03743018866217302,0.4026093297746585,0.9146447699328828,0.6652495952817097,-0.6281915720946684,-0.13333120264771964,1.000769174282646,0.9865490920769004,-0.07425060997670992,-0.6651674829434548,-0.10779582284301778,1.1035722926166005,-1.0339606023250536,-0.3656811197534829,-0.6021250478540553,-0.21461602772853572,-0.10897771779524021,0.36785344863672853,0.2693428433333448,0.2675347158643479,1.6750499104782945,1.52781647815452,2.245157589379574,0.08307554103317814,1.5592116816711497,-0.00495601382372373,0.43772079074560083,-1.4050553415577307,-0.7109168211411779,-1.1636547431786537,0.7203835147853597,-0.8387092772531921,0.7695199776367269,-0.2889955629325292,0.1701827484118368,-0.6537142582879664,0.4504426293068607,0.6848667608261697,0.11082966263566178,0.2474161537787727,-0.7468326589083105,-0.312740036387374,0.7004838592842347,-1.4152479437425134,0.12972652032695406,1.2865330195698164,0.9594348731744994,0.8965081803432448,0.7163295265422261,0.49076283211286625,0.4424146929411789,0.6236608791000334,0.763526541282454,-0.5820206380882406,-0.6751101952310493,-1.0776909298219775,0.4987492568602262,0.6958841439369433,0.5414491342622432,0.4783361301008784,-0.0130129527853865,0.6668771302686193,-1.2542724908072076,-0.02397809701939163,-0.8248582538206646,-0.3362649022801613,0.7627889697636986,0.16722001880625517,0.1417637425250828,0.47557949277021927,0.24577822669065913,-0.05018592922680794,0.1721160266341313,0.7406496126433069,0.7047024537656423,0.11767847709862327,0.41625610996905205,0.14083970490123182,-0.7014397545287139,0.17768789605509788,-0.006118336912049362,-1.2411446010430558,-0.4798852012491789,-1.6148403726077138,-0.18195742609656917,-0.5972674565988743,0.4676884992250647,-0.724331985794313,-0.38269108545076747,-0.2536802603832489,-1.5795688692948375,-1.253670493099316,-0.3412361606722,-2.3250378128541787,-1.5445568919874701,-1.2832869261580413,-0.13676137994308288,0.13484984460216298,0.7008318303526638,-1.1178717685562318,-0.14266299550281375,-0.12938035255084837,1.191425474844264,-1.047886064435175,0.020132624510955096,-0.9117804981357218,-0.6188905756055203,0.6073703831419098,0.12470040960620829,-2.537087078732838,-2.3036175471754983,-1.288198381528399,-1.2013028171456448,0.8994282868579921,-0.09994832780381686,0.9554718379304118,-0.3707684690171473,-0.04430534319951799,-1.3233594542729707,-0.38444405194305376,-2.0145010676109307,-0.9589584043334477,-0.8827541202183617,-0.7404872471151814,-0.49942140276960245,-0.06882478557624766,0.520226735287762,0.9803731596512735,-0.3793133312325202,-0.004961446845638678,-0.9966167521024878,-1.1582475538150194,-0.5337153579372677,0.19590511881499767,-0.7631349491011744,-0.8375683829202536,-1.3054596742363767,-1.9684439256153843,-1.6949526215613295,-1.0269777823180204,0.5953957548381124,-1.094776156056513,-0.7443728236310012,-0.7884539484508051,0.9100878188517155,-0.1258263355150374,0.3722211967771414,-0.5275830608266455,-1.5980695790788257,-1.2213459041461157,-0.45190739402195035,-1.6767640566600077,-1.5238677715086468,-0.1484627114736765,-1.218255761111633,-0.1548300591872009,-0.487122791658605,0.3973376118268937,0.5165783723331846,0.10816595286773249,-0.9780893713272928,-1.141499725077566,-2.1376637395969578,-2.4392710900136114,-2.5305179646082974,-2.693079107289755,-1.4343349821723366,-0.1304277673041086,-0.9419033729555777,-0.9995408077365772,-0.9785243571652239,-0.38273057113216485,0.30397872788744573,-0.4101862902640281,-0.2575835291994877,-1.4113719770336348,-1.142575264005112,-1.084134275375573,-0.004965012739724373,-0.5070264925636084,-0.41160446585424504,0.16663290086117885,0.04746190502402415,-0.5397107285592355,0.6782135663520693,-0.16263751595570386,-0.14367866086654588,0.5236710603427532,0.018418954334073666,-1.4906530993933413,-1.9829454628123602,-1.9297327629992318,-0.5423176008882178,-1.1491154945135407,-1.3356367471432344,0.15522626800388695,-0.47822612549465554,0.386011809943518,-0.4929549571432702,-0.1832486034938866,-0.7268492958382667,-0.11611270390758632,-0.3574669462864424,-2.005087471081288,-0.11733197707719446,-0.8909321714437267,-1.021850204716154,-0.48993916192046527,-1.7714156209779683,-0.6942901062509764,-1.864061974204266,-1.200700845308996,-1.463429718563382,-0.9205683484332287,-0.2813394163338448,-0.22069186381872602,-0.5512042670781073,0.16832694720729668,0.622319680429773,-0.05493678905372969,-0.835846822311787,-0.29736349506403326,-0.21873530844081907,0.27632731390900966,0.924914461201001,0.9829872992501182,-0.2283661796113858,-0.5153440812830046,-0.7349123075225108,-0.450860426198054,-0.8053453435278408,-1.2367206876661287,0.06781298796577896,-0.8339956219688516,0.12555724306758823,-0.02531067456285872,-0.6693804200780878,0.2444471838102003,-0.8866506067290729,-1.2317746932138587,-0.4769279793848299,-0.7698863609057076,-1.4240978345412265,0.08029703173343536,-0.4916705308723406,-0.16116574867855626,-0.6351433015040652,-0.09217073784592154,-0.4312111480444562,-0.09058746254683132,-0.5069094781277947,0.5179549823127961,0.9026710967571168,0.8094128750927342,0.38898860803071056,-0.3953417980878491,0.9987065759341047,-0.5143988750087964,0.738067206484047,-0.7250309248389241,1.0885565511543178,0.20975585660856744,0.21600818468934818,-0.7318793997663324,-1.0784370732477788,0.5031872041089775,-0.9505240333804477,-0.5672039551255934,-1.634220334116051,-0.45116802004163375,-1.2583097356941786,-0.8558064502184848,0.576045055387049,-0.042528027153060345,-0.5488415688241763,0.3233281232586208,1.2473547436936991,0.6795263566399232,1.33910395902557,0.7725434050169351,-0.010347162466484714,0.7753479922412858,0.23028183642203848,0.6491600014699732,0.154018594850319,-0.9422179637013346,-0.5421035661031367,0.21178057246495383,1.28818871815077,-0.2534123283342486,0.03180488058104929,-0.06667417745107027,-0.14433723514122918,-1.1140968996924083,0.8190107234272297,-0.20102303514937253,0.05584241679990328,0.5948302658862495,-1.4753520918243737,-0.48559856277507096,-0.4559609853037982,0.10286033038685115,-0.12292712586354554,0.8422752451964074,0.18110915309308476,0.9093651484558701,0.040983337091993186,-0.8920562196552922,0.41402461183055556,0.5664599000113477,-0.8064922880918195,0.9730960987515227,0.477793456251993,0.6525214792602652,0.12300093857375657,0.055568352745201804,-0.5879910541208195,-0.19312699229933442,0.9065664075960023,1.6336631031630244,1.154627666404139,0.22466556410365737,0.8213150229709756,0.01860787659933689,0.15442169257859248,0.5211536511667169,0.5565607607860934,0.12232844033725761,0.5728832190470649,0.28401677809741666,0.04282556006382027,0.11439184480028812,0.7359072229418915,-0.8887150833795245,-0.8610473363638947,-0.05783674926022865,-0.12149870492023598,0.2162963741972317,0.4954937937913997,0.14937247830010447,0.9815797960463282,-0.8825300887844465,-0.8339424182808264,0.10311422204277237,0.6025258838310343,-0.3370457954240362,-0.8116731510587823,0.24726252095426474,0.32967546760610006,-0.45780646595014546,0.5152066471474953,-0.6426825240198413,0.6552772613695209,-0.6605874276168299,-0.5122090206264025,0.9916074828437998,-0.38389583507001934,0.035547368182139084,0.5001100793314015,0.7645188941793132,0.35973014542038545,-0.5687583845391723,-0.8691949670697207,-0.3208752858708679,-0.4575206769722231,-0.4708817941765908,0.12067522818681109
-0.9220467741072464,0.7827401477147256,0.40495036319692757,0.09954199938620101,0.5551054827765083,0.1435485308197677,-0.7742154854439711,-0.7870215395023068,-0.5937303848216933,-0.15617738688136562,-0.3707978501376512,-0.5360254410360474,-0.12032151462198766,-0.3235287507976734,-0.5427525031982269,-0.14770624710895486,0.6222485511067901,0.6112020043965409,0.46689227722876403,-0.21035608942033712,0.14659322548534726,-0.2742638965180062,-0.8106814164784111,-0.3410419004188805,0.8548617290569658,0.14516908283220187,-0.09553092970821475,-0.8290435893624288,-0.5087113944195722,-0.8048857863897223,0.2913935632090787,0.2599594218393555,0.1879225471574051,-0.9063975264601641,-0.25323230848806877,-0.21908662977732726,-0.5005841575406128,0.7547686023974318,-0.995937503323188,-0.9270291180958451,0.8896669406529236,0.6269269997250863,0.7638436711956965,-0.4284179289379372,-0.5535396125754591,-0.41506891439979143,-0.11137261935446663,0.5081912910310036,-0.2670210804654499,-0.5132861295839412,0.2966730314371086,0.4288441053889493,-0.5154716606444381,0.5321361190014615,0.9791943904162235,-0.8011266735489158,-0.04265847825590896,-0.07992099478386572,0.6801241478368732,-0.15853997616339716,-0.5835117580303331,-0.14560088361991605,1.047535935686853,-0.26281961448437935,0.9364223720928125,0.8084013662387475,-0.5165020466906698,-0.15017568181367694,-0.6961803679833489,0.3581886798430588,0.4628925993360844,0.04468597061218792,-0.7028375813922126,-0.2733893515767703,-0.06787192180754033,-1.3511451294752337,0.43047184103460895,0.07611607474775892,-0.7873528765976331,0.1857942982798024,-0.8191343026110389,-0.12725244608545722,-0.610445370308083,-0.8683379439836532,-0.35251419043243093,0.6204159683205634,-0.9180682010878838,-0.13989637070258118,0.4966920536534595,0.7667030339122032,0.13586388288925128,-0.5176330444093826,0.4604221445681136,-0.3846820336044677,-0.2825524885927135,0.06668394359760013,-0.14680639575539955,-0.13105899427624992,-0.03545490694922626,0.7271472657152169,0.5747334829177666,0.08234307959528363,0.022316692007568587,-0.9948689638306623,-0.810401754210339,0.10152802389060647,-0.2944193062736478,-0.13847956683960166,0.8777175724163636,-0.955052702434476,-0.16077261666986803,-0.8932706407472328,0.9900648714798617,0.7785349411829037,-0.09271416641896982,0.0025605136228819925,-0.17399400307336446,0.7545263388435925,0.6133849446039529,-0.0962003737069175,-0.2947770461546147,-0.6875175294442633,0.35478737892415907,0.025674651200517512,-0.6409094156735522,-1.0409322299206312,-0.8893440487518001,-0.8490566210067951,-0.24867856125337284,0.8134132093132936,-0.7021905824489986,-0.24054080891877908,-0.7514124186843542,-0.7169360347259983,0.3428062515609248,-0.9787390206720347,-0.20131515647947756,0.20529208016858339,0.6515691235957242,-0.563393009968087,-0.12858569005528508,-0.4527535653244368,-0.10002830805408792,0.6824008694919138,0.7099177631675246,0.7165191602403851,0.7824930647660635,-0.7815599257418512,0.2664436717788166,0.5301221684707713,0.14368296568661315,-0.2823905316344167,-0.23669283720215212,-0.48334537731913685,-1.5229246797018827,-0.01898323273099256,-0.5484486661647493,-0.6344779954065168,-0.23457887884130868,-0.06961983700035751,-0.43584141525564346,-1.0481794083392233,-0.4017565956624253,0.4195197263206114,-0.9796284403197202,0.15031089650236892,0.55913227424675,0.027603397483020296,-0.7253310816078515,-0.7045871889209605,0.4128824742109399,0.7656360340038123,-0.24243370480483864,-1.0950356549460454,0.8139731140918618,-0.4541897860556661,0.5637223128268052,-0.5264883785647536,-0.6622884964826015,0.5766766804548279,0.38945551888918223,-0.35248776871493076,-0.3434460692417153,-0.2944909249079717,-1.2650314958538007,-0.48708415075831146,-0.52465424885339,-0.2793444447662851,0.22969148422993343,-1.4144804412726129,0.006905590439253115,-1.529357837786489,0.5845843170652606,0.30020516479274995,0.744264397200623,0.8076394157976848,-0.8373105961867113,-0.26774873254670833,0.37194267616101806,0.44582633099748553,-0.054330386126459546,0.48997640076050486,-0.7156650415325744,0.6898524531448402,-0.4596644630441182,0.11489123466854179,-0.4436680803268556,-0.12461716832898,-0.256017435374929,0.08372643203355741,-0.964065501883837,0.40969641664958634,-0.7052532364458852,0.011691857854563482,-0.5354396033596567,0.055325498953605654,-0.7773285314133189,-0.9647685027306127,-1.1448649583237023,-0.7201734976905042,-0.6466434733523931,-0.03559891097840215,-0.06892894697651475,-0.7857401338035372,0.015973350786371517,-0.1285236586562296,-0.6720791185876678,-0.10769993654619177,-0.5852903820820768,-0.5354943739239653,-0.048806884571496865,-0.4250733271089454,0.21106837242264562,0.13457281035658122,-0.12857389537212474,-0.6016303683837426,0.45861913619202943,-0.37072476517738956,-0.2284817595736574,0.31003347715265234,-0.5274944248937535,-0.478820187972951,-0.5082005715339015,-0.28338697673045177,-0.23838373795409815,-0.2588151062235597,-0.3689877208271319,0.38419105189507,-0.04651384057948535,-0.08897362381305873,-0.6730375283359291,0.5079453863576274,-0.2806783049187171,0.5878478086231239,0.7873649726293755,-0.4962526074096214,-0.5323317891154961,0.5277997592799596,0.29685292329505314,-0.1377271135171747,0.011745367371048141,-0.4560984048510094,-0.6781405767213299,-0.8579902916279392,-0.18497760820868547,0.7136747853732013,0.8279589664312681,-0.8573936691269648,-0.3981533079125295,-0.42112236318334123,0.8922106722243448,-0.24408069493863022,0.1354634465736879,-0.6634933912587269,-0.8321874792842209,-0.5683303282926955,0.5114970919356586,0.06335507632275779,-0.4365295639552397,0.33747067260812025,-0.5020700524022064,-0.49229792906195996,0.8081243828913333,-0.7185051398111733,-0.5168359825890055,-0.21365368283910377,1.1657120147896203,-0.7203835688012007,-0.22881091556911073,0.22845616980049283,0.34089465403209296,0.07960240617873106,-0.4385516011673242,-0.5560828887293475,0.05491625193964955,0.9595239001522429,-0.05376843496503186,-0.3100846119936938,-0.7805770750160019,-0.9425089908773763,0.720814413549126,-0.022492420977378726,-0.3506995322130578,0.9140826690317265,1.0306192904572935,0.4227634831895881,0.06650676994281622,-0.8651571362255291,0.21282351460563456,-0.7107508270722163,0.8189261010908622,0.3268715628362317,0.05948682892302001,1.0107121754894164,0.16316330897655892,0.3889107304081188,-0.5109615135300176,-0.31689629964672944,-0.07098719059462334,-0.40550491318644405,0.3188249854674296,-0.3628921428923579,0.8440522135780144,0.30514303597734477,0.913695281707716,0.5657575988335081,-0.26364840485034785,0.687733429208448,0.7798900374633471,-0.2565646496828378,-0.4247520387839756,0.43589188568857545,0.8478081041073826,-0.17470809806640966,0.04870697199373634,0.31545778328728585,-0.24996967367678052,0.7803950731213595,0.19143606188168993,0.5491554261269819,-0.7312598962300161,-0.6044511581722765,-0.2947153430040199,-0.14707989840710345,0.022853645317727607,-1.610657535762655,-0.2258430297271257,0.5457933233803911,0.0669979726759321,-0.1907805513405982,0.8296287059855839,0.956811859693435,0.1600574217120957,0.3027467785974933,-0.27554999906161576,-0.37820785923154804,-0.4329593691353558,-1.1738729849692522,0.2963695754469142,-0.5253690995647985,-0.03223543669052101,0.1851551069341231,1.1574497659864291,0.10828469099792129,-0.777869379966276,0.5070855384726594,-0.5315716634220502,-0.5753321413877776,0.4481527056610343,-0.4847040496829752,-0.37199847170809397,0.28115080841925205,-0.10193312228218236,0.21377262259515756,0.8300070709106567,-0.5673952944013915,0.44289985794073256,0.4720682694120655,0.0511143734070947,-0.6498516014945467,0.38105738949139345,0.5079479972860939,-0.13196838807147496,0.9931474601492105,-0.63060404195208,0.017328352693758268,-1.0209924820860303,0.5750563664255819,-0.2154914574690805,0.2971457416317546,-0.30073621441930104,0.034938232234541636,0.4577222185576929,0.3676122880134124,-0.5113262462586095,0.8604389307773511,0.8518882155213631,0.5352483474418346,0.27883533049005693,0.5054771256909781,0.1583904010034765,-0.29878621325227633,0.5308424498479476,-0.45711204561879815,0.38789323107292106,0.24978234043883377,0.289230516413265,-0.7841857102471195,1.4368175197179738,-0.5471668225448214,0.4805319751997742,0.18980062473289844,-0.38495734803977366,-0.20506501473070268,0.05795210463385802,0.4851239998213306,0.4441862819061443,0.30963875359409165,0.22777881547351475,-0.7251947921762686,-0.33773387733032034,0.10769634122669243,-0.05635575557904624,-0.6005293699598376,0.564101054244848,0.4892142493089681,-0.46061048807082106,-0.6866157539925632,0.3472103361437353,-0.9011646843352727,-0.2625721356165654,0.07945617642110225,-0.27970466855032194,-0.003347471386924964,0.06660655668955887,1.0528889998880637,0.11502293262711975,0.1296906643986442,-0.06811011057700132,0.65980630735858,0.8141145263481893,-0.3897837595050891,0.19816892951966472,-0.27487099240197654,-0.04491525030574247,-0.5072220376438205,-0.20247951862052468,0.5182584567375901,0.2382514944855067,-0.9798577161395227,-0.4670683239928633,0.14145806462994598,1.1630633615288242,0.1493860419569387,0.7814190230401642,-0.866516088011309,-0.6510283281995003,0.5035507901422405,0.11726862134148798,-0.27388051432412763,0.06254799625301195,-1.0939974666678751,0.32331907139499144,0.3008571114622062,0.14745440835138912,0.32867001196736145,0.09222698320724099,1.1147126408243142,-0.37884150058351157,-0.24902414965570152,0.6815508681980285,-0.19548742231264626,0.42643817279337304,0.48661544083618863,0.4416665243408434,0.6949910518131227,-0.4562876595479033,-0.45650394889430973,0.8375336469888508,0.12461550712313404,-0.12142713064487803,0.4082193786245411,-0.2997069816452264,0.3717721268484684,-0.5431270903535131,-0.5218635077346422,0.7653824771768472,0.35790999027411713,-0.8058826490501686,-0.5024313543560365,0.2701560959163166,1.200580211967441,-0.08350142198700167,0.5862319292456873,-0.5922722108241977,-0.20497417813069074,0.5523895477625911,0.4263880129263282,-0.030330748800087837,0.4857053057686186,0.26579762780907346,-0.8578482872188542,-0.29818190773696657,0.018121123849367125,-0.15177446307248418,0.719189724911425,0.8169259045535634,1.0348356503647667,1.3039367882946715,-0.37766589221001307,0.5243943083956102,-0.453959716402133,0.5741753528512988,0.539954733096314,-0.1973054771575283,-0.2791526525703278,0.44107674778465905,1.1603723042835246,0.03010875327541819,0.1148847625545997,-0.3080022862864467,0.5125792638489737,1.210701617373736,-0.10925697457225703,-0.5837298613429839,0.5979224106407098,0.3847330901301243,-0.155309327283078,0.033792843808439464,-0.3701532011502557,0.4864247722609023,0.5715220362922957,0.8983840581803922,-0.7446895063245034,0.03201087075203696,-0.09335949211938978,-0.2552281667397584,0.4277292904767414,0.16280990486117694,0.38146237027160224,0.5957733469480903,-0.657219523495898,-0.8182700868986453,0.4552472751329224,-0.023243809461576583,-1.491602018790992,0.3383961531616487,0.12972132320558294,1.3429645577099363,0.40415123584078033,0.1888963540355671,-0.6400813845020066,1.0934172346467539,-0.7326368990510337,1.2317069406207382,-0.46878669003256696,-0.41765140757545416,-0.329215318711102,-0.33716274209786934,0.49647350686170666,0.40439797435383773,0.6264290010509015,0.8762920252977827,0.660842349165906,-0.6461670469853548,-0.7223001904843197,0.295067457331246,0.4498950911301523,0.7239976354227371,-0.03012251015603285,-0.11118071085935152,-0.4410153329145934,-0.8127614340168786,-0.9624964372871698,-0.34081838063297354,-0.8382203719816574,-1.2456506824030404,-1.0617021292698336,-1.004482040949127,-0.9028838384026716,-0.37422936258298234,-1.35845741243403,-0.281050522001802,1.0426566018973544,-0.0906075865051714,0.30844674920659587,-0.5484597846011324,0.9150521866267745,-0.7918161151236754,-0.04932947565000005,0.2020163691167455,0.5994445922209698,0.7413647037412693,-0.5506619147053688,-0.16381924265527348,0.14757787759384974,0.2038429937861606,0.3391779312503694,-0.7423981335296249,0.4786945989753973,0.33584489988139116,0.19724073534232814,-0.5672893973672725,-0.8118637661546164,-1.0368549172155612,-1.4555349006525937,-0.4927044463295454,-1.3541688378653178,-1.46682371777005,-1.8220204751916405,-0.7834858186332815,-0.8155819421701448,0.04673617287292488,0.7057104092815053,0.21119704884141427,0.5652879850008844,0.23720819858932687,0.10468784335176724,0.8121548922344509,0.29372153990132593,-0.9325897874714288,-0.747210757500151,-0.4627844854636489,-1.6124647255065576,-0.67222689283951,-0.2683966652308985,-0.9362113274983824,-1.2124072698450483,-0.21360870556573125,-1.1216056688417757,-0.7271041530153604,-1.0116634010994734,-1.585703980451292,-0.25734064234687987,-1.2329898103285237,-0.22941839619846124,-1.3565263666062883,-0.1323806221365454,0.008868081280556772,-0.8291698359473458,-0.2987396511411818,0.10334041817320787,0.2059110509879745,-0.2864747685965893,0.17204987870013277,0.48890752818232186,-0.9115412478623581,0.12578414458501136,0.7875622721200676,-1.0861737363413606,0.0708538352714671,-0.5559199850428609,-0.6458612828036283,-0.10375331840039674,-0.8121423981064021,-0.7343553934544101,-1.3964729465441703,-0.8095489349902609,-1.030714888243957,-1.4412541061280548,-1.5989734036810002,-0.3374095211249495,-0.8599090124875555,-0.6550208662533102,0.29499207829364155,-0.13547883988583578,-0.7272857301511612,0.592009207958492,0.21427327489558914,0.5933127164699322,0.1620465364568385,-0.3502306027862394,0.4053255264797495,0.546393502635212,0.1779493764531746,-0.31900219884213316,-0.32434691932335397,-0.9714947994869984,-0.3965712879706333,-0.34041716141048906,-0.9364168311153573,-0.7574405078463209,0.20959135201315326,-1.719917627452889,-0.5804270382305512,-1.153831839810412,-1.6539504887278194,-0.4152647794868362,0.004781414434978946,-1.1260012184676254,-0.6502929531469971,-0.21091763497364252,0.4233492707556432,1.0183024925749726,-0.8883400678164421,0.06396082579044084,1.042577349432782,-0.9704305843535739,-0.16486325741208857,-0.3986259445609259,-0.8525557233104455,-0.24228888174084706,0.8425090498245725,-0.15807811017776324,-0.6210972043227532,0.253321067806335,0.3752278236945089,0.8836466611000982,0.4470659576654454,-0.6535457866132609,-0.7751224053990148,0.1240502396705412,0.7336141854500016,0.8931984757459313,-0.0826841797077554,-1.0795008286887138,0.852090413218658,0.8649917561882807,0.5524741082180451,-0.02759184226443827,-1.019660498521453,0.8758536574205901,0.37960067989007185,0.7987311002263162,0.9749281550920608,0.048909757636116914,-0.3214711524351174,-0.5296345215107523,-0.4851759642327893,0.8630225872026658,-0.99386524409169,0.017985266233561354,0.2194798884790936,-0.17894732630218585,0.007777160963731522,-0.0469924191806118,-0.028859810345851285,0.0010031693593749598,-0.20449295075766805,-0.6332398706752034,0.5085443912207634,0.7600787366682666,0.7152654524797321,-0.6928535554354346,-0.7442598797828284,0.5178544231488581,-0.9565723971879911,0.3228977014306446,0.63397650792694,-0.264521848449773,0.2442786957037649,-0.9210816368052372,0.6659808280365803,-0.4600716147058532,0.9340339660804453,-0.13862153452155468,-0.8977820379075316,0.23684178193081418,-0.39694877543217055,-0.668125564187801,-0.7743866475075895,-0.05854459302233068,0.5849804706033528,0.2017233449289427,-0.44281824375583995,-0.6628892266790872,-0.5242686139743796,0.5942600715885242,0.2514149363631062,0.40878040183084413,-0.1265345594967982,0.15923730310215187,-0.342970858541328,0.9038698928931543,0.4972052254194846,-0.9090566290481584,0.11895220690799925,0.5773317660692439,0.2675154039725233,0.015864811244858206,0.6964319901659723,-0.9449512379187115,-0.49127192007018583,0.08007491183962423
0.8943140313159079,-0.5734589218253163,-0.1748976296288085,-0.46947673153029523,-0.5948052483632789,-0.6927107667928196,-0.35796695907860854,0.4525076468386815,0.4457205240633959,-0.24581429258943466,0.6579528548596949,-0.7476984099706716,-0.3765880614432396,0.36000728608906174,-0.6520756152878953,0.4882288745591395,-0.7060006055048864,-0.3727148658075463,-0.5732005316077611,0.06541760780800043,0.4393120132967616,0.01858213155199584,0.26438383738411897,0.5249089552840134,0.03300265443599315,0.8870967432587586,-0.7309741361498585,0.18230799873257442,-0.5872121262007917,-0.8278244616975259,-0.9216869566638635,-0.7909433935545127,0.7481161626785823,0.18925997778987746,-0.9833095971656058,-0.634541074667398,0.9145957982923398,0.29106195037367394,0.7890885493341503,0.2633210984756919,-0.7426442100860818,0.031275672057598035,0.4148120672603525,0.6607489097393068,0.21537691460127678,-0.6682405049787372,-0.3413622832014584,-0.2585348001646623,0.5994452198304933,0.7207213817494244,-0.20066037534421002,-0.6079271196308692,0.38513728961037974,0.18403899535047397,-0.5213487668913852,0.7421830025350977,-0.27649764578734204,-0.28066883182101354,-0.15147172935683756,0.8681496902868889,0.18354013056905435,0.36740575190330743,-0.6694080409635392,-0.6384566887979941,0.8374092145547304,-0.9853054370038471,0.7408787104736664,-0.3423690382416965,-0.9490311980369127,-1.002793598533002,-0.9231877618627232,-0.12126603203572271,0.5731544847905272,-1.0629848214380486,0.14289744976169808,-0.4517202122332171,-0.11905803450581491,0.32701005859284127,-0.6174142325923777,0.8784978975412361,0.20687590172538844,0.8004571510982417,0.8602455206874147,-0.21744248029141633,0.344565750201818,0.9183444014169229,-0.7535473021198047,0.3790525505677249,-0.0696784111236543,0.7592112804214206,-0.299776598477709,-0.08104192316191733,-0.6540908553906821,0.53667455541149,0.13225010411673113,1.665018014194105,0.6081382946131922,-0.3200667144560277,0.36464742058182714,0.30763877765836933,0.17065429878102342,-0.23919066346694798,1.3336250219536614,-0.8133835630904225,-0.8387386390435736,-0.13098028714258123,-0.4551621321297777,0.7395766437095728,0.03864672414007515,0.8521963418809575,-0.7898930971710793,0.27441406472384267,0.19947346815674205,0.4723806856979889,-0.7389259293218567,0.728773153874331,-0.4668632288086719,0.9878356416492617,-0.6711803630733146,1.1838267221067136,0.956548475222779,1.0160998313577578,0.24362217494820632,0.5626348472572392,-0.4809264259701852,1.6089987577407927,-0.6064135131601758,0.5524947170688167,-1.5846024341714071,0.025183436223596464,-0.6354850795038964,0.21547023306436341,-0.9093973802777844,-0.07765236090230845,-1.0014815897896217,0.21649139487454067,-0.12955124374168175,-0.38824651245120734,0.6443560825621705,-0.23793655532320368,0.5505755164347794,0.7535003675415946,0.7048021823680781,0.4549854005134927,0.5929459010012305,1.172286800525491,0.1460735373172406,1.2965455377624266,0.5530396014936554,-0.09781208278518386,1.0771363870519162,0.4830648456317679,0.3927447384780974,1.145595343126287,-0.08046642696441139,-0.04936979563899588,0.6481986031226513,0.6582397879476578,1.250261880011224,0.3459370589636088,0.4534658504462198,0.40139229986758057,-1.1199748454141762,-0.8722330737774874,-0.538513044516105,0.09651197577875893,0.23741240932027197,0.008067651402770082,-0.6733727291789802,-0.1500164283184104,-0.5003930734944451,-0.4015838381160814,0.1384787644593024,1.3547705344465508,1.6335781430003449,1.5492174312212839,1.5201429378722224,-0.11832147130192754,0.8368927778887614,-0.06871472660282316,0.4686908258348539,1.4788416381835592,-0.365371498064714,0.13778498766083502,0.40510689499989133,0.25216429162498505,0.918529736329597,-0.02579139374784162,-0.5990647907379634,0.10962591272707835,0.05212285722890389,-1.568488982862274,-0.5570566093855204,-0.6328919173489767,-0.8876792308142551,-0.9202836716709787,-0.5759008485662019,0.9404487976012306,-0.04898630034275781,0.638590878410644,0.9748121900978841,0.2512553626851211,1.5406008854138336,-0.008645739654799202,-1.0776628645536845,0.26292907798816023,0.17509257079028606,0.9304071788744112,-0.14710484938712592,0.8284006138960962,0.9974049191206779,0.32686391501253537,0.46875830754231185,0.06074292024648119,-0.12706676117079616,0.28792132768229217,0.5314977560972849,-0.32424027458390986,-0.6237744164861351,-0.12786573995263054,-0.6655130490960671,-0.5877230277686805,-0.18583403802979498,-0.9941277539765435,0.4157019120593712,-0.2936678063316111,-0.3884276936041115,0.7584381803184865,1.6322712619180684,-1.073627018755573,0.44957058743825995,-0.9190992577978385,0.23364912798059906,0.03403486989189193,0.9295275125866161,-0.08271398983940213,-0.5644477929966922,-0.6580835696865361,1.5970688573060254,1.2485421580542637,0.4748601002747292,0.22378696298512546,0.5784022413062379,-0.5145875416293502,0.6207019758495129,-0.8237823491448587,-0.45761960733621254,-1.5636822675171285,-1.1701009928874582,-1.3928719473823077,-0.06430910753628734,-0.9530157280875365,0.6418848687505867,0.29838235794576107,0.8819933117197216,-0.4945691990204823,0.3545945478148381,-0.20759112957122006,0.5630994243237413,0.11674238287241333,1.042788159000086,-0.2075369179581718,-0.4663665271658169,-1.4755742686963877,-1.219707806375512,0.002476761587615881,0.917115621961406,2.138884376872823,1.4674386470142105,0.8236244749940242,0.29808757522752327,0.350968100224182,0.2652037996723672,-0.6184462985435338,-0.5059657742873097,-0.06234219139247763,-0.5372527761045114,-0.7963097767133451,0.5266622035783369,-0.29239372947192727,-0.11865762628677656,0.4166757710011084,0.7772088724710725,0.1388078849558321,-0.10539201543446344,0.8011054654717419,-0.1758044214964567,-1.0444508356185291,-1.1780541472185293,-2.4929241403910565,-2.493209204413017,-1.3555300569975464,-2.1953862999529368,-1.1654324801035825,-1.7221817668163766,-0.662762048044339,0.9701347067418662,0.7912899365182836,1.016784377274102,1.050647210587455,-0.36784133969634575,0.9505296495264679,0.44868351611240853,-0.12363386958448476,-0.45210172001357984,-0.27924353058607104,0.34219382261349374,-0.19243450075859578,-0.2677409924236226,-0.9000126887717163,-0.26307959127617925,0.4832322638138853,-0.04142547219857268,-2.133985167214908,-1.1481191160305213,-3.638922066897765,-2.8112446695945406,-1.717292160388351,-0.9938276818217757,-0.4848199551392423,-0.5830545010903184,-1.3663335367569516,-0.8786960126995301,-0.7562002372292195,-0.12232144967020538,-0.1271177583756159,0.08657149821500887,0.07300012160630856,0.7450531401605464,1.1398158117694106,0.41368000718010517,-0.5852765709117993,-0.5201432376028847,-0.6010617291870682,-0.7092785132476794,0.6249668645404063,-0.5866514217452857,-0.6042616428086511,0.45084164135493227,-0.8988254596363255,-1.5024949505580751,-0.9918501596005563,-1.2735865202390784,-0.45427034857738247,-0.34095650600433786,-0.7943887820814923,-0.7215016298425186,-0.7082047687609844,0.5616612229971638,-0.4768671976168437,-0.6223348944038023,-1.180275836068659,0.3408452640040479,-0.08048982313834054,-0.3135555816450523,0.1939470649559859,-0.025929452397944523,-0.3421465421849964,0.6926245134120069,0.7481060657013267,0.2735798649860293,0.49396113984880125,-0.9801949923765851,0.49071245363955174,-0.993277747893977,-0.5168408162979262,-0.9636041041763461,-0.5461197771829867,-0.8511054461029314,-1.3310459543158413,-0.7249070798444324,-0.2603883849147852,0.23928380105943964,0.3713455399957723,0.7758492063590751,-0.09473131111139199,-0.5457638822316337,-1.403744577742169,-1.4254994550717917,-1.8480327885187848,-1.0117855215240767,0.325212966236398,0.011163549155740806,-0.1411895483170832,-1.4106404859768977,-0.31001950321138194,1.2883713938474193,1.4913951281884847,1.2835532559409373,0.5904206987623433,0.6881018649681048,-0.78107646109524,0.1271752928898163,0.624112483153956,0.7016958050522961,0.014612389895031786,1.1491149277229897,0.5754426066180302,0.4207111806067091,0.6723800620163162,-0.5339545515234401,-0.5290069744757218,-1.600379662118892,-0.5856092820763432,0.10910451259721546,0.4952462350303421,-0.79405932773785,-0.7884692088190338,-0.8786169566575601,-0.3740427193898677,-0.021698665783588783,-0.05398993050909483,0.6623816778073344,0.2148527139706132,0.6084914315041613,0.22860770044999565,1.4298943323979927,0.5125272799335172,-0.5003899104874218,-0.2412411213732755,-0.3125750581034556,0.23046413403443686,0.3547812184701251,0.07000411135195621,0.9980809583414496,1.0017913275140322,0.37146904485881665,0.46711122273286027,0.2754257360376661,-0.4868086928577374,-0.1467091542466321,-1.7309203830855124,-1.250844300007564,-1.2404811191088256,-1.421879953680392,0.18739489757081695,-0.634873571464787,0.07282831056605694,-0.9167262077779255,0.0695722824701989,0.2958966456990442,1.2029278841404103,-0.047705870477807534,0.3605771982952451,0.4850146789034061,0.14103263035990174,0.35794478891677817,0.6839375229804923,-0.244282638618049,-0.534658397903302,0.5513827508664496,1.141773986626427,-0.22299620489317673,0.7590042307917328,0.3151350441153152,1.6184372162408216,1.009021272364504,0.4839865937832568,-0.2816450444303613,0.10815074650837214,0.05559218527474454,0.024647336492043037,-0.8373912628537087,-1.673020758162611,0.06155317517699056,0.3615047093926178,1.5760952930795196,0.835795182919367,1.0355555045867075,1.55953092316305,-0.061099369358535556,0.09356194041428452,0.4531202723901545,1.5915283271038745,-0.5626773312787756,-0.5976493239652886,-0.4289479030666872,-0.8442234500650274,-0.6745485652382142,0.44534092257576235,0.3317170118657649,1.7640131120741098,0.6418311469499044,0.3740645559662774,0.2699219886498427,0.06441141553857394,-0.1941049186315568,-0.657206431349143,-0.4810799360036268,-0.5809435645864134,-1.2249104019843995,-0.7991365340446718,0.6554007021115098,0.6845853441426122,-0.719160971973919,0.5896692046883892,1.161188363668587,0.4786363584224789,1.7467782867522732,-0.8482570118019948,-0.8496800489666031,0.34248695891684944,0.016820883885367295,0.7026070596105005,0.48814401398379265,-0.8787627710530044,-0.8980398606948564,-0.18227660172424698,2.0539523009720018,1.247646530101297,-1.0015455052284932,0.39634422735778907,0.035134102648649614,-0.15823503518081525,0.27920554865174163,-0.31269833118527807,0.08574674885940485,-0.3850008811981482,0.24274743441026028,1.0163249822225664,1.0817060616571015,0.7104436477942275,1.2783219973195463,1.1437514370806705,-0.11994709209675374,-0.433596859087231,1.6355864038536045,-0.005514281373160255,0.07334771490128739,0.423118533465439,0.5942586475611068,0.2586540376342624,-0.940327874165311,0.9299558396436632,-0.3008613819604036,0.7887915048074737,1.754141990660964,0.9432206046412662,-0.39114994530893676,-0.787654455023585,0.08084813146492895,-0.9783732183405829,0.23127912680257579,0.02753595859184003,-0.2697194784318262,0.9596060128197454,0.5732508113967462,0.9091449994164255,1.115427305221278,0.5443630589557723,1.1755155524893015,0.35178674394854886,-0.5674706709092615,0.6146317784719237,-1.2402867194839065,0.1394984125126115,-0.31759285418029326,-0.6399798920918243,0.6155844096564435,0.8461870025787638,-0.4649606001134192,-0.2039633161228459,0.5572566536757393,1.1221592907825433,2.5410142180452864,1.6064410084468181,-8.959356566911541E-4,0.4394845516870786,0.17207582543547956,0.7154232167092812,0.4395295617020373,-0.2726707214847287,0.46181780188732613,0.11337282368438807,-0.050589576804584,0.24049040588549778,0.4818944125276705,0.3982392119468272,-0.05000032894095531,0.133159790283603,0.7634689122014897,0.08622590841711951,-0.93504629352619,-0.22085771784670052,-0.5286186548569093,1.0342529580772601,-0.39854440622051224,-0.8611032502403809,0.8995379152642817,0.4584925911670089,0.45516393067902916,0.7690799591806018,1.1476094646949697,1.2274279853331995,0.6329993475510652,-0.09177452413172697,-0.23163516224259156,-0.24236748056911422,-0.06248781049980027,0.5086442141451435,0.22777475238526168,0.45696552587163675,0.044959676630691635,-0.5028048005009754,0.23314141662356236,-0.04312025174463071,0.9777833313379449,0.506872912455944,0.5872852805239852,-1.504035626254781,-0.38969689547246766,0.43652204056230465,-0.06199034223679254,-0.6151667216938816,-0.11167647830236964,-0.09736057804403171,0.9927093449954542,0.08732796507000559,0.36147687989783445,0.0724815568147444,0.6918974049940304,-0.4574224836608452,-0.5754294581188677,0.08881811922399335,0.3305272024962478,-0.08452444341946226,0.2242905931492197,0.467629974930556,-0.45892741359396255,-0.23184977869006348,0.5520365155447385,0.15395009242989607,-0.5218227689044355,0.03106456491537912,-0.7587549205907123,0.899050266775417,0.1554264179004983,0.02101477521988588,-0.53059098523866,0.3267959101446125,-0.6766066714962455,-0.053760976973158556,-0.4093077958961966,-0.27809211840864206,-0.5399229484660935,0.7704016395390414,-0.5175827332186836,-0.7816597921738504,0.7234582818706915,0.6899517665585477,0.7944116406000791,1.1000454561936377,-0.008118306049074061,0.408454413906736,-0.14575220734004238,-0.009187977686651498,-0.49011187585210675,-1.206932276985349,-0.16334092040365208,-0.12723389976865385,-0.43020543481691403,-0.7173682128401874,0.038944528140305475,0.06708709355860597,0.45666528634289694,-0.05429447487799472,0.4483756404083765,-0.4842017289940501,0.22702333763276403,-1.8144442725356204E-4,-0.17814176538431048,0.38037411925371245,0.12202875842594851,0.6393154243642509,-0.20554493277497526,-0.5513222497634895,0.6449658114204726,0.38100070891326937,0.9369984956400226,-0.197464631789536,-0.7148935339494046,-0.4120075227449394,-0.7473443787960303,0.3488951718565951,0.3844042651842929,0.0887191516218419,0.5641632571966049,-0.6552277352802215,-0.4738830034412572,0.8977457737524684,-1.2201281604453307,-0.4114155412227016,-0.1932263285260002,0.6410791556702573,1.1302971837919444,0.018939146987643225,0.6403440790793117,0.5196125125054252,-0.9466983671735866,-0.15000612854563156,-0.10884709220055289,0.6038107645548103,-0.436382008599854,0.9973152979154043,0.4557504267363812,0.8366444846929063,-0.32997515305596664,-0.16985481936942554,-0.42196551483989303,0.9613493469827477,1.8687907290427956,0.4850030512192893,1.1250714409469107,0.16609004295998409,-0.10847722743889766,0.46079111629288755,0.3051146864658582,0.010827314646354365,-0.9921056002343817,0.2836398741829544,0.33024575697153846,0.5990504771076328,0.5638238204487312,0.8711637475000887,-0.2798580396253316,0.1890580857871331,0.5912755560092836,0.8986941242221578,-0.40297872754481223,0.5997155994968544,-0.5490474374792362,-0.7456810947084969,0.1668400412187573,0.4276579137589417,-0.02709265730798466,0.4334571285256837,-0.34772511434264125,-0.5242364427439966,-0.16047675959775387,-1.072755697271654,-0.08384266640098864,-0.937658908122252,-1.0061379381653264,-0.19843042679823314,0.16120327214244398,0.5401365098094667,0.9415244495781112,0.23153182749621054,0.6022346012625449,-0.8349266985731834,0.07161596762953762,0.9545181385973908,0.6932256747512762,-0.8060888774289149,-0.42216085440591766,-0.3770917448303004,-0.006395905874764907,-0.544148849042732,0.8703654862124899,0.3804523282482071,0.011180532390920744,-0.03993204444366174,0.807565792132163,-0.7679898614130354,0.3516219941672935,0.5663614445517214,-0.6738546989944116,0.3182519131798203,-0.8711953648124344,-0.4344096317313208,0.5488615461653816,0.8065798209014907,0.6171360445921336,0.14954287737356028,0.6937979243304091,-0.8149198481206917,0.298920574848801,-0.6577951973852316,0.7542815460994736,0.9080726705953082,0.2822410308458716,-0.4151489978527827,-0.45292021124528703,0.6704170322796543
-0.172124793985569,-0.14831022112300785,-0.6753630095469412,-0.6988806453195344,-0.3923797016002315,-0.6906588279415173,0.037051030783103345,-0.46360152501242413,0.04815571677016495,-0.762725480693375,-0.5906069773720937,-0.9920098769196743,-0.775017099348982,0.1494945663821661,-0.12503501027918681,0.49472600974946773,-0.7573859898041626,-0.7677206800074134,-0.3856249930854798,-0.9577038157939857,0.3224840991693281,0.7863065535506404,-0.48802189431364895,-0.4658919504892838,0.9243052898317639,-0.7707700317510182,0.08224931831821225,0.5698698810358855,0.13923109053042726,0.3942702179716706,0.49675039010219546,-0.9033374136322052,-0.6755922125045151,0.35617749055541914,-0.286464314243518,-0.8780454781440956,-0.5372478336119799,-0.18394291784188074,-0.5211562443627857,-0.8278625880304044,-0.7143098030122649,0.19948633692606796,0.2411427380958692,0.263539459161419,-0.32576513452097283,-0.764903669987212,0.8574414272107033,0.8638797743651743,-0.8156603920155999,-0.35909384902982827,-0.7006812855943471,0.25897828833626,0.6815345889372222,0.6383479201747486,-0.5037219825578447,-0.5789510508411595,-0.06214363701868186,0.5870133216787894,-0.7318853272488478,0.3352289428385963,0.9175508015574899,0.17791215900884955,-0.45680345984572335,0.2623751823766966,-0.4093549153529352,0.14156062212934475,-0.8269144434242327,-0.9409376587690895,-0.703751200750738,-0.5698615554794104,-0.3386019206197616,0.2715291130689325,0.5827019755828232,0.9878451192318854,-0.24940309024116789,1.086972161343432,0.2864345954750469,-0.667699732689972,1.0117898774168546,0.9671759082046455,-0.512421615595212,-0.029955553469699744,-0.6438822320837374,0.22535540171527768,-0.9238166262370748,-0.6052761386920222,0.5730055696916705,0.28220168865364026,0.46199370985194654,0.5926900078193876,-0.10104057245627221,-0.5617687801838193,0.320785431901331,-0.5699093528303412,-1.0912188155733629,-0.25952642260302194,0.4283368671029903,0.48965036662089695,-0.8927893941855837,0.3681488818349635,-0.5072482637437253,-0.49630069118370956,-0.529685255884474,0.06244106966397274,1.170529710069782,0.9426347447851894,-0.4743797056191021,0.255247038544602,-0.04753594968044518,0.08908749982792621,-0.541791346958847,0.3488890952131447,0.48110974624145775,0.22820329056944078,0.5134413283239303,-0.3127792977618892,-0.4373749383644543,-0.08962428816277448,-0.003670474525613621,-1.3166151607384387,-0.4275066099494644,-0.4040567204432793,-0.7915070443448603,-0.23112556611952134,-0.9931428071764872,-0.9996121878174836,-0.08271965359921574,-0.09555781580275684,-0.3531303907233383,-0.5222247865846119,0.7158656937818445,-0.46806001806694153,-0.2764153687977666,0.2669711162626575,0.799849586788421,1.4024062023953183,-0.30629850255389485,0.0900462821668286,0.32427251987361033,-0.9886032721433614,-0.044347132582380766,0.47853828365063156,0.3759451021697508,0.4797404735066292,-0.39936799566732123,0.01685286706047738,-0.8341820732872205,0.154412138569258,-0.29871564469207074,-0.33073046901832703,-0.2694586693339114,1.0481275443630769,0.3388037918802202,-0.15491082455112246,0.4474031110114062,-0.08935126951743952,0.366376048418467,0.49090560208364264,1.4158865211076201,0.8125764376540833,0.4826499054813278,0.6961471545895965,1.2488064793177023,0.7046274650212528,0.252978573253834,1.0349658404394724,0.37303051135635384,0.29223176565395803,-0.5127636777323679,0.22527582062149823,-0.949642328893519,-0.0706389947904776,-1.8670147074011352,-1.2456145085954753,-0.3906566717324697,0.014943069937135055,-0.5763447587759772,-0.7081480504619698,-0.47403972788661214,-0.529376495757331,-0.2204711129933721,-0.22988095463382752,0.26591229510915304,-0.41506196408437057,-0.5635226311110155,0.5242391369295106,-0.5537928102040092,0.5237142549819976,-0.19302755961980114,0.023795511824149906,1.4578709291079917,0.3598973166134554,1.645958301469269,0.08629201632904408,0.7288489809185588,0.8816608350101112,-0.5841807464466141,0.42452780620559316,0.780586544924939,-1.3290802373282626,-0.35267383280748377,0.18211848467744504,-0.7428349784191307,1.0521202013335167,0.8372089667354579,0.4414627817662414,1.0117178652464098,-0.12994377813980904,0.021915262655115095,0.021668852820603778,0.46190984781335964,-0.6323963888871273,0.9519495085725926,0.8295985873048775,0.6637686523429799,0.7678721993582022,0.3891411992071768,1.7229675555003203,1.750998519977604,0.37310772159011185,1.1899089774921372,0.6669652407119161,1.097446991205665,-0.3140955760404119,-0.08140716561266108,-0.24948022821110227,0.18677311470500865,-0.5308953733019806,-2.1441841176735053,-0.21213029988879858,-0.9881910712534158,-0.9511050855752788,0.05375160429600043,-0.2534805940555611,0.6823249131195994,0.6418530172788759,-0.482285095445386,-1.5122561475414327,-0.19400011068880563,0.08261650555473544,0.21804052462534892,0.3081858988151152,1.3484829352200804,1.9101844594010884,1.6191255593095655,0.8291533121192374,1.4233845880178204,1.4280988557819918,-0.1489535957240154,0.28950495533767207,-0.545446770705764,-0.7276980615613644,-0.9410149373186174,-0.6737528325436422,-0.21283208494125036,-0.13452111944120554,-0.731115045509622,-0.840567436870875,0.03381935363716285,-0.9495575667329677,0.5298758691929739,-0.21820058857427166,0.508828728200369,0.8227545907311777,0.39441353214002645,-0.7107127764736757,-1.5260471840955383,-2.800154706352898,-1.9956522387157047,-1.3082877092450982,-2.0461113975422127,-1.9818869090234381,-1.6800853697889244,-0.5210934046707425,-1.3623944103836416,-1.41245731687851,0.23615625037925436,-0.4249634765345878,0.6211806088559972,-0.4684510215427454,-0.8737584402647444,-0.18560809573962972,0.9640286548106429,-0.6722770503855493,-0.016674916590238134,0.4133002961200578,0.8138283866995037,0.8666377598074849,1.139120736536512,1.9335719648473748,0.2265077310460593,0.3637305717427108,0.7495490494256085,0.6748309477253289,-1.8686670014887585,-1.120450139969894,-1.8634778581405274,-2.710242591975022,-3.4940557576077835,-4.568721262523304,-4.601556027498995,-3.537095620441088,-3.539086854690752,-2.766628965677028,-0.2384739895928327,0.02486673482744241,-0.1987184203018159,-0.3866079913050805,-0.8423164074532253,-0.21496556851215798,0.15428306027858005,0.10365757110605506,-0.9528998830063418,-1.1143371295443674,1.1357505437962396,0.027759755480846332,-0.6165694791948567,-0.2504278228508838,0.8979277503714379,-0.41207497191806247,0.4550119787695176,0.1016927022685685,-0.8521718279172618,-0.6159539769462776,0.6044605334991147,0.6503452025486466,-0.125322570914437,0.5596656752596176,-1.4832399868122557,-2.8680155443513176,-3.236335379231244,-2.32601877891578,-1.3816409588107308,-0.9807943421176752,-0.08423932652760795,-0.8285215014801289,-0.6092524039847733,-0.1624086245684437,-0.4917334453022297,-0.7838906152427233,-0.17996982618624296,-0.3621519863971826,0.4024115790598811,-0.43812619337956044,0.3090547926525632,-0.7566114918305478,-0.09114001953795164,0.4590789347964555,-0.7546974291413489,0.4504623685343774,0.31850791507090753,-0.5698487672814662,-1.6369433536322335,-1.2958717212220094,0.7240078536692509,0.11203554555120761,0.07487129036457953,-0.5090743043078045,-2.273528085285925,-1.6679566729195408,-0.9893085636459514,0.37270647655701616,-0.44418259373714175,0.35046720805749115,0.9266884773329626,-0.06325733846098025,-0.9074339584447586,-0.2508056341276999,1.2487044641707963,0.16810838870650724,0.7019049807211214,0.023466528609320598,-0.10566962368470263,-0.2517367172532396,0.11790755746085074,0.17812092209688923,3.6057012048852616E-4,0.02809161446466256,-0.8042270413933007,-0.5796033453059529,-0.7385853234963353,-0.09132774894686725,-0.5868929026189781,0.2022890794398321,-0.44417741568104663,0.2724264680572351,-0.20378936765539113,-1.547054787106677,-1.2715883581441654,0.4229522770761545,0.9893132260195125,0.4988092686510102,-0.8661689473929773,-0.8743487837750951,-0.10840388461952169,-1.057663500878131,0.2690630911566262,-0.9003211376225156,0.8309204513653069,0.06508905587817568,0.416908598517273,-0.010054195795052368,0.40460829493157785,-0.39527516966888854,0.22400015560279718,0.3189599578310931,-0.9606010940055976,-0.18217506325211255,-0.5243758180045317,-0.6697760525044025,-0.11330829826819903,-0.7155316150256871,1.0661513762603583,-0.22523223871500542,-0.43134223361878793,0.2932247262559576,-0.09004348072850302,-0.46077523440931584,-0.16774725615264674,0.14546769049276273,0.19462917340697386,0.24915878745573744,-0.015699742568679315,0.6672705919584265,0.8477384337470036,0.18545523674047334,-1.10304036848982,-0.8421689930688094,-0.2604892238391276,0.14462389978205117,-0.07660250135434471,-0.8659283396522787,0.8877814341693829,-0.6095446101964451,-0.787684065559099,-1.1127159969057088,-0.699883000773405,-0.466145540416465,-0.10862543642722028,0.4904432545850009,-0.3992007871560915,-0.2455633688277193,0.07731050997131925,-0.7786961264375495,0.10085437289369725,-0.3058643961368065,0.7563275134386905,-0.10808991186055328,0.879191029728417,0.5128221514520286,0.6577292967761458,-1.2032820595602747,-0.4292772030301515,-0.8883873913520142,-0.033494219276209374,-1.1148584112494555,-0.8777764067217535,-0.4797959789217037,-0.9102664678263571,0.35164421944085855,0.24426228218408425,-0.3735067810144698,0.18181344118750697,-1.1703470535643405,-0.2078557901204155,-0.37065707647505536,0.4217562075954932,0.5468961814023127,0.9359964691239171,-0.8272832051324491,-0.35353196606698434,0.6393507303894282,0.7380630899694137,-0.6211446897812464,0.4511139987020488,-0.43567844059220456,-0.18851786340772891,0.24745331416400398,-0.303439420967891,0.25179523226581446,-0.1907597111606359,0.5179373439864688,-0.10571229632381164,-0.03734315263266407,-0.7089999950310362,-0.7164809777504072,0.0011857171397253042,-0.35687905041003837,-0.9850850959411973,-0.21181149280221617,-2.2917174516186707,-0.12119064304549586,-0.12099291678597072,0.18079493309437758,1.240605303488068,-0.031272555600483,0.11176351900310229,0.0329378940496165,0.8374933508819448,-0.6774504485269476,-0.12485314273555606,-0.08882175347652328,0.5543232450489659,0.7079311902984081,0.5786210703233595,-0.7263421022335794,0.6439335102714637,-0.6817831678480183,0.9159195482510764,0.4626596207145679,0.39326935284578973,-0.01929086131790986,-0.1540970247622867,-0.16475395766857306,-1.4562103365080545,-1.267727405034268,-1.0434586714167797,-0.7907963225001379,-1.4340859908267265,-0.6024664183689374,0.106043803215099,0.9836213498945813,-0.5642212825378865,-0.26334335243188733,-0.241766382980246,0.12500696082469417,-0.22400623169545705,0.38007925791263664,-0.0022440880577018285,-0.5338533720450838,0.10057125149890674,-0.5573714192512705,0.6361930970482519,-0.2702488453392396,0.46459372368454016,-0.6662548243857938,0.7377928806531345,-0.3198499321302669,-0.25213363663435656,0.37547293846406116,-0.30738650500618836,-0.27760581820433733,-0.780700774671389,-0.25066509611777427,-0.4170008207372265,0.7485749060749469,0.7613006985373213,2.1628613701490886,0.3857439045990602,-0.323210659937407,0.06671877973374256,-0.09468192836163092,0.45339392489144764,-0.20482387155693443,-0.1294918731032392,0.6965546055581093,1.6564447652005505,-0.5050423382980709,0.41840747508971926,-0.22247600180185328,-0.6672696035624615,-0.27122723851191183,-0.8310873925799305,-0.5471089488442772,-0.7142779803894999,0.01773767378689581,-0.08795955842312511,-0.5733381925292754,1.3091647983802062,-0.4024444871925001,0.22041286831875403,1.2446858893185255,-0.617915200663182,0.08220677206295407,-0.1954463338917436,-0.7731510073138302,0.5037260882597733,0.3785165581817537,-0.23524259419498642,0.38045033762784114,0.15311205776847148,-0.9598502978240042,0.5961770062032334,0.6318645955162284,0.5799563327702396,-0.6389491761156777,-0.10484923041057843,0.18241520819334286,-0.5783656181868697,0.3376631648260167,-0.9222125709067794,0.8011714988901888,-0.19401616157323034,0.7860531004843698,0.13244954901403205,0.5073082508686348,-0.12866718919227846,0.5000641722923302,0.16769206565960418,0.33443484309721605,0.11007229094386589,0.2936024196938767,0.6367055530019312,0.116860646679011,0.4345707487607737,0.864969851637761,0.23375961541255963,-0.3418746125082809,0.9521112274319645,1.8245153245043138,0.2688255762664162,-0.03649755094944507,0.3517727699320572,0.1302875576192175,-0.7421142760977004,0.5951725602327127,-0.8472476709184606,-0.06737563690729344,-0.13046509270275336,-0.2919646454693027,0.2876724264387617,0.20982055082927567,-0.8619329348903773,0.8895105777453589,0.3171077420436571,-0.5500575772663922,0.29182546901272627,0.8963069826945831,1.0459398552476626,-0.2836528035949254,0.42620501322474946,0.5949958275811948,0.1449740977632369,0.36714156994534497,0.0311914861821273,0.13961842340497493,-0.46698684019064685,1.1922929010293422,1.1352959861777763,0.12924726284314852,-0.10931291155711519,-0.7429798735245767,-0.4239793380165707,0.6468539318578981,0.4533667972158264,0.6262539956716735,-0.9538850911341624,-0.04983088596472365,0.03788789899439426,0.6799054749506092,-0.36487573290706016,0.01790997578902166,-0.5949059727638918,-0.5697598180596785,0.987018304881895,-0.44642246078761955,0.231053040297167,-0.5117412233609276,0.8605611423231114,0.21456676701602492,-0.045773255607348705,0.1823762439814809,-1.0842821954930797,-1.0540129129447513,-0.42918778657131823,0.6074519100376605,0.3532835867047702,1.0085894825220272,0.005196598618817082,-0.27398784024965617,-0.801721114055382,-0.6686102156099993,0.8114830302567952,-0.6470463426314943,-0.946954143418003,0.17281201541021293,-0.4822999081608897,-0.7037914966130865,0.8675153502150117,-0.40516368317361595,-0.050343866563197524,0.8862969299324845,-0.8758517581441305,-1.0617756724305643,0.846320836196337,0.18409628822446414,0.3176452781894552,-0.2445976994428213,-0.5403587302646999,0.4143254744863223,1.6213854055216457,0.2881903521702,-0.2227064735114108,0.17488427984063923,-0.045886149514423664,0.88062503730261,-0.43922788409566177,-0.6302424777923537,-0.9588002058658308,-0.598570450863408,0.2654181948559813,-0.7504111946913803,0.21546430056772278,0.8327947756449652,0.10055387002628663,0.301952362764228,-0.4914638538125233,-0.17638711878385083,-0.9782062202268873,0.08675195391534762,-0.2107767785203154,0.8324801414332771,0.16788901175305807,0.9533921667263016,1.1145057390654225,0.02928035606581301,0.8066804221460304,1.281508788989955,0.9942542522076726,0.8991732481669635,-0.41915372723584715,-0.30722129523232333,-0.31353372550432695,-0.09477420095894452,-0.016814111446625517,0.40573748568910184,-0.08229187676702103,-0.9174086583634942,0.3822003655328723,-0.7862307564524267,0.6188334311508934,0.039318143682547387,-0.7572215669212151,0.4664209785582121,-0.8609345259419837,-0.7569805410752511,-0.5271043598231866,-0.1603971362069112,0.1159795093475209,-0.714677842763717,-0.35631087522910654,-0.1661674768235313,-0.06675083306682951,0.8923109393751347,-0.41504067936238054,-0.41925235283781964,-0.8133221091654971,-0.1586502413217884,-0.7688552320970284,0.2552737994172093,-0.5776168139753021,0.7374388400736511,-0.08021078755118478,-0.3270793448677402,-0.6610427059483865,-0.7460116052938346,-0.7266998063388106,0.9533395064860632,0.04635825902958124,0.17635359450346577,-0.23933722300129953,0.8629295922668123,-0.4748018259320465,0.10474170065199459,0.9473030081160597,0.676389748645325,-0.24887248215047125,0.7564952473836247,-0.8617242097851392,-0.4429742117735745,-0.7081035515643797,-0.825212119117796,-0.7382114411794803,0.02473441551304967,0.3344337180427036,-0.9315571956575844,-0.7281756797788078,0.007445626306551771,-0.19936298978999947,0.9873763357561833,0.9973553268081843,-0.14735949642325075,-0.6781535111728227,-0.05466662759187946
-0.4502667913027061,-0.540132420512643,-0.9985336229492017,-0.8478605413471274,0.9109841658796358,-0.14590317744711823,0.9839099906175961,0.25496114721788166,-0.3674940016455617,-0.8264362317250715,0.4657996386642236,0.8039027881889862,0.8516869987074952,-0.13725102880889767,0.3186098834770182,0.28800208341816913,-0.5500025415989283,-0.8670589406113831,-0.8471444192281201,0.9504672602323774,0.7382869482818404,-0.3883044987608817,0.42425029623780786,0.8181270689036264,-0.5907035183459772,-0.7945842625029711,-0.33643671998679303,-0.09712834859684571,0.6595881486512745,0.6455805829427472,0.2597992547868384,0.37182270404828266,-0.6353254329866099,-0.07842422206001129,-0.6593740525321621,-0.3675039207755074,-0.01938209025061549,0.8649611728015697,0.2230222603846076,-0.259860608646012,-0.5582043775799049,0.5197337648128528,0.8923164502342217,-0.6411587200013206,0.0032228307998380923,0.6717626803201595,-0.2913711544132832,-0.7687711942685924,0.34484527130548376,0.436772552550057,-0.23926953318843516,0.9512920069617267,-0.3883210191221649,-0.2654246833517626,0.6997196645328099,-0.9358470814830373,-0.7204503426342104,0.8773279083720265,0.0054910453809888776,0.054885544740329494,-0.47864728867121076,-0.5517268932145792,0.831112778895672,0.2985318561342191,-0.19849704816513908,-0.33866171578821613,0.8476599108890585,-0.15313751561111974,0.025656505677590247,-0.1963248339739728,-0.48053572274381884,-0.5577148156156089,-0.44761081549794907,-0.8539165166666994,0.7055141031464834,-0.43860057433192123,0.5533878025815757,-0.0857016326195439,-0.7674058345152502,-0.871546145519697,-0.8235536559973676,0.364382055928199,-0.1735631746943147,0.05705883860162908,-0.6519978003061841,-0.6772051307996039,-0.37994543386277035,-0.19536953621724515,-0.16744613831016034,-0.8453317539474998,-0.5061665320887969,-0.08355909875575365,-0.8553067683962519,0.10170762731193651,-1.0543177495764402,0.07877504000761183,-0.5502636934569505,-0.036492407292932696,-0.9562350745703982,0.2009790946739142,-0.10954902371858082,-0.5812556857066704,-1.1608576779338837,-0.10651086644919473,-0.6262803696447149,-1.3245819886370915,0.22151787970155765,-0.003683332629162749,-0.785030833244137,-0.20164317981441474,-0.9860383058095097,-0.6986059092314512,0.9308152534478031,-0.6066707743663182,-0.06777120165055509,0.946600108766991,-0.8061806784654212,0.9112151899899168,0.4010997796573329,-0.36728865440122277,0.14930505201561958,0.20394570886021754,-0.8296690657608268,-0.04968151341968233,-1.273751363444244,-0.23055507769793934,-0.38980034234786665,0.8027976562009844,0.1455141634638436,0.7575926666832078,-0.3324488751050574,-0.8228682523086209,-0.61811685983632,-1.124557779652585,-0.8880234864993881,-0.7033118799926379,0.1402387933059091,-1.0762510991502465,0.0325032796390934,0.904347409340414,0.4019269181446996,0.12438372670477982,-0.8075753802217001,0.10264795148777425,-0.5729548286835592,0.2597309955548864,0.09028690591400697,-0.23519037960588882,0.5975177897839146,-0.2805464960204238,0.6181825229414457,-0.6886555168407379,-0.3265452629661177,-0.00601008530367394,-0.8759288769424437,0.5175563741923425,0.029431383474074074,-0.6070202243326412,0.21315610630715584,-0.24186648634236346,-0.7832365801885355,-0.5595761951064709,-1.4613434364407771,0.5069301257817885,-0.5153895969927186,-0.6865837823182711,-0.5142409311166728,-0.3229231043333366,-0.6006416869520639,0.07871791797813593,0.29085550612551797,0.7446835111084028,-0.3379825373045387,0.4736768914558145,0.39932177384490714,0.3430232769504024,0.5344785693668246,0.6930606830234091,0.29330365698166605,-0.932292017722009,-0.48730705720650164,0.09790619394470217,-0.5160318829962657,-0.21029948969297024,-0.7217251557238548,0.264264621432506,-0.8980714204152395,-0.3320544713959124,-1.2096589575350651,-0.5222154283616711,0.007632008448300286,-0.7705960992538023,0.3295389077771946,0.06770259486567053,-0.34197320839339873,-0.2367287327477027,0.6834610793618635,-0.70413062295713,-0.6027892340067585,0.6978450858378384,-0.18768886606167204,-0.1311019257651322,0.7334271867461785,0.2587696006087829,0.2730502977817523,0.23612761841328195,1.2478757998018435,0.179583967486291,-0.3609312464966246,-0.015872708321179815,-0.842348094151023,-0.6740971630974537,0.10223768237468958,-0.23028392512036414,0.05668547614661418,0.3229986153303829,0.1872954734262239,0.9362304564903505,1.2726070072459543,0.48987231610926973,0.552164070771981,-0.21109341413484192,0.7638540623655881,-0.76391748782835,-0.6300133621091156,0.9141265958457078,-0.8064467174641742,0.2992388784645471,0.07870149751985711,1.0295724452505135,-0.04625688725763327,1.2922029709520846,0.527568969145918,0.1173254302227159,0.9654869290383327,0.035816451009309976,0.5048949629281584,-0.4001312224829386,0.06148298819776371,0.4433800920665231,-0.20376191358919554,0.457335797223293,0.22096741943462106,0.18196825270734773,1.0904774019705963,-0.07607299949824393,1.5351821726822494,1.2567313569155412,0.8628992841195178,0.28925479136169197,-0.5644799512821449,0.7353140376275269,0.10827394689145693,-0.700710014987583,0.5977160794943702,-0.2617166360418494,-0.6189208112529198,0.6510294381311699,-0.11281507983191894,1.2475891859775055,-0.03875651697922042,0.5212094130522049,0.6015129905778082,0.5758932522850331,0.6031445918326466,0.5042787830822507,0.49802365400883863,1.0421949953685743,0.28024136942558786,1.676029708282736,1.085093049583834,0.8720683825436988,0.26016208026367554,0.7732599205489944,0.9229781814333686,1.2438878671708586,0.3996991498018561,1.0188441988878623,0.9412159920872212,0.46229040409241046,0.3100412479633445,0.5936173172123241,-0.0697263269776075,-0.1456096335813488,0.21036353739145444,0.4063509819581834,0.5316747768880877,0.4756389466206574,-0.025935105430442317,-0.8967379218212115,0.454656971726012,0.2020547605989946,-0.12416979103655824,1.0372579411237384,1.8392087010357239,2.3760296280194373,1.1468872585697665,1.038950411442666,0.7319185020763068,1.2177899265617764,1.2051604086308576,0.880554894425876,-0.023535189236953018,0.6775900614030009,-0.0803058216345218,0.885450643912055,-0.12767150963169938,-0.7996926509448892,-0.6669269637817503,-0.05483415642580674,-0.8618262578265887,-1.2581420589460908,0.0031982334729241863,-0.015069274028225955,-0.7674944466894359,0.5184750736920292,-0.16206850425812167,0.6727968372127553,-0.739084392000128,-0.5836882490230277,-1.3204744128908181,-1.4225745010525732,-0.7612698037092721,-0.4614651312076694,0.21598940461123928,-0.3238861674689145,-0.3413972848995147,0.13248198309692918,-0.7463292526184586,-0.4085528054784859,-0.33146228237421793,0.007384176405894039,-0.5824765754321798,-0.19606979888103607,0.7848904449745758,0.9339939777137874,0.15340552754686518,0.11760114974618435,-0.8503441702048475,0.4123207211319324,-0.30258909630801256,0.38910875641384796,-0.3177525869593718,-0.03401255459169201,0.09034285024725913,-0.7624496934206727,-0.048166419448090254,-0.7528838131619704,-1.88296622163846,-2.2246879815837484,-1.721286952591005,-1.3348790431423976,-1.2768252604680594,-1.3816460687821621,-1.8318318519432475,-2.9702898423553608,-1.3068050580453416,-1.220004477932692,-2.306117030941881,-2.303587798230051,-0.8972922772801651,-0.30664792006340413,-0.3318606239362263,-0.7271860219642874,-0.7889144120164377,-0.46825971082901724,0.12681572660546261,-0.7830853305063371,-0.47827241993665676,-0.040105226885026296,-0.8328413608525553,0.1877889809277171,-0.4628313617162551,-1.3053698385344088,-1.0228314181154412,-0.845398242553838,-1.4295833462352803,-1.0570240275581788,-1.0452808661012014,-0.6853194645333414,-0.551603563949792,-0.04254047048148016,-1.3743356936162925,-1.0931092131594573,0.03274560515397403,-1.6160277254397741,-0.7829240450819382,-1.0717845172230807,0.23579167078574553,0.3487757387192602,0.45230773061352014,0.34535925005409013,0.4770009753142584,0.44151546106809963,-0.06449436836352809,-1.5256757362847428,-0.5050144257088944,-0.8600347750031658,-1.6412909269451905,-2.202240547186554,-1.195671391859901,-1.0173136467354398,-1.803857985956087,-1.0352804842566357,-1.0650878716269057,-0.6388817550451245,0.40239168790960933,-0.9374556177191289,0.9495712777429511,-0.37149026773109817,0.2937501646797727,0.30655406737269136,-0.6473485148445025,-0.38776755720102757,0.2536225139880761,0.22261652870236806,-0.9443080153736819,0.5769846397577209,-0.3824194690128999,-0.24812269167461584,-0.14582305573289492,-0.5362854879766505,-0.4791356967152473,-0.006951221682338228,-1.6621288618479748,-1.7712359104113722,-2.378712325633044,-1.4359489111659105,-0.8035969506158763,-1.6263512213551254,-0.6676237329760331,0.6703513183170758,-0.7242276520080808,-0.20244229701473965,-0.6531903437874017,0.08482596957468444,-1.003375221730507,0.441245178225569,0.11253715443489937,-0.05767576688331304,0.8993530819330279,0.5700783719039277,-0.1387782451570906,-0.44991376235280883,0.22517409889085938,-0.9625075960998246,0.08947228925751262,0.5008851541752896,0.07535307395170249,-0.28973161820189774,0.2983203945672021,0.0321237184876383,-0.43845383061112836,-1.7526239613535657,-0.8787781506867841,-1.1339188917983498,-1.097569605744398,-0.17439673873212516,-0.04158174806791997,-0.6457363743277558,0.25278161391832465,-0.49055987541076335,-0.23318494416671431,0.32211897472467377,1.1333506945551723,0.5015364600656441,-0.22513974741439874,-0.18282981424403294,0.7230302324874023,1.2141843640221561,-0.41267628507186926,0.01603663339893489,0.8082450973480879,-0.7302521637679185,-0.10707338215122049,-0.6923872569910986,-0.37157128215452273,0.5417932679834353,-0.08550190673687734,0.02462239148859238,-1.3076632035636462,0.4046658263416092,1.1895352731585465,0.4554007953651663,0.09220192319554762,0.2716090264877865,-0.09347849785700865,0.008286799932701167,-0.3052415078087655,0.34735781257365267,0.23072454304904552,0.7296808668742768,-0.7922864300355098,0.07113419159551639,0.4200011505652582,-1.1069968972255413,-0.20993045770002727,0.2602605117643281,-0.7398310494809496,-0.03251350654290514,0.022809711084206746,0.2582306719518567,-0.7332862336799464,0.49658558287786575,0.5726141723787604,-0.7975986784018344,0.41448029970790956,-1.4245860462282214,-0.16311158380490642,-0.25975462781329284,-0.13275333877051085,-0.7486101068939787,0.3423054635557988,-0.2404297398713884,-1.0765449769206878,0.48828322773799127,0.2804594981962363,0.9426261037845739,-0.109238379827898,-0.48150336013009243,0.052910006753186585,-0.35475401778985616,-0.30013311283430694,-0.20304927222048483,-0.20860281882405937,-1.3488765961562927,-0.6093838050317009,0.4148748915382278,0.7151563412161867,0.9841509239859936,0.049945468980765455,0.9106820407114264,0.933412512029575,-0.3858064039783931,-0.4038227450637209,-0.24471599091180277,1.1666007105284237,-1.0224179725350156E-4,-0.8672852544108158,-0.16805597826565835,0.6412281879550257,0.3762495691815996,0.5645404050290735,-0.04541982814467207,0.062053046788270706,0.5803874605705296,0.5774938389844343,-0.2644375217013254,0.08035927344383208,-0.26429255652768613,-0.4827246596063733,-0.55089682977929,0.29213700698763917,0.1531796014773346,-0.6561375172178765,-0.040216471461712124,1.0987079411515719,-0.49185735737061276,-0.14854043152187,-0.20682570859320715,0.16468049715576738,-0.004379648365975226,-0.6907525331510564,-0.8640906283680204,1.497253066740777,0.45970308575234015,-0.3740938190093133,-0.5491947199716799,0.7355422405108463,1.095730859557764,0.7084612318705331,0.8112197220947546,1.0978679769300566,0.510160317498621,-0.10424679117219225,0.49809087265268615,-0.24616889327661617,-0.6149047079310574,-1.0072748230918127,0.4165378602399561,-1.2161267994419187,-0.8436087505079515,-0.39057902954470747,0.6293084409991626,0.655358298367361,0.7428052931987867,0.5432390448683349,0.6840867959225568,0.08845064949667869,0.5894203927770785,-0.785848639008158,-0.42593426766096554,-0.1887223280129674,-1.140219573197324,-0.07683394708876352,0.4642138109987236,-0.035244759654389134,0.18917561282268475,0.25326439306519527,-0.009814832296225037,0.6889757914715636,0.5051457676920836,-0.07521813993578298,0.6271149007323432,0.007882042813685335,0.4750208877629962,0.08145179973941905,-0.8805127501516534,-0.36803088983714377,-0.19611880104101614,1.0140211817183071,0.5507275413400328,0.29404570033170097,-0.5531364090672901,0.6001000031324367,0.05123304512833635,0.15461238708114783,-0.52121236878294,0.5598807516772866,-0.8059189247957352,0.19110401769781007,0.2416214422500611,-0.6600652341061992,0.7090388592379915,0.7604647472757153,1.160069117941766,0.18804085670716533,0.31291516316008555,-0.2549431774007224,1.066096982854612,0.3876699253923311,0.19603786946298304,-0.05853358635841626,-0.8807157128890758,-0.12255741803759687,0.2620490895389502,0.07781102864315605,0.09148145178797062,0.6940737042549567,0.8252297720630117,-0.24869265174877334,0.729725221517081,-0.7334450538668045,-0.05137041260972795,-0.831317043993101,0.41198396793870273,-0.3334638113440695,-0.08582507177509648,-1.1900813677563449,0.15065096822175897,0.15188495496053708,-0.8188371465735504,0.27576352506960145,0.03412476970806181,0.46160486540402035,-0.7524871552756414,0.014906986035319406,-0.9606899692840768,0.031014014156997977,0.06821214243878881,0.6072266598182343,-0.18182947443294878,-0.16517742277881228,0.8181048508490435,-0.2619983165051124,-0.4140982429016901,-0.40627016197933496,-0.7090424190416952,1.0830082205146787,0.4295107214710377,0.25863719959494696,-0.2116477717296117,-0.8309756649372457,-0.3126360832173456,-0.2618286331983823,0.648409284316099,-0.3435234211528851,-0.7931743047446376,0.5097820016053726,-0.2782071146386219,-0.8555991922263717,6.181118556252078E-4,-0.589358545043726,0.06209248745254478,-0.597598641204481,0.1394545837533712,0.05964652653131502,0.4491413772465533,-0.1486253204654242,-0.7465676051119955,-0.20112973219836963,-0.16632201172255257,-0.7670794751039208,0.33739522579536974,-0.9229380875037769,-0.8779182778115125,0.7591139012442729,0.12489744741594215,0.5427505862169089,0.8346161404803762,0.12448342244589661,-0.566959916378087,-0.5791670729942897,0.4780533205365092,-0.08464797595927298,0.10249367688247625,0.08858226721871461,-0.5090879642646273,-0.3611266486795396,-0.5270523724973026,-0.2331148372733381,-0.6562654282240581,-0.6023320207907876,-0.1300880920764109,-0.10675657164030163,-0.3628633324556006,0.3691686650054786,-0.03943046473801506,-0.365391730249153,-0.13499378248272786,-0.06052375948996161,-0.5080799690224009,-0.6115595881580156,0.9358742901387563,-0.8114592282256322,-0.919575954817978,0.33148175550125886,-0.36077747338864286,0.8583540365107099,0.13523826979103215,0.723013351719775,-0.04800788664302738,-0.5813599013905488,0.2044586746328808,0.6784089337333655,0.3702111918685628,0.16662776567144694,-0.4117287867528126,1.164801593907692,1.2753021825640711,-0.0015047972154429393,-0.4478891040501287,-0.9404089750581976,0.18994645514024025,-0.9213699945373296,-0.21931337246162638,0.22852188653197608,1.0001698023985555,-0.8733573584967329,-0.308356587451124,-0.4919568388441272,-0.39603757001649953,-0.21390585274105925,-0.012503764243129666,0.9208891230982712,-0.6113896367880292,0.0206783180008836,-0.06420880624628711,-0.2210263706537099,-0.9549157238676247,-0.8101122379370589,0.7205343076683974,0.6159032264546973,-0.8959250983576051,-0.6885360154757789,0.13873598588506364,-0.8710016570148497,-0.035648721368711576,-0.960953447625054,-0.7700375089065346,-0.0451342809124907,-0.503128161684624,0.32602832191372805,-0.05501272163350005,-0.1556309680352589,0.8546786035336894,-0.2985506031303175,-0.6117139116157734,0.8658546055236689,-0.5233158709851893,-0.6096950787524551,0.8707961910443975,0.6901165984182367,-0.8999668864687596
