0.05110149983317802,-0.37121946286015084,0.28050886119697327,-0.6250236874171033,-0.7316715842716035,0.8087768272877953,-0.7658769459883195,0.13545229307287343,-0.7603034154853145,-0.08470663099300757,0.06232605472762698,0.3176920411275137,-0.24666994913469767,-0.7909004279686827,-0.633914092391232,-0.5983511066728134,-0.8993487764762229,0.2370971052881934,-0.7587332961130206,0.10572512804910739,0.7229612047903473,0.6094994430807761,0.8211681349155773,-0.8719506684082798,-0.4090684587027331,-0.5450826474377843,-0.529483169327174,-0.9899524284608283,-0.5036682457285278,-0.3680298140341425,-0.6539394662368005,-0.005805171991557723,0.8352134604508753,-0.18402976583928307,-0.6544399823962473,-0.05454985198955542,-0.8214957111421559,-0.5631026667101986,0.08958036520273924,-0.5726308168017881,-0.13672470841390294,0.035079028903587335,0.5563772632672223,-0.14824294399316276,-0.236912541620019,0.5508884471712354,0.7369474823001804,0.740900031767785,-0.9155193029065616,0.8747222158920661,0.2006646518151943,0.9811449097409134,-0.07178615543726652,-0.14325744321638711,-0.956353258487741,-0.22708923348495214,-0.44921693161712684,0.6029141025927212,-0.30349722461761036,0.40788809265851106,-0.7985766359325782,-0.8686526131674189,0.43350157354344143,-0.37493772142597726,-0.16349955438531122,0.7769495267517429,-0.8118435969687214,0.3089028030977843,0.0738499585091918,-0.6134072544285839,-0.8269413692458529,0.011418271616778004,-0.24350647940871645,-0.17533285931969375,-0.6881157339429731,-0.19460442406483955,-0.2929713143459415,0.017361269996011078,0.8558315781827545,0.379542933314728,0.5612725967737684,-0.4292188321479174,0.6076639175891274,0.7598843691833215,0.9681145917309353,-0.990786277578904,0.7315021388982307,-0.4886709976495661,0.9918691862897671,-0.7177491596138422,0.5747116713633867,-0.11400609437540843,-0.5997766645613255,-0.613169096927512,-0.5404359917644916,0.5121468369077558,-0.20782193419563044,-0.3489793367249122,0.9983110274021064,-1.0966963373648537,-0.9887671988648398,0.36427190923171276,-0.1664951182672733,-0.4066319159902442,-0.02116183136288057,0.0900079961538774,-0.5077406398591069,-0.8036386109924909,-0.31593576706763526,-0.12582859737281193,-0.2548220467376935,-0.19586966222707836,0.07411199769812771,-0.9369779911227666,-0.05162174298188411,0.12121999947111939,-0.08096575653465363,-0.6816671445790157,0.03258902339736348,-0.5271527819605121,1.2804774288035896,0.6719241531284894,0.23478941388233046,0.7929314731182059,-0.4335278978362791,1.4313320596362302,0.2371645774502387,-0.49312623246856235,-1.512118898017214,-0.05838058960493753,-0.873800124035158,-0.6190277150672746,-1.8241727044806166,-0.013133799276910876,-0.4379070192092895,0.7869422916811672,-0.6870136040220707,-0.5648295939821197,0.17638556949254627,-0.11968211303191206,-0.04971285633470601,0.13911277468133298,0.1866124531216613,0.16186857035098823,0.2712018417181495,-0.634632209608177,0.34620350838552266,-0.08755590662991677,0.44197423561427945,-0.31175693265326754,0.4817274804803962,-0.2626333945758565,0.5908663877117933,0.733829248773118,-0.12498854828519701,1.114774729906996,-0.07596524233801497,-0.3651845617421514,-0.4614350817552022,-2.1224277589999923,-1.7466392865546365,-0.6520018848725347,0.2928332379416463,-0.9913698326925298,-0.5522088000185071,0.5080555007823805,-0.020981970542776004,-0.08744550395753385,0.42994152024825927,-0.5911279658894555,-0.5403436413314093,-0.7893992187560559,-0.295474331657985,0.5242565713625558,0.22499471661558892,1.0688979268842789,1.1688161983521999,-0.5177090430309513,0.08588402198892879,1.5453155745238958,0.5424827138016948,0.14476422800763056,-0.8451111480023074,-0.3782401633835019,-0.056732954134121535,-0.6950488254389807,0.5563592588255274,-0.9202253831917527,-2.475022854469181,-1.5033098374373226,-0.6237239208188297,-0.3973678304898435,-0.5294490547635397,0.5538428424785528,-0.9807775070103343,0.607165834031397,0.19984523349952105,-0.05992879093853247,0.37500071308002336,-0.5600679581682607,0.6047181516345487,0.3221451486370993,0.27483997622356615,-0.5417268485022055,-0.38863713597424226,0.5682262876488463,0.11477782180544198,0.23777319414732753,-0.22479960692012643,0.38760777839868715,0.6730545194403122,-0.01961291910176582,-0.73697651871586,0.4982321358333897,-0.4161265124840147,-1.2381843307057263,-1.313081938304554,-0.5542982091495066,-0.8798358156049518,0.19841860013367268,-1.05215736150413,0.5627414872848261,-0.07125167140933117,0.5342087088213382,0.07608058709749436,-0.07332473550998207,0.8528938715191048,1.0287098128097147,0.09770678637751597,-0.4731179444653007,-0.12230022772438076,0.4155316538977491,-0.21013213929106644,0.1551304964832821,-0.6366837179342516,-0.7325556494987158,-0.15979580276894917,0.23230363301310097,0.07437530048675298,0.6286112673722352,-0.23618724270484542,0.603540707893407,0.43167119017631833,-1.6809964469794823,-1.1006577653613954,-1.7103005066139239,-1.2538488853144567,0.21705719438740026,-0.90059091977871,0.13757730316425637,0.472863601485264,0.014362707874108701,0.48542934419484596,-0.1791058342743706,-0.5407684250666969,-0.19395076019466748,0.3221259810423886,0.9344917945476087,1.1426733750525826,-0.23391644433239434,-0.6680286132999755,-1.340923374646955,-0.7739214590241511,-0.407657871291289,-0.13512079653309927,1.552402954600958,1.1937611403452406,0.9719058433690025,0.6674368866404086,0.3387598832703586,-1.604467809017047,-0.6316981840278465,-1.7880905447727615,-0.2523628673027036,-0.7679821092766622,-0.6329898266958585,-0.6204366543956762,0.24510595993079276,-0.4972658176000032,0.8256978541423527,0.3343142290003466,0.9346484282056903,0.23559386032002125,0.5900231355908827,0.24759606939682804,-0.12091306338661732,-0.0017238507554414595,-0.5556991126689825,-1.9921326462112807,-1.0076287229874357,-0.061377683194506205,0.7496958490053586,-0.020395017600669318,2.0179326214237534,2.1493451406037347,0.44223234587281457,0.5035403126552107,-0.17389536430096808,-1.8351113512234325,-0.3819675437488374,-1.6223678001552366,-1.1059528045395892,-0.022428659841197466,-0.21794379017567916,0.7210490842244266,-0.10956056203268835,0.385811535871363,-0.25080374146536477,0.7846689795529216,-0.49695496592656946,-0.7328176777466233,-0.6659209222105361,-0.4026466624449216,-0.9277449829818266,-1.675094077115727,-0.06704417379044145,0.02959015215792573,0.10295698888387379,0.7677686708460735,0.8994839070620914,0.16109024594284696,1.0171870233841078,0.8607761756412147,-0.3488330968099477,-0.8135688356068247,0.13660151217385963,-1.8890784802977858,-1.670431443277217,-0.685931686256538,-0.2105532413111587,0.06058474078671253,-0.5547618791651259,0.39446222610256265,-0.5366929602622933,-0.060908831090757995,-0.47814853901266674,-0.017831626579447184,0.5109822248119663,-0.21301313020461876,0.6160897192082245,-0.6453543076022275,-1.0459864578530442,-1.2393798031710328,-0.13877298400188537,0.8737339042414762,0.02721253065202388,1.1259214918241673,-0.041105776577708586,0.8755000599493481,-0.281436179590814,0.5720457793507173,-0.07854006723981187,-0.704567297663604,-0.3840975886019923,-0.5604644327062668,0.014751047828897565,-0.9225250659267391,-0.4979514649064994,-0.14988424267159053,0.7306152872884115,0.5006146232415678,0.9121897421523673,-0.4894304947266836,-0.07291656304664479,-0.505148522300048,-0.7476244427089448,0.3976837794631494,-0.5010115481765619,0.3259013797683096,0.5874913720788906,0.147611635285632,-0.2842713701616336,0.09465258388053742,0.405480506373183,-0.8924348376208531,-0.41057984187803803,0.7198373406363054,0.4902148263156119,0.45478055699953474,-0.2617854780938053,0.5353088436841514,-0.6186403396942196,-0.4529438763338538,0.3977469572778459,0.1946740267836845,0.22601196857054318,0.23290173497476602,0.8432728559660612,0.12010496780117438,0.386703153735358,0.19717429845887247,-0.6840145068401416,0.11941980327524136,0.23792977091968748,0.6888599230789976,-0.9947457979808135,-0.5363598565232655,-0.3945947972698905,0.8697416570030928,0.2756597110082308,0.9659980649742218,0.3550947331928655,-0.5380013257289965,-0.7246908908283404,-0.5662840608941675,0.29711102941612205,-0.0573571153545973,-0.4550709336066356,-0.2305338001038299,-1.1311678219554093,-0.3783847729237805,-0.5762298376565649,-0.803017194357078,-0.28401422960828343,-0.8786745149586888,-0.5132328019469807,0.8102866425045715,-0.5905986085479199,-0.443215444966954,-0.8806327441105837,-0.195361019241064,0.29591126011903274,0.7314024001978519,-0.5733588074618258,-0.059314591061415595,0.6214039311473653,0.26890937627819617,-0.3315609066169481,-0.8931237076905444,0.6326685238220054,-0.31203325965707535,-1.0286649168311781,-0.450522072879025,0.11510737256249333,0.8207105577161586,-0.47177031558567095,0.523062116212704,0.39768952778802724,-0.33523275917172984,0.6064956860101254,0.7023835777480508,0.09632831676029995,-0.29813727920558303,0.886859597780481,-0.4419704542656811,-0.11681421663009935,0.28584683350781226,-0.8628288022097454,-0.2915924373844156,-0.39291136911888547,-0.5066688986494364,0.21691123650926625,-0.1224179196134629,0.5744242855958659,0.20113447521164568,-0.5494833976451592,-0.2121007448485999,-0.7428482759825914,-0.6680906287765704,-0.7409115492983771,-0.7537246538825879,0.5248545987020571,-0.5039386415415537,-1.5610480215698774,0.31037064323613817,-1.6149994037381483,0.1829836507206913,-0.1037385346490374,0.6778847301470998,0.7290267560112592,1.6687255275540136,1.8137987166117489,0.5294617994857193,1.0824275978627853,-0.5901337428918333,-0.7748391145553424,-0.1220320970045865,-0.9134874808070416,-0.13787770196781432,0.2416506706058253,-0.170881467099485,-0.022391119490722117,-0.03327273097650087,-0.28662079010329394,0.2898968670929903,0.2920711207439469,-0.22573600541448527,-0.1921847829574886,0.1454187139206014,0.09409681553247282,-0.17729386294197141,-0.0855764664271949,0.3561272029779701,-0.04538977082495052,0.2837067944686267,1.0161447573802147,-0.08602752243250907,0.2411509051342326,0.398443309377193,-0.037971207471638665,0.4870086542469854,0.6885533066280696,0.5658245815849493,-0.4263641816645163,-0.31425709137501084,0.5774065458249772,-0.4201144806257476,0.4037338595503779,0.8012567369796687,-0.31310392930412617,-0.2593054136147293,-0.7079523625627373,-0.2636022382548622,0.28061835962631526,0.5164841516729441,-0.10840959017979508,-0.2928355427923878,-0.3912116272368455,0.823538274793293,-0.5433509769538337,-0.27012053649143436,0.6968277361725224,0.04164847583499754,-0.17369337145044658,-0.004494043868059865,-0.39647778965714664,-0.5600159875870179,0.0781400648332684,-0.5545401155044147,-0.7924229384615873,-0.02808668851060859,0.1790595506509677,-0.006144101832535718,0.645756777039236,0.05665737170008912,-0.7139302344951268,-0.046354976942979687,0.6116363678973178,-0.35345719618581845,0.7052256742475288,-0.7255309296965661,-0.44999470627899074,0.3607456273671546,-0.8873152177385368,0.18486628414390344,-0.4316167321079417,-0.3121990953054923,0.551029247188452,-0.7960587052985881,-0.2588272934100218,-0.4061596886911368,-0.4744751381482263,-0.801804381945277,0.15255454322594172,-0.5294083547875245,0.3652380294156686,0.35033932339725926,-0.05197886702904915,0.7524009884959423,0.8625217183842501,0.04539845988463753,0.17866029109502915,-0.7480616591116236,-0.36639612091373225,-0.16622434139214748,-0.4086659032814845,-0.09019490061072928,0.029756634661200685,-0.10891198968329686,0.1939958940279965,-0.6562034164300602,-1.0023441457379567,0.07050037964552659,-0.977804804757887,0.28614502735789543,0.8639848672821986,-0.12298747977336504,-0.27965724880544884,0.36427644355129063,-0.2588261780643654,0.015656352493378052,0.7139347118115915,-0.4797895539732459,0.07840981949616495,-0.003603190658955772,-0.9540978961903128,0.2614272611617086,0.3776053980859333,0.2951577389695299,-0.5606857621697707,0.9383758599604581,-0.19871766233669041,-0.45570332609067216,0.18258336621278357,0.8825009224573397,-0.15531759048053093,0.26863462467661114,-0.22057652762429114,-0.08105775756286938,0.10079876555269625,0.6035427736480669,-0.8808415269211092,-0.4550152767705728,-0.2860834472509848,0.13895147026542734,-0.51500878388049,0.8380523683449276,-0.4860828174129553,0.1769295756319374,-1.3096575040833711,0.3065588072817355,-0.06828189800786502,-0.055887281924237794,-0.7906208040252312,-0.9050987053386674,0.43858571799845086,0.7888709525046669,-0.7422899005651005,0.4973448292914977,-0.08186482924530554,0.573184350251414,0.8946694929332335,0.007926792026463661,0.20043620586552427,-0.3675314172578026,-0.24495018862092666,-0.5847905058973021,0.7342854508987979,-1.0676057207908733,-0.19217777359603722,-0.5664531641880823,-0.5416487846042642,-0.5188244004748607,-0.9204579366719065,1.10125730599129,0.24539611314097842,-0.886459120124892,-1.1385875132563903,-0.02420869614434297,-0.22786517170631784,-0.6970190525057255,0.8232621586861617,0.8778449835321682,-0.09958199427949589,-0.7076614699961914,-0.24676380501672068,-0.0428626613320164,0.23767341403702105,0.17085865751381812,0.6422329664710525,0.9645255323299128,-0.29952014314267267,-0.283969930014824,0.21346262573163066,-0.05635360582689179,0.4881578862479001,0.12697199894115616,-0.12260545795769959,-0.04369844942447859,-0.3858032673034147,-0.6388898174321593,0.20792270662347276,-0.7609929521953559,0.7107326243023138,0.5553572232925762,-0.25361222173664555,-1.0082112250349025,0.38962854173957484,-0.4621143920943539,0.8748984331295429,0.979658489937882,0.8353268230213855,0.14429633304821032,0.4246156151719944,-0.7942348392644499,-0.22818089264931132,0.3684541674974598,0.7940030020726307,-0.778071230418199,1.023720190905901,0.8145978867118534,-0.6859469775472096,-1.2359774819035578,-0.03452580301396913,0.22172822949239043,-0.5424633508343804,-0.8137920505440036,-0.605881745934569,-0.07731307405241333,-1.0782177161045758,0.28125589792885947,-1.0923232393552242,-0.1999441476459956,0.5834380723685764,-0.011825821105876513,-0.8772781148115357,-0.11143431683813103,0.7583617910927324,0.2793683805738543,-0.895901107701111,-0.2290652593968272,-0.4767889997974146,-0.5948939987546169,0.8561768851717672,-0.07219295807300603,-0.1692452536952733,-0.6453991022285004,-0.0339394101995871,0.4927644074050094,-0.38216779331394435,-0.7527715604942178,0.19544069480660722,-0.958470234283827,0.3221916438759496,0.17279373678802395,-0.04885463518393344,0.5694445169754239,-1.06823537417757,-0.023251527013631697,0.846091919842042,0.6861969302926444,-0.06105461590814881,-0.07235094701752112,-0.687899936865214,0.9549937205880896,0.33024730649881884,-0.3459450013337697,-0.2881384411139587,-0.049824703068248155,0.4296383509909667,0.7929219025047862,-0.33658435103598555,-0.5168208471322113,-0.6934239691778297,-0.7537415772328754,-0.6126271213856166,0.057409163591187085,0.03271741241435851,-1.2672887835633724,-0.43127121945661057,-0.15289616044631374,-0.8619547600510179,-0.21771927125492022,-0.06708810755209113,-0.1881914446982147,-0.6889376372872811,-1.005180465937337,-0.0265083650347173,-0.06296913498831243,0.9660368502643629,-0.7485342592142735,-0.18262882096272526,-0.9100175635070501,0.9657332623555713,-0.9894956425698775,0.1158935015309781,-0.7483902601247208,0.22817232316073066,-0.3960537020846373,0.3258053383817099,-0.9126779080333893,0.45855974427957363,0.8051480856406841,-0.49296627257329295,0.9220100654133342,-0.640544863369704,0.7262625454297207,0.6103177037316628,-0.5451377202504467,-0.4941385184378057,0.399195375268906,-0.5082006773079953,-0.9361471861742452,0.44362512718311414,-0.4159083307338429,0.2702727263821861,0.19680806809829046,0.8621930224067808,0.6609400893787261,-0.9054175399110338,0.7185220650098878,0.6621611873158664,0.7673674416019087,0.16387671152205208
0.6034825457114621,0.8399704036932918,0.23676875698711886,0.34947802184611,0.4386472948294615,-0.8136705574257579,0.7231234866448752,-0.0695695443961033,-0.461691793085542,-0.19522275796677846,0.9728691779008829,0.9576737112701883,-0.2016593516385627,0.2459706563094563,0.6725932842504697,-0.054325525787863226,-0.2775606754772111,-0.6987000934649761,-0.6890188526767083,0.8422174984226425,-0.20924454355205624,0.29651580077646944,0.56618297109495,-0.7697072669479379,-0.6363760891976025,-0.60114799205615,-0.3338372885330836,-0.4617381206531508,0.6509580587877211,-0.07034730970090042,-0.5862526629331644,-0.3307451763049394,0.9282820597356287,-0.03447899772179455,0.12468522781727087,-0.092335349128979,0.14162762871987952,-0.3858842499888676,-0.4032956960839799,-0.7761309486076342,-0.6362125728824737,0.28985647682116567,-0.6034245015136787,0.15094884749512782,-0.13713380834199485,0.8762118515210995,-0.667373229753804,-0.6340020203803057,0.3424553455566077,-0.2431312786592639,0.49960537558363216,0.6149022112330866,-0.4845186450761503,0.9916253604734753,-0.038005201232793384,0.46718351793637747,0.4703079942303914,-0.6592088791375501,0.8851434947939266,0.29747185656615505,-0.05986447473175033,-0.13138133159866316,-0.7826168641085527,-0.5986520989993401,0.35006091045361787,-0.5555427998422353,0.03959112723641537,0.8893794234140132,-0.010248858647691145,0.678416687784987,0.5426107537218703,0.09537946626326564,0.754707565903437,0.9182916634078315,-0.5140178586590238,0.6529629522585082,0.11480648764041405,0.024986102122410113,-0.2895867197820352,-0.7577897320351088,0.8273456167867709,-0.9458595618694056,0.5238112108623614,-0.9653720520907545,-0.7084528338142835,-0.955621571392751,0.22364473762082707,0.849841084702264,0.37644422151126955,0.002236587576285397,0.2916050968752198,0.5864330219945575,0.451525268310015,0.6627530764767684,0.5468591505353506,0.21951295981953362,-0.4193357683052279,-0.9600841703294363,-1.1369554193387648,-0.8520015851468277,-1.1636913414201113,0.07614243565573536,0.054884889512047785,0.5618382459831517,0.8309867936648119,-1.0066754525884967,0.4176213484669291,-0.6410612918195886,0.2921602204774981,-0.20268129895773557,-0.731006585937082,0.682322408178031,-0.8425660327416129,0.5003636821244759,-0.5630092422082608,0.32091939061133457,-0.8897170129180682,-0.06482376659580082,0.7860665358269618,-0.22122447738476314,-0.17326226134466466,-0.3652058443045502,0.0611976002285412,-0.5803980203833309,-0.11278752535594509,-0.31010158158695417,0.481684841728024,-0.08391459373448076,1.3247062305872546,-0.5880779259162285,-1.5705971301695896,-0.12425597648284936,0.610786200162689,0.4523388182202321,-0.48281716283842163,-0.8373167959050345,0.4624296879297128,0.8958823348036099,0.355082080589146,0.44327292104659355,0.9096441424025579,0.9358433635756334,0.49605150059444053,0.32030187044704483,0.6489876630348281,0.18340536788900716,0.6480028323374126,-0.052803737277569866,0.19647160130010008,0.10943890060838839,0.10057838510076339,-0.5543349807274884,0.3639121161115845,-0.9935681798025547,-0.07491431156802071,0.06983075725366596,-1.2981301828199305,0.5772836928234023,-0.42585206169409917,-0.13188654764172464,-0.27255357802384406,0.008891222976385388,0.41753547297814664,-0.7116863263126902,-1.5827986838531312,-0.8472040979349864,-0.6651538083183486,0.08046849938095142,0.543316547082408,-0.6654731020818156,-0.5722549875737079,0.10924641522621759,0.7801584987354725,-0.9165212782185764,-0.8349281446449487,0.25302980693924765,-0.4241366516203719,-0.45719731518079193,0.45329157331762926,-0.22271185517476627,0.7740881053118378,-0.782041557032332,-0.18011339469765145,0.09680584261191053,-0.12123791280687922,0.07482229356679311,-0.4744396945083249,0.25285897446196937,0.19163715666493683,0.10171483794621063,-0.00957735629861333,1.1747804450660442,-1.5548660306273185,0.10953054641933432,-0.3313808520621123,0.5960769983655465,-0.19092320648191594,-0.09245385488979618,0.532616733214848,-0.4533784400289187,-0.010649416874679634,0.061568316112327284,-0.7340739351494515,0.6218771571001502,-0.3999504662205501,0.24792006557130805,-0.6620537159781628,-0.6248414786425396,-0.5620004158531087,-0.5326559178032589,0.2867147759273942,0.7265734953528834,-0.39358053766095014,0.09087209086537859,-0.5879158760152895,-0.2815862202239446,-0.4223293890786873,-0.20398651822911051,0.3685822040745639,-0.3526248438567043,-1.3955807794583766,-0.738849429380437,-1.0404316281569062,-0.17584049308165006,-0.03302995706121703,-0.5117900731697956,-0.04480328653655721,-0.34450966792271953,-0.6483434930843924,-0.8241906482554948,1.7041172352896214,-0.4517172785350337,-1.0591026006144522,0.34157891110128324,0.3600999430643206,-0.05173600161255411,-0.8554639017092291,0.33805257519720533,-1.1442248503571808,-0.44061724888223763,-0.39561845191393696,0.6312273176625566,-0.40875999080402553,0.6142443426125694,-0.352239334007964,0.28381891725025804,-0.23892376237446844,-0.21547789009808102,-1.6590034285390807,-0.42309725426468814,0.4049013768941509,-0.21138762897194233,0.8095381844726114,-0.3101257229506217,0.45202420466961474,-0.8880816903090106,-1.5822257251711938,-0.6200911761960392,-0.7833779364709563,0.16650202008143752,1.169634506312626,0.45765336075902235,0.5845979454402747,-0.2972277106089832,0.5873570669269446,-0.7810143667121989,-0.4538246896023418,-0.32019509996378775,-1.7836205759200507,-1.3177887525049603,-0.355277861071367,-0.3246931268415598,-0.009991183617463564,-0.20195814483460464,0.8924080479233573,0.4740462108811146,-2.392701370943232,-1.3230871784242964,-0.47007525740437117,0.03508853187380119,0.4726472093251546,0.4845624968774285,-1.0017303688495738,-1.6245691489685987,-0.02194082373018548,-0.2793626711146614,-0.055109827157064126,0.13052293038912663,-1.1280286836757265,0.31201107392197885,0.804958375466808,0.4380929494546534,-0.27771546692929083,-0.4101410977705265,-0.38049016892929743,-0.4885771068385523,-0.1820837562004273,-0.05010302680151484,-1.8984164242881154,0.22112475209126625,-1.1169325781051405,-1.3247465317297502,0.2592296985737705,-1.761758192526597,-0.4731536691073685,-1.9977957738213117,-0.9729385247919186,-0.5984209852880626,-0.8618180778571203,-0.002926688658976087,-1.317378840859566,0.09990113601331024,-0.9835007610885439,0.420854706447732,-0.2543999436597811,-0.005246865315961964,0.5954290522230059,0.4153287846706332,-0.1821462684406799,-0.6110333479546993,0.18651635179525,-0.7597651440330687,0.4904440613564363,0.6519583149560778,1.2283018097098495,-0.35058089733659786,0.07171249144752206,-0.18540266625451252,-0.4239686703066836,0.24323259063053004,0.8851424183216521,0.19975371788141139,0.06844163882145093,-0.9915807878737394,0.06633552207464184,0.24534643165416056,-0.4893449538835655,0.5451241847321784,-0.6623947960142644,0.028872240625420945,0.5495602151789248,0.5577402475849101,0.13141896162662084,0.20735263209944363,-0.54700926748395,0.05725941374972818,-0.5134824758375646,0.3014324028230672,-0.3625574022803456,0.5791163473047799,0.6870905803788866,0.39884334630910434,0.44534869580814473,0.1484961325565498,0.20173828311247433,0.580049620874513,-0.10968959058746423,0.8161745543100821,0.896738741329757,1.612057008024316,0.677608959284029,-0.38052898836682875,-0.030102883487443343,0.6003096727442138,0.9123039769008519,-0.623250800286918,-0.8310778423258229,-0.4198387394623898,-0.8366553052029466,-1.293515013538586,-0.27872886581243284,-0.16810221674971887,-0.17798554027190588,-0.4896347139034003,-0.26918487069917696,-1.0423592418663494,0.3999013199060494,1.0402473000039294,0.028779615917199144,1.9678396350223224,0.31928852748068,0.2248002897268849,0.6149772079143041,0.7023096782530435,-0.12896406606703992,0.3332925578005824,-0.9045869718263534,0.5624752008642836,0.4110530978827402,-0.030403833190522526,0.1796944185244442,-0.10550195318918308,-0.010941402154130832,0.9696056975372166,0.5825105120828955,0.3729873543978166,-0.41234945168082243,0.11368725933625679,0.16925543421435676,-0.8459155099594363,-0.41032211507573363,-0.04401307026806131,1.3225981126148914,1.1780272228454085,0.05162329942393806,-0.1831656124001786,1.373844731413077,0.6492941473163382,2.1400260295579985,1.0977313822412988,-0.042091333165691996,1.212279030893197,0.9015366551004081,-0.13449300668525904,-1.1889785234661197,-0.037967880418535306,-0.9484522472866119,-0.1769912739237928,0.7630900273669461,0.04851940146259178,-0.6380787298612686,0.42102916725132117,-0.8048041914906215,0.4873826937099662,-0.3411476707075639,0.5428668290418893,0.4537116258597222,-0.7082647452028223,-0.5005131200220635,1.700128574718337,-0.03229699448325858,0.46248989252521794,1.2633525683178017,1.42793548930887,0.4485114665911119,0.5870098201739792,0.962046273225551,0.9357683637696902,0.33965503844619493,-0.3614934557814453,-1.3808063183228079,-1.3536571672682312,-0.21226565706237105,-0.2608804051865833,-0.48403407284118255,0.39379159263463,-0.3470284223571483,0.6448716208261638,0.07905508697143235,0.8839867536754137,0.08218498332497651,-0.617775008497825,-0.16006711567467002,0.2853039838892488,0.29956347113466736,1.0051957184174154,0.8452666145833058,1.152218629933849,0.17395900071352843,-0.38536276767778255,1.0167631224665525,0.25667820002397795,0.7297605225880103,2.140718041270607,0.9457503320394792,-0.025948454744528202,-1.1268622966657693,-0.06138984080767987,-1.769790848538434,-0.4715422406442594,-1.9720610093115762,0.062079729223090824,-0.7422573030858166,0.898770991481193,-0.2768514648970527,-0.8296388971039248,0.44107212577552835,-0.7533489881393386,-0.8380791079931292,-0.4534849528974978,-1.5757474495414725,0.5825272800284362,1.5441176127914515,2.113285305246391,1.822259782346802,3.3449085689106686,2.3622469572849467,2.338873204911714,1.1062674497160014,2.301849373008712,2.534798514600863,1.4991842474884483,-0.5795444411461463,0.38822709375607184,-0.7864925618318345,-1.1097509828672256,-0.8317468509051226,0.7319416246086671,-0.766476427251215,1.0934030665758678,-0.03751643450024038,0.9145263343677584,0.26518236976529064,0.040688547485811154,0.667107775890413,-0.03837197327640053,0.3619922711308942,-0.5845266853881764,0.28946764538652414,-9.247625896605601E-5,0.08914392702491056,1.3103093912912758,1.133690387394141,1.7402873652558748,3.1169454146013944,2.1804387738134032,2.89581776565679,2.1250594307634487,0.49124340430933444,-0.06346527997299595,-0.11179889026718205,-0.8401947948686914,-0.9400100618110381,-0.030835135437520183,-0.3452678363389819,-0.13656433180821984,-0.8914459543899618,0.14685841940853164,-0.5327657314860144,-0.34995139484366633,0.5245317875492567,0.7978493177308268,-0.024721289284991035,0.15531806837917453,0.5012329745315719,-0.7689170176469419,-1.257950204490758,-0.6308066158333431,0.18422537042069473,0.8113323758788853,-0.35531167529387436,0.6399355362480792,-0.2390888394193289,1.22437666792946,-0.39380871406366197,-0.6111005921228071,0.4035628465693288,0.0694679759003529,-0.7839401190200997,0.07001812049016065,0.5651686933131423,-0.9353315048928261,-0.46877141683601237,0.17355465514664462,-0.1847141059636791,-0.5449459132455458,0.3797887130647949,-0.5991174089553304,0.051962234066357166,-0.509936819798697,-0.13150454834972547,0.8619498314316616,-0.8942524093935638,0.4105579602039988,-1.255715427874548,-1.8404621403026407,-0.9044985275744944,-0.4858186394600243,-0.8193300507438627,-1.1970524476008486,-0.668272359560076,-1.8564155048168527,-1.1683741944717623,-0.6826841025916073,-0.3255948025850332,-0.29321341750677277,1.273235089642308,0.33655742533969096,0.5583380347437615,0.4347020201508335,0.5536070449548008,0.24227699162952165,0.40802237232476907,-0.06448779230030285,0.15687980206645424,0.6256959836475151,-0.6442457126706699,0.21113374281557534,0.9946308521839242,0.398616069788492,0.657142998696466,-0.787102006364013,0.5554934186530815,-0.16199100018233245,-0.3780619741785186,0.1692397845315689,-1.0737373836378454,-0.0635536378625287,-0.6406951826572842,-0.5294682470824796,-0.8812255545870187,-0.4506124703614431,-1.3522665514057177,-0.06202553066854172,-0.8920589686045631,0.33978314737772464,-0.40918846245739,0.17269257696292123,0.04117867163655379,0.16416360406107386,0.690408653533622,1.8544319174636537,-0.16409654991358946,-0.7884539861554606,-0.1826784116814244,0.8762124303451612,0.4565129273700944,-0.7003320395922138,0.8288209918189385,-0.08317665390656306,0.5625313576308093,-0.05721750632885779,-0.8735644664743953,0.5848528075469747,0.21911301871838146,0.12258400006740218,-0.7831535890143423,-0.6265699095895397,-0.7166172232002086,-0.0776387351097555,-0.20190811683041696,-0.6012973050367967,-0.7915543867183055,-0.12292927349856582,0.34957372955355326,-0.3999801125298921,0.5614716260216392,0.06955064155710301,-0.03149554479895484,-0.3461766479721122,0.26429813495770205,0.76409712671504,0.9756591326771465,-0.4351784237425947,0.40026696335571366,-0.7320559383861305,-0.5596455208102104,-0.3799713268626336,-1.4166348854586142,-1.625718618794404,-0.5931879547889604,-0.36665214760548487,-1.4938300475045918,0.4832672901013006,-0.6441538278137766,-1.049087562490713,0.04129398695824743,0.6534094197162943,0.46680058866524193,-0.4251959047705106,0.45741895917629805,-0.6722291712293783,-1.303399021785917,-0.4910691912814294,0.9686181233591259,1.1548814665449276,1.6843392040974303,-0.1270762653911782,0.3157857185312954,0.1062704065068252,0.3824019879653281,0.15504490431284412,0.6783524943154955,-0.5805744597267388,-0.5174640393559383,-0.4083661272566131,-0.7551631220305756,-2.1146285257967667,-1.7189906022188588,-0.1583448662014935,-0.6862368257639785,-0.5225502176116542,-0.4356076645167055,-0.38083708070702027,-0.6611022753471387,-0.6123771787862087,-0.18425131429989375,-0.3687195166783076,0.5516106719896461,-1.1678907537393188,0.06653884633939547,0.5855666118874834,1.8559069928629448,0.30839585177352724,1.061553986230079,0.9197248951977982,0.12427665335446239,0.2968474151722532,-0.8901221085238608,-0.8842614269156979,0.6129714889123865,0.8775919980192586,0.8295414334456777,-0.502102570295879,0.2948797113234139,-0.5960963015251247,-0.5155463916343422,-0.5654822974149722,-1.1734510126028368,-1.0095134164362685,-0.6098423164634833,-0.010282677744865736,-1.008642968562217,0.695884355632877,0.29520311579682107,1.21554747289957,0.019894410113365565,0.7373188886526836,0.11148673375130372,-0.3706462304618362,-0.15121405785978365,0.4711228391514282,0.7758485146606485,0.19287715210655068,0.06205393353984215,-0.31045660916588913,0.9792443321948591,0.7613776042326355,-0.7161549476901217,0.8346656044522862,-0.16326749571596655,-0.5048616352458896,-0.29141888143691824,-0.8998361643979395,-0.6941458206698309,0.25149228194465456,-0.49234951813087807,-0.36484045381718544,-0.7886696271580667,-1.0055758018900174,0.19105621033342843,-1.528419022145816,-0.03224866286161024,0.7315644974668714,-0.5294082675608245,0.33158330857203483,-0.05300474848989032,-0.03642126798638671,0.8223462726333366,-0.619102679464851,0.38273578236866046,0.009536850437578875,-0.7943637286287026,-0.3842649808065889,-0.8326981950073444,0.2707044162861514,0.35227511966316705,-0.20184401091339788,-0.6866543107908241,-0.7350852453066865,0.38726484357127006,-0.24083243464395415,0.15258770312886816,0.7685499775705595,-0.30087887639796246,0.46392339232399393,0.20079571462735518,0.26635875623955485,-0.13415229839104142,-0.8079797458327671,0.6492838225411546,0.2945640540104579,-0.7219685662382498,0.18167902415470305,-0.1708060275743937,0.49009479774656556,-0.5649850023109098,0.9495546187259714,0.10419181646805618,-0.2784563533160035,-0.22412062234549945,0.3811446225399284,0.5367107619843567,0.5460245550014384
0.20877727069858265,0.1572126975768504,-0.002485570299751494,0.9704854763720652,-0.7170338024873135,-0.07416086600568317,0.3599023035206561,0.7760659328456576,0.15110789937973657,-0.3447988630042491,-0.3843859131011309,-0.8966150458878743,0.438729670467414,0.5279765205952341,0.27186159562755835,-0.7092432225996627,-0.562326075924843,-0.6412227271241826,0.6867654696170284,-0.31088704577946014,0.7486384260062859,0.8389855708170479,0.43142913490409196,-0.5378058756654991,0.6670580041450465,-0.21345754699233144,0.8527807079488934,0.43725782907525357,-0.8055313218205726,0.30675724832413254,-0.4945405076438094,-0.04368536655388211,-0.5421134835675588,0.31121984057348356,-0.07233962010639208,-0.6248284413906529,0.5326220240070921,0.1954130753469576,0.3549871901200253,0.36731878321175276,0.18934808177923232,-0.3583558157743228,0.3980407374941063,0.5119945744097818,-0.07590515114038401,0.4924038802633522,-0.5465502953820766,0.7804120944076663,0.780390401672531,0.43035679451126463,0.6751543224166794,0.4817991387500604,0.9352721889555236,-0.19549016467844504,-0.29897027880768934,-0.010380346091505732,0.7967853371218414,0.3583858358805203,0.012636330870965233,0.1424582632227297,0.4482585295362854,-0.15573953539727792,0.7991566685185496,-0.40323294540903176,-0.32528475921459266,0.5483324085587415,0.5029494449226787,-0.3932990766479307,0.5204492041985455,0.608516190824377,-0.15073230645402388,-0.28192645757231494,0.3505873858392138,0.6607017873694846,0.07294241076672157,-0.3177150872774426,-0.26854674539969225,0.8499500018877416,-0.6598635546861831,0.5284203983724508,0.08618133225703486,0.5131647948213551,0.873535930000527,-0.8039273794329953,-0.94200777349481,0.9455505768235632,0.18664727833380562,0.36015538907302524,0.7758339096425954,0.5983201994062327,0.011200733679367142,0.18442126982982088,-0.18594103444343757,-0.2414937177040024,-0.013331566499683447,-0.40023884469291293,-0.4666743189009223,0.3241450337227012,-0.00106659078062127,-0.5875796874116297,-0.30653208368578677,-0.39666932882588035,-0.8513885911092364,0.08042068165634939,0.8185277522084459,-0.6658431049892833,0.8600301620661918,-0.7754252819738009,-0.5340482515836299,-0.09682226659706122,0.11044732891195033,0.24545410440775317,-0.03965781077402353,-0.2034580142663763,0.31057765246820934,-0.8326881031772112,-0.656700025645253,0.6562332784037052,-0.8447923648608734,0.7519123952763878,0.27152766696411124,-0.05252110939699951,0.9002544571483783,0.41135763551023086,0.6076960851145295,-0.5830901860918019,-0.6683108752798579,-0.17104682752786987,0.6646105958328388,-0.1383449889929898,-0.3880116599677667,-0.6300142330967353,0.37762486666839773,-0.8441063095072143,0.318279051451765,-0.26679232415372395,0.706629667494888,0.33029287845274913,-0.6107866738464289,-0.5455478927248362,0.26462847633580355,-0.3976886181699526,0.15455549243048539,-0.3183600164555125,-0.13742866101252552,0.0012751393471993548,0.38486268327507467,-0.9629987696638312,0.17685068170005414,0.2745936599476133,-0.030589027099808534,-0.03371877576322554,-0.39364406209519426,-0.8275508559746241,-0.4099495807457611,0.289021040817673,-0.13534966740717566,-0.6554245024261357,0.32034723906037654,1.0212264690075152,0.9738056199573107,0.17638507398582637,-0.20811446161041441,0.27041038476849993,0.7706340293382666,0.11438164837850344,-0.5509657018378639,-0.04363726651285059,-0.8207323685855801,-0.7528127169804195,0.9599718935186378,0.666800422371161,0.7147678332163214,-0.2771293422189827,0.1611564975415027,-0.7799484758852986,0.8187723918983772,-0.13589219611875883,0.7092124022779611,-0.4721125840694021,-0.37196350475589207,1.0620392089970312,-0.05800466782802752,-0.9335979490766563,0.31302124829997274,-0.19256689720974163,0.7058557046115023,-0.12285533133568412,-0.970105685781795,0.9782811612151431,-0.7414066956233617,0.8371515728346641,0.9059959001551543,0.1944057910385529,-0.08647317957725945,-0.20809782849196085,0.3249393921798945,0.6990459444791622,-0.10510073098000189,-0.5114080293117859,-0.9660129205837044,-0.03592707600854661,0.30776879078337427,-0.12083566017954683,-0.7703035450074204,0.5595805086793751,-0.3879923626296808,0.9697726685943537,0.8211546987200654,-0.6219989674486139,-0.29741028361597993,-0.7758921157659509,-0.42783670343844477,0.992290114384077,0.14967423935009483,0.12665332114440142,-0.6424083548230766,0.07365560839519394,-0.11510156710069533,1.0218463575035464,0.8106822051202437,0.865328864069534,-0.7435873275172294,0.3066791067038309,-0.2647991352739161,-0.2284439655806517,-0.4786718135519232,0.6425338361825161,0.44696122202636746,0.631192154710045,-0.48959012715076544,-0.5651396677630578,0.7871794515753336,0.5224500401534012,0.856695460180134,0.32021366919702277,-0.7515404438348396,0.26038246509080637,0.16430863671649412,0.27385810913656333,0.05700226959874185,-0.550402807187659,0.9642084816469508,-0.15722015157607286,-0.13832267168099635,-0.6872021594706936,0.6830526230908385,-0.36701353218357247,-0.5793716783023032,0.4458419495789817,0.9395662894463338,0.7114863675091142,0.0963835574953062,0.5746163943360881,0.18253436734870224,0.2913961410198508,0.5362207867313944,-0.5712285572079986,0.5341780587487855,-0.11696679752300962,0.5464362311054579,0.35926399365532685,0.6037333517346761,-0.9226962566544425,-0.3745269230903386,-0.31821789677297274,0.5716741643953215,0.6482546744617942,-0.16232549422202017,-0.15741805902832184,0.38636425750612496,-0.06171087736116515,-0.3463764455117104,-0.005358621435292995,-0.7040502857717551,-0.7179805801068894,0.08847325023872774,0.015384257027102874,-0.8939429026821573,0.27129047127963973,0.08047193449837041,0.7598116855334153,-0.22243631215522386,0.7120995404092462,-0.7892448861979908,-0.2603006997731091,-0.40690350869107667,-0.9464187822875215,-0.32133929310459414,0.5646065243139687,-0.02997324091927734,0.964292113980083,0.5823277690804659,0.7446498437429885,0.3785897190137681,0.9250753912963715,-0.691431160556659,0.8574991046136001,-0.3786805168558601,-0.023359612479304785,0.7501034688679359,0.37788099081600923,-0.8667731148123771,0.7596936951632428,0.4302749495664375,0.8761296416687372,0.050128490836450434,-0.012812299701766382,0.46255327878739516,-0.352896468965299,-0.8664801836809097,0.7148528724432116,0.33165837618562044,-0.8432139169642008,-0.5208008076978101,0.9416677074426921,1.0068116390467812,-0.22976198894438452,0.08488506259514703,0.2185028621943279,0.9972911133951785,0.3975640831779146,0.6835249428095539,0.7535171988636903,0.9315038990856979,0.5234958429203893,-0.01240479104851071,0.5387471732585698,-0.13383311963107414,-0.6340109976260089,0.5659970210779217,0.10148413743170986,0.03571033239472154,-0.9713227097336647,0.8985112322799469,0.5131665293285725,-0.26018847659440786,-0.015937573289466836,0.1155963757294411,0.8410184836682073,0.11734696248620351,-0.3216981077549808,0.04105815274424203,1.0481013869359987,-0.31875909362080557,-0.5360408485357883,0.1907617976485972,-0.6401530684182164,0.48514528633255927,-0.7444641875128524,-0.8208470211848872,0.7119097979480196,-0.1860232587283179,0.8029416865838118,-0.11419301490582338,-0.11025139181509734,-0.8127207269295615,0.09011409682617456,0.056243987550664835,0.0996106010106108,-0.5385701894020873,0.22615666753786232,-0.18395356560854897,0.8804775890229806,-0.8180438830399077,0.44269810099176554,-0.26237785841278394,-0.25164168330217923,-0.6425291195064884,-0.44659508878428844,0.20811471404698362,0.7404582365072627,-0.06352067942275287,0.9049589905791992,-0.643837964745444,0.9768156244296844,0.7239671078196115,-0.5556102489404591,0.33638315676479824,0.8700937073036775,-1.0217281418557325,1.0449212612568746,-0.4934629142526097,0.05745419266738568,0.49407103435715505,0.8331183368125721,0.14103859897813176,0.058432133683829,0.24856362578553748,-0.9063092189380036,0.3351787002782883,0.9194535683721339,0.6433267439091161,-8.656089862359854E-4,0.8363288295325987,0.3272669883199635,0.5491522521491866,0.2418970914517189,0.3326473819370275,-0.21086415936397912,0.1380766935939445,-0.4890873560182699,0.2983357091669811,0.81290839336371,0.25437462374319214,0.9071802281905048,0.6985176565566314,0.5523209169743603,0.28001872726796956,-0.28582402971042087,0.520331365844979,-0.09345955351174189,0.9821804293973317,0.8044932169598915,-0.35212622520212833,-0.7583372012436461,-0.5796318645327662,-0.0011497777530868453,-0.7931151734132061,-0.6643698036454653,0.05481966595443496,-0.9256994946101144,0.38089405901456147,-0.9966404422999977,0.5411793361149246,0.8606028744308575,-0.35845619909541937,0.5558760372218043,-0.41710049256960785,-0.4945545488585371,0.10901670432934184,0.853141848824721,-0.7545591083035661,0.21265255843308156,0.04974973203133192,-0.009594190284786048,0.8475289329076797,0.44972924935478703,0.7811484510248432,-0.3359053150258411,0.5514975357155681,0.7048495212270548,0.20654928362319935,0.24608591360872362,0.8586439626461088,0.4442315258276938,-0.087542162910743,-0.8090755655949933,-0.7107875909263051,-0.27745384572237475,0.15418270008473794,-0.766358789159841,-0.4839838708689377,0.9970950844032412,0.47136324682762304,-0.5294320984265858,1.0807134847698612,0.3234592765781815,-0.4702803010222879,0.2519893172316184,0.11715094341037595,0.8548945533063069,0.11171027372202602,0.17983160850901114,-0.19055526455508237,-0.3380320628380359,0.4397566923833947,-0.2853853909753222,0.6748070579444445,-0.804239600390511,0.19261275836089103,-0.5651600485651248,0.6557384982560416,-0.1606031129729664,0.9460917534440401,0.96099764460318,-0.943715013809195,0.26209168393295884,-0.5912325503053738,0.48311776746779556,-0.5038612614926392,0.24730764561943586,-0.46823132583925076,-0.1990558248212156,0.25962180826959635,-0.08015075357805082,0.7614243243346487,-0.6923688950764755,0.21889786035582873,0.9974492729216365,1.0163457819665287,0.7725038135929172,0.649827273745361,0.4653449369987662,-0.3488628512660927,0.7949837630276023,0.885498049403438,-0.7497429401966955,-0.4095430116089623,0.30616902470971263,-0.4948361742076635,0.26419506062343623,-0.41627112483896306,0.4868967893156003,-0.36542400965458227,0.5373544752386255,-0.8115308828447573,0.9343507054281982,-0.06052673420839795,-0.9519439819801895,0.887031916868363,0.5883436052370168,-0.7018729465900677,0.5261391822045234,1.014338510074056,0.33381807121338386,-0.11996198810307,0.202699462024679,-0.20541807067120146,-0.7547706933504416,-0.7276406477810605,0.8000602772334707,0.6791938481869654,-0.4240038281487332,-0.3189151245337612,-0.5409726368000175,0.6174881716707393,-0.3007058853045444,-0.303875376171732,0.3423317610726371,-0.9054204333850805,0.9563106033814642,0.5845012162817325,0.47188268546720297,-0.7875735903699272,-0.25527533716859385,0.5854079583435297,-0.21738501414044703,-0.7036261934799227,-0.025008011540026697,0.7662118300215293,-0.7353906801404727,0.9482369646676451,0.583619920453773,0.4658624680857215,0.21068121838200726,0.9644817198881804,-0.10795173610344258,0.8291946193029901,0.6044729944680063,0.40227463045946193,-0.05912824740008327,0.45948096929175664,0.3535369008581326,0.36535916920872474,0.06171298226975444,0.15125785456906354,-0.5179561212062421,0.5493550182408404,0.5664240672156683,-0.887111113501265,0.7440823370996102,0.6745469351822911,-0.9282576882626297,0.6684709243384889,-0.8931308257343382,0.5602398512006028,-0.32160842151265356,0.907744827496261,0.2266518919574826,0.49892561543499137,-0.22485732550442733,-0.013140519180396253,0.3570526275314527,0.7080663794029909,0.19328700627317444,0.6252587121300128,0.8528137880345817,0.49748799266798044,0.5613530036255143,0.9306636213150384,-0.8220719905830565,-0.801135698048038,-0.4103012250661064,-0.9871156239294673,-0.25640304698544847,-0.9605492451911896,0.7060118598906457,-0.527988416665117,0.26840619772917157,-0.09017162436176146,-0.9580699982385339,0.6488760933407741,0.06956153332662812,0.30263657229846747,-0.5940282024294515,-0.4196340856846706,0.9957237358892242,0.16221083663885974,-0.4445490319161263,0.7733562935112533,0.9863360177860467,0.22511958708771534,-0.8919828478045118,0.40920622120152456,0.998262504378107,-0.17524954768399517,0.8498615588463827,0.6236204619361787,0.871910918718793,0.05991217343103203,0.5664432763829492,0.6458635462001849,0.9583862711836766,-0.678084202091494,-0.6083327946935465,0.6764171349511753,0.7065252057843845,0.718009841624534,0.5658060251134889,-0.2973382819389042,0.26424779584842045,0.9993305376743697,0.058704232701051844,0.0790518986266775,0.28810718365505167,0.871636424123179,-0.21436304164899805,0.7534197823981936,0.803617243881026,-0.8035512847796972,0.6929848854670755,-0.5354222493910535,0.5399168511390702,-0.9784184723779253,-0.8407406290516687,-0.24816637259527355,0.8744515678935624,0.29398911694762836,-0.6904121403973084,-0.01347101971082743,-0.878701886601525,0.6553005652991589,-0.7435789734945535,0.9088855039542456,-0.5388178370324854,-0.9046350305907447,-0.7283194478684254,-0.3910552966884445,0.9221680071781312,-0.12106166546228087,0.6624552153476106,-0.8622938532533415,0.5485614866228768,-0.6260891886719587,-0.1312788532352696,-0.6111030827050888,0.7683610994401988,-0.030615002775110967,0.01873780220427461,0.6440110492463912,0.7942058522342963,-0.5816191188998873,-0.22525206357521627,-0.18461122408178018,0.4998517514820325,0.7991845181483428,-0.6191412946574447,0.6643215673073465,0.23667433540746022,0.4709043857687493,0.6531513960430648,0.2621626025047925,-0.4784226088623953,-0.6773063147928842,0.9054595277010797,-0.5735917956811687,0.1423612514501188,-0.023075317661123914,-0.6410456422084363,-0.2618696294546347,0.9636425296181809,-0.06887912957261728,0.3847413345719598,-0.058634557516954754,0.6304411961400448,-0.1618431491287981,0.58475610456648,-0.07252932900937047,-0.08230426842479487,-0.4312061674393407,0.3184266999748952,-0.0027724211260916685,0.2156267589348259,0.29767422854206865,-0.4932570000272739,0.04674268438274687,-0.3836995871563909,-0.3990775326919681,0.3810999859254165,0.926031231069544,-0.8673464765514813,0.7286012582317068,0.28153449443673967,-0.9589450091684022,-0.5086886587523517,-0.3352934591222927,0.7164717510525273,-0.47933026741039086,0.6024866661256457,-0.2438878009453779,0.6690732257149461,0.25418656905218623,-0.4564233200642476,-0.2838595221485576,0.2698780443712347,-0.9551785754318324,-0.06699047616479924,-0.18807381375332521,0.1221160097020408,-0.11481086007354438,-0.7752535829627597,0.5327981045614674,-0.9088676957143463,-0.039826645257294714,0.042826548534176154,-0.015266130882454553,-0.8213525790271181,-0.42033181523612484,0.5516367643922011,-8.740371246824807E-4,0.4365727670908004,-0.39529576632779306,-0.8003085220419086,-0.9006812702517883,0.1921757390818016,0.5427769831134244,-0.5756823446703985,-0.24055934182827535,-0.5081646162836789,-0.7361692619213579,0.8459527256690909,-0.09011561044376513,0.030282626505188003,-0.40506351261002205,-0.7195706029274713,0.990620597303156,-0.5903653091502874,0.8071685188763273,0.17380250659087407,-0.6879529903961688,0.4833987773207236,-0.7164929312641815,-0.5769142626679794,-0.7564081250259178,0.44791781598636105,0.5871266345643824,-0.8662792400958699,0.6489797653106408,-0.5266259934285595,0.7644395517795651,0.8302441726368092,-0.5764648842274803,-0.21062832350006414,-0.9150592644692043,0.228267105190702,-0.3058192191615378,-0.20528927469417085,0.30183191428039535,0.18746231853384768,0.2541156974271835,0.8713539125815803,-0.6306635562090033,0.4720640424494531,-0.4823822265309551,-0.3818882734815247,0.5727091166876744,-0.41657993827509243,0.1961588360887549,-0.9850535713243291,0.3308306402795844,-0.6015140984722227,-0.8858629915154577,0.6864848921010331
0.6191740018898231,-0.34521066212032947,-0.796250413969116,0.8798529209199715,-0.1022255349932224,0.4133960338463849,-0.4956078351442028,-0.990180152491142,0.7167807638013264,0.5547717333509465,-0.7587446666565754,-0.27705911733414723,-0.25780842034386836,-0.9423850140192823,-0.4821714214732506,-0.6985995379745549,0.9561835815866111,-0.4051330710871137,0.9734662611984259,0.9295111544865422,-0.38800247313243585,0.4864504410868091,-0.12496440976382672,0.8549045249713836,0.8232976897069011,0.9104214879728127,0.5434006836904153,0.798726258118486,-0.462394427475354,0.13259295150218708,0.7595202357683186,-0.8960929840734575,-0.4315872044183341,-0.9980578815403666,0.851020021554456,0.05671568059271483,-0.5726623189701067,-0.30779079624293293,0.5107177635862612,-0.4129927513028632,-0.36971242513237845,0.5049786538472467,0.3419454094152076,0.1881404780029119,-0.7345899002027476,-0.809209521619609,-0.2308805142531905,-0.497415639204785,0.023638846352802622,-0.9765411964795171,0.07066508813691004,0.29334803069131465,-0.6321426402194301,0.9597678199524353,-0.7586156039958745,0.8441380365473672,0.7785457145617987,0.448807204978682,0.8938934177384201,-0.260553401489279,-0.4757119799906137,0.03488213426100616,-0.9250627668593671,0.576924539232787,0.1800374312720922,0.38966677057699883,-0.2109989264897317,0.09783611061420927,0.03138559638230867,-1.2039839885050085,0.7315312149408039,0.12298691998478536,0.32495510643286873,1.1090856629062178,0.8015618478964591,-0.5577087792211729,-0.32273789826934957,0.018202367256010443,-0.38781001761755174,0.18604718393316996,0.5476230624723071,0.7068114107600914,-0.3310640234672213,0.8521872051632537,-0.9408624031894937,-0.19708145475496708,0.396667416486572,-0.61494690468345,-0.29418510133441594,-0.11384360893541133,0.9259309684224697,-0.7609618034318612,-0.6362234057964417,-1.0025766525371007,-0.777943248974615,-0.28423331044430883,0.11374237301524247,-1.6341919477818645,-0.3697933650880931,0.19659863410013306,0.17795213315210856,0.3892491152510573,-0.04484073283262665,-0.3225590608747593,0.6179717381481596,0.14171048971041275,0.7266041971860264,0.7135200487567853,0.5461180939286312,0.6941342880541542,0.814202632196929,-0.906954846226951,0.007414918681672766,-0.5551160267920195,-0.03064987394436969,0.8749571201459734,-0.08324688840849917,-0.42424266089515633,0.1586360178915562,-0.03926127671868179,-0.7289190086799587,-0.34396062622382395,-0.6501495791473134,-0.5387411578157264,0.09806579885767717,-1.833065172744623,-0.9409617790151124,0.22501775577957067,0.3886801490926114,0.452390093377732,0.07534765252378042,0.09496186434914569,-0.3090158781224344,1.4511011750532452,0.43517608762072324,0.8808723419134464,0.1961040509486567,0.031482548577977394,-0.38079958021022403,0.6404313037712613,-0.7219619416405352,-0.7628635602508953,-0.09234421213708831,0.7123384125960784,-0.5084492941113294,0.5970322196505601,-0.4760082170252274,0.3657866523537423,0.03185516143428404,0.2531271628112439,0.8517256699252297,0.48448193166655595,0.295012769483212,-1.0820397312612813,-0.39677587298043865,-0.5205117473222838,0.27186494680728973,0.7628837691214743,0.03584615839478385,-0.23666019642775926,0.5899977698242143,0.3852550181369097,0.8587665345404097,0.8135189539529868,0.3502662575261456,0.4283906125492268,-0.2458523149388637,-0.7884395506837893,-0.13303136940817062,0.3871412579919933,0.8602602122099049,-0.11819952029113036,-0.8021413815994675,-0.6610550611138631,0.028315503587837347,0.7865065508872876,0.38677707785441745,0.054622758622071915,0.6177542068403219,0.21372633894232101,0.1541436895333609,-0.37536688234158366,-1.2498885018530812,-0.6296178103816358,-0.4648068569763124,-0.18649950686290998,-0.40999581218840836,1.168918310534103,0.23129649262508956,0.29967711254265883,0.11286359340978493,0.8198200737370048,2.1338535462859145,0.003042290570086939,0.7016297223459779,0.04640885438815006,-0.323939580759383,0.17125018305577716,-0.0792876406866093,1.0106879358661356,-1.279214074197519,-0.11962521147283858,0.47969494314956407,-0.6725481576116183,0.6526390802594928,0.2572306869123038,0.07326514073723986,0.18779720631582325,0.9670856430414401,-0.45278587396739994,-0.8139330883708434,-1.0585150940923347,0.5207439912695966,-0.056620537775909974,-0.42803894160011585,0.7320083379397084,0.20334002043852908,-0.18131329005752025,0.7872808099917723,0.7730325461695403,1.4047485442824852,1.1406133816777875,0.20696950908590311,-0.9552250860433688,0.9038876834714573,-0.32929732616908736,0.1545783873522123,-0.5061306149236695,-0.3305997302013647,0.11138285555321686,-0.016699927102135897,-0.04017445686027462,0.8932164415424642,0.31671300168608796,0.20642640687478217,1.6014584921262243,0.26849871203956227,-0.12849157487599253,-1.4223493098823954,-0.12173976482460401,0.45603659142607467,0.047926342490989655,-0.29806248473831903,0.657691945109819,0.7950264412364736,-0.9045441612765903,1.6911430893389032,1.4580166968487274,1.392977019781944,0.3270090272545074,0.5905975476414321,0.060282199164128684,0.5518406123699355,0.15591663593500513,0.8239304597333813,0.5794212554585064,0.6725735133314243,0.13260411054323087,-0.2822882539296893,-0.6230417747235698,0.30389632377031955,-0.204339029361476,-0.267002286945707,0.3673401723177253,1.5026529203456145,0.9720964703886199,-1.5440717921795093,-1.3035097119430366,-0.13664064790313304,-0.3001008003150463,-0.43595726707477955,-0.7723450414127455,-0.35383574286433045,0.9031284171394991,0.11254218189189534,1.2856035781644455,0.011012866147743083,-0.2061394518027044,0.7469709106872044,0.2918856662975339,-0.7636496107291414,0.9631993058593388,0.21693818676983181,0.8198063467185251,0.969806315188888,-0.8457276127851935,-0.7667518840715143,0.15451075261058603,-0.5349858301208624,0.013817427176388862,0.42376851788404446,0.017037317634148647,1.1187678968150558,1.8899886120058436,-2.765328592181008,-0.4991802301296935,-1.345737195586518,-1.575922603033487,-1.9183137005529605,-2.0087113153153666,-1.5348436455925205,-2.1006909445965056,-2.061262202389908,-2.2279632175701525,-0.5865137002603762,-0.5139894650753276,-0.7694834043914095,-0.509305418971762,-0.4176031271743782,0.9335074766613105,0.9528223184076485,-0.21647232139543665,-0.1370383591890889,-0.16057434360066822,0.30679672736272234,-0.27790189523840025,1.0540211632418959,0.1451381206953971,0.3796005889851034,0.8642230793075987,0.7178682739314665,0.5468531429581026,-2.0871835954817444,-1.506410301023054,0.07127394906020104,-0.9247522216052795,0.04423637990501645,-1.7247652483398752,-2.480359859414535,-2.569073900101641,-2.3059505714326947,-1.8738638045073337,-2.008815947437732,0.26193746609714874,-0.8804355154284321,0.28467190111484264,-0.24733290611688888,0.4277077480681416,-0.15890270449039245,0.5345563175649304,-0.15017737096788505,0.7170216793860141,0.03857024040944226,-0.13344781231154132,0.6158570596632316,0.6386220812282166,0.9132759157522927,1.2794735206609302,0.3051132443763056,-0.4989012034983139,-2.6710886139662358,-0.4169803599849375,0.24478596562841895,-0.03329244363729939,-0.1843081117136074,0.12390039625771165,0.6006236989129102,-0.4822467652086723,-0.5362570649040774,-2.4521957553826175,-1.3626779448826252,-0.9898479334628526,0.7248152657999338,-0.35879894847298277,0.12988919158088594,1.1414232137556528,1.001388735110207,0.19898844344166955,1.1332897479154274,0.449066223825964,0.8237084474769409,0.4247359007777966,0.026273465061618036,0.2254344498982799,0.49919774977939946,-0.3510547581779832,0.6395169481757921,-0.042708374941462256,-1.5291557136764564,-1.060789780970664,-0.26439525094937044,-0.5854188092728855,-0.5334818838123707,-0.5196417898726426,-0.7857968220482551,-1.1792817977305687,-0.063400571680659,-1.2170663044815142,-1.1241858996795369,-1.1986556876129024,-0.906438335786959,0.778729033614711,-0.18414385723760293,0.8367656024760491,0.20118546835721962,0.1530989519250363,-0.31882887418093864,0.06272961336931193,0.4921285600566995,0.32012587649232754,1.3042537503644365,0.06568409131678145,0.32922051426852345,-0.6944642126087659,-0.7788259655017153,-1.359229140601192,-1.2769877350949568,-0.11934072919536086,0.17834741718177258,-0.424005446770967,-0.9448605540589743,-0.6258364362168445,1.2165299328526054,0.21337761548034703,0.435889788373183,0.02309212875303669,0.8521383802853227,-0.21707742534262936,0.6161906792448735,0.6771977318427259,0.4489041846706404,-0.3450640277105971,-0.3202466916672338,0.954300330398457,0.4014034689799044,-0.30880175705537066,0.008574751934270456,1.3811528541030185,0.22981349738898535,0.22484132434225726,-0.5333416949890318,-0.060262258630336324,0.6485160702761971,-0.9563254193542906,-1.2273642661907487,-0.34168258497649623,-0.8935740098961921,-0.38613709004783947,0.8992971340279524,-0.26960822897542347,0.28268507467576737,0.8249577367654557,1.0954085578249109,0.5439374025127482,0.7216050482930538,0.36035382861311577,-1.0729782267017072,-0.8834341283399314,-0.12056771887744967,-0.04246475820490898,-0.6540060887085932,-0.6474987354662856,0.4872522358030188,0.24268486747040025,-0.11569266172158063,0.5239487759373332,-0.6201290929856954,-0.06073013301007641,0.6977118259302592,-0.19511880585131341,-0.5496879178514432,-1.8550633624509134,-1.202237346665661,0.8930646745530906,0.05582499913821853,0.6908913610585101,-0.3849596032194549,1.1744022282263107,1.511139084276471,0.18706265439920505,1.029471017496548,-0.20991473675528205,0.12428666272964084,-1.1045479009867853,-0.07441629845600539,-0.6480244259334791,-0.5669246228406752,0.6067823752465619,-0.49909335427648605,-0.9006778210118691,1.0652919376527674,-0.9457779627693538,0.7003336200230974,0.06955964670761322,-0.8361959754397807,0.17709229923330333,-0.3883607737998975,0.10792548161937354,-1.4062626253802544,-0.9464167921153539,0.06735943835105522,0.27748935573755235,-0.6702465841411945,0.6860155636626178,0.8564539848168911,1.2742086557463947,-0.2918912877818934,-0.32312367367941314,0.819018952432829,0.6293770850268665,1.1734444659870258,-1.2640481841748503,-0.5712959409649155,0.46510464517851396,-0.08933552367224815,0.04898846584503546,-0.7792866416956398,0.26043279878956666,-0.1448189642260122,0.205090592946128,-0.5306890176555221,0.3279954665441093,0.8614189183696495,0.05079913137536418,-0.10653398712707417,-0.31757572176419313,-1.4299563901725791,-0.8062582655348276,0.1878114501060256,-0.32314719479504206,0.7409228165570567,1.1929505091355024,0.07065791402221591,-0.23973417953061973,-0.6284963804683226,0.5636588660069237,-0.5139971810266529,-0.1593301047030716,0.11639211180093,-0.8678434916560701,-0.5977894948618512,0.02301092263207155,-0.9409873421416228,0.4179390136613046,0.02513532021955198,0.2150898989562087,0.048619967956229436,-0.3484417042966736,0.5185532048031525,-0.41487090426229917,-0.1339867395632171,-0.018189306686328968,-0.7991870513806888,-0.5698711258365892,-1.2400223062941278,-1.1194971565594491,0.9861649153331775,0.13009440019518714,0.17237859822072096,-0.8059557354829328,0.05750640144988196,0.26016384162128897,-0.006769593277054643,1.1802410346146992,-1.4162706495614719,0.03886019297194769,0.09745076113577718,0.4650244306846625,0.6394794058031209,0.28717370819969273,-0.9889971643347018,-0.27396157977778424,-0.48208291709588497,-0.2970133979376477,-0.044210860659317605,0.38823564840655794,-1.4623275981557158,-1.0698819842026073,-0.12030102523527524,-0.8278253018166934,0.6514778346799824,0.20873835834843113,-0.025853597696347545,0.18430010262403718,-1.381132999461294,0.8587687684895419,-0.07851239032786184,0.24777633458640524,-0.08303212840013242,0.007062856776708321,-0.5050078245196972,-0.22323982748288185,-0.46792354255101,0.1647584958140502,-0.27785676373194484,-0.38493066891550437,-0.44819237867303374,-0.24639372982412214,0.1689442041824247,-0.2069286037847337,-0.5674305428683117,-0.6345982934229801,-0.19408575791932287,-0.7106540765593536,5.183048403680299E-4,0.43391517595631485,0.14140696194405966,-0.6987056085418643,0.09052508728577609,0.5031831619673772,0.4252414577666543,0.6611949495808741,0.5781057180266056,-0.05142930529877519,0.36863936706435724,1.0616939127929057,0.485399400008419,-0.09134869421548863,0.5469676336605941,0.6264151633171112,0.1942761935291374,0.26369627995768635,0.1719438580407061,0.44970406101280697,-0.6415234103886052,-0.9304803781057258,0.14909666224184623,0.3575245167728837,0.25533854598981715,-0.9795086665585172,0.4450132037266465,0.7880554021108652,0.13111035169441493,-1.093572169513641,-0.45877035903796426,0.19002339016993558,0.10376165704991018,-0.05853138178659562,0.5380357652806935,0.4160606997642897,0.13980929025361316,-0.522499991144451,-0.5198186088329793,-0.1678842005665241,1.1171823900788451,-0.10835822642556817,0.5681277079734747,1.2719606865137538,-0.37973237133895615,-0.2895860303083128,0.8850310601578759,0.42344345619606055,0.8606477506847038,0.006863091308766154,0.744582310900104,0.39943386099991995,-0.7370547677340855,-0.7341394747373428,0.4075285198582705,0.4423989336971754,0.6841117291535956,-1.6969215335122887,0.7102144539344195,-0.03819966337294671,-0.09140405536536005,-0.4988628969961253,0.31849264007047323,-0.08255257868626699,0.3835939902811491,0.8123596151310428,0.07505840562350004,0.38568156644924156,-0.8785714153934585,-1.1410859159337972,0.20196550777859837,-0.6764211433321521,-0.708061821516246,0.5038464717311546,-0.8039408480562182,-0.5091685922219894,0.31637969099542396,0.5235259348138313,0.38937103886035396,-0.21432212138071716,0.8870183253974407,-0.09046814931260919,-0.8995906805086701,-0.689428993292707,0.26933952830994995,-0.11431141518031429,-0.6937905412621765,0.2742464526736351,0.12375204139033823,-0.3038797487245247,0.7367091067222702,-0.11646243845553517,0.34096533355839403,0.09101582069981894,-0.6640956052074489,0.288933144132486,0.146272162276388,0.36930968648274526,0.461962895271789,-0.32676585419038695,-0.37320257269337265,0.3300444738809836,0.6132473373903472,0.8970721348067693,-0.9450191311157359,-0.5164945447565887,0.31882428663561435,0.24371170755663218,-0.06546926442607556,-0.14598759389985652,0.27347464751277983,-0.540031733532647,-0.7130891330221492,-0.17153298120589444,-0.04330614543372752,0.19660235159806974,0.6304285437998584,-0.05571336894333486,-0.05112822796973741,0.5954353547304754,0.99056447651417,0.7554762283616256,0.13637773250252985,-0.04821041312197967,0.22289316277754234,-0.033670857355781764,0.014221891992277464,0.2409371543817347,-0.1841401119394754,-0.5296008300276672,0.7485383112099165,0.5481959381526105,0.2202286678147523,-0.8984752593057468,-0.4773173154093273,0.1991393702923312,-0.004568666754150019,-0.2933442500993193,0.5210965562544654,-0.44771050662404605,0.7925397357059686,-0.9805247812702778,-0.17729970273225598,-0.830792961026813,0.24412632181212637,-0.18707062047194845,0.2759404225529184,0.5839013076904784,0.5114655263585639,1.339339856539064,0.6967436546361536,-0.9701471591086662,-0.8207080186656752,0.4598854072070845,0.2601256019399158,-0.8705774444892115,0.2616291220534647,-0.696958375878004,-0.08781731690895815,-0.6481709817436782,-0.6639166238892797,-0.25634495685981107,0.6742751296685465,-0.7574558820647674,-0.49912717458146094,0.9831913449330805,0.8223989921291917,0.07220452196008686,-0.3317193190631955,0.45521753107255064,0.40599789175067924,0.75598590956074,-0.861722346892814,0.6062124955251073,0.47072830012031897,-0.16771308273505078,-0.48300553411771163,0.9614835030968918,0.9503737432747447,0.44043335590330973,0.058146843496498485,-0.018486332651496327,0.4997379294359213,0.09465239125209698,0.1493263468349291,-0.862896692345445,0.9704574127993142,0.028598146589119855,-0.6595449909051374,0.9578114603375885
0.4951162103672384,0.9068244264550589,-0.4241474542425756,0.25325064187968893,-0.00116977264799778,0.3866933590258774,-0.46139640716315733,0.8071227572542892,0.062204868392599755,-0.8743738106102419,0.02474138992858843,-0.07879171268922214,-0.5081826717990503,0.43383470037031524,-0.37111719569591256,0.4754157865047906,-0.2999319889901575,0.3976907188545582,0.19545369673663027,-0.12278515878273177,0.21989572559016812,0.5840125145044135,-0.9760009067497579,-0.028302951654105124,-0.740102857561306,-0.8056747266807345,-0.5587634760576943,0.5550281002091537,-0.5230494605002347,-0.9600934083696142,-0.6241489180197437,-0.47996340120479863,0.3969014282642348,0.13106375581984464,0.9026084835328307,0.9405049064090073,0.7504758628698696,0.8468152099033722,0.0021267423491679676,-0.17953934222458057,0.27923585211039786,-0.19684654591174247,0.719434124578361,-0.12124728789908039,-0.613046520122957,0.8497357533536432,0.10697293211878824,-0.6115375443701434,-0.2397814057987979,0.4765433246908657,-0.5146239133911531,-0.20325537525665457,-0.594315588506213,-0.42756574175987394,-0.41917400157212437,0.19727273613112395,-0.46630792779007435,-0.6512986210793013,0.8717091948581936,0.6279994917617621,-0.08188481109481488,-0.42462416499027905,0.9598683366374362,-0.7101680710566538,0.814790457735291,0.7874334909989181,1.1071252707458834,0.7363274512620064,1.8351158323379693,1.132155417583739,0.15288337769879368,1.4211938255110605,0.69307860375993,0.9466395994228944,1.4759102749658422,0.23435204238127008,-0.18062516378609375,0.05016399233632409,0.4891795898413718,-0.10740011878995556,-0.5377211205675949,0.8452619632998832,-0.28214638788460555,-0.7301826087659449,-0.006401378347884901,-0.3313136708371327,-0.5905307887085768,0.7540035638143046,0.2633956296895977,0.7436865396921816,0.5396504722568987,-0.39026436268824377,-0.04873994684974888,1.0309696946892535,1.3581953089442935,0.5045455750000749,1.3789286775865697,2.199529741146177,1.2501742247820535,1.413360555797493,0.37626933785952477,0.13455056178007602,1.7721373885183342,1.3029513972748297,2.3890526459038646,0.6617703546625151,1.4632545777920636,1.162520411700742,0.6694611013600265,0.9989133602767809,-0.23279703548066613,0.8259450680437901,0.3674108267570386,0.17951226593333489,0.4255739341185738,-0.3002170529799264,-0.05194182381527463,0.9602108754641245,-0.2799703104043224,0.643693057114085,0.1881728751822104,1.0038278665398892,0.16719387264229194,-0.4292169612861808,1.402402698186795,0.23417996353161913,0.26759462672320267,-0.01946604879447713,0.7127918494749158,1.2858534039269789,1.0099273629081356,0.3111425930457469,1.836264139289443,1.367782844055441,1.372214439349711,-0.028994581931440007,0.7585333285907226,0.44487818992623207,-0.37455055017570166,0.10306550886061532,0.5410766466539823,0.1405472017891869,-0.1920935014553947,0.433703833020146,0.2390772972510856,-0.27222185388663367,-0.17017832996697327,-0.45660843150942076,0.05207142785549096,-0.39283331584711073,0.30899226367802435,-0.7039508474333533,-1.468098973326799,-0.003676023715235098,-0.5100795549225317,0.1680909977878928,-0.3798915982085927,-0.1334375379193027,-0.18905447372102685,-0.5569839678470494,-0.15705936603974702,1.0055638027628104,0.04445327363368565,-0.8165762316121273,0.7626828906786906,0.818107044251753,0.03287434116924667,-0.6188073321291686,-0.5579277435695689,0.7612864361383787,-0.3257766839550467,-0.22795365151586736,0.7428295187058891,-0.8247952057840751,0.32426289133806013,0.9631351996959404,0.44003422956430105,-0.2891462665997734,-0.3700793596280518,0.18726486333916384,-0.0202089033157138,-0.3357953321914914,-0.33780194218003606,-0.011813399696447142,0.7332293047186141,0.09572783086523741,-1.499538144769825,0.0967643202268807,-0.9602207914302533,0.015575718993288962,-0.7024107926829336,-0.2480009614342139,-1.1313658087191267,-0.22691012609259348,-0.4915831772512246,-0.6242682418292185,-0.1836781353555337,0.553176101822219,0.7585217764620114,0.14927625255024937,0.7786306101416295,0.3126676007536606,0.9876396535316293,0.41522938177867036,-0.4098066612124468,-0.0812979587206952,-0.16811475322749966,0.3232361881881979,0.34099935539372705,-0.6756426854783519,-0.5913592345507112,-0.7291614287179871,-0.2387205695211399,0.17307209927277972,-0.17997516170388214,0.039810763155281405,0.9376068513594905,-0.47245894730868515,-1.166347309428684,-0.429118113426207,0.5252447506734067,-1.238702560331403,0.5087239954839768,-0.3306158847285263,-0.4677132562270878,-0.08984302491329936,-0.37268835663828376,-0.026583081589875882,0.209799000892056,-1.1284545349869908,-0.07780202795498778,-0.36347378974376177,0.776512373605545,-0.4788264987219242,0.377430162333404,-0.006887222748428893,-0.5208384025378335,-0.03175074223946752,0.5049624780705528,-0.32696623666880104,-0.6451469263388727,-0.411670272779565,-0.3530040088865152,-0.08941411227023553,-0.3001735770628831,0.35115715835889266,-0.019643436388776806,-0.2184026246726775,-0.5839238379503205,-0.08025223884222105,-0.9774445550593303,0.07205586655373614,0.7554882882884034,-0.20174447966725376,0.49259009574736545,0.7024016852594834,0.5667976397067692,0.9805249026138708,0.4151398854609089,0.5479848322854366,-0.5866785223243532,0.6115615344253944,0.5365677944880991,0.6339891952628002,1.0037763303666167,-0.15454645562633337,0.8666999839063088,0.6542038301750919,-0.6221648805826702,0.39199025051015235,-1.695102002445063,-0.6354427225195387,-0.31498520845016803,0.4613893450319665,-0.8504388960921522,-0.13811838272886437,-1.0503528599257161,-0.12782123474043916,0.31621321031593314,-0.18427504152593702,-0.38423399658866675,-0.8013550314597312,-0.3806735998389264,0.3863633664284262,-0.4793166957519217,2.1446239109271925,0.9518634857187681,0.20439947404098532,0.5920430541958691,0.7460506462869255,-0.3486662000278442,0.27142386756989495,-0.12756369984976984,0.6912244227115211,0.16778531751848383,-0.9441504491717775,-0.31932339957868133,0.24174177644335362,-0.14384578166058787,-0.7360309826933794,-0.9762582728353387,-0.3271082489797995,0.028725061414425306,0.1586716732504844,-1.3153815081146867,0.1866365372011824,-0.48692627842183855,-0.6006594649436598,0.06783213246232134,-0.5454226871224415,-0.5373220977926637,0.39626547047538846,1.3295326844877309,0.8535543007025035,0.874092888281827,0.7440290203182915,1.3128126520432242,-0.44592399456056736,-0.3956323159895196,0.30962853349268693,-0.82697231354987,0.262181065994672,-0.6923152361654291,0.14052496645796925,-0.5961516875031981,-1.047502336602438,-0.10046492049527393,0.3024052165127311,0.3927459340507741,-0.25727649258949414,-0.8399521272049528,1.218873966765581,1.0550569797209315,-0.7548837024015368,0.5685880080146616,-0.6382119391129434,-0.4975470281067846,0.6300180370275195,0.8890574751459684,-0.33766506313656514,0.40059862485704084,0.7000201107630941,0.040247988906531126,0.9292573468847266,0.9275670798479426,0.4658704854796105,-0.028970848026196285,-0.5474108787643194,-0.35067222582721147,-1.367650921170257,0.16957960885046564,-0.41078922212771146,0.012865684232674366,0.32303844204548265,0.06723893876698525,0.4097547524904269,0.23520368720924004,1.2588794781723998,-0.5383969709795478,1.1363487855579935,1.2483730082530426,0.910975655805317,-0.5653207379295144,-0.7119096842013242,-0.8994264053798458,0.7700158531318034,0.5704247737607847,-0.061884371455373455,-0.17743759591839353,-0.5418907852544097,0.1468166415521036,-0.6260116104664505,-1.0839973498915982,-0.5056289580133811,-0.6922557106893512,-1.5662213315660871,-1.9791112592147506,-0.35476719101531184,0.3459544935210312,0.3859164915708172,0.32025322533205947,-0.20932140325298657,-0.15717055585796394,0.08810974398628293,0.33444137491851383,0.1429377512713331,0.30318351745591715,1.6349972761304252,1.102239003366694,-0.31148783025865323,-0.14580191869212988,0.5284752503085995,-0.02647027465346812,-0.673607145306789,0.3978077644611968,-0.4192301764131259,-1.8576235747307002,-1.4755901521174557,-2.1081715815966375,-2.76012861100667,-2.1866220508134324,-2.3134158852671245,-2.364078598779393,-0.9113907584585181,-0.5265424655336548,-0.22616807542756628,0.16559271334016165,-0.014141853822104965,-0.23833397197636016,-0.1955556908998547,-0.4806477336073569,0.007683713015237564,-0.9285240685542099,-0.0833065405405006,1.3906480667858974,0.3938606114855972,0.6277644265737047,0.2462136843682536,0.1803740828272959,-0.042227524609031904,0.1761739162762005,-0.7966487126671369,-0.8847419064601691,-0.2594108958518239,-1.786397268595297,-1.4670361273675832,-0.23866352620307266,-1.5622074879160226,-2.251397387949281,-1.0338442590587926,-0.9894914566316314,0.4963855577948414,0.46676138891752283,1.4865121733149278,0.6625665011623384,-0.32935493763947854,-0.5196646510993876,0.10829498133188065,0.05571307374008404,-0.5683630215099601,0.3706534291738771,0.6277999228461284,0.85950785478628,-0.08664256817689024,1.1619644571983647,-0.5614901165738426,-0.2076244379834139,0.09823425217101033,-0.047215634473557956,-0.6208150540857641,-0.7965829217258488,0.08463272592041117,-1.2332057614370946,-2.0860318969792075,-2.1365547477475837,-1.590985397373559,-1.9679962530438049,-0.24380915704205258,0.385867993231076,1.7161431540744072,0.30335976212771343,-0.03902286751036087,1.469797224331594,-0.22404857954238377,0.2347569236832662,-0.6889442123420892,-0.059590620656171024,-0.2968989578394195,-0.4118396293213945,-0.16652003277413766,0.18609758089485087,-0.12253450339398109,0.18063864953731687,-0.18270240108324198,0.1880333781361931,0.5248526759672228,-0.9536091125793102,0.7589671672968699,0.4214209852810391,-0.1764616730011693,-1.7015380500184407,-0.8238190496570253,-1.3204729517746,-0.4510561417951889,-0.20223754224473978,0.4495860334690682,1.0538608989459834,0.7710179656876661,0.43044842534189237,0.5028671335565211,0.2604476793413856,-0.5170134196384832,-0.7603585902195008,-0.5058956573615858,-0.6556354742991349,0.8138140631696751,0.5341180261139932,0.26245512067490895,0.5601163397826688,0.1685397219333257,0.9823393045094588,-0.436836101024077,0.07815679038357662,0.17857348727120972,0.5519607543483985,0.9618150080785098,0.3820982476124327,-0.722084470945313,-1.4348968431193916,-1.934796037623173,-1.2178851447348225,0.27625766498838406,-0.19195094293807585,0.8066086063216387,-0.047834105183381194,0.35333701086449004,1.1320088254472942,0.2950027915854473,-0.020637832057839253,0.1608940495972804,0.0512547061430333,-0.016335578114961915,-0.2269825464586527,-1.1002782441122343,0.15769947796441292,-0.4511800127103415,-0.749017773203287,0.15613256385403226,-0.2706947951759701,-0.7449207733776178,0.7405832662693828,-0.6361829217054572,0.6260125131737152,0.847200167295076,0.37546594633684566,-0.8131219951317442,-0.09481320561748294,-0.9392541685151821,-1.5873827799336542,0.6074802048848201,0.7846714702072795,1.277665776339307,1.4519652761109836,0.8128926614544958,0.9713569129012857,0.9526125956896999,0.8131070730675047,1.5047303765505504,0.2522418947764521,1.3049089141312933,0.41097411829825653,0.12141505912836907,0.21717647158872116,-0.48783525706804626,0.7808716367789177,0.3950753300866356,-0.36828016651850537,-0.7654707890701532,-1.0047122062220077,0.6644974072972545,0.3987677734107573,0.04901208450471773,0.16230113625698556,-0.3842838867114934,-0.29056409650506543,-0.9128011280779812,0.1947233561736689,1.305542353574524,1.1120292475836482,1.573646760910699,1.876704536613278,1.6111227875493053,0.9846063260263973,0.33191886161156986,-0.0074544728792538,0.6715111118300103,0.09741339032468685,0.330394626977551,0.4158966072897733,0.16660667129752899,-0.9857737995545315,0.36331020979767437,-0.23067279952725814,0.08552584966364668,0.34753589245181205,-0.6050484605332392,0.43544299203368136,0.082388749140692,-0.35862167021450436,-0.6880214596742225,-0.11748551232490645,-0.6820805345939175,-0.6848757043273691,-1.0586288428824329,0.6918079569911958,0.025681973474312364,0.11778078871955487,-0.8157483673364169,0.42102927913646765,0.6687721384706036,1.3224458861956672,0.6500942747800101,1.1178893447098004,-0.01826862018194558,-0.0985309766990113,-0.1456027640775107,0.7334583571626788,0.05198721959169945,0.7521572410376002,0.19747936536366478,-1.1247596087499128,-0.24141570374536525,-1.1544149134799089,-0.8568982575118934,-0.41760034304705673,-0.20392065739731155,-0.8559947550063051,-0.6691772262135481,0.8477735895785872,-0.011010975372852932,-1.4213517800909978,0.905534030552894,-0.3991049602441289,-0.2510106641898619,-0.5984605107999169,-0.736876749853812,-0.4999772759697001,-1.0268416192469751,-0.4060757106786794,0.8219351007531217,-0.5732887185812551,0.8974542460807478,-0.18438900391587082,0.7285104389137277,-0.43590970601016243,0.0481115596447894,0.5350966139981084,-1.1377311802093277,0.02937063320622699,-1.269137083186154,0.1113127842683355,-1.0091553171109473,-0.5244311230551084,-0.7741037452384197,0.3480338977344475,-0.2721635792550672,0.7694795681293204,0.15413909294296668,-0.3746094748534705,-0.8013388664068222,0.9587775134151569,-0.1093636181246846,-0.594344009198352,0.26139547840381366,0.25072601348519125,-1.3395244416336267,-0.34609945576927315,0.38594432985239707,-0.4728058026537236,0.7312261157509923,0.16895912220322615,-0.4980261111604205,0.9084537497240586,1.4380627021170775,-0.4335578156025055,0.3276140707530057,0.06639781917896469,0.2872769421976105,0.6422879802316341,0.003971713536740736,0.2491645322208169,0.6981332749691653,0.5508666816043248,0.922547791293181,-0.7824718643883902,-0.5531553585836252,-1.0943401352101683,-0.7451725431263245,0.05400804151269614,-0.2672941014219488,-0.23773872159738277,0.4088528852800644,0.5446723845968264,0.5744876625272078,0.783695462534083,-0.06934770440244736,0.5385689073246177,0.6533786321121471,-0.3154608523882062,-0.8394968670750257,0.42649281724477983,0.04127613189963039,-0.5952933401566197,0.07372364927619915,-0.37754240157136615,-0.8958478598406746,0.46543864329756857,0.18919669238955314,0.3507550555733807,0.5599600659057089,-0.035265983015857705,-0.9805136862758015,0.6588954156108602,-0.9727005693358727,0.6571575566596711,0.5943086782117628,-0.6430365755385467,-0.361811006379694,0.1980380495819238,-0.6169249111057092,-0.009473181915069444,-0.09876974088252032,0.019882000336207673,-0.7514690651102881,0.12789337292534075,-0.3720389707063868,0.9711860834128867,-0.3224172415034318,-0.9326174759228946,0.31743749865990084,-0.8473889009572696,-0.7029045119847898,-0.6764537430274107,-1.1416089334115134,0.3988964335444743,0.37425703579090813,0.4142897926556977,-0.3354147743034892,-0.9386241842164096,0.48785764164163314,0.9789642868750554,0.747603639519559,0.7722319079608764,-0.4117633135939847,0.06727016988115526,0.7653039827827463,1.0067923124275906,-0.4977157024393874,0.7483140602341601,-0.4682393484688183,0.17738880313906003,0.49947010048846524,-0.22000209434523357,0.07309392544784302,-0.8614961085149649,-0.04154051209471558,0.7431755652679783,-0.1304101707149829,-0.026215700448697716,-0.2483869255504852,0.804425762271986,-0.6175344817726592,0.5516593035329889,0.13081129638557426,-0.6030781966357583,0.9931145805507369,0.972279577269199,-0.07352753357678621,-0.7807013398111355,0.39109015046918927,-0.8654613198705066,0.24061305193347002,-0.29801925521116296,0.46639290150229123,-0.8060991087095661,-0.8686641162397801,0.5811150670901629,0.16501157743156455,-0.24922766588105558,-0.005440245359075768,0.1769448072907001,1.1157619801004472,-0.009009216467211567,-0.3441874865816858,-0.22341354742486372,0.8735938840233828,-0.40266805082282814,0.4085793832996732,-0.12339198820454778,-0.6997086538794486,0.5365165975905606,0.29580449655592833,-0.0336005525536589,0.6851819189044679
0.2395921797941205,0.36893705490152207,-0.9816260091607643,-0.9148621671344987,-0.6254093106596557,0.3264457694609493,0.9968132081433876,0.1323631392621114,-0.4124780716107479,0.7375158965971285,-0.4666467141055697,0.369310045743104,-0.40741230232467673,0.021119508879468098,-0.19593102095858458,-0.33565579224770753,0.989550373421286,-0.3461301217776289,0.8779815673550404,-0.2992344410250225,0.2900643661294864,0.12781552334018143,-0.9690657312967832,-0.3519817857967016,-0.253466142030367,-0.17875987743187927,0.38432741930508896,-0.052238730592332416,-0.07430070154260138,-0.562605063841235,0.4610035114867197,0.7817626107750599,-0.3890516296557873,-0.05356930626755207,0.817266799138387,-0.7600636623767902,-0.40034248022589297,0.1045483536401676,0.8356841939637848,0.44733645280592516,0.10373428447802914,0.29124325994538725,-0.5624243767307239,-0.9239006360010582,-0.3417093542013366,0.10296310296817458,-0.2531432454304537,0.04820095998967283,-0.5359054233490558,-0.7040176680159492,-0.01418132491971996,-0.3782941255906374,-0.6885047843040906,-0.908186902791486,-0.45586877713817575,-0.8036505816500723,-0.010141815626385053,0.19412333472796917,-0.2905153985112163,0.6312475815398159,-0.7371847863574885,0.6035628585842349,0.5860334297353618,0.692921157799384,0.9885674276633541,0.8916766944935994,-0.0385621379414747,1.4538817211809278,0.414086659446491,0.9580458280167652,0.732958297385019,0.2957654153154503,1.311623239411238,-0.06996689667804572,1.2075877492003038,-0.40774133322487816,-0.008200030182246439,0.6255723297153497,-0.5592786108924032,0.2494196658676713,0.8170877571291326,0.4639029640307532,0.6114853682782007,0.35497159403375744,0.9281610242438383,0.768804539700612,-0.1932576916554658,0.5379449490157864,0.8824634950103413,0.25784798707842904,1.0077163779169043,0.2438372591851882,-0.1876379067597537,0.49014242920562545,0.6577104218186062,0.8153553618216018,-0.06348823404723355,1.530069477196041,0.38225593090241855,-0.07411801122834673,0.1478349990917737,-0.19380799260216347,-0.48347720447892295,0.9764132382942391,0.9942019917580471,1.6903932209084518,1.078724988291016,-0.617618936856245,-0.6462835154284775,0.7455904460306393,0.5145275713830763,0.5012283090457674,-0.05150390166804342,-0.24469250488495103,-0.7758422286199482,0.7724965520165813,0.23479404226935574,0.8036929483453239,1.0077863256453592,-0.1260970973187628,1.5760612431820864,-0.09801462750056865,-0.1400640700459314,0.7455980813097338,0.8156036146632984,-0.1405338659491085,-0.29202979452006517,-0.026963940455431892,0.6077796383390056,0.12028910860175189,-0.5084948061749281,-0.02423099613969047,-0.7491178760812461,-0.6901574444559906,0.3297120511694725,0.29873532605954245,0.5077205547657484,0.7053088272074272,-0.3648476613652361,-1.28824265116861E-4,0.41506530198741043,0.9753312018060047,-0.904532385436343,0.3733619746695632,0.3958924306942659,1.1636879102558555,0.7384075766903951,-0.3035347407115304,0.8136004457779604,-0.45300245225801467,0.6759298048344293,-0.9997027505561045,0.5924802460196902,-0.45581351705323503,0.5201719686092733,-0.30870041718580304,0.13931232805783364,-1.3725396289831413,-0.5209656951046213,-0.031077765716140435,0.12218563788641061,-1.3241994111984918,-0.3628638706605216,0.35248496609690105,0.6403054208464122,0.6654077749122781,0.3114980893018887,0.9156328330096101,0.9474061314698625,-0.5027256895136786,-0.384630851065065,-0.3751929287031064,-0.49717696634636455,0.2284530768130916,0.29222104077845285,0.5035863937811547,0.8897427547371577,1.2812853530450699,-0.039433001456708666,-0.014855747721057262,0.709747385776156,0.7703665934903325,0.5287769497343994,0.8258345260946227,-0.06657263331572362,-0.11799156939716966,-1.2300812898710478,0.5660777575900965,-0.2485450609810204,-0.3428617926843745,-0.8092900396622166,0.4385156318892199,1.2641177718823111,1.2543089562495668,-0.08977857008414576,0.5655846800971019,0.396738219221002,0.7774828993741513,0.9250081143342515,0.6040338026421933,0.0530025601541124,0.1689977783129644,-0.3944242125512151,-1.0446792983279787,0.9960911495607925,-0.11958398735777163,0.19630625630265552,0.10682859191640347,-0.6261628333590018,-0.4384332374204279,0.3340599490189056,0.25706261852575313,-0.4816682411511743,0.39456177277072135,-0.25601147588574036,-1.0768680755505997,-0.8783082242514354,-0.5383319327963756,0.23372364786913094,0.1735241671352913,2.2326565428478857,0.8140036084207658,0.8354470936222135,-0.5091494039396512,0.9479472199873138,0.4537736096265996,-0.5302455977415079,0.5679647334514958,0.14280287342793777,-0.9560710942775222,1.0351437236285643,0.18481156849111002,0.6731852610044338,0.8101655301059858,0.7260200677872848,0.07119601850807443,0.04646791746327591,0.6897919466377554,0.6875302678153161,-0.6002270894170454,-0.19329500927129367,-0.30862008082283277,-1.50238743394487,-1.0091170722286682,-1.171782180223176,0.5997004915414558,-0.8929938856598494,0.051324742213199465,1.0749866168788458,1.884384932747791,-0.2959946053908539,0.8681445051260214,-0.19163974641384185,-0.3072249970354384,0.6433945367480415,0.08445749726706309,-1.1641683305889194,0.6904775790913831,0.45718296114571444,-0.3521194426914236,0.18545004204447532,-0.4424875642011444,-0.7740297390106706,0.06463446606476475,0.3214248799535932,-0.8878960653392284,0.970999573027657,1.115511925631414,-0.862936335262538,-1.4324725372404359,-1.1697568023353755,-0.33850233943018926,-0.2681536199778812,0.13418956119776543,0.6397969394672092,-0.5967805796288737,0.4085768036260181,1.7372342585569254,1.2160934641672565,0.975321808339059,0.3441033863256241,-0.024620954079706395,0.8759836098708151,-0.017289694309430115,-0.3889042664722714,0.2603561222133066,-0.019967010822393164,0.031100811012533276,0.947100332979561,0.34209695501746457,0.06791177201125805,-0.0259577580716535,0.08259279768793268,0.33933065515758526,1.3331374761736654,1.1894471289425355,0.15962058224935094,-2.614188375183813,-1.2092731186963417,-0.9725669261518146,-0.3273340151608888,-0.01945261644728644,0.2176967447882276,0.4837154308770861,0.4505730923243327,1.2660485645960662,1.2826940479716404,0.36828677936189275,0.11487155286121581,0.06681713604839433,-0.218941605699102,-0.6056282089868136,0.5945559838268003,0.16162535520259855,-0.12857735153233785,0.7154329902158255,0.17525592535184142,0.5318887162918782,1.094858109827446,-0.3795658545512986,1.3416096421961443,0.3445259138160882,1.7383996405749984,1.8543747884484167,0.7806394351695459,-1.6543884653102208,-1.3129427686843693,-0.5408617589874205,-0.4370240197105746,-1.2415442113173283,0.21406974906343557,0.2088649211375668,0.2812071195754071,0.9144107161789954,0.014957335256355063,0.8824303504506676,0.03104146458863942,0.06505396947940432,0.5392620603677925,0.11043806270604598,1.3000293225987403,0.1736968613544451,0.5746624956441104,0.0932853961479002,0.5889939981344853,1.0222363465048228,1.2679469188564911,1.2528978018996995,-0.3217208313151243,0.2567395044793167,1.673696937112436,0.9079896503852616,0.4394565136924434,-0.41388630602296594,-1.1899857938750362,-0.8358968737489184,-0.9310772447668272,0.33719883566746417,-1.1693988323607185,-0.20026572608740523,-0.8146434711278482,0.9392222522441234,-0.8108352683346272,-0.957554284984056,-0.17979647525804418,0.004836752427723569,0.8526165027931104,0.6171445768790325,0.8490828316745147,0.5501518918501723,0.605664052794391,-0.23240659542882214,0.3329026984970749,-0.7254193549340443,-0.2914524315523534,0.08515977183938392,1.1634668668639356,1.9483093162020757,1.0745005803962535,1.263120168494502,1.2131064238782359,-0.7963846078397595,0.32988821931263995,0.8286461739539941,0.3517499884506044,0.7280903142167788,-0.8749531460890542,-0.1872805734998304,-0.41190083691335766,-0.7701574857876237,0.2627362347564799,0.9666069733152006,0.14255777725760685,-0.35337502076870575,-0.8939764106478761,-0.7433354481392469,-1.3053351468725982,-0.650605586480151,0.45828090309210684,-1.2790698924341708,-0.0473732952715228,0.6205095743672603,0.12023395862833908,-0.32856429870756876,-0.8547982306059475,1.1563936024328096,1.522969605796509,1.7802530029188952,0.684872044987506,-1.4944071455069177,-0.20019427724725755,-0.2712743587422505,-0.2608625952280515,-0.4775951568934716,0.5569072157085726,-0.49875676480754494,-1.6168423159241485,0.10649725868658935,-0.9922292865776925,-0.3451417512787167,-0.9703149092058666,0.05742216516519072,0.6932670213687618,1.1856533306232735,-0.1152082697322544,-0.3077681705340277,-0.8378811276650798,0.20223529484378475,0.042195001510808995,0.6769725721008816,-1.1441707511493517,0.9972778727606373,-0.1774198275981671,0.009537334926961004,1.5776604213248524,1.2275849175419349,0.5915197372200027,-0.001182697560269414,0.3603436051317482,0.23108725563267324,-0.1525078547127261,0.8195451782850331,-0.09429385474441901,-0.37912854486237885,0.10294119395136764,4.767401538902004E-4,-0.15002382552951146,0.2739885869879041,-0.15039082430657355,0.7517827164260387,-0.8705274666518432,-0.3313692767131994,0.8965429785850836,-0.16054618278230637,-0.7519496506153066,-0.9092627287211161,-1.3619654948651352,-0.45515206403863384,-0.12492724252779258,0.40781691023000377,-0.05950007861245471,0.6630388626815888,0.49600539510178243,0.6697165161244015,-0.15231328190151497,-0.23211117527449457,0.12459162372469279,-0.44561650717096296,0.5272840178803682,-1.3558340929575423,0.5692452897310875,0.5908981632113403,0.5237087146440839,-0.05733062334665824,0.38222902002298487,-0.31736771688672405,-0.288818472479613,0.30946978886574944,-0.052240668484857894,0.40345408467298444,-0.9088603696541898,0.00771977239295935,-0.762662261603597,-0.5736236154652244,-0.7448710068144085,-0.47964735980582757,-1.2184267260375754,-0.001845717377236568,-0.07697410281041438,0.10048868586058336,1.0260998409575448,0.8960198007580134,-0.02418036900659733,-0.3833593084560678,-0.23191810696566584,-0.46197316453012927,-0.24469690075650882,-0.4371709005751672,0.09179940378359328,-0.6929524602833802,0.767437515687634,-0.9812792067771305,-0.6211455951391645,-0.8418735529476732,-0.878734367737959,0.5108200016103762,0.07677543846952103,1.3018173884886965,0.7256350056678633,-0.5773663160592593,0.06995236445154984,-0.26958040741479256,0.3198636695262273,-0.5543194509183794,-0.13288796324805552,0.3331634719752781,0.2710685211832529,0.8740184204694895,0.029040220550653036,0.8670061004657447,-0.42669095417371483,0.35425298356261364,-0.11589232981304007,0.26953832249492815,0.9601482980491558,0.03716080679831555,-0.10078195966064732,0.47151586216266206,0.3703245927756452,-0.9396131947544984,0.9866877802094318,-0.8491487993710164,-0.19261067635753865,-0.18870710081640327,0.015440965281700369,0.6635068126344181,0.21331305992791863,0.4597123859436969,0.8692700099443259,0.44679340572591236,-0.08983325209164872,-0.8336557772517663,-0.13582745668442184,-1.1117546908920206,-0.6086817882928794,-0.06547088029756687,-0.5644177991503636,0.2882146979898151,-0.07608036919983387,-0.20659090022411467,0.24450745766339546,0.2307853064470316,-0.38614060326997607,0.024014882030897196,-0.6500716966421456,0.5842750225388308,-1.178509278293738,0.04113521583702817,-0.04362644802760816,-0.004644613317257223,-0.14540210222929129,0.6352041593701445,-1.0157136654807497,0.698843088899868,-0.5707671790727027,0.42671847058070805,-0.8452053437247954,-1.171252385267543,0.17292664406821354,-0.771915507421278,-1.521956102098143,0.5040759156533539,0.2514390234118674,0.08767803291424202,1.0048681557199612,-0.558240280285669,0.14294264106734975,0.4416016430502553,-0.604651382392739,-0.3994314642925684,-0.1660759136417522,-0.4868633251544628,-0.29037734914051844,0.7297431365756403,-0.32175309916629147,-0.43803278342225094,0.1389775771068561,0.09363009743457879,-0.1549900533893589,0.5163780359685111,-0.6078272488837481,-0.1451624442492857,0.016623087768406996,-0.687675381563891,0.032501201384823736,0.10223390983527424,0.5263381986445175,0.31759966307269705,-0.1970028959612696,0.3148312593253297,0.45789512996672155,0.060137218272321186,0.7752700034650059,-0.023746483692294068,0.04456711016161128,0.2398012922562432,-0.16262564248213923,-0.052633120450381383,-0.715286835142838,-0.80436673494058,-0.027076173871385913,-0.9492310303135748,0.3271090258634176,0.1772804438133278,-0.1303596201464189,-0.8053016981232303,0.24396324912294584,0.8513995257560218,0.46346216922617234,-0.06579276523652011,0.9109463181989907,-0.42205378583128456,-0.2136764439915107,-0.24943140463686705,-0.6558733358462823,-0.4166316239798887,0.35928241934050315,-0.5766608729737319,0.2644133589068755,-0.6477028346167201,0.9456738141576266,-0.05226215452702515,-0.7240495784710526,-0.2881616745890031,-0.22484735372137404,-0.41654414765733433,-0.4012208413827149,-0.7138417539164504,-0.716477281790161,-0.5783986249789256,-0.4317502795523533,-0.7197980281420269,0.4198128482976333,-0.45127044151709667,-0.8098646291183991,-0.3759008203082834,0.6823567413241282,-0.45116039768886923,-0.2184270203587623,0.6906912745878657,0.8793050621879112,0.14788622289209394,0.8189271582301305,0.18890893866815872,-1.088627298969713,-1.3281195665465153,0.6545267660350425,0.507869967756443,-0.8268810735344636,0.5990226779951842,0.5898783733598774,-0.23605243993447678,0.1408954695454607,0.42128560452739466,-0.596780554276808,-0.27817893222516316,-0.06673371603011577,-0.30590079356246314,0.9048036508689052,0.506956684259894,0.7988774588429328,-0.5808939746779047,0.8346971342484601,0.07150021338193424,0.2849872934129063,-0.4827969637976567,-0.27491380018480754,0.3949787358103563,-0.38033353566018,1.0772373859036661,0.7670610753911917,-1.15808313425649,0.8519455320061448,0.35378058783639416,0.04914810294184561,0.37410400246720893,0.6083785795531922,0.24453645173870328,-0.6689654944860913,0.48883471463625455,0.8449574211444041,-0.3574584242092835,-0.07802567232883774,0.2631582458526414,0.9238409970602857,1.1332043552518694,-0.030029575888649483,0.17734765821313048,-0.12163650319202199,-0.5896563063342537,-0.4017844489472189,0.5252378800168733,-0.28945568967239355,0.8978962740796704,-0.5426552518860895,0.573503068624878,0.874982315772735,0.3386435173117209,0.3768557056182643,1.5493872389614116,1.0477362674491664,0.4006725256402653,0.5503542272146705,1.2359298583288818,0.5758305222578266,0.8120388404852249,0.17699309769607688,0.3446809528795487,0.5986646204202523,0.7459515224068521,0.9404648792308791,-0.3668703575806061,-0.7751426081696562,0.6731434794918681,0.08973574610788346,0.44766454580443765,0.7758533932711337,0.4579272799857421,-0.8869326896473175,-0.9329307018093111,0.45441868739473223,0.4701569153891231,0.39318190818196774,-0.514975829862918,0.5202303790232758,-0.8452004569461786,0.9409886853527892,0.4141075431981055,-0.29393153148848716,0.2712403873049388,-0.25878576382960217,-0.3782487474260372,1.3164118629046897,0.043979718400704575,-0.10020065505158074,1.08123360261517,0.5005333880398126,0.3677680782399146,-0.2536228625414647,-0.46828330720466776,-0.6375563742599044,-0.27316421337555724,-0.13251990495358915,-0.4039181034464092,-0.7630755183371074,-0.6085174099810193,0.2070146810796376,0.8838769804014266,0.39340588115372355,0.895434729970392,0.6461176113041105,-0.9100141737858465,-0.14432813271636658,-0.9027603128774458,-0.28992295458453193,0.6485428241141898,-0.9062950584391569,-0.8079189171290778,0.16672545304009723,0.9257900465029082,0.28314370773478154,-0.44965909676546545,-0.13402614684560904,-0.009503724033228763,-0.2438701099921302,0.7567518239440476,0.5197973615302499,-0.3938509025057332,0.9058949671901118,0.9930198418013156,0.6296518492970486,-0.3422123564355328,0.6461001868743272,-0.2580823086674475
