0.29422561014121773,-0.05736260548298899,-0.8246531713681635,-0.6158380350209838,0.5386975810833325,0.3897907391911215,-0.07320148143028127,-0.5278136076046107,-0.9349438840412025,0.832374622203307,0.28959930124872924,-0.8815810518094311,0.7118359778435344,0.959666422667906,-0.7407063334367889,0.22161156524703904,-0.09973173161758142,-0.9334519242672437,0.3935362507954765,-0.9170686539113115,0.6084553712017771,0.8971563609818154,-0.4108260184271946,-0.18129076193778637,0.28861565077246487,0.18428005939524095,-0.12398632156058365,-0.9882902995981317,-0.7020465814417522,0.43930775603524475,-0.4591174622266465,0.7649453403204658,0.981784317419093,-0.38800367906874583,0.24363403629251776,-0.20966451169375908,0.9666195101669725,-0.013181531858038829,-0.5916236560667532,-0.6235656975679343,0.31696315904722655,-0.8641773422756401,1.0188226358922816,1.0465760141281013,-0.4631863559231209,-0.2331225789323469,0.11374249843267936,0.15983550910591487,-0.5420221764665069,0.5871428137029667,0.7609001921867246,0.4941621836520463,0.4549809775898692,0.9876332983322595,-0.4369236939642258,-0.6908274665547718,0.21985738007941102,0.18985302039261098,0.20573982974591462,-0.005816333684792425,7.742393581825421E-4,0.14643906384885627,-0.23363720777855204,0.18646864887547415,0.2499444142440993,-0.31865837554934134,0.8136402254211075,1.2520229251482913,1.3802508080811267,-0.038455148419541875,-0.25172225048058267,-0.9866802267736104,-0.4989075511206887,0.17491355562859062,-0.16533385643561443,0.6809527469710871,0.7184989444771771,1.3783354756845412,-0.0936606249635339,1.411841501083114,0.1261866584884522,-0.1726963207787305,-0.5229431396307123,-0.30031374537011435,0.8929835930725076,-0.5372531716644375,0.799303548424868,-0.6330237375395503,-0.7574779949195707,1.0215277678876282,-0.04028062219075065,0.6002974338989944,1.6119073286075556,1.948934481655137,1.03037436717482,0.45120337646335673,1.614777813358455,1.174893934298166,0.6706218208323468,1.2902574109596894,-0.24846102442827445,0.13466430149787234,-0.3834443514347458,0.6852569604315017,0.8872488949376487,1.6558327437139495,1.7615544047821465,0.7968666052876905,1.6025249380072306,-0.6076379323791279,0.7082179935338464,0.2863839648635129,0.5661423079880954,-0.19999735262004206,0.33367656899296777,0.6716067188572847,0.8336395748257521,0.6262794352169426,0.24028268667341482,0.5439046927970177,0.9974543707698477,1.983456541010979,0.5266726143126962,0.9155419699861873,1.0062260362026663,0.2022136289955875,0.25276530897971866,1.0074160210881207,1.1240537633487226,0.47709271648966156,1.2360691156861043,-0.3666439912382456,-0.2936839534992693,1.1950713685991774,1.214669842059744,1.1024020980721605,1.0006782700642145,0.06045813216334324,-0.2963386253988776,0.36329212355644963,-0.4301897899582554,-0.7289413410461916,-0.14828324705052268,0.47139540715620987,0.8773611046932447,-1.020473409944991,-0.24058640235065823,-0.025442769980329478,0.16006304353008938,-0.3434761399840485,0.6470032176973541,0.04190449296419807,0.5165752050157578,0.7853229407372964,2.835547451808142,2.0201903994792003,-1.1014006835860959,-1.2259625572825381,-0.7306591670838334,-0.1163971401125434,-0.2576036632629535,-0.14757505370316398,-0.19668723212028189,-1.1291797079711685,0.18263829357925002,0.31761089939512194,-0.524911957644411,-0.05956467030732461,0.8956084322514153,-0.592504898015,-0.8239088644279559,0.06184117044010567,0.5484937913047238,0.08302927079301971,-0.2658262617812547,0.9194790487089204,1.0906914531946414,-1.545031829823263,0.268223318533569,1.4183389658637975,0.7501757322535949,0.6224640981511144,3.506575875863224,2.082989751749206,-1.0252376417468505,-0.45078150650726617,0.006340327504816206,0.0076280396703236955,-1.018279045027261,0.6665457724501015,-0.5861380364414636,-0.4171226182940337,-1.278078093579688,0.2776053272193423,-0.9306317792311377,-0.5599776915944878,0.32113223012025294,-0.5008463874037437,-0.28723342880140407,-0.6564464283749245,0.07666140770798625,-0.6755186764037926,0.7497914707299738,-0.699006221478734,0.5544891586907856,-0.047363180904442206,-0.3177588988991215,-0.5646141799519608,-0.1997386416516419,0.9549262779713651,3.733289328796217,0.7404621585342822,-0.0822552620298181,-0.10038033319415599,-0.10015110288078731,-0.015320771161473774,-0.2013927673358343,-0.6254699615414204,-0.46016469285270223,-0.6101840160204189,0.21682357978143038,0.14143954093378094,-1.126117283945013,0.2697755168765468,0.2467570394327065,0.20429294306473986,0.9685917978224435,-0.5629511324672096,0.7502663697285502,0.8210072709507839,0.2894508445206714,0.4415349228569655,-0.6972358736747607,1.4981862722467327,-0.8650997571087666,0.4361138005286762,-0.35509739136143764,1.5705551368738089,2.4060268762319055,-0.6546628673981314,0.06390847202584385,0.12119923710921691,-0.5006929391838147,-1.151768980571798,0.07699019719499725,0.17957290610821855,0.33457692814997897,-0.8003846278048349,0.16796625011962846,0.05563548196534577,0.1300792163090655,0.8827794049548574,0.1498140386089049,-0.9192992256263904,-0.4239924403029013,0.5907571180348103,0.541938462284573,0.09132875059000374,1.4052007518271425,0.6809873448744034,-0.1662162537791521,0.14685668229443952,-0.5052941262269603,1.2176585287305306,-1.2876347689716672,1.299931596391785,3.22145378252375,-0.8522771493715433,-0.7449567250986201,-1.3535668356796562,-0.5670644180175887,-0.014868713290317387,-0.5233504407263629,-0.39388403561290536,-0.27512756162619456,0.12022159915388542,0.3729875772807735,-1.342662525509601,-0.8490055434310708,0.7147604188675165,0.17214075587613184,-0.06704123871570762,0.7371084839029588,-0.14830916928141308,-0.04175012809606863,0.02635685463389192,1.2850792583493231,0.052375824736414514,1.289546662103555,-0.28181800681027946,0.4240110335922348,-1.1931209421195594,0.43655617642668854,1.7845213125038675,2.7602996832483435,0.7518854587882402,-1.2611897589547456,-1.331113005660892,0.28030448909384037,-1.3496869345419278,-0.10577297714183165,-1.1134043394328894,-1.0778931896487673,-0.6421727858396611,-0.6801701084922909,-2.3404066021956145,-0.3318588675862949,-0.22272221077189222,-0.6083436441437825,-0.7040213382646578,1.1352209569274991,-0.8386008246955869,0.5800301940123221,0.30754496372657547,-0.11385197115228542,-0.03466026747028574,0.7861512899880907,0.53979683293221,0.28278274317601954,0.7512115511817705,-0.3193872102385366,1.8999269814863058,0.34034570943376086,-1.1490987928118679,0.7470124126325337,-0.5263107285368608,-0.4996698048237226,1.0860805834333935,0.8245031791099021,0.7022866681875966,1.1981856319666992,-0.2589794333802846,0.7605166958360948,0.052648179697545365,-0.991293656384856,0.21794241475489246,0.5708353937858421,-0.6556423291637793,0.7865377586545507,0.4835374888945065,0.7226542530518063,0.7780527621698363,0.6633658669639506,0.777707379504554,0.10990065529168254,-0.015416212555647896,-0.3893765408807064,-0.3276889438784559,-1.259608107844464,0.5692179871941885,1.5876407101053955,1.363720689470585,-0.21533549040078134,0.1035385554283719,1.2136981606398076,-0.2967709480024693,1.0706227363711873,0.9084001067549297,0.3081420429466154,1.634760280503614,0.19933825591515272,1.0033680997240533,-0.3381030002088474,0.5543720999567329,0.08506044115349848,-0.7181922232310597,-0.05201191556906069,0.18543331949611505,0.004183907690140478,1.2694558750472762,-0.3050528438638632,-0.6967733807078959,-0.6011094084237391,-0.20067317298810508,0.05447119304270463,-1.9986596543661825,-0.8891118233650829,0.37886554600368166,-0.8743764494658067,0.4637549618996586,0.48340571154545414,0.7612732125137521,-0.10646143593555532,0.3628002889914828,-0.25099114720432336,-1.0415713406222777,-0.23871667930534882,0.13760430068177185,-0.40494838251856435,0.11668439710564885,1.2046082283923665,0.12720547465223497,-0.9065119346010294,-0.16755404016353811,0.004302631480608646,0.8657936558905092,0.3706052415568498,-0.5969834110008774,0.34448485015082125,-0.938350516469231,0.30852215399736804,-0.9909021816413436,-1.6434216871934677,-1.0468096369011073,0.4971063481824596,-0.3210566200942074,0.2187031066692389,-0.27085373849557143,-0.17677413514405296,-0.2215757585634273,1.4467579450295058,-0.1880668948461207,0.9260430077534819,-0.2856572922896805,0.04965460102863548,1.2943030826884567,0.27710645800183514,0.032098998973666165,1.1601509123675267,-0.9939974478256125,-0.6198787687974794,0.7932600512071646,-1.1762536486169761,0.08272861376229047,-1.4085775549837734,-0.36180643635498655,-0.45675728869921556,-0.2284556933476545,-0.7675343245934326,-1.2140833415635992,-0.6656306724168624,0.28875675826077873,-0.49242810108873,-0.8557412582156952,0.4330470563452294,0.5499779897555375,-0.7086765876969474,0.16470898180308688,-0.5512223139605027,0.6339314040302824,1.075659662486969,-0.12467272602805152,-0.4521702002870595,-0.06505723410300394,-0.23049026596274522,-0.7852540896077542,-0.9467722307780033,0.654584032668188,-0.6737341328213861,-0.1809183443157548,-0.15955342094301472,-0.5805023436735783,-0.4798956981409552,-0.08005136348768328,0.023802632883674152,-1.4536947506756894,-1.0276139987962338,0.8764355723871123,0.11010404506623386,-4.6409417250090686E-4,0.16971430047898375,-0.1496457261040271,-1.0955680625205337,0.21505167670422126,-0.5379183258885493,-1.445365010141146,-1.0173027492874858,-0.5350780896077147,-0.3599021472361731,-0.1808623312326828,-0.2693169928523266,-0.8218746983587764,-0.5262457981885358,0.3922627751259519,0.36666036437366956,-0.48660319922191425,0.47879718045469555,0.06924028615161164,0.07169766583011758,0.14992306834435384,-0.6464331144385268,-1.3256194146438927,-0.9101339618971456,-0.16529052765811394,-0.2676452669925079,-0.21622008473034512,0.5993364971907997,-0.6839245685245683,-0.019603343126263717,0.3874976773031547,-0.3058926052080977,-0.7278605950304081,-0.05608015150115079,-0.090241066000515,-1.2090439863611535,-0.3114605912382702,-0.9728220711875756,-0.5380596279627874,0.6683295153871992,-0.6457568756964082,-0.43119295642714667,-0.5432389888933694,-0.7725271000384232,0.4317625885538802,-0.8825957960306237,-0.2564629788458202,-0.09142406023600952,-0.10201442903245878,-0.6787790156010786,-1.6818354128344029,-0.25148146517296804,1.1069103090721073,1.1117681399012844,-0.6307048212995406,0.3332352918514444,-0.27471465989831173,-0.3614372437878504,-0.15148095684638632,0.12445179821295979,-1.0883988800676117,0.2646900974558122,1.1113907333769024,0.46214855444508784,1.4893414177037771,-0.3048373553790844,1.0711829634159828,-0.1943395956094418,-0.23994048583512845,-1.1336949884745249,0.7028589366708957,-0.5515358439691809,-0.6776483542607064,0.09879364681475895,-1.0099628462217027,0.881302050291633,0.7277157482147408,-1.2525002979231319,-0.2632654599378571,0.2896749661265219,-0.7168397499042385,0.07876232175136122,0.5092587573139034,0.5443663235535301,-0.32335461092583206,0.8751264852397961,-3.636781907480136E-4,0.24974467272256304,1.0093861551367744,0.8170902557463785,-0.5304965361086621,0.5271071381832448,-0.5255015726096642,0.25865332390217266,0.21904322363466208,0.4282304168345079,1.2833892743096964,-0.1694082665587395,-0.3084950743217685,-0.741861037936038,0.3866949928368065,0.07969107353816485,-0.08029585074951348,0.6358871144405024,0.5533242586901015,-0.7341200366578009,1.4285483911620487,0.8508566126376567,-0.05583229785410573,0.029077881568492357,-1.0142894687236201,-0.16991784119373246,-0.09354432978712084,0.6251160740705985,-0.011575510662242132,0.7213809497849485,0.27221012089137914,-0.13216291611994951,0.2882360513309541,-0.4461261346637454,0.030729642198407747,-0.2558654747560386,-0.6159896489118794,-0.11208958288727679,0.3652376076714246,-1.0936787522679439,-0.30352580494951276,0.11427587057041481,-0.21957709219107485,-0.04678179917800942,0.6500061115633798,0.07529102709776246,0.8818239976823419,-0.9988180251082737,1.2842401976557087,0.2653501159037352,-0.04646110509834536,1.2946351832835234,0.8252510789222157,0.3596228894515099,-0.25898813663964915,1.3889773675752035,0.17672376269658646,0.601515410625072,0.31288820616395074,0.5444302789984361,-0.017599241412602502,0.7071230032993658,0.4261885403866852,0.20740315035703016,-0.2811732122864152,-0.2267183921930311,0.6119239385905323,0.306511198929858,-0.6560626450690838,-0.5325582298830093,-0.8739646964860116,0.04700117068478908,-0.37795136732794604,0.9822418596406096,0.11508094007826168,-0.1658067686852785,-1.1124296615417446,0.6448878577349537,-0.15357921502344613,0.16205523457724172,-0.2937214990681019,1.3516431051936788,0.01834003976854964,-0.18124445770260808,0.22188629863177017,2.5062012226586368,0.1726517897583736,0.4633395100548626,0.4086396710415237,-0.2346411518577864,1.3779100553366685,4.1198514988144864E-4,-0.9010795072123806,0.5110222411614724,-0.16075948289755046,0.8889970933335108,0.056388092668339704,-0.7095953883137562,0.3945166124763725,0.23819856612415125,0.8587522703147514,-0.8330006568052726,0.5905767842458978,0.1645988889142816,-0.05230901672923787,0.30983007709129246,-0.3936932221525738,-0.2710076471275746,-0.2228537293542508,-0.36575355677900134,0.5844974409656618,0.37445389576618215,0.5424879755995496,-0.3327076810533463,0.6176109665782663,0.3622772323007012,0.3221546446049959,-0.9775783361871554,-0.19571524186851988,0.11179253087604869,-0.06316674255051119,1.2922326714334742,1.2122701198982018,0.3498219469576202,0.6490791741411257,-0.34442523053037516,-0.8784232944573565,0.715955022642494,0.5544898367051878,-0.8392391992346082,-0.2661269705150006,0.9323969408462458,1.2164359346920268,0.5084192236186288,0.6736162164165354,0.3346381961703487,1.2653028227453338,1.034814402429128,0.7887187285713292,-0.017820329072519694,-0.3536360471123534,-0.618939249119024,0.005545188382194674,0.46259557140577495,-0.17162991149495332,0.8183731010096285,-0.35802897846124443,-0.03856799421982691,-0.7647400868350827,-0.24730424303680357,0.4577352783351357,0.42583168264831056,-0.9187447113366848,0.1368515578470909,0.678965589950123,-0.37971693960894903,0.08612165628353896,-0.638715851972834,0.4567698383737672,0.7230548281171376,-0.012326672886547813,1.8031954475502,2.4421966133058888,1.3398599098342066,1.420400529534499,0.7295994094114008,1.208657036577779,0.7009376125250198,0.057182914447337904,0.5729228948344306,0.5243643206674349,1.4526891452281872,0.9902921790385523,1.075783532286725,1.345102014596247,1.9976788564923553,1.452560381336918,0.29222202192479807,-0.3707289724013583,-0.6352274793425137,-0.15204902250277103,-0.8293132645657856,-0.5729770378624102,-0.7741845426709939,-0.3045901367740167,0.37919054713526656,-0.9082530405323506,0.7101054890874539,0.043338255105514735,1.6634715774900946,1.559827287063017,0.925886078858625,0.8570579006011643,1.7052580194452283,0.9002752010339062,0.6051425515863714,1.422241890332846,2.4914740372235586,1.163375822130777,1.6936518777272394,0.7071932164979996,1.3025168419374258,0.892708320900351,0.8592852026310394,0.44807841828713824,-0.2969189512503752,0.16318414556211203,-0.8463215041418861,0.8638591206970904,-0.8189675174547524,0.8678301325801687,0.7167309221799416,-0.7993403467015219,0.17518984405332017,0.7849924932495338,0.2219209315262675,-0.318294934889058,0.945885163370253,-0.46987301024569844,0.03817129611145495,-0.7576225306008448,0.12256845619422863,0.44228868001597504,0.8655584717219578,-0.255551012829792,0.867182298914554,0.7422980924354953,-0.7117074611277326,-0.19334897829787467,0.748142472152999,-0.36102514026856697,-0.6856949660104299,0.07744969683880686,0.998719788307064,0.25762829175290747,-0.6006145618162062,0.6494062506805001,-0.5867874399490913,0.6538785916231253
0.9129416426400421,0.9117969398761905,-0.639114145651164,0.3630771410598088,-0.7196943605749169,0.42758721647055475,0.9612220532969051,0.6967060791280644,-0.11782286685598908,0.8116194384696849,-0.5255245623155158,-0.7585763905756004,0.561503175528028,-0.6698184939792011,0.24432786421073094,0.8677664683274258,0.3653818919240839,-0.5527960619054793,0.6853446123734064,-0.3248647192258973,-0.6937165860305619,-0.14298722780719353,0.9499369950590784,-0.17892543644713155,0.7681425265554238,0.092573688802563,0.2685437597586049,-0.5189979347790004,0.5598206534804451,-0.6217732949435983,-0.13505060574714656,-0.45412990528951136,0.5578952897094929,0.03850214302955394,-0.18055566458311195,-0.9118773733304926,0.3752381400021388,-0.5261237654797014,0.27156002589243833,-0.9422384507862512,-0.40319526119404664,-0.4701173105791489,-0.9734446525434347,0.6758671486703606,-0.3183441120702915,0.7309422635650836,-0.3316343140647758,-0.9612060492937792,0.8093989100887213,0.1921283880712603,0.8695476329527969,0.10046466277233332,0.8767985553578417,0.20422559662943152,-0.35598436959271607,-0.49435114585278095,0.9831650164651433,0.4913840699548331,-0.14335638051814364,1.0177828576763182,0.5997860229206483,-0.730757146683525,0.5804909681632642,0.2331710346248753,-0.23846332416790988,-0.8977020780344751,-1.410095563110498,-1.9596316042723159,-0.8539850639726769,-1.0304031137905292,-1.7549884520682346,-0.9873044131252637,-0.16496769047861698,-0.1830271601830518,-0.5202585169788296,-0.81063774786528,-0.554820698647758,-0.9252896731133655,0.9318692833805282,0.7996510522951865,-0.6933791742004457,-0.5106551686075883,-0.8331226543489216,-0.024602885894964732,0.03804555081679717,0.7939673239843561,-0.5228870786033388,-0.24959413309931705,-0.3328451418858877,-0.9914089896853947,0.5747526670744613,-1.2457038021807965,-1.126759842755577,-1.1316712319239859,-0.17966382487140772,-0.8597561040670475,0.10067821852155609,0.27524858323543966,-0.4695767943435041,-0.30721659912975996,-0.8134635122287115,0.6240030837569532,0.501306659212219,-0.4232550156881326,0.005862014830782635,-1.5796262939079886,-0.1511306902592457,0.0744415804228382,-0.7112989062751381,-0.7654244365937788,-0.8915107190052203,-0.7520540396201221,-0.655354347862181,0.6154287030008535,-0.4728688906774057,-0.8995721457324499,-0.771665823553227,-0.7367601428305972,-1.1554973407007854,-0.16116740891275566,-0.6466643765671513,0.45813499043349004,-0.4333571641706194,0.7402996590780461,0.3620066601590262,0.364800074992219,-0.6817790778194986,0.9795853026473799,0.213636642723979,0.3253121783847603,-0.6132984770339699,0.878335260248436,-0.025836828021522484,-0.24341601980025687,-0.6822191988986583,-0.31809208133123307,0.1066039721014445,0.3287142028426318,-0.21462052956620872,-0.702367342259341,0.8061455662209831,-0.14168416673000056,0.7953884889281264,-0.7336887392382775,0.07790627986364462,0.19645267040067868,0.9669745799691598,1.6670045958002175,0.9004403672159262,-0.45016362140881816,0.3927367837652451,-4.957851546361139E-4,0.1852650909988557,1.6811828283039627,-0.26764295898289703,2.0175832081782903,-0.7752595913220977,0.49577053434961144,1.3511315741574834,1.1318660422263904,-0.8936908018532236,-0.8125591014763155,0.15124199475086045,-0.6242444118964047,-0.6129804752746313,0.0614993081359994,0.08651673196629174,-0.8418742432552687,-0.6568389361928586,0.9029006698057728,-1.1583116478226698,1.3550198055851497,1.5540348361268277,1.2290923628942683,0.4585230833596909,0.35670544813783195,0.3306546410031427,0.4515528451646502,-0.9598734942660901,-1.3063909075282925,-0.7335887176371448,-0.10529363846377798,-0.3901103164546663,0.8430212725798899,-1.6814351401181342,-0.15493157158982235,0.0655743263607433,-0.3858499549905456,0.31780166729796505,1.2747357738815916,0.27357053810904425,-1.0741791207698614,-1.8090026531624528,-0.11243710205199842,-1.0729564134084717,-0.4015102718053512,0.6562002819183426,-0.8195689270062041,-1.1392960264206728,1.3068066370815141,0.7576921493241794,0.17104437657499952,-0.07571288532796512,-1.2730966022773613,0.42335342757556943,0.016081773354724042,-0.46884095266920495,1.1541842428111626,1.5127259338536978,-0.9088896723732796,1.3892195185038212,-0.35667893842259835,0.28103606831205413,0.5295659216676059,0.48238992405305686,-0.3677780102087147,-0.12597377423603653,-0.13965307130198176,0.023245076294034776,-0.2682132718526489,-1.2871631349911608,0.06502728755623238,-0.3558478622435449,0.5601615046629111,-0.32132379085725254,0.5366243909300993,-0.6864610324090205,2.1706820294362417,1.3354335553486352,0.30799282292477803,-0.25161125933198136,1.3742806340014782,1.6777707671278017,0.6332873808156527,1.4500911113275836,-1.0048443630779622,1.8364410485870233,1.2771696965569777,-0.25231450768896013,0.3167890833535906,1.6939790158612857,0.45423890125476346,2.001845139699463,-0.27661414335284323,1.0987004964740472,-0.1700446263959643,0.6628954675167751,0.33959674193055733,-1.184802848069615,-0.5072129820303278,0.06731242017414706,-0.7874580939942051,0.8419813391891854,1.0480668625672647,0.525865804673335,0.7919264777855034,0.3636794195516146,0.5829040896903478,-0.2645411984591507,0.7149406029297573,-1.048017855546583,-0.18920307467063338,1.5283215153411496,-0.3900549520598322,0.25969612555458205,0.13768651030886309,2.287449644652534,1.8601219298341798,0.12712530552508558,0.2967911129535009,0.34250620247130176,-0.1383075483864306,0.3958314758845068,-0.725899369818281,0.24968594529845065,1.1941777421364947,-1.6242542098149857,-2.1128959812635877,-0.7226927688058795,-0.5380576374330364,0.9890252861046428,-0.5446880098711127,0.561558748682174,0.8680307124703612,0.6568883636505946,0.638644480563011,-1.1955153142835766,-1.7845594744079545,-0.5688066997121347,-0.4122745101642565,-1.5300059687338896,0.0887655672795798,-0.7371589948394168,2.5287666520612055,0.9144347845268487,0.42341583222982077,1.9734317424186498,1.6235728079038212,1.6662919258396425,-0.24949621863236224,1.2871694181350002,0.43276499845538324,0.69129305629785,0.6616605392041449,-0.49615810167470553,-0.7771686018572068,-0.2610535020939594,0.3581486027897008,-0.6513359766822706,0.9403535622154849,1.6639848566547202,1.5048927766864122,0.5851086878975437,-0.9666228895103756,-0.3780674516906695,0.05936349957487781,-1.6057699230780125,0.055447146927476355,0.22218787475661947,0.9956681662055182,0.6946033973321513,3.4068397652457953,-0.3305932633204687,-0.6154450491647625,0.19843634200964552,0.20560444385787324,0.3148087733231111,2.250644818092589,1.4666989360090001,0.4096273797374735,-0.6993083188321184,0.23122385828299194,-0.5773704861971959,-1.2320098728581828,-0.6264366042887015,0.17235660708605416,0.11180742802499702,1.1221906847120062,0.27971246687429185,0.9288675729832254,0.016547733959487602,0.20066606932383804,0.6659571330789046,2.783761745139121,0.7885553579128112,0.7935311153165509,1.6416452003062285,0.3579168199452975,1.487725813031453,0.18786450552447231,-2.3265731718456455,-1.0505499902388975,-0.4472864856449689,-0.3998467798965573,0.6201236775875444,-1.4869542772487194,0.5496965211984143,-1.219858653684718,0.090034637602924,0.13954034588956474,0.3185779406231761,0.7728237125075186,-0.20615351962873385,-0.32551732922227133,0.6002969921806868,0.10087672453200215,-0.28730230316026634,0.9748486434606826,-1.0382783521803194,1.22611347030078,-0.810844814358946,-0.9257134747405463,-0.17871833882700155,0.5280602780783992,0.54483807483973,-0.7563146711738309,-2.724463571930171,-1.616475573376179,-2.4171439580337757,-1.6395914212370994,0.4260922847019417,-1.4997746742820066,-0.2231786396851676,-1.1616439017225693,-1.306245011976346,0.38487432281251893,-0.06808860054974375,0.7431061070466903,0.3266399862110167,0.7386356512789801,0.9264077049095818,-0.5732537824354752,-0.49637353117950805,0.9606750296608583,-0.28447102522615125,0.4475601426780255,-1.1802958101756797,0.02719608345351278,-0.6729333281534902,0.22378325552645878,-0.737626257790181,-0.4890717073291366,-2.315927759900479,-1.6555276705455448,-1.439010900233468,-0.6842753663745956,-1.781228262259785,-1.8663263134532497,-0.5737375871066173,-0.03055333523723998,0.30673015313736607,0.001584105704394682,0.20089223410585724,0.2202412138678227,0.9310502085913017,1.2138656123758673,0.015995338079305234,-0.18255336405331332,-1.1581759264917255,-0.2638168525591509,0.6029884639001893,0.5396066270951866,-0.8963706604843502,0.14320618882537103,-0.7906315925719138,-1.111812460557475,-1.1905316829472372,0.13226752588340374,-1.5607431913148049,-1.4501672041515046,1.3728301018984645,-1.2857939417728503,-1.0228734681713736,-2.0417080962838514,-1.659319958541433,-0.30826931163211135,-1.8550436036742028,-0.6048842854764098,0.22602678087482125,0.8364489671535918,0.7355579844756995,1.6303489364691768,0.07356511024884839,0.27398297104307323,-0.24655016473624525,0.5360492600615482,0.09639350646724346,0.08329940480589357,0.21292888294068774,-0.04361764789903635,-0.43121115036665236,-0.005303072902445544,0.35620724968982065,-0.5142527501202222,-0.4907846630306988,-0.2620787979122107,-1.1226638512422882,-1.1426814449785414,-1.072950095444169,-1.7479482884273994,-1.928182452128813,-3.764581825711961,-2.5944283390496583,-0.5272499645544229,-0.06709859118067893,0.3296977380764161,1.3912598504150293,0.264981222284267,1.1138121744065408,0.6894065838984285,0.08521957376431329,1.882630600880193,0.9908552369485254,-1.2492358997079525,-0.9015931357401467,-0.13501837197222302,0.9741927817334197,0.14309425418886465,0.1012363640377373,1.2757226722593975,1.5891683122800153,-0.20194321611758922,0.013030624809737955,0.39645446785108146,0.5571854092398114,-0.7410878884880353,-0.3129329713840881,-0.8997107389659947,-0.34016087024819486,-1.7475417453991893,-0.2546981018947633,-1.4161444111644677,-1.18993994077876,-0.404910055645518,-0.047871098543442465,-0.2071813816056805,0.48006949314454533,-0.8305838588981801,0.5134646684463926,-0.32532656053443604,-0.550563547140389,-1.9643988587739725,1.0488225822229975,0.9840532323335162,-0.2397318752199624,-0.19561093715512673,-0.1178805270604247,-0.10691139743985363,-0.5630599511581915,0.14956866465372162,-0.25178146123870365,-1.925812064735808,-0.010328448197334493,-0.22097620862139827,0.2071350974939963,-0.7961086955237935,0.09178618233179771,-2.693666385371765,-2.3510896766304192,-0.9814262671087777,0.08442589159735099,-0.17312034792444092,2.061898210766427,0.13606295901851237,0.2055990994445669,1.0771257999864838,0.8652508754342038,-0.3171733516600037,0.47217997149473195,-1.3818786089941721,0.660675588968595,0.6172577514054705,-0.024203429256894702,1.0141339002235377,0.9957598687878466,0.5228659238721339,0.7136845424854455,-0.8902077672078292,0.06988215219032605,-0.14179547085510052,-0.09052716788363475,-0.6392963357189161,-0.8339021322363175,0.31133648287528237,1.1195937740310777,0.38143742438957523,-0.298917372481337,0.5665798953726272,-1.391326865364174,-0.5717710737363546,-0.9917687408300176,0.22723066210282472,0.5902427517554147,-1.2680612695471511,-0.13263409016037056,-0.6475907851278027,0.28488574466100003,-0.048094509429775376,0.10175273493550113,-0.6449000374971513,0.7901954978229244,-0.36101479365255273,-0.047507678952581185,0.18839100026878122,-0.34295384698036563,-0.9115968771107367,0.11265200958966645,-0.369632028532508,0.8281806036986146,1.931317612443469,0.5406900662915671,-0.1815933705024797,0.2068747462689894,0.11956274616555534,1.011050760065155,0.06104207481727744,-1.5774976244671683,0.435994467024908,-2.3782714125697484,-1.0029823697213491,-0.8790199973665349,0.9607414565645015,0.29362483121510075,-0.15712670885177268,-0.46933433704714306,0.39706900028356296,0.7507724277525616,0.7487675027175967,0.834236668506065,-0.6564033218973885,-0.3027486126033041,-0.18423982051518592,0.47097483988084043,-1.1036440357654544,-0.7218786549671898,0.49396668310304265,0.35642532870545035,-1.0297654501209408,0.0649014294624381,0.29971084748296245,1.296239616610108,-0.10349850863881331,-0.5008806442002092,1.0583765855628733,-0.8413890991468581,-0.9322863132921787,0.2869340652158621,-0.2650641322860583,-0.7557675154131661,0.8056301501588461,-0.37434074484835694,-0.23860511214885413,-0.3906734307114927,-0.9713327159392197,-0.21341456969953296,-0.7416573493758547,-0.16101865412776206,-0.4921655623476754,0.6098832205443778,-0.3564445598000828,-0.05455260010632101,0.176409310849102,-0.008130004175139965,0.02536452274859065,0.1940147986431957,0.29211053076338395,-1.5964923328442209,0.8773758078076564,0.9902030467221,0.2654875797501341,-0.42462756016241165,0.44816361788671943,0.22294619102886587,0.031373620835660934,-0.733242085584703,0.1596802915542135,-1.539723540090386,-1.6417904386966606,-0.7166896315400384,-0.3413334297503917,0.4545187616591847,-0.4712166912272678,0.056055163140566744,0.6952405023638554,0.548630112984503,0.17780307394040223,-0.007279018477682168,0.7819193378831814,2.172507287269844,1.0931969670219752,1.8565009838620807,0.7967765498805298,-1.164060406102898,0.9331389495725552,0.4313317772568011,0.3091950255753255,0.9294754333831202,-0.8854210195894506,0.450686869077816,0.14757316123614392,-0.18519866838710822,0.6370155383983233,-0.9636789607974148,-0.6524759671455451,-1.9401383366959633,-0.6621118899627431,-2.163440902939538,-2.3404009375540626,0.3962144148306726,-0.6653590168143226,0.6120095960567082,0.6792131385274482,-0.9319072119993574,-0.04037180720754141,-0.04066298285302538,0.2030256078827625,1.2146093463167975,1.9316753200451455,2.8646770972242637,0.24967439216791365,0.8814084069301181,0.7204616288630306,-0.5464221332895529,-1.0855036486672747,-1.082353343633864,0.7125228191711103,1.0422512158560508,0.5338048870780991,0.6337259519701597,-0.3072001283066462,-0.8651022620028402,-1.4039508943545458,-2.8323417552015226,-2.1688549754049684,-0.5267133839446827,-1.4426435964200177,0.4399751571972912,-0.7559904995650409,-0.3098403221613689,-0.4898228909086553,0.5538802471526614,-0.1311422760848444,0.9075040981590242,0.025142433639032218,1.0884379753606441,-0.5608452237328324,-0.5459703064394447,1.0086155310933205,-0.09224900257325608,-0.2223985000969458,-0.01839672881633327,1.3081608911431826,0.25575457461842954,-1.0887221674217056,0.16429028261026932,-0.2912741981763074,-0.2137984801433711,-0.6022474332407084,0.581707444663751,0.5249047306486292,-0.05810217743773757,-0.5533260116089369,0.8906279248937775,-0.018130377369980365,-0.1013587112677052,-0.9111622147456063,-0.6022196667767276,0.7704657289935521,0.8469003894772802,0.34839438861167116,-0.29671086895249066,0.4999539650952932,-0.8934355827674645,-0.013578594844637233,-0.5894425184424175,0.33516258503454444,0.29650929654280744,0.34697956526699514,-1.472512816543365,-0.8603676134364728,-0.2721498278679862,1.0614016602747969,-0.2309128514439769,-0.5292435566791058,1.5142427803477752,0.3859686473886543,0.5314771295548226,0.5756443783187687,0.1536340892277636,0.5536732288859256,0.6989170191913621,-0.48369309023904844,-0.21883956104286612,-0.6906929047462441,-0.5969291241659802,-0.17754397466754024,-0.7273291211162014,-0.5369057189840372,-0.93901847700703,-0.7860301615884835,-0.16693838933884356,0.49968698204743045,0.49225111074058076,0.05667363134617777,-0.8620400582128968,0.9203507056810276,0.2612304426797072,0.8866640744239993,0.059710022506244166,-0.919289287087068,0.5417598791122067,0.59908242600781,0.189390262082929,-0.20024274111199733,-0.6197130540462327,1.1492107071135083,0.5790265835895703,0.22491760914507333,-0.3059392182055158,-0.32544994005982797,-0.10174066457737352,0.9872781886544297,0.4775690634956491,0.2986750358215349
-0.6010676265621244,-0.43626162644490596,-0.3234728565900442,0.9944430760998779,-0.09161956170091767,0.16005001347426306,-0.35277710607635426,-0.4865153957716608,0.11763500992627995,-0.02774552725859869,-0.032885381198239694,-0.9116733984350875,-0.5812603756697017,0.6735353982675988,0.5126809915144729,0.37358368118175433,-0.3093010610331035,0.2516108100544816,-0.6867474405243967,0.8634310719994758,0.5926267731438597,0.8070805293083638,-0.1365806692442777,0.6701586533873405,0.4501339519043719,-0.03152139840058621,0.2716399766301796,0.10531997521203573,-0.9574078102860617,-0.5831588299498471,0.7786819698247196,0.11622541202090719,-0.8873512927252144,0.09943231022736976,0.9731185500555852,-0.5941913456693023,-0.8809426688400097,-0.8902942811139698,0.7563888667609833,1.0238150563873083,-0.6285892098547534,-0.24197797267397644,1.1200620785076802,0.7863226284749614,-0.6577835599970537,0.8160924473830325,-0.5889289418224909,-0.5406037486300419,-0.22563368529483172,-0.731440714141051,0.5541923583605483,-0.19139592681046866,0.7846688816308542,-0.979877509746311,-0.9420815208665618,-0.6785438287429535,0.25738258459689756,0.9393964071492895,0.8534590510726467,0.6434377314327463,-0.33224023746906806,-0.32765779981272236,-0.5942781661789631,-0.7539933587642308,0.367652420256152,0.4973527170412575,1.5340411796554672,0.6077548513827461,1.2190197851426972,0.05812472740068216,1.1508981617169267,0.14796242245238636,-0.5049524416116481,-0.6145586739429109,0.3170974836810036,-0.6934066059012529,0.40724316486968426,-0.11232998473881599,1.115109389813599,-0.4252023899456419,-0.5264591478788324,0.1533469600528754,0.5383823944414143,0.6749842709640781,0.4105716486769415,0.2577361046568305,0.12598324279017117,0.588525058427138,-0.37911188073325175,0.16393905574471795,0.5409459469763068,1.09301688157589,1.211299582897434,0.4463716814125504,-1.648107974665155,-1.0353949534003866,-1.7289504305613073,-1.9673915264947797,-1.3720263632631806,-0.7438844226875222,-1.3180823018545493,0.2639877323739574,0.8270854991811017,0.6044545054619095,-0.3481480362632739,1.1496709758787305,1.7830384935525923,2.026496518089401,-0.6319898719698017,-1.000659999245069,0.09182133326792581,-0.9872049943502206,0.7715164443686897,-0.17274090122326635,0.267013295423997,-0.08491181248624034,0.5666591527766167,-0.13567578724647256,-0.3059372821902592,-0.8784757769771697,-1.2976483581245426,-1.0862920106181861,-1.0703567996320906,-1.006943541047193,-0.4975573029632124,0.5541185854108301,-0.17165953218349486,-0.88115822720649,-0.2096433618799686,0.1387892220195935,-1.3791810862150558,-0.007592020565052514,-0.17231053734622664,-0.07461478136423243,0.8876824370004369,2.3594925058957092,0.26230852271201516,0.11626313202334813,0.06019757336446926,-0.6436650116142062,-0.7131971176816934,-0.19513722354503993,0.5575326916554839,-0.9260694584627371,-0.5051852361252704,-1.8648879044083402,-0.008843452097291144,-0.8419668586481425,-0.2789750292483665,-0.040125466357649894,-0.9451329500746152,-0.13437482068596818,-1.3555505650268402,-0.09285939393441167,0.27536932093357447,-0.8667094402461376,-0.33655645895065545,-0.7873306573213207,-0.15431474063802114,0.7341087113432637,0.42085731280069927,0.5626121341293013,0.46435284066764526,1.175037780927205,1.5270575412220906,0.4287152930450505,0.8255386086531362,-0.25463311436144065,-0.5938314661577349,0.7576408735310323,-0.6439442526966208,-1.0947757573715782,-1.4764805673039492,-2.1337463856257264,-1.3815878781928286,-1.5146387596226587,-0.4355260524113763,-0.575164103846482,-1.3934623195717295,-0.5149587766859919,-0.609946796100664,-1.2979289313051328,-0.1088777423851322,0.12428209945332007,-1.48924445603661,0.28294052674797027,-0.10419126622926995,0.43215093981711244,-1.0553484768101173,1.1160112005196052,0.31255248003856306,1.0593543347783045,-0.6472292379402655,-0.06296853139584459,-0.46197284697367136,-0.8804735243425558,0.9503596467385312,0.11085677588646921,-0.15139149063658128,-1.371353055936552,-2.8912223388368212,-0.900609589344002,-0.4570941289624495,0.2583871044402422,0.04119226411482854,-0.5568338955938932,-0.5582919444186358,0.15252579779710487,-0.046648168490887404,-1.0176746349492092,-0.6913330713275742,0.26872158949651387,0.09291467405143906,-0.12807245137200596,-0.12380577178696942,-0.024045276001625426,0.5649444572454803,0.39438473825447806,0.2837215638062705,-0.12315430063615883,0.5419546461078008,-0.7298757739355086,-0.6073638036972911,-0.016821466956182266,0.07643263022879052,-0.38302149808384967,0.12417662871390282,-0.3167993198263532,-2.121739381405597,-0.2740915010072457,-0.3050049215284098,0.18449307804384718,-0.4638016285342859,0.4463867169362886,-1.2662249199717186,-1.4855100302796764,-1.2823375489087874,0.10854023082915723,-0.9552183745544752,-0.5057367231281412,-1.0490666378018585,1.0774476834243045,-0.41107779971061376,0.34878493151805134,-0.7788103123167017,1.0384155237745551,-0.021670049808364445,1.4779653520653018,2.757208603941357,-0.3047274351509219,-0.7894059651377731,0.49901314702975264,-0.6013280619427364,-0.061887785867626485,0.015716436599210758,-1.1686102847794537,-0.5246971486669759,-0.005639923315541193,0.16287233476490245,-1.5182672129170103,-0.981796984818695,-1.1320598417645569,5.445248727119154E-4,0.09112542165380629,0.43200509577519425,2.174076327922105,-0.7592796509338476,-0.7475531681249058,-0.16667489422125248,-0.2664487958162726,-0.6501888290090065,0.5941854959182368,-0.2321123672954901,0.43745957026061305,-0.3154330216272258,0.6214626188694948,0.9109351447321659,1.0146611231686664,0.3207997889085603,-0.9541279955279411,0.26032625794783654,0.8025220324192652,0.9449609704951933,-0.258055427945879,0.43476778937976257,0.02215661690986393,-0.25945626264190713,-0.7198385653282315,-0.04523498164613039,1.0586726295051387,2.421632834643771,4.376904994476981,3.120086253223535,1.3263606884370884,1.2488429871646272,0.7900852500528217,-0.799574059713676,-0.4548190710442742,-0.305945400220045,0.40738901771354613,-0.23539529835661213,-0.735655320522707,0.9691575981279551,0.5065923960644627,-0.0313048484858151,-0.4668888192239951,-0.1694606641790914,0.07533965490420655,-0.9668819335740115,0.5282387477353171,0.7731440696416795,-0.5532524829013276,1.9264195442999703,2.4728950791394806,1.294692511591995,2.833520735174199,4.817732743685768,6.182300235891353,4.289509341898609,1.5054881626865593,0.6103177328651279,1.5351432637410882,0.8809669460809534,-0.23261506756956826,0.01943394362754709,-0.7579296595682643,-0.18858946932546314,0.1799852117095914,-0.318824475664056,0.34632240708133194,1.1575945191252102,1.4084382778599178,0.22362776638949006,0.7931081118705795,-0.04701512772734663,-0.7118228293969319,0.12987585698116882,-0.382384349647544,9.669347146498593E-4,0.45142505709065384,2.6606769224862825,4.848655859472681,3.8820693622489917,6.3960340362873085,4.871033458268226,2.8159096025388894,0.5520580804738594,0.1945006970336243,0.9991294218417197,0.3689960503802279,0.3854690825702624,0.4149413812316218,-0.9007705975427269,1.1359112555820443,-1.0384489050061576,-0.6944130301648361,0.4803877701229156,1.7413288400301892,1.384959360631748,2.172356982101719,-0.43946431507567346,-0.628774088088374,0.23305495282321917,0.8821295521289859,0.17269686406591633,0.045225989748873596,-0.45281022776937296,0.7980609772095909,0.45088993894646845,3.2534172203938976,4.945056747511417,1.6797581074558317,0.47505498139259744,-0.6688451283998565,-0.3750363384350475,-0.5202289097576682,-0.07630129376379674,-0.6453734975111202,0.7850088326822413,1.1279214266268838,0.23028023933664468,0.16607434754151945,-0.4224472259214466,0.7610954055322048,-0.08795233230847549,-0.40127430832135785,0.27053633179468,0.7826430467554707,-1.7156225849683782,0.1497621899738711,-1.054180130120146,-0.25179373274467953,0.4443592232778867,-0.7896053005239564,-0.036882883296662804,0.5276785756481126,-0.07192676409353976,0.9636757599727765,-0.06846777226386447,-0.07672990218470874,-0.07918185802873494,-0.42879918911821363,-1.3529696372712583,0.5867761310196997,-0.43014800497527544,0.9627565190223725,-0.9492535144739147,0.27590089192056544,-0.025060253165843958,0.3818189864486139,-0.5590315034840778,0.43987662054040577,-0.6279483497425604,-0.34466871294338525,0.4822167649050218,0.02845232394634969,-0.7573222923990628,-0.3637238313676466,0.5076475171574043,0.9411012017172786,0.3880183565255579,-0.7273667441763141,-0.3133789209882241,0.21881011304681433,0.41853535603379166,-1.3189182512351048,-2.384122991140914,-0.31065020876241733,0.45321813115464127,0.5195758238224761,0.3134123968561258,-0.6102345657643122,-0.70259789845303,0.4509800440116034,0.95450392532731,-1.034771038890359,1.2631638447743323,-0.09603929455418746,0.876401116425772,0.22332375124151485,-0.5702914168492316,0.6623402817179086,0.8079167279944097,0.12593598010266072,0.27830017749824887,-0.8735643423267095,0.5903670763236462,-0.2500778506235809,-0.5461031220267907,-0.9203336030157063,-0.9335134956919358,-0.1114458976637237,-1.393917338544954,-1.3476174251827773,-1.5087139650971328,-0.24527652269914454,0.8389005826420239,-0.12573722717422509,1.092939781181436,0.834136908466278,-0.4521216463935922,-0.5836735560657342,0.7755709116894055,0.6775451043829245,-0.061430829924182015,-1.113711522532654,-0.5571290136631426,-1.0920527359193017,-0.872437517479617,-0.30880231690053167,-0.9356848897030912,-0.49508623604613683,-2.6663218350441324,-0.8558024589182641,-0.8542183847377169,0.5960787488135725,0.15002606280546193,0.3737237445917027,0.5692287308589219,0.28173185136094125,-0.502893282407911,0.3218443386753614,-0.5415605272084685,2.142300407366324,0.48424235119968473,-0.13284607665376108,1.2600463756372078,0.8144819473273419,0.5367625919532726,0.8923382167839189,-0.12753787703006578,0.08409928191243213,-0.37598873646239583,1.0039835466712757,-0.4832533551450673,0.7596168709163282,0.5735154307368086,-0.0258135284796117,-0.40456800117308794,-0.2858150347985404,-0.19809896445047298,-1.8075077665336323,-1.184876308830326,-0.07316532733316035,-0.4693952324625665,-0.7862230378972191,0.5474568480944731,-1.008573886555155,-1.0287953513663406,-1.850374078479802,-0.29662577471785456,-1.2014817335568668,0.11457459718533901,-0.7953888663148393,-0.6125183667995671,0.04630089682202139,-0.9292166120789654,-0.18825906481215793,-1.1215323478731578,-0.9814147733967106,-0.1830312124806262,-0.80255228040035,0.7589889807770307,-1.1638064988035652,0.528148540642333,-0.5755130633017814,-1.2208445590001773,0.013510793750480492,-0.6681208074761863,-1.6756564406583292,-1.1041251548028974,-0.7052594673845037,-0.22227260320979847,-0.8581169410539685,-0.79643728162353,-2.40432543609346,0.5558197070717977,0.426371049508748,-1.4011014809775932,-0.30689361431311335,1.1419206525841905,0.1053730856265615,-0.05275512758311963,0.7414442609230832,0.6458734078456536,-0.2467637977771054,0.47602657473358245,-0.08017249005673896,-0.5977628087165077,-1.895962408491042,-0.784071419452437,-1.0455864538427941,-0.4208905431193927,-0.1604719961066252,-0.9576212400571383,0.07183557200850985,0.4034940604813441,-1.740985501291446,-1.0048116477606317,-0.24414124439279075,0.8164269246738847,0.5156476833342675,-0.36075572257927463,-1.389239141479084,-2.3883902083666406,0.2764898803475051,-0.32726624391973813,-0.07484068301200761,-1.443892958066052,-0.2287141948529241,0.1920148318356399,-0.2074306846400889,-0.12230231048347652,0.794942798698686,0.4031468318116839,-0.2933297173013947,0.30082352468404455,0.2799503946034237,-0.6603232801064297,-0.18312108832463056,-0.3315210437531756,-0.2853406681613326,-1.757550417072991,0.4497752369902034,0.20427851032538827,0.07185105175759535,-0.9370343424949242,0.8970226594692587,-0.8092113532960314,-0.9587081443430135,0.21704725156642746,-0.2167356872330505,-0.6002985560917602,-0.4760817055413813,-0.4592597421258267,0.7817803219697435,-0.00936125177669097,1.3552294160381597,-0.38662314218557287,0.0631902777813108,-0.07764838969350321,0.3477064809183597,-0.4916537844569243,0.7608398456206023,-0.47373352239732147,0.47748259442049384,0.5090305800533294,0.3565627171372936,0.40051854287743,0.8081473088264177,-0.22522205770599676,0.41132383985140103,-0.22192007682605178,-0.5325003372603644,-0.4713803098958669,0.6642891606301975,-0.4265302584571158,-0.18701442612950409,0.8515820159294033,-0.506590972766954,-0.6356629255130303,-0.26961039380936735,0.9734796832169026,-0.0264708357446847,-1.3485029660659018,-0.7803408821453971,-0.3757080740617647,-0.14552126332017065,0.3481622992400773,0.5907450389680189,-0.29847510699128177,-0.37760666027448664,-0.6838406031358334,0.3217055268481737,-0.3164516907213514,-0.4600842309529069,0.5928663963786811,-0.44936542360224113,0.2845539342649,-0.8181636257129613,-0.4536448313177054,-0.5039619056481764,-0.05014013187385848,0.7256208396536429,0.44539931915859965,0.78516544715007,0.4579189885914363,0.6463614299749109,-0.4580837471297246,0.12021703143971904,-1.0762143736657885,-1.5573092647845699,0.411153090721075,0.3965292847191718,-0.6314087534106296,0.43615737201227783,2.380960353431834,-1.4082866467526154,0.5092576191411732,0.006130587840868738,-0.3234882330074937,1.3174788905888102,0.20898907840882283,-0.5441608538092364,-0.20634005104686684,-0.15814665485584195,0.32057119856586663,-0.8759599930526114,-1.3859604914235528,-0.8433601707410034,-0.591618197551795,0.4800104087779462,-0.47250274149427485,0.23560385651602478,0.031695278724315996,-0.6919843431553939,-0.5567774961408178,-1.4461021432918115,-0.9297518192154934,-0.06673481348075944,-0.052658017009206554,0.09613807511698551,-0.358865731840472,0.019699850331820853,-0.31968020591579704,0.013303344773961185,0.11819510576473162,0.5023618957641196,-0.2820340936479466,0.8153933261894724,0.529494916745867,1.089074614172084,0.4703344686179849,1.1330753843800376,-0.4896540390682393,0.2314863590308994,0.49067228015886855,-0.30556975359343697,-1.0037741611660138,-0.17633957595389615,-0.44604996026348975,0.30012236529096725,0.17266546097476543,-0.7925401269610973,-0.15846989178250845,-1.1540972374398228,-0.3990546374810942,-0.5282386243865426,-2.023003724644683,-1.0190435837233283,-1.1766061577699458,-0.6328672803123317,-1.6881674779862084,-0.5566600960740028,0.03916086798286194,-2.243249976194619,-1.3702328598245404,1.1718211809958552,0.33697341711215434,1.4525946102951413,0.685088865531877,1.9841651170156416,1.0637987044345638,0.42901181917825076,-0.6667017145943895,0.9693262054608173,-0.5461433799646117,0.8025460907657915,0.9154906039589628,0.7837052868506094,-0.11512787313574857,-0.6183894899599942,-0.07203601103220131,0.385527205989232,-0.16071140330228845,0.7318056418816403,-0.6520752699761474,-0.07138041435027251,-0.9487001979075859,0.5360940670951999,-0.6061282096187817,0.6428786477249471,0.5551821009477783,-0.7684144364274275,-1.77991695004341,1.007403001277803,0.007229069008423005,0.5413741089751148,-0.4480666931090179,0.08022851905797723,0.730278598983416,0.935034883447921,-0.6877256832015199,0.7895725357989345,-0.4677742738790931,-0.6636620193951737,0.5776930136938192,0.07938555632173316,0.19220372856099477,0.2682099337569843,-0.7054555815239054,0.8581183889498478,-0.8830007425173552,0.9346637133439575,-0.7600114278153483,0.7558639832192938,-0.0720134224262082,0.5120146689266961,0.4096527018632134,0.6326999104478568,0.060674597435841866,-0.868122379212965,0.6850421021154681,0.9258729278457546,-0.4440718969840093,0.9319595171165671,0.7254478354957719,0.08169093205661081,-0.25296402357389913,0.10354060623876295,0.8265346296407747,0.35876785381263754,-0.6141100123813419,0.35303488578481645
0.4940342869203227,-0.39642911179069773,0.8866802580098319,0.5155574257845845,0.8446176244044619,0.8672710442449372,0.8282721124637267,0.6090565995058523,-0.8402988178389879,0.26872334515995977,0.5085654041023178,-0.8605532329930865,-0.5705960671286522,0.9284099040396984,0.8290322515106707,0.08532576557894293,-0.9300011997842155,0.6127614467460003,-0.6484697623352682,0.6638988022855958,-0.6558088785352927,0.6289344778645789,0.12493582434526496,0.7160593656525363,-0.8810733296610744,0.2802902388960722,-0.959021531998457,-0.6525915351829543,-0.5146718557645189,0.11151374504825329,-0.11322500638450017,0.3233189689349787,-0.005541239808939782,0.04406387644851108,-0.7521750724853451,0.6831265680656999,0.900119287265513,0.856963826859973,-0.1571048711413521,0.7029048102730746,-0.7460801644759312,0.874009502738124,0.21560240844171727,-0.6371055004303706,0.5498255088055074,-0.5650391993819749,-0.660478955006217,0.18505386306534946,0.7853343108137619,-0.9858249967133342,0.8051962981074482,-0.04164610270407656,0.36833263108633485,-0.4447961261812523,-0.3168305561539968,0.48771294501315476,0.24660180517037378,0.6492124027423514,0.6788590294493544,-0.9623569327546255,0.8863850303429042,0.5849083025318149,0.04571564604608365,-0.816985724054706,-0.2569929966675629,0.46566881747330663,1.0657188763252712,0.17270065920885783,1.4604964777559026,0.3069623083176843,0.8436568811835883,1.4090723330155954,1.2543161630642294,1.8130824116952962,-0.6585024270017822,0.2579207114902045,0.007136109434730662,0.4810376657503264,0.2692061856411417,-0.10491776131589745,0.5252919381058332,0.29553852524793844,-0.7142218150430295,-0.05606068313657597,-0.23055887207782777,-0.27189273631940103,-0.5222452607226881,0.4342104571330161,0.37672870517395496,-0.8903563763079101,-0.7849404587515423,-0.3242550357263141,-0.003359341833366076,0.38117074245493754,1.7627901539735737,1.7819939507455385,-0.6272888729577214,1.46190509176906,0.09171582859199401,0.23438594535433072,0.9747758657250762,0.15797420889131478,-0.9776560330975632,-0.6903753433075172,-0.4526826786479695,0.4500674212706963,-1.1070753690629374,1.1763729371005514,1.0364742248091776,0.37395715267986457,-0.5484191491574356,-0.9027791719876483,-0.9677181211604733,-0.4234927083680507,-0.027516515376917246,0.05784706232373805,0.9068839963948679,-0.9085648665241377,0.6291718173567177,-0.5494227516311536,1.129003382075932,0.7674503360764324,-0.5621541170155797,-1.7216315473768065,-0.9392300079872433,1.3353075784077038,-0.268552584845381,-1.4691615934103759,-0.996593044422318,1.4293970028491463,-1.2183266236727244,-1.0129942118479394,-0.16501414935767078,-0.5644561367179093,-0.2215017989248132,0.8277708148301898,-0.9674316430442196,0.594813134481243,-0.042940125015952645,-0.19681600302702992,0.31307860496484397,0.02682567118014535,-0.471945617947076,-0.48523029118664046,-1.6237120285641107,-0.013123522360656063,0.04747936941974966,0.9115621133356981,0.7816435082420616,-0.21334291223780588,-0.07489375897849399,-0.7851787876684431,0.11347624154743517,1.3113531632430675,-0.4350338128010644,0.7059384323915985,-0.8084119056852895,0.8546916851566525,0.7304518754908673,0.15068375861923725,0.20637251471310164,-0.5122946893303407,-0.8140739403193035,-0.5361348279377391,0.16221281332903165,-0.49453810414540506,0.47341043908922037,0.15062536296124102,-0.08176509821002242,0.7400493153664823,-0.41220056634917734,-0.8715529172692267,-0.13082490649455683,-0.34770640053097146,0.25712626142805334,-0.5045801418742359,-2.419004524775486,-2.3023340323289965,-0.1778395392834959,-2.0512685261401713,-1.005188430742847,-0.416414268189166,-1.0890186802121082,0.9554729143252289,0.5436151388007299,-0.9637839144766833,-0.03162851867603652,-1.875991303442561,-0.030021188967616595,-1.1776503616887315,0.04014831336227496,-1.2470473634123003,-1.1063917279712157,-1.0567884142230501,0.39036148579527913,0.8258444538766541,0.49863517107736716,-0.950602747713856,0.513234521583886,-1.1085072459580947,-0.6294862645024373,-0.8617236518074288,0.5458720067591762,0.8581153319542554,1.3049519035418478,0.6997926548645856,-1.2930618414584008,0.4117707153523564,-0.9226930668981109,0.30619871672465365,-0.7733410701014048,-0.8987752630555776,-0.6905075190770613,-0.6695904446226839,-0.13199219624081088,-0.7801566495834841,-1.9275280086222368,-1.2749795991504076,-0.36073649019697296,-1.8717418964698809,-0.44686627550281993,-1.0339465238042849,-0.6159340226040269,-0.5601145337621686,0.4386375271796252,-0.24525906145090784,-0.18938267396292488,0.18883522529613042,0.2801413045770174,-1.0293368346865397,-0.659465890047738,-1.2821775045585946,-2.1315119141520875,-0.3166326359105218,-0.8553101688636665,-0.12379444182320579,-0.6268264826363721,-1.3829322502159256,0.24747417083985654,0.27153254135454596,-0.816830469587617,-0.3563360221409225,-1.6939916142713398,-0.08617313820837785,1.2454807853284153,-0.12876590420138606,-0.3031356447126999,-0.5746826416830132,-1.3060898335642308,-0.9667089802857745,-1.1544878084417127,-0.5469776249362844,0.05122008407873326,0.39450843731471685,-0.11573681016652868,0.1733882997099787,-1.5370738529942698,-0.26264066961678206,0.059025940119159605,-1.0656833317851064,-0.5556282551059462,-0.47543786679110145,0.491965704020639,0.24651804382170053,0.5287213090347044,-0.3525814747879984,-0.10302038351706912,1.6986911979617247,0.4780516010653981,-0.007092431472798356,-0.7259625756533775,-0.4587240200032635,-1.128667182543624,0.5662868102440439,-0.9333817062104275,-0.8806056934434616,-0.5168642306628342,-2.781171315140307,-1.5537587089098488,0.15146169693124295,-0.4817973463749384,0.3239890833879214,-0.3863535686670655,0.20421251178473265,-1.052632946380951,-0.051667597740340646,0.16990637604075218,-1.2143669299582267,0.04656359224681187,-0.7311683522613428,-1.2622905131640132,-0.5334773424271255,0.9794944875932508,-0.7153040091171149,1.1089549109113503,-0.05021810497980417,-0.6631872350911474,1.7947973034237596,0.478126004100644,-0.32705994749110084,-0.7913223139737108,-0.15873816421467865,-1.157808567809434,-2.0246699442988048,-0.42709497648761696,-2.178675732263743,-1.4831939066321944,-0.5234921327596332,-0.3912323796452378,0.4372128776172651,0.4766760173314895,1.0279749033958128,-1.6320583310365144,-0.09432292729990883,-0.4874040416131868,0.02547620904513228,-0.7184240663913259,0.6020175472067096,-1.4078085974610373,-1.0789714942971174,-0.7794791538510395,-2.5895646990454013,-2.196614536883244,-2.2884401768074945,-1.3420664997743306,-2.1927319007400743,0.05378826467633687,1.363225449309182,0.11398000036177108,0.14190334804521473,-2.162183548604932,-1.4297839432067458,-0.35036119313228065,-1.5442690082873274,-1.6073186246132178,-0.48234042069814964,-0.6852068659370462,-0.6267874763168544,0.31788611933539646,0.2891334521110452,-1.1075079524837472,0.915947543666747,-0.4688528836280444,-1.2393420901733938,-0.5175587945914906,-1.1837920171915581,-0.59985057070448,-1.4428400215567567,-1.749148970870699,-1.1385922446789722,-2.3321374865582003,-2.726309083092158,-0.08017762807766336,-0.012945614678628772,-1.738003710817773,0.9783651447556803,0.46410823939452606,0.7592455262729351,0.9776067679798123,0.17018746600867118,0.4920630063005429,-0.9135307802995082,-1.0947492485088506,-0.9360398693904203,0.510908297689064,-0.26622726980680245,-0.13575100202529664,-1.9176025311460907,-0.63094912669429,0.04351315073862618,-0.4485885218669852,-1.7071767838505771,-1.757759376981428,-0.12008121396145725,-0.32196004679318047,-0.1775710302714442,0.47130966723156786,-1.5659790282925654,-0.20249134190481669,-1.5789613146793833,-0.8539170514619632,-0.7602212846316543,-0.8551475363368948,-1.431109618952431,-1.2482761446241435,0.9892208132894899,2.2583065101279054,1.2332649505751934,1.4123614093120547,0.5928139584917249,0.28658863489467384,1.1186054416725473,0.7026889426696551,-0.2715476069436295,-0.950165822992756,-1.312447676366637,-0.04790844465460633,-1.5461233859474883,-0.9625301981778585,1.0748161104113747,1.1907523859954572,-0.18900597802773275,-0.03462785977794318,-0.18363065794362468,-0.391062628321455,-0.8067496222915506,0.019743800840642162,-1.2242021654307604,0.03531605350752334,-1.938292581533181,0.43689500515683444,-1.3057312288142975,1.2143951855261381,-0.16055499883109262,0.8747539931117082,2.3921883866758296,1.134288184933424,1.4008050243781767,1.0263920090739884,0.42585786334964654,0.7990246627081932,-0.3058464020924746,-0.6553039545885284,-0.7566396269639761,1.991942390882439,2.860771784648035,1.9595515317533436,1.5021104423353928,1.3979636105382536,1.4108666271760952,1.1615508487422548,-0.5304716393180485,-0.19396221823439275,0.6914299846549263,-0.036281544361142275,-1.45992141639153,0.2245742056322588,-1.114011655528524,-0.8658543278869639,0.5872497272502161,-0.1955287576079461,0.06655343129463101,-1.2535887808430353,-0.8237778013301946,0.26597537611796346,1.465607234855943,1.0529036007403003,-0.42666168076054006,-0.340543042476502,0.8670083319949746,-0.8161133617248661,0.1952897544467142,-1.2730562409537913,0.3725323112401168,1.1381351641760251,1.7434892091299328,1.401775305565044,0.21134913965553404,0.5622249104717031,1.575166089556139,-1.1268799023131277,-1.0021106133605264,-0.3857787172059896,-1.5056811081568473,0.6671598585819835,0.7529573899720524,-0.3439717784716851,1.0188116842286203,0.2390127253227632,1.7521723720388536,1.2460232817701307,-1.0143406557935764,1.2205187086555254,2.3514557595513046,2.148525446987476,-0.8446673928433291,0.9194734159084188,0.3435693918492161,-0.2508119689213002,-0.6693764950660663,-1.2453608892104608,1.483034973959802,0.554451689158151,-0.35029082941001066,0.8024135618620905,0.630508315810029,2.666543011732472,1.6970899501939665,0.5399003967676146,0.024684706657705457,0.2096892589286241,1.2919262065735317,-0.3502432335839241,0.46685919693624817,-0.19242964787991287,0.5521158061594483,0.7161242059936427,0.578678554869225,0.7744403871879116,0.30342113435926676,2.523704844106919,2.012834260649148,0.8407078761488229,0.8802454231208001,0.2859585325115677,-0.9820766799577204,0.24515988173867873,-1.0421301951213922,1.215535356664004,0.688454776031336,0.8041495330712892,0.3500648142722066,0.9423067243258668,1.2011790874095674,0.6358040984016942,-0.1458385005172967,2.459741273903682,0.4847361959375539,1.0599821341350428,0.127877283559084,1.17442465237415,0.9872340898383478,0.5504511448360447,1.1446944888074875,0.7461369164465699,-0.3244648450394161,1.0123635511079145,-0.5735297774292858,2.854238125899342,1.6305709770196992,-0.08440717091861935,-0.44053397650393833,-0.8777404236866488,-0.8170154989568063,-0.8745900741774534,0.4763507590373811,0.18642245433152116,-0.1981822339652932,0.19347023953517592,0.8037657438755155,1.481260020982265,-0.013881145616584614,0.6306171984163559,2.6022038461960753,-0.2988427372184321,0.2870089144633462,1.355943419994566,0.7142387185969868,-0.20966732288405282,0.8387438667901995,0.0741651668944999,0.6773982673119634,0.1474813034921531,0.892498957628005,1.7157475290470918,0.19948114412639778,1.1345107584144183,0.26397531913424527,-0.32842672405336654,0.6434540339690861,0.7062001214473133,0.2425343367095133,-0.500941426653346,1.2406773297850964,-0.18348257117597014,2.481811009597408,-0.057136875629201174,0.08014726077320959,-0.44586718142646653,2.4646720716513983,0.02981221966129266,1.600346677499269,1.8472497933725747,0.8420933099392394,-0.03790075064342067,-0.7076103752269847,1.7322856053589089,0.6556413595910164,1.0770848139339226,-0.5519092369853765,0.5239820617623192,0.4041609468604717,-0.1249139770209118,1.8037374510189355,0.5687483989126985,1.4473582732787447,-0.18683393634826512,-0.2695535801342255,-0.9526487663286866,-0.04631912147249241,-0.7842331081906869,-0.5269915054083796,-0.5509455466135765,2.3721674151784033,-1.0861925256010676,0.3310804384937409,-0.10357029205881634,0.019911151672893847,0.36666671907714515,0.5567601820351529,-0.040930142386742106,-0.03046214409164137,0.9180030958483051,1.704991724591053,-0.572173310104191,0.5396342605540417,0.11707363790865336,1.9111558543659553,1.0141636928658737,-0.3461270164473196,-0.03792626978146585,0.8339791697674759,-0.17651587966458607,-0.17269310648322403,1.028986154132968,0.34634426829862797,0.588073756151655,-0.5069779693801502,-0.07915020103532157,-0.4075812718458157,-0.1231271343034786,-0.6926826517366095,-0.884998381616516,-0.08396243013542075,1.4423489968434329,0.7934183777231903,0.6638012660753236,1.1360180020742912,0.956156552875739,0.005965680584448157,-2.1565327639857728,0.4752110974206277,0.8889127475473917,0.023033460860844738,1.142944361300612,1.3725724804999708,-0.3135613104195808,2.3978436271362558,0.6165551083706912,1.3829727600557262,0.39969699286703264,1.5384155592942992,-0.6180911793458679,-0.6679745876662568,0.49078498669220605,0.6147283919675477,-0.14447693211698673,-1.0129584966907392,-0.49449167360399354,-0.4038098600154755,1.7454183280002753,1.1631564871055962,0.2543879459882054,-0.12237127109772643,0.0164051090449839,1.5590568894954024,0.26401976541136607,-0.111110653449084,0.5754551200686804,-1.3651619407242042,-1.2115523691060646,-1.4200071325186991,0.866400131460259,0.8102506399521223,0.9748893446063666,0.9538334527499385,1.391447356812071,1.058312634941732,-0.4790338241642011,1.2290062127267731,0.2967041111614447,0.19945077198609718,-0.4721263232910562,0.917830219411325,-0.0994256975466789,-1.339170760598661,-0.11883574358006506,0.1083135155329171,-2.0023469117599277,-1.0484928233308446,0.08646995675153754,-0.5629388202658184,-1.5877916129818166,-0.6844779882821049,0.031694148699272666,-1.8649484024177616,-0.45487910336066967,-1.411399356868442,-1.5978578826571106,-2.287079817200814,-1.1455280252079358,-1.2772820235898494,0.5825666227307862,0.582089924662985,0.6842643467436847,-0.3329088343565813,0.6169420662757719,0.4395003214141213,0.5556856864582255,0.8767133667125329,0.8427726170846768,-0.2821542573803455,-0.36751532658477465,-0.5088333167124955,-0.4170352871683336,-0.4660055567356986,-0.5649363539040962,-2.3800276390877144,-2.652788751353696,-3.6752898014104107,-2.9871342986369793,-4.293789337104493,-3.3879867228765668,-1.3572667273155883,-2.744113853633729,-2.3406734216910174,-1.2569460451974992,-1.7991049217392283,-1.1960089509334915,-1.0224996069068668,-0.644222943762191,-0.21959986366788578,0.023864426674794163,-0.5149366765498037,0.5479713756976333,-0.9281598098947649,0.04351097340220744,-0.11357073984309918,0.040131964824764665,-0.012808724328324583,-0.6407613517284467,0.394607892989446,0.35121514285392585,-1.015533393810607,0.7118693296443693,-1.0152126547408291,-0.3034762218880007,-0.9173524672524057,-0.5267434049814549,-0.4796421649639369,0.728374315663311,-1.1451611317637391,-0.1838366045077766,-0.1952365633735107,0.35373684008643214,-0.45524592980234324,-0.5230494644070633,-0.6931805486527379,-0.22053715032824436,0.1896963251576705,-0.3663068758590399,-0.08252042358240659,0.25419608392780196,-0.8977095925328132,-0.08795425417938874,0.05282858896929121,-0.8100023631965498,-0.8854819932684939,-0.8490025350109802,0.18945707589125127,-0.3716620341271846,-0.522212783962867,-0.9115890550924776,-0.7884174601329482,0.017365406744714984,-0.2060718875687735,-0.09516448339178461,0.6605894925116733,-0.6468954622858353,0.5154684162096766,-0.5435138171095731,-0.8845622172905545,0.406226086757769,0.32395353614277944,-0.27955697211288605,0.8291559751997551,0.5909500390561283,0.7635499073315466,-0.7581356699116214,0.958039601320446,-0.15979777568536724,0.9404880885821796,-0.2902801177191987,-0.6810067326388429
-0.6046544727878123,-0.991146324556214,0.8349253535996293,-0.8463562464750833,-0.3368664632782139,0.030030149127597383,-0.8189448339717513,-0.8139790693880335,0.7076523391342016,-0.515897230342401,0.14637248564053307,-0.31267496538361783,0.19195646544459508,0.38537624237388185,-0.6512091523848403,-0.2566751388220164,0.7720124807824691,-0.590207464762218,0.34772261021960915,-0.6302852040304614,-0.10075425805110805,0.27110932536242505,0.9778227935914428,0.28593733998891224,0.4309586541969037,-0.3537131225763588,0.4367416732525897,0.17956132408132608,-0.4257214216724894,0.2794450252987506,-0.07272218858739765,-0.59536237597076,0.3791983039310542,-0.71271452884448,0.8742638702865547,0.22994310380490512,0.2471919682557912,-0.856870464805374,0.5244630839815543,-1.0560841107798378,0.6428747943970081,0.29810315124532605,-0.950479378438853,0.8264421756133183,0.3946401190001133,0.30260648348800945,-0.6333846677679325,1.0950115710365833,0.9146565785925146,0.6798758974531282,-0.2413751342045725,-0.2009883598608029,0.045817755173684915,-0.6852090224426208,0.5992264271511041,0.5955348150743842,-0.9523544159335513,-0.13522484995212203,-0.4105194107452809,-0.35071842018408095,-0.8046477874251797,-0.6309967111713752,0.21971340636042475,0.5055266574907253,0.2516217815892911,0.6135418918218533,-0.35217861870033207,-0.31884914965002337,-0.2459014162912908,-0.7614597767047059,-0.2338985983420793,-0.7902658886880218,0.917685484067832,0.21546985587510437,-0.866121518434425,0.4441371811077573,0.8077391894032183,0.8806991688459886,-0.557964956963034,-0.719766026914661,0.28701337748198996,-0.5920698170549776,-0.26891332757125186,0.05665693782395009,0.3997940375809861,0.56430769108365,-0.6479870908402023,-0.07288039938643534,-0.08714021634367074,0.43387557295872453,0.7070177535528728,-0.22987612062672513,0.5433694775972927,-0.6008227622938798,-1.030947495661561,0.1691678443362561,-0.13691267162904877,-0.45594138855042304,-1.413817832211287,0.41393155673408394,-0.22049920747933272,0.6716247909586724,0.8167492609519088,1.0861195440854061,0.9653698350947993,-0.8672535432240341,0.6365130871671526,-1.248458716259175,-0.904203971873969,0.6448017183566964,0.0178857301420749,0.6931536892278278,0.8946230071390706,0.444089170956642,-0.3314830070085856,-0.10779645345540838,-0.40554115481704134,0.22747479512277885,0.16186466740748456,-1.3846306094998913,0.29225684473771135,-0.7433108733570154,-0.5292942558638624,0.06807839820806347,-0.25053738725482894,-0.03222531795881177,0.7368269429201569,-0.847498433760447,-1.3438513264590086,-1.3769486030368567,-0.3199075217484237,0.3200744745272246,1.4111583192201949,0.1665976515723926,0.0818056888507315,0.9060773490126828,1.2553705773941268,1.0859947361211875,-0.3304879058071735,-1.0867309165654644,-0.518945730181793,0.042416361411787507,-0.3587176481203929,-0.9186917028261132,0.18196948925891912,0.6148373245894293,-0.8037989034336661,-1.711554881750536,0.15830525488483213,0.5332704916848011,-0.8919584618077084,-0.5346818810317546,-1.0054430414339366,-0.7900876554266191,0.42704829076930023,-0.6355377658454179,-0.7591243745323357,-1.2563861039193531,-2.79443002384986,-1.2726642492715805,-0.4103056137560143,-1.0662566705759862,-0.4417348476840857,0.21035499896336113,0.13410222417943654,0.6932066265530469,0.12393466062978142,0.87692486815547,0.11149370052858587,-0.30563291514581786,-0.6625920427485124,0.5526392818060252,0.3828824419769816,-1.0035104678553706,-1.1692785346524381,2.8597563251668947E-4,-0.7072321670232902,-0.6658712263703177,-0.45873362080389013,0.43614880144462165,-0.7620924775868412,-0.8685865617046931,-0.7027377292378918,-0.25633885236767784,-1.6946959177385654,-0.3197132882190708,-0.5054204195731826,-0.16122453395113626,-0.08192037699928402,-0.11342907874385859,-1.4936959397044032,0.4315827886697715,0.21081643437031275,-0.3607683898960023,0.9059416821588314,-0.15922487436825844,0.7242258573540536,0.13665875596969948,-0.5663119771472843,-0.2120836002280291,0.19879593482591262,-0.2045032612285366,0.30593850158535973,0.08687126152654859,-0.7439342556101547,1.2323212944931612,0.05377095190633534,-0.3661616793433008,1.0572997995917786,-0.7467016160385305,-0.6324052660914591,-1.3275165514736134,0.9026708144783431,-0.12672870240878684,-0.07141928517388335,0.40735761648440383,-0.15235392117457744,-0.2585509127564387,0.9420581813887087,-0.09460932854760869,0.12078898322830285,0.5584690383922589,1.3436237242992939,0.18924065193842965,0.8132399551344197,0.762692533381208,-0.30450305380679515,0.33922880551308426,1.125954927422116,0.017053764451090074,1.4514967849738531,1.5275218965217796,0.8713623967701162,-0.39042691646306027,1.131175170642633,0.8939678194842741,-9.568967758238246E-4,0.020228889235138926,0.835785309077999,0.09355341530917527,-1.05116102175878,0.3361668336539409,0.4888939806518022,0.213165299185342,0.9658509157805477,0.8283203218110535,0.9644219554680602,0.580671496503955,0.9502920587068051,0.2842926735657181,-0.16797635499369049,-0.4508325605402689,0.9313753453790491,-0.2820553283072448,-0.2137536174688408,1.2428845521754341,0.5064759667432814,-0.4806004259843132,-0.12247511097741515,0.4025903826956546,0.31050968960330494,-0.07869982152784459,0.24723549505478667,-0.007970655296914118,1.7357208444440264,-0.0028990198306643265,1.2212837473100429,1.0848193875614456,1.3348094369270025,0.9408706628409981,1.252139228621067,2.0366443539164183,-0.7543060529782899,0.7724557209975581,0.4413089339224293,0.6790560290430074,1.5843541378746446,2.5626410857620407,-0.6574267949236614,0.3597214570000619,-0.7931742085295133,-0.05005343243752965,-0.1586098701623585,-0.3479704096580462,0.09129362637277279,1.1695292549912002,-0.7931672553010514,-0.4742650395313395,-0.46374132316089056,1.118243654050312,0.5190767857417241,0.10013037423826353,0.5652234746584828,1.6906683956967028,-0.635177861908326,1.7447272172124817,0.6728922325997261,1.0564462919431188,0.15756534152509213,0.618027924244351,0.8475325077034739,1.3685085204817142,0.36963310192148013,0.6360438804358349,1.9695933796246257,1.4983688135931523,0.9243567608896398,0.5586035240470191,-0.27351220617691,0.5794001799143322,1.3298961336102875,0.6003194709078051,1.4090548710401976,0.10323770143235783,0.20903469665393848,1.5801689855673002,-1.2755541143663849,0.02465877501056708,0.03269418429402641,0.9347016563666515,-0.09310143407108916,-0.37357981824976094,-0.33518039589481213,-0.7958055027952405,-0.026472737172949713,0.12190182858171388,-0.06030149141369961,0.6149385930723275,0.8567143588814325,0.9016758061868659,1.2492396483640913,0.835595527043801,0.24638867560515454,1.595830841299372,1.087311335413709,-0.9765491981661025,-0.2842274727388257,0.3293659122264637,0.9560181802781941,0.944499067458055,0.4428032042995924,-0.8218481961660269,-1.1002555724058845,0.24675569083867108,-0.22205047372210818,-0.36585476931735855,0.26555935185771995,-2.1566641783273033,-0.07045321988274932,0.1848459485862973,-1.0745571052563907,-0.3341759058475952,-0.5390816100234059,-1.46449218281076,-2.775568040253717,-3.6361245496117034,-2.947868368355882,-3.688501686400968,-2.9391244552521822,-2.1705853974055116,-3.11900235160716,-0.31559478804681446,0.3041761624660354,-0.9005494968994052,0.08702957428098433,-0.3795765161704289,-0.5368591422901072,-0.845088861862303,-0.48063916825599046,1.2948483442032181,-1.0701215554029309,-0.5341231735402281,-0.993717326539113,0.06985309786402537,-0.1159407673444423,0.7138364691415842,-0.2420611340149744,-1.6721409341942395,0.08869534336869497,-2.033001128775127,0.04680157107309085,-0.25109924439159254,-1.0158827505361447,-1.4355623173826817,-1.794738327886898,-3.2370859247647656,-3.482654843672643,-2.0763687756385405,-1.8037811949651035,-0.8400406142105984,-0.4177889089693212,0.9188358178524917,-0.5786613836516916,0.27649426482139844,0.6250010645579203,-0.03665466974777407,-0.3115634908246108,1.6570476006584722,0.4518478787729753,0.24569835286208327,0.4795444030196152,0.2500918268914978,-1.5708752907067178,-0.139731977245593,-0.3439165418977606,-1.868730589602418,-0.35869268665097126,-0.16445487277080956,-0.17173715508818962,-0.9651013586700933,0.4878245372795808,1.1789099450506741,-0.7589216984929079,-1.849255275875334,-2.1398179428997404,-1.5587853385685995,-2.2750374854077506,0.5440818808993829,0.11948463952108952,0.2231724477847828,-0.5215907381684126,0.7329656428188007,0.08272378403249718,0.051079595213275444,-0.5563662034023008,-0.27114446817726134,-1.0302866066973173,-0.02159797636370857,0.10695934652759324,-0.7383985576651042,-0.21458863846416584,0.4122183146097352,-1.012406766556202,-1.051425742255898,-0.5642968800433386,-0.7318574289702706,-0.34707337133443283,-0.2975845403604159,-0.9190819036959004,0.8705661623734475,0.618352823616134,0.08951107069907233,0.5684484031677023,-0.7646874731355457,-0.36464094734765856,0.14945960127708074,-0.3060531354007495,0.003415514201413847,-0.551120141061377,-0.14685515522207465,-0.42213544428620003,-0.3039057420781148,0.026348344301935802,0.4780400556530817,-0.5478726844149542,-0.6998173299132722,0.3195466440401486,-1.102640721492721,-0.826609908849935,-0.9010735174253455,-0.2542017371961637,-0.8590237812058963,-0.575175336037223,0.19729147335371156,-0.3867222010671509,0.6347089229712898,0.43054910157421183,-0.02174872455053533,-0.034749812127310646,-0.9248010396359021,-0.024706046715548498,-0.18740579643483565,0.16270220241613287,-0.8398580888379796,0.178675073976715,0.9439904680729093,0.08015679535148412,0.6789674854645138,-0.34610161669288814,0.02835441829251766,0.33918104023974777,0.2670129231727573,-0.779087907273163,-0.9953224055691976,0.7450767614740661,-0.5775336339593232,-0.9954485209681838,-0.37488134395384515,-0.5076318554799739,-0.47523644912524915,-0.3455528354564256,0.988326502464898,0.4631708681667033,0.3146114288475984,0.17803735754112554,-0.7983713342807878,1.0179643042907947,-0.380597110863447,-0.8955042897807789,-1.1708126248146848,0.2933216058694358,0.6464673732829863,-0.24382523982220397,-0.1930380174128154,-0.15654588240183354,0.08767683439330073,-0.38016608594921103,-0.8645502533983258,-0.6166155372102954,0.4600058162292478,-0.5477815663407058,0.40484502819680834,-0.9448718448382586,0.4398569188769669,-0.9863220406372774,0.2975243437655669,0.7704310469065431,0.7494113119156219,-0.1519128356674037,0.12265402589749144,-0.8991879173325179,0.9407677883569712,0.41034229599086025,0.20381337732879365,-0.25975819607904455,-0.4988520736487036,-2.155640189344773,-1.4941076251070327,-0.09301909339633825,-0.4525447208920688,-0.17029697314014514,0.32371176589226824,-0.8937541889420489,-0.3857517638499496,0.8740071014562796,-0.5859143969805822,0.4936757936601157,0.1707174740135731,1.5999826581409196,-0.14043829819990608,0.5212261889084912,0.9691018205447567,0.2502629837248575,-0.019048397593207644,-0.7715547987173723,0.6193754336807678,-0.7650986732843466,-0.0229218805007219,-0.5105283129341268,-0.645179841825701,-1.6200623477537952,-0.07498381649731733,-1.0744368269589213,-1.556701525341357,-0.6592678871290458,-1.2474241582028194,-0.040401762786180066,-0.07496537664299514,0.3203575820184198,0.25479128097643083,-0.8248230697695862,0.9160411896363203,-0.21951409125529847,-0.6545483257447035,-0.7938837862085809,-0.3819546331915514,-0.6949377020348267,-2.269614948262142,0.3363272549108176,0.3374141743090406,-1.430555600824771,0.08444286195326009,1.043895474522463,0.2773839975882869,0.5208101987161902,-0.6062681548216575,0.11091465626845821,-0.3269925401927282,-0.975050052328155,-0.553344006043168,-0.8490603574267874,-2.082319702735987,-1.1227169960870096,-0.6470408373024964,0.49131153551692003,0.2713951873843975,-0.5241760692470047,0.9671420743266144,0.6917461129145177,0.9652257855276682,-0.07852312811518468,-1.1852247739566193,-1.9957905389722694,-0.7998789022166429,0.03724955617943453,0.11881116368366158,0.0991335720687758,-0.9696674047284921,0.15128068924096946,0.21729156347850215,-0.7554250565746248,0.3130646081718494,1.0021003781673545,-0.5390466753861972,1.482908193713991,0.601705669748121,0.45926092627768067,-0.3028059366553604,0.5659913656502539,-1.245688958360143,-1.192259785079103,-1.1092252890363477,-0.0802058540817338,-0.9342955390910455,0.09310477394544217,-0.4793408555304374,0.7203009688417888,0.5978821206566065,0.7136027101839802,0.3636402601367682,-1.0461622057444713,-0.935757567520804,-0.8050084052200039,0.12418823719128406,0.32700246947712824,-0.5672414251031029,-0.14850272950226992,-0.616050753030867,0.1406558664605241,-0.7867356778760114,-0.4727661777228785,0.06340429727221078,-0.11529390528172483,-1.107808091262536,0.09739611167649975,-0.4420087068138174,0.4175843050140099,-1.1589030088920345,-1.2266298315070336,-1.20831412577081,0.16056186215142346,-0.08971609458885607,0.7866167141003465,0.6812877439792048,-0.6410409374988104,0.7956979236133831,-0.28094950864699514,0.40179275758504773,0.6439386974550894,-0.6878902578064487,-0.7606487726644922,0.7953481738644,-0.5769873677717564,0.9491886909881404,1.0093900904150654,-0.4903739384618125,0.07246930735765249,-0.5176438550582799,0.7036331899206262,-0.7463282770912425,0.5372636628923316,-0.8929552912535041,1.055862938742242,0.4775237789553846,0.7185671419170984,-0.8865484628808965,-0.12879368405503783,-0.8568171745054344,0.24919856470926763,-0.35499035067840073,0.9183234664712853,-0.5943629203221714,-0.6632709609268783,0.6233746266113718,-0.3182063789205484,-0.7424637705365214,0.031722859090213947,-0.4245704074020012,-1.5140703813263876,0.1315391601332145,-0.9212045676144058,-0.765916771514883,-0.26666474133281765,-0.3806321002031033,-0.6599651814056741,0.4585430739128647,0.7279466430653438,0.9327547197162394,-0.42629695757864433,0.6332986140628553,0.26520353248042866,-0.5642003489659279,-0.10160821803164283,0.7733026036304029,-1.0438296648008898,0.3907512847370197,0.4269544099780796,-0.016037541787458167,-0.5270650923187046,0.7160897429199267,-0.4574230892967799,-0.17703111310238473,-0.8176483268228345,-0.41523512718840216,0.23970951578573682,-0.6094799673008848,-0.05138108994346169,0.477961236665035,-0.36657726072606545,0.31201396969082046,0.5325365711158381,0.4289491444761639,-0.6335122149964552,0.5629439150683392,-0.596566475456254,-0.7590774738179837,0.4306596712694975,0.349056240079192,0.0028759083399148427,-0.5674569781011848,-0.68693027134944,-0.05284915589031589,-0.08041204713023141,0.24574360392895223,1.0677560707176568,0.41312467287271193,0.9759955265295033,-0.2443464005777587,-0.12592082037216268,0.09346333928996997,-0.9869796363477268,-0.0011935934647035785,-0.7066776768332907,0.02803079139430782,-1.3909508797639376,-1.2874644818769825,0.21902304801910552,-1.1793839345098336,-0.7110192083568386,-0.06974674274017256,-1.0442843565295121,-0.3549959433725809,-0.08614975133148096,-0.7739911493627145,0.44214991588632546,-1.411097610783824,0.06851460778278166,0.8434108237915899,-0.8308248128118122,-0.31312573214470446,-0.38190122387872055,-0.23013442460385608,-0.713779763891254,-0.5360326934216206,-0.8165489202319094,0.11002813995250937,0.17024233170079728,0.6817592084323854,-0.8060343592550556,0.6602633835794074,0.6093564500728084,0.3905974797835121,-0.04463888474726773,-0.5138625234756745,1.058513051606748,-0.22471396175398622,-0.2929850526025454,-0.5029778534834223,-0.9499882260806505,0.5181575966382211,1.113518561405285,-0.4209156261577284,-0.9161574861031101,-0.7549171596512443,-0.46634687079567183,0.3767260066638395,-0.111121601656493,-0.5089710643227094,0.9745926722757347,0.3409705680769325,-0.9942393753939447,-0.08798379410878265,0.9209866669028275,-0.779460679850974
0.30753308736230545,-0.07190562053884819,-0.0573903809953793,-0.11529853865393691,0.4259751983729585,0.46462169964038846,-0.4714788990316028,-0.7605312557737032,-0.54701649412391,0.6637568602218364,0.9245791674874564,-0.30676925566624136,-0.1669493673022321,-0.8337527453518665,0.24657710467947935,0.981026815140547,-0.7994576904898556,0.48679549788993803,0.4540580253745099,-0.24468585246713426,0.15094626713303705,-0.5457612365155629,0.3092997458580178,0.6557566608430772,-0.3962048682290664,0.08869712742202096,0.8464334528715474,-0.11456018046936411,-0.20988770427513526,0.863969060798766,0.7838625069212612,0.6822443573941834,-0.16187095932166054,-0.050804027247804,-0.2161197212504759,-0.5020181064013086,-0.56055838289461,-0.27107904398071897,0.4963619489683309,0.1838991326570368,0.07993142285504089,-0.3473830162681989,1.0180897034610827,-0.8506349496464038,-0.7943060941995014,0.3655069798774987,-0.2296940846126276,0.12340344150055609,-0.8012093394591316,-0.21492230382510139,-0.7305572998971391,0.1377763882527433,-0.9276129246280698,0.03541044972404994,0.048107282394322715,0.45840057041053384,-0.6452811586510958,-0.14675945697846338,-0.29563434956456125,0.2760835635317564,0.24623476709541608,-0.6134267804600952,-0.021884498979279694,-0.7858239095152884,-0.6155005543031924,0.39354900514183505,-0.5196876767283217,-0.048754356966060765,1.0194819663349604,0.8187763175280189,1.181575661519132,-0.24753004676113569,0.4778724199653616,-0.9631341686111763,-0.9431631643996765,0.183323338530611,-0.48895724180257866,0.4928213018708533,-0.1460798811515668,-0.607652486380872,0.11283057339254314,0.6370432446298377,-0.513195755648636,-0.598152733926429,0.23760403934185192,0.5971262353922351,-0.8884803738274903,0.5728361173307476,0.3917992498982766,-0.8509537662854241,0.2392697258629412,0.5352794879172715,0.5727356931328574,-0.3711298399816113,0.5854141599722218,0.8094188582351498,0.06545796513443947,0.7352615796319365,0.11399020243170274,0.33257940957100673,-0.8986890087337638,-0.07525570128518451,0.5314491892604138,-0.703645993602104,-0.09144540573978427,0.4611410842720601,0.553189141430152,0.5502642609833807,-0.7678439274170582,-0.4552764315007274,-0.6775886467353287,0.33912401054782126,0.8153692257230631,-0.40856592058389896,-0.023445233075164006,0.9740162337179605,0.603878592638047,-1.0252465442212746,-0.1273532689069721,-0.6035423683723798,-1.4408599874043762,0.21166833702737087,-0.12065021817767657,-0.4047063263802147,-0.6264044429334834,-0.419641220901503,0.41327980026406125,-0.9625498452747359,1.0805377739240907,-0.3209870312242094,-0.7273720419214595,-0.0010254133600427788,0.8056996326340957,-1.0883248764665427,-0.3096159395456114,-0.7149499657359344,-1.446728632499661,-0.4760484751961507,-0.8922609248264552,-0.3266609437867391,-0.6664870555865485,-0.6705849962829293,0.06782252801185723,-0.15464408098417154,-1.2328146852473771,-1.1586296173697395,-0.41344780492985655,0.17777074060560002,-0.3061288799752022,0.5647191499090307,-0.9653572997336883,0.25702041795981806,-0.20872937339741068,-0.36822726284189744,0.48740119888918526,-0.0045224958118573405,-0.9542045576569311,-0.11041616155801466,-0.9434535996320138,0.617269732511369,-0.9259351503581588,-0.8997140840063539,-1.1707829070453113,-1.6556036894022852,-0.8166955676982504,-0.426044064823042,0.08083270532993203,0.20253430539006376,-0.6240536010923843,0.18663489814095072,0.6018328493432489,-0.19759752817599266,-0.8102328158634208,0.9885317101907475,0.7715210650644289,0.7991943064857678,-0.1702601539042422,-0.26147956909085873,-0.42801154032540445,-0.49412542757432587,0.5737214648470451,-0.7259012064730759,-0.3944490854919972,0.07339691683278525,-0.3102102424398449,-0.7239986265921092,0.2517161010465054,4.650597829108751E-4,0.7821636824068806,0.3863060199955437,-1.0723252775993377,0.48970391197391366,-0.6031620351803995,-0.20586255236149928,0.8829731427013142,0.9382333201360736,-0.39430958241440517,-0.9917718942040182,0.16195571851968416,0.5702718493723359,1.0458664353169538,0.20300174511271687,-0.5736454423958961,-0.04601828929743337,0.7790955138670705,0.38605048805388914,0.28157804356329375,0.8396321072994939,-0.5895695951512888,-0.020095077533441807,0.15431705911278093,-0.5875015214832303,-0.10583707034485637,0.29408017007727794,0.631657627916322,-0.2045620685021631,-0.40153042246986453,0.30157394227858986,0.3832110012499467,1.0906813693669437,0.2942042950501552,-1.0045745200194411,-1.275962105896984,-0.307741482130233,-0.8785810084806156,-0.08137580947760273,-0.6046338015251974,0.9167194635950101,0.0343753877121449,-0.45635746523615844,0.4940076551452958,-0.48576254894404597,1.1112302279823358,-0.3299595782097646,0.004828899309858599,-0.004400910669318999,0.45534156762493583,-0.2216768337954023,-0.6468443818768091,-0.5421709874485765,0.29152124066862445,-0.817044921698423,-0.4553591484693917,0.04394035725552545,0.7882312835467727,-1.1616586198333847,1.267941048517264,1.1179767300103376,0.4124591181132193,-1.0216551584510765,0.08839524318447406,0.3982521369690974,0.5264748143993627,0.819813919705303,0.12299015881396949,-0.16514707606115833,-0.5660653229628532,0.223908620497783,-0.29078404414470926,0.8893696178041269,0.013824483353488105,0.35639776244603644,-0.6319537955425597,-0.5414404821826803,-0.33820740663750465,0.4304022330460184,0.4453078664524515,0.5014684435447245,-1.1163392024411645,0.9181292399741716,1.0075817662321105,0.788250050823252,0.7623255713832314,0.12534717230891856,0.08638219198620171,0.5818922251717663,-0.46610163493891715,-0.7316525005414555,-0.3192066303758166,0.4320312647838365,0.49639359847726816,-0.40571475066381396,1.0148668010881394,-1.1655926815314972,0.13309062557300091,0.35979078615609,0.3387233411540707,-0.4964116633907392,-1.157961333736842,-0.1550009915264648,0.8999742341997498,0.4186832753243523,0.22429843900959848,-0.7484716588649698,0.7999650910780363,-0.13488848165260056,0.9459334101364975,-0.10171210762925262,-0.461320734758492,0.16527834550542794,0.0016729664128314343,0.14712707442911463,0.2701812685276526,-0.7367839940673484,-1.226395980423714,-1.6273720536729877,-0.15244588245977378,0.1000577933067288,0.2580276255239669,0.7659276097617992,1.7532269713414061,-0.3873286721136345,-0.15957673214365145,0.9004708062505641,-0.25656304437173283,0.4263294496255839,0.3029691507419323,0.39248893422699693,-0.06650978619815057,-0.3291615731579206,-0.6032009339590578,-0.371847036079366,-1.1154654463898286,-0.6666117524473952,-0.7556195643192063,-0.7778002932665116,-0.3719780114576223,0.21859312060092248,0.06304487068352245,0.9029334278341028,1.172352121598211,-0.8582651049126092,-0.023418717482345777,0.058638279091209854,-1.2574008891288209,-0.5157438313805051,-0.04228565853662308,1.10298500440572,-0.1368378914000795,0.6971560843754308,0.47261455647105144,-0.48687396241444614,1.2408466118288222,-1.5444037398321833,-0.1654621062570273,-0.6967311585629414,0.0016434800291933464,0.09765426590907636,-0.0881310309431151,-1.0329560081760183,0.08948194109538106,-0.0405829420487014,0.26138651838307453,0.6865132948409675,-1.00908152618718,0.5558842427469505,-0.1870243976903319,1.0336095688317843,-0.2877915225624592,1.9591232501036469,0.0037466932627433056,-0.3134444975338024,0.8190433819810077,0.3023617400909306,-0.6021512512157433,0.28464819742973674,0.37501464498597775,1.0515133046487464,-0.48762146118991384,-0.6278355298129114,0.04441151112553069,0.2944692651020093,-0.17406384591782295,-0.43064470119298953,0.31099025406933123,-0.2407797635208555,0.41420810545789805,-1.104229550873525,-0.8094044157187537,0.2183525776119287,-0.8024469402969511,-1.0764516499399202,0.3826108131592152,-0.5060400887297811,-0.2995959285147674,0.05684833292961691,0.8967338578798598,0.8341854717471275,1.5428843178828773,0.7858444175454933,-0.6682289928150528,0.668112890597412,-0.9365299212656791,-0.1708891478920739,-0.21947784557416078,0.5524119342567426,1.0965147414952379,-0.16265943212823053,-0.5873164228345851,-0.9939307947952423,0.47655558310136636,1.645031209931953,0.5202100559684472,-0.26495462084020516,-1.979094173502674,-0.5600414271212667,0.6619327194749842,-0.8779428980818131,0.5259575222674697,1.1141979780138678,-0.08269984041607133,1.3835659401961076,1.2076946747651685,-0.6466967772780052,1.0635201009511264,0.512091426928725,0.6840012246639543,1.1045108911392645,-0.6777893250941688,-0.8650130127706245,-0.2826141722225528,0.39280763733826063,-0.12012319359523747,0.28805393610596297,2.158197841495856,1.8497339823187824,1.7176864792027509,0.9138132556749593,0.5724073697306467,-0.16797441752100972,-0.8338267703289814,-0.20796598377087833,-0.015647648403406062,-0.8141238072630668,1.1554386265659,0.028710207207538526,0.23346182993165732,-0.3972035518837469,0.10569790416899978,-0.2601303565098822,0.3213028544627014,-0.7023911972048513,0.8185885257753672,-0.3515202619211979,-0.26232316524282334,-0.08899262421764742,-0.6809478514891131,0.2262894261441099,0.22235369683996492,0.2961007616590151,-0.44964937069049027,-0.09292583693061131,1.9470990541134792,2.3552017435582577,2.903266106819423,1.7149562705060584,1.3988221574813295,0.8763635537481754,-0.4759820731026021,-2.442048843304687,-1.7185270810306927,-0.3201899965624959,-0.7939534599056067,1.238260328513103,0.20994620938260034,0.9174802644335461,-0.5400370047363644,0.10683512646268048,-0.4679956303685018,0.21687022379517318,-1.221313566327622,-0.8879179678832547,-0.7391113173315375,-0.3739639262077857,-0.724197647298702,0.5657895293260113,-0.619877143939433,-0.12194842582007427,-0.05956580103693962,-0.2218649374378898,1.9798498824228514,-0.05242784284357927,1.9838652730074353,3.4141003150505926,5.362988278743879,6.487551782574493,4.560840523597382,3.789626040871557,1.51656559043888,0.8859999073057191,1.546400587182515,0.25548228484211194,-0.30561046198604314,-0.012177173746154391,-0.021713495222328613,-0.01825076268786512,-0.139702463435466,-0.050241894219535045,0.40368234526858043,0.14852823518835293,0.14794534910733317,0.28080108718606034,0.5832395860449789,-0.3773214563732478,0.8996815783005814,0.06746185747195249,-0.7798384722522381,-0.9213552517196094,-0.17500760094947684,0.5373040005065258,-0.5690128781098025,0.2646778623090953,2.2301946663638597,4.1617010020332765,7.134348360974938,6.842104646677852,5.4610349455550775,2.1692637550965146,0.10504065567447958,0.12789910275740426,-0.11855778268827848,0.34769234398876303,-0.8069094578535856,-1.2662801505846963,0.3388987070230849,-1.2332205837144343,-0.22533640908391742,-0.08420687270630713,-0.21595103824364884,1.2241816359405775,-0.7776655001096381,-0.9780506296881617,0.6489718783198632,0.8138342889058586,-0.42169942809175276,-1.5016700544967307,-0.34004855507172416,-1.1918753979690175,0.8680605317274542,-1.7194522504184397,-2.073999827530391,-1.8432936003689544,-1.904289461181602,-0.9585033127777944,0.3331510682913271,0.8499672024290398,0.5392036086393954,1.0128764048602446,0.013018385224943975,-0.0471825796303494,0.10013917441423578,0.8843211713084725,0.24135518059293284,-0.6997765846389064,0.6267042294557236,-0.45428170295102127,0.7398039431268423,0.8279141997550578,0.9439113567522777,-0.30146994592128123,0.4326110807756436,-0.12654179287243733,-0.48475180168014337,-0.523800560460198,-1.3783148257746658,-0.2528114977130138,-2.0846454596517896,0.1197086259037158,-0.1536351445719066,-1.5695306294463716,-1.0010163789233786,-1.024153420072834,-0.46647166337634804,0.5768601058214178,0.7959932884519766,0.7644439599379406,0.6015286058734645,-0.10331351329925482,0.4128117227091165,-0.1284566310596734,-0.6281455403448166,1.1104099787781019,-0.4275925379671801,-0.7248242440369974,0.5997072841232993,0.06756743141742942,-0.8403610735523344,-0.5743770434382252,0.5456887350505004,0.9547616625652516,-0.06256812706339752,0.2874370887579471,0.2821681041560033,-0.6175968333320266,0.2278128140800322,-0.04406021939341596,-0.7657256601478096,0.5136135710779156,0.30620982922555534,0.3386737747496168,-0.40900413222439214,-0.6564111708304665,-0.5992888195827747,-0.5207472837942928,-0.17451124389525,0.20231507351842926,-0.20265314940926388,-0.9085405839579213,-0.7447473994467252,0.2882436311436653,0.8566647851931778,-0.45608896315570396,0.4179273702353605,1.09442981483601,0.2211430478563816,-0.6846033904351869,0.2855335540871031,-0.12230933239961345,-0.45111465299108056,0.6875641666849833,-0.9857087963832558,0.5927092138232358,-1.0766472350796605,0.48707875706356246,-0.2562002446763325,0.12396496630511256,-1.423759802370508,-0.9526939397766484,0.07502328989059515,-0.26159023485864163,0.07216955597383445,-0.1084281099703345,1.0770963829286042,0.5717804237330216,1.6782224023744556,0.5453587306044054,-0.33604811897126713,0.4228670301165853,0.050235415452265654,-0.3805809308021073,0.5372124848434112,-0.31846446186296995,-0.759054984876968,-0.16789315742228,-0.5160030708140264,-0.4000767324396294,0.16648281824551417,-1.79337287661269,-2.4839561592880863,-1.1805286381687816,0.2757970786660867,-0.9038796089125058,-0.5429113312693404,0.7024552774666817,-0.7075448364899901,-0.302294357227753,-0.20738033795197425,-0.05647438660054999,0.7320047955681647,-0.18119452325528032,-0.6474905166409802,0.17860999894123497,-0.5369386164431705,-0.22058248617430967,0.5581228467057994,-0.8261993127986457,-0.03266665478194707,0.6251888630738651,0.4904916639981252,-0.011225300304010241,-0.593829053576645,0.06618968251212931,0.9358041624557862,-0.597417850759854,0.3477423369554566,-1.716583255804386,-0.6582971189622177,-0.9945606250581155,-1.7710186497971776,-0.17264213802270909,-0.5870859958595894,-1.565114901254492,-0.2971861253021434,-0.014462053370601888,0.17089488034309838,-0.2995089554244722,-0.6780867252038487,1.163601973301251,-0.6973744300270932,0.17573014260925057,0.4408446649280466,1.291424048375951,-0.43512906883113145,0.008982588506564942,-0.38533112162772376,0.5611960942193851,-0.44649630639871,1.054117442866175,0.10880470952851343,0.6829430628520334,-0.6491055187271784,0.49786410510844914,-0.7205189739293153,-0.531417778087345,0.6477605588196964,0.10829120802180726,-0.6263492081956067,-1.1013683167733654,-1.0757130430982211,0.2710603007641973,-1.5928455728582096,-1.348244644443724,-0.5639064378553983,-0.1527848505637951,-0.9096026010525896,-0.29462302352307557,-0.8638508088182074,-0.37542259400549494,-0.3050564378436154,0.3752157445313229,0.5638834076319704,0.4168594848735159,-0.9681102651532215,-0.6046197659523262,-0.7667380524140003,-0.5335206877591671,-0.5277694467769358,-0.920378526853308,-0.8519284793790856,-0.2663880684688076,-0.14925348801188143,-0.14985301706783358,0.32457986826763763,0.8048237800160477,-0.43268160176181925,-0.6294990245320972,0.31462378196452884,-0.7700185189149364,-0.9652764098127457,-0.7740650471692221,0.0069598540925118815,-0.33424110902152937,-0.8983086993435399,-0.19610131087076302,-0.04847973046530459,-0.01173898037586481,-1.2200669917871052,-0.12419891120298364,0.022739156900546516,-0.12680338658292292,-0.626689485987899,-0.5508533285253893,0.6599735016119359,-0.5368293533457816,0.525516960700678,0.8293221473371688,-0.9657604743911237,0.8821740060555794,0.057409648227734644,0.7601044505215442,-0.18674723908470733,0.9302339542329633,-0.8486727952750592,0.2782772457745519,0.8238093821529301,-0.29169002688761453,-0.2029202196821211,-0.3449056815178598,-0.6269949857186122,0.37574005602546034,-0.8414019308837335,-0.13830209006424843,0.3759728038627621,-0.5035935073007963,0.3981121458717624,0.037018369683217936,0.5136393822223575,-0.9005585614185083,0.27309748175360066,0.9633263932991653,-0.23536741023910412,-0.3741231435619552,-0.6035425970541628,0.47770083956409226
