-0.8888667896848981,-0.43805086344877653,-0.4161575357484939,0.8337774077968583,-0.9371333305065035,0.5441383101042145,0.7555850787142138,0.15804055087854207,-0.11468686508713799,-0.08232318819645301,0.019624110919019166,0.050255211611230255,0.13086252296654413,-0.5264648804725041,-0.8018237436311746,-0.7909474538077745,0.36047228868605563,0.5513421303762651,0.8938641380227277,0.6403561345964965,0.46369389459745514,-0.5228124146230184,0.7486087873448732,-0.13194673920945044,0.5626608659265933,-0.12580036817013895,-0.6330251912665918,-0.8630874521003653,-0.8802476386614864,-0.4425718460700028,0.1258574326040902,0.5467805085290536,0.9541388731106152,-0.4736616794737966,-0.13060130665526276,-0.8955904330293277,-0.8736103646158483,0.14899830524356136,0.7958404942474587,0.30685690301230734,0.056041021270460394,-0.33149808515002027,-0.5917159944547847,0.8530227053333239,0.8845223224393547,-0.7966278656259075,-0.1345058361842932,-0.1555646831691951,0.5127682551546636,-0.4011665452403161,0.2232865853488943,-0.5239189254526422,0.27301740593993107,-0.3719619880994087,0.16221781273420577,0.8688343950381296,-0.671152622094177,-0.9122745585550778,0.5635117485718666,-0.6128337544360889,-0.035904807876855085,0.8937971641980731,0.780656316758861,-0.6800294882009598,0.31573475002315043,0.8260740637757662,-0.6899431607311581,0.2893751341045638,-0.9724641999996133,-0.1331294916410691,-0.37844796747691795,-0.7891457429802956,-0.6291584794927578,0.9862955944565327,0.044790429246449395,-0.1145103266267545,-0.0055812257528764855,0.48720156438077017,-0.12788551579947985,-0.019596163551095027,0.4097306713450753,0.7654380645541272,-0.5083168438276882,-0.01987308188952741,0.06957458082304835,-0.7914380438360222,0.9809222127529384,0.9184252904408242,-0.10454574047415693,0.7448668609223141,-0.3883195708395028,-1.0774793925264654,0.24283088451225535,-0.8198560061089362,0.7278738924126507,-0.6828476229123432,-0.8137294439734734,-0.6452325149984619,-1.1449464511733403,-1.2288000920411872,-0.9120808766826216,0.06731059081700334,0.12407113930220684,-0.07323912475218555,-0.2227453680420027,-1.129028984116164,0.009874908763548679,-0.9920843688112014,0.3153765140288755,-0.036687129135681285,-0.6264463277037031,0.8204601512031744,0.4113175447217734,0.7689620585203297,0.7373230787035249,-0.4872508883664346,0.8444084080962314,0.8850238171703202,-0.5510654702709387,-0.3671952582752579,-1.1022212951317123,-0.6173284735901916,0.25325960904522454,-0.5581197101685696,0.9259193575789365,0.00650130950265724,-0.12098149870411373,0.006960457844844755,0.47669088538306653,0.30874867020630264,-0.27563501965675613,-0.07832478395458986,0.4956785737198729,-0.3456110508053722,-0.5510936191424728,-0.8606979634737798,-0.10131400574872365,0.3184766422231412,-0.9185032513378226,0.008445893787987314,-0.5926566167991951,0.7110824961995472,-0.03576453903021213,-0.3666731898255043,0.17282929184280943,-0.5819547530116957,0.40205984823047464,0.49752610550955895,-0.5688277256127127,0.11771985550025994,-0.1953214304400262,1.2561380743442632,0.06660447786950989,-0.9532812907193231,0.22791681528913715,-0.37372237779018636,-0.5401722197536244,0.14069259994335287,-0.04867459402136395,0.32246970587654256,0.02014545405991116,0.08947924516183749,0.3068460300422223,-0.009641102475118637,-0.6834293557178289,-0.056130163496344115,-0.08228355995915454,-0.43211273332441064,-0.14991055303546852,0.5331416817290305,-0.6174926377701464,-0.46936903619316106,1.0267132090645543,0.11004783829579741,-0.4549633314803909,-0.20792309059249328,0.3877620168303761,-0.09648121727984685,0.3530780963684191,0.12191517769369545,0.028552189474804764,0.3107735867955266,0.08746102325514588,0.990430806698922,0.007919993681114328,-0.022883257857308152,0.7093146312281288,-1.0327158018903622,0.9884560005204001,-0.6424903640771601,-0.5792189035081247,-0.4174745926071964,-0.5961720622444084,-0.6629968117429639,0.7042087320905814,-0.3704912445985834,0.4769778532020462,-0.6978045119398003,-0.6552325178684596,-0.5640402508024289,0.7792945247779751,-0.057513816597634,0.8921861859379902,0.20215615403157713,-0.07779462831892667,-1.0174544085300457,-0.4037001843495089,-0.0373628638044652,-0.20934143513097503,-0.6547929736696115,-0.3738535731928581,-0.12914276906859712,0.19965066227125944,0.017036111142467877,0.8808442781097097,0.0613542178579918,-0.7855641640396943,0.08935389029339437,0.6114766389020309,0.36947556657740455,-0.27662880981420973,-0.7496019656150407,-0.0681513259128222,-0.18364656383736938,0.9913201282509615,-0.8949425755318314,0.7637239739613039,0.00375147922717415,0.36202410437076865,1.1416922060949355,-0.323355878821468,0.38791985981339433,0.038912351511832706,0.13246826080198223,-0.2942334763130068,0.25679973891465485,-0.644829535063629,0.8152272446051548,-0.2809936472385214,0.9564532287443482,0.879537624264749,-1.2592719641086294,0.2379745547515321,0.6125545092367881,0.08020344816214375,0.08404881784087413,0.571565985004045,0.3428156609747343,-1.1502126218096982,-1.207063290212926,0.5520896052015766,0.10531491789545104,0.12407307334662489,-0.7688739068305824,-0.5714409019505232,1.006993691855702,0.4714836620554114,0.960595665737497,1.4402325569769903,1.274348836499343,0.09613482654959678,0.8481783709607008,-0.06603940404025167,0.9219314873480948,0.4226033460843434,-0.12784904366596142,-0.5805675310577227,0.21828614888682413,1.1094601731642975,0.8414072154513941,0.1677341368277584,-0.23472154363651082,1.240655848642227,-0.5076146816819728,0.20436882744555915,-0.9438449264668498,-1.9447805784046746,-0.23114339205004103,0.12362168011198582,-0.32637502662792356,0.26307213434081494,0.8796056827239234,0.6836413126503394,0.9760137121473612,0.46006362043744786,1.2083078675812757,0.9200286318931563,0.6659917512671127,1.1412539208860768,1.609130597030314,0.29833947207894373,-0.061946661073738786,0.7185170585243624,-0.40183465873612473,-1.7701274455718123,-0.6301794395708733,0.1880794113095644,1.1835877093857623,1.322230486981797,0.6723252975944636,0.5967519386596306,0.4297745428472564,-0.19269829169810654,-1.5961362509968666,-2.785435846666196,-2.100204946368581,-0.6453726859649288,0.2108428716768897,0.9074323694692575,0.2781564791750627,-0.3023990318152119,0.11567934994699867,0.758956699611673,1.1638250326039616,1.4674411523210582,1.3424467860026084,0.3331617167418198,0.31166125018337004,0.015408414407955515,1.23158154834962,-0.7924945219691271,-1.2565152925750718,0.446350479890396,1.4313038899717248,0.5006904716372644,0.7196066502155114,0.8957871190231818,0.9934951308943407,2.8476589537057833,0.09659358463294261,1.326193756831337,-0.11390263488022828,-0.7162723670064558,-1.118592339051704,0.2338630001059323,0.5786503615170885,-0.6153671858585317,-0.4763289842949194,0.3835424192285788,0.5537883715343344,-0.03590118512534412,0.038543145664594644,-0.08618138956338507,-1.3822820462699779,-0.2907268344435543,-0.6177155600052746,-0.8664508924020372,-1.1719722139356252,-1.1261803442857494,-1.035996636893235,0.9480423369797386,1.0697657915704075,0.8374695814823462,1.0724966094291049,-0.2913592375190738,1.4915295872459253,1.5622263170902877,2.303182150277084,1.383542815150585,2.6899239567020663,0.5918357989980513,1.1227204426209185,0.1276004186245849,0.9434133603697882,0.8784960666855215,0.8118972194476615,0.2948931796248233,-1.118226088926233,-0.48842977274077315,-0.1611750703661912,-0.6270278195396413,-0.6881847282888428,-0.1764803499323477,-0.4381801018113686,-1.2458959344352905,-1.2938121089296226,-1.0347396568411882,0.8727041420638633,0.6977486001111353,1.2336225355659265,1.328294764467905,0.7963942213024916,0.706770628875902,1.294983556999561,1.5361304139630916,0.29060013747446267,-0.706875779291319,-0.4793577743198923,-1.271216150007906,1.0215973505250862,-0.6135028298761562,0.6239613694196156,0.8567991455259253,0.1720531776617177,0.24882084143638974,-0.3357485137225111,0.7623656545990481,-0.32019510567439047,-1.6432935046815162,-0.5000416092359614,-1.067232651741442,-1.1163332463174698,-0.7127558873250771,1.1068502974479466,0.31352585997547117,1.7152658837962453,0.5990652062067803,0.8610065434274328,1.4616800191835622,0.3349892166045192,1.322617619329722,1.3418489291721682,-0.7478076483210442,-0.36714493984236274,-0.4940066026939123,-0.6698753946953371,-1.0889678248449592,0.25343770654654635,-0.17136947700263047,0.9211051630736155,-0.5116723708692755,-0.13247675329625913,0.6480908726555491,0.22665257675804465,1.011699533457716,-0.45292142153341325,0.20351075165170243,-0.48944901410813085,-0.3270183193791556,-0.4931379145826735,-0.5579024292565194,0.07195342874116405,0.45923456383187655,-0.07569442990818545,0.9230048402724149,1.132729155516222,0.4805126774566221,0.47427733963729024,0.3491846748840995,0.2888206341695214,-1.3250618782857184,0.10632603858065111,0.05487690929926778,-2.225334469772796,-1.6520412292383104,-0.45366300221140554,0.4493390994663727,0.010716782446909125,-0.45287501443437517,0.8025510266160497,-1.0092389324731044,0.23970767544923563,0.201214946077398,-0.11770828557700623,-0.49732174172014193,0.05619230509096909,-0.13559205385989634,0.005164417876944116,-0.12531943334622758,-0.0598344115720736,1.1283102064287327,-0.037582905073166716,1.1030296468498346,1.3838342961317598,0.35000890691615766,0.28788213260085005,0.029808365680701117,-0.5964018664495918,-1.3449903561869996,-0.3617645286836093,-1.1639523754477414,-0.43491327825006093,-1.1718651773386335,1.2769727639750845,0.6049140123517225,0.10624292250400133,0.6671239194849907,0.587749099820641,-0.7504891952862087,0.5397023660133957,1.161916621117704,-0.9439701919381045,-0.07307958843113696,1.2386792345135231,1.6050798293540411,0.8212596356612542,-0.34219701557064913,1.0127746403499567,0.9449538499372633,2.1095521154395467,0.7856837916337436,0.9841584643622819,1.3140126550845657,-0.25040967824582855,-0.8444939237877961,-0.5922911328043725,-0.4774114401354974,-0.40455775218104983,-0.976496936303668,-0.6056175988907011,-0.5448086962917703,0.28345572802461383,0.32541537124096676,0.4220281861753327,-0.34986459536916925,-0.19216831764710823,-0.04558486208140232,-0.8599581068222407,-0.41802582924661524,-0.33020986108372036,-1.0470939248550277,0.8763832492872842,-0.2358892835932941,2.027541133058251,1.0009058345441688,1.6762062516760787,0.8905795639813503,0.5438170294658966,0.7304265822741552,-0.4717667255780422,-1.2157529032882295,-0.04321052506251352,-1.0732588813315513,-0.37202219016356486,-1.4539714778060377,-1.9371514556785225,-0.41292291458121616,-1.4547232138751585,-0.3068673937759449,0.6755130138159073,-0.10526641947939633,0.02712586422813065,0.6464698453002157,0.6585547909646398,-0.5362762897558737,-0.5431260218181273,-0.762681117051539,-2.009794766521642,-1.9785399745146612,-0.15741666827529577,-0.6883134759161371,-1.3102331099567839,-1.2133311083034666,-2.0617066884316095,0.40628323140485917,-0.44004800426213864,-0.6719452484892883,-0.9687911440661361,-0.9185876738520664,-1.2553014416613821,-0.9122068729701232,-1.027673532547815,-0.2970099209263918,-1.2610605681968783,-0.5026167626764324,-1.3575059388246058,-0.6527315871603783,0.9319022769857951,0.7569202533025622,0.5937502884054787,0.8852129840835641,-0.887127100656498,-0.339362730730082,0.6436584487849244,-0.09217463230511252,-0.22243675010111097,-1.3334441615252275,-0.6247365257516593,-1.2260559607965127,-1.1709220006192442,-1.2722211924170734,-1.445637767565312,-0.7542355050203721,-0.8746000265891486,-1.133508453766028,-0.29099790401088227,-0.22683517202982717,-0.6779592438262065,-1.141021120566335,-0.2339027787325212,-0.8204016709395187,-0.8255747790719621,0.23887871795420082,0.31064125320611335,-0.2628553861953355,0.5497243831608136,-0.3999014984275472,-0.6463215712629942,0.5601100928884449,-0.734341744045963,0.7767908766704447,-0.6046214940783438,0.1902167855976039,-0.7977611599568586,0.04513563761632543,0.2783563618470679,-0.1833135630004974,0.610639032849814,-0.3422099486294899,0.43019220520873513,-1.4222419200337069,0.2509315741196327,0.3279186796746897,-0.0697693471013315,0.25025948572380996,-0.019702144343570663,-0.024414964832144656,0.07234084914298097,-0.49260439186441773,-0.7031379438518639,0.16500915001416713,-0.9233256766703727,0.8843758960918136,0.6182969635186756,0.2885163262399381,-0.593757366653446,0.15246266569932757,-0.9152629644384613,0.43787521896060144,-0.050265249576834245,1.008474712129114,-0.6031039282615581,0.40676448167527085,0.20934328650462675,0.02181937916482712,-0.5181144515458354,0.6715299805868201,-0.4500872043874905,-1.142970076467656,-0.09484343919701525,-0.9030579037120061,-0.1365722906247964,-0.06843127318706148,0.3183335364409635,-0.7977147316439199,-0.18259879206374574,-0.2166059991799006,0.562888404706216,-0.16674513441529468,-0.5137632742142821,0.5199620122263033,0.9134664065858377,-0.9577262369938068,0.46827855264042334,0.3942173081216842,0.8543566903287612,0.5077454593008381,-0.7874953023108794,-0.8424137925637173,-0.8991489548357107,-0.22565416571423272,0.07041378487607243,0.10370469147125926,-0.9954440982901196,-0.5684978268615352,-0.1155917842417672,-0.11565047585801357,1.1620847697154744,-0.4415987097842673,0.1340656867983299,0.25694634283475964,-0.21183924930028425,0.2705837227538197,0.243242739022634,-0.03091195564121676,-0.42572085698383766,0.04482112286867623,-0.6419152149835369,-0.3906309247672016,-0.41803679879177774,0.347390823456618,0.5561555947323198,-0.47741503024746534,-0.7057343468538178,-0.22703108783494663,-0.5873020055629452,-0.8801411975030194,-0.8682696926891744,-1.2561611267309498,0.20724609110410702,-0.7529344736841415,-0.7321275165838811,0.1620449806108054,-0.8347722642243234,-0.42577126057307163,-0.6732096178111293,0.012204799141453046,-1.45574010357538,-1.3223179695806497,1.052546314304511,0.2742859684318786,9.88699046684055E-4,0.6438106781326258,-0.2502541965859253,0.9394381394176288,0.5581268135843328,-1.0745027036816392,-0.7817753474295954,0.7304918479649827,0.42542227244792885,-0.6673185650445801,0.4821617761584567,0.7542128852485358,-0.9546987014952406,-0.7278635565497362,-0.9182891155538974,-0.5382451331251152,0.48521065314617606,0.8707195283454063,-0.19143872970429004,-0.11833270873101684,-0.5778909777129454,-1.8493456296735564,0.020315495871010333,0.20396074816248533,0.7010112452665133,-0.8045389072323424,0.22877347714710383,-0.19482911200512523,-0.6411528296762465,0.7650351304456537,-0.13464988101961106,0.2280141986655532,-1.0609406908731434,0.3110247546776255,-0.47248751334553496,0.4182007574230583,0.01615487553603323,-0.16571995965154596,0.7265077062392156,0.6146914817458913,-0.08841490344188462,-0.3476310007634151,-0.4370981851295615,0.8783371801919434,0.5079744263386904,0.10772242773329997,0.35495602215583105,0.642655965274628,0.5351347784588795,0.47520234535934436,0.5240693907667511,-0.015499814708987505,-0.048401301120293616,0.12634290841908286,0.978187245076577,0.08376198956212828,0.14656271665047355,0.5816083252313198,1.0718292819697384,-0.8599702307114956,-0.5113287713273743,0.8182436050773456,-0.45207003162350173,-0.19547702979637238,-0.6040117051016074,0.05509703830730084,-0.053774609215268665,-0.3532678838843841,0.9845921908410762,-0.37636312643696873,-0.37283996669131686,0.29309852021841104,-0.07425275732396772,0.5003698191713826,-0.7539070395132924,0.5760598585348169,-0.5917144029755305,0.009672374352248235,-0.001971585008662662,0.9853618913434232,0.2955152214669849,-0.8426118146837767,-0.48801822653717797,0.37625481783407483,-0.4342758485611734,-0.6880913379754539,-0.34096280747090585,1.010635844061809,0.545892590657697,-0.6039399713799511,-0.47543750027174125,0.6840066407224605,-0.07514064042604462
-0.29314401856675887,0.3580672298691554,0.753901209616012,0.4222687365326312,0.35477982546485554,0.7359505279157037,0.07285116958984639,0.6441273427676961,-0.3498613352694866,-0.4669026088820223,-0.6581758610195507,-0.012230748480249298,-0.10819986989626984,-0.4214533838059159,-0.3882987549072293,-0.024698166361522885,0.4741499699274774,-0.5383440808321147,-0.629727230406457,-0.5266865830434595,-0.21798075830303576,-0.8910991498842866,-0.47655197651729053,-0.010511989082023998,0.04456701519085171,0.5355491766706055,0.5451510609243597,0.5222606396565255,-0.9582920203350951,0.4608642396376128,-0.9120411175440424,-0.7146470192568894,-0.6335175922006229,0.3764772028325512,0.42661136281904694,0.0371355057672242,-0.1973726374889304,0.08500302582839019,0.24898329163743899,-0.28423859211729724,0.301204541117211,0.7451606498671101,0.5170586808875877,-0.44479916504837064,0.03634479412004682,0.9174210365668585,-0.6410346535500482,0.4160791255801876,-0.9903175816143508,0.5820128468287056,0.426546751090008,0.1393865697140633,-0.015516227935986393,0.153776568981713,0.13984215997113525,-0.9864936647838682,0.2754106355448014,0.43280085460167306,-0.5855611028322865,-0.4032560233021385,-0.22940285873547106,0.9062882524155049,-0.8464102083141589,0.14176091169374308,0.2810595315612192,-0.772737307875406,1.0978495728426556,0.9096257003081262,0.18002720315331758,-0.3270722296837767,0.47013380019855044,0.6644082044299732,0.21876620450507964,-0.4250430602205918,0.7660184756462233,-0.8529310371637983,-0.8023586587743444,-0.7572849784869408,-0.6039214228302059,0.9682623374013434,0.01396552164603333,0.4605931605400321,-0.6221598108822668,-0.4352856437555852,-0.5600018172784524,0.12231970302536888,-0.5012979876266055,-0.9319129964099032,-0.6909759257450254,-0.4564722087173669,0.29242143083527283,0.9788301996549293,0.17349488400340124,0.9785778024118157,0.3463046119079762,0.039762473440535406,1.2055685964896747,0.9915232202124447,0.1697234805799835,-0.7663828780572508,-0.7783713939516018,0.2672502331254546,-0.3702963449359808,-1.2092590499771938,0.2996131214210538,0.03602575953554843,-0.22537087505468473,0.49793819093288233,-0.6138680716151679,0.6887542778722021,-0.2829697426296062,0.18691284894319726,0.452502758001867,0.8152104607497772,-0.972287588327877,0.35316890326592476,0.2634924207029708,-0.44256229712850115,0.8698454410277864,0.34328822170359097,1.3769950630779737,-0.5507921514500222,-0.9152653305365559,-0.3988472434668423,-0.15615070986842045,0.7457305783124446,-0.9657899184883637,-0.6247227705773473,-0.5714129352188879,0.36228833592375176,-0.5722314786687647,0.04254312362764785,-0.810511080510293,0.01031221980301341,-0.324208395292044,-0.37776627505085947,-0.1412734380339727,0.8666515711318109,0.7928891037956087,-0.8013245931130278,-0.4523850723954752,0.8999057913297677,-0.7775482023473687,0.22728844809829254,-0.8367243226119959,0.9716948079184085,-0.4401037829239207,0.9925353546732278,0.4144213912494318,1.0417105598584258,0.7210446116264346,0.13304635889146024,0.005604196493910374,0.140479874548163,0.08143144747728814,0.6232981331596369,-0.3703166572243289,-0.06971094665865527,-0.7949014171306698,-1.5949739037425383,-0.37923348174747634,-1.053808889432195,-0.5336938243755992,0.5527956163880374,1.0166622729046288,-0.018933081053791205,-0.9776152091697516,0.37720263148642724,0.020999759048695887,-0.5700951499298658,0.5368709058580569,-0.442156250799363,0.5562471059512155,-0.3842624939136786,-0.2242708967207817,0.763888996143055,-0.6900402172628074,0.881786394629155,0.9806666075431327,-0.25932856901177836,0.24771992354095976,-0.6813586909893834,-0.6958111060000086,-0.6440646844931764,-0.3103863257719411,-0.274338683510262,-0.44545019822964876,-0.6172350797409696,-0.8326977678220361,0.7952454231086095,0.16552872615494188,-0.7691551713550654,0.3558617782629035,0.12132311917391857,0.5550570015880808,-0.6837569511704128,0.46660452834917554,0.4260205155830992,-0.6747062567319868,1.2042996093307472,0.7737571283201293,-0.019323899286643468,-0.33937866681507517,-0.012296488223673416,0.7524710551334298,-1.2636389852036702,0.1590849539020337,0.4973635826656511,-0.4239975221968211,0.2596982213474564,-0.3190429168741701,-0.7503321848376071,-0.8975359480533122,-0.06775469851151794,-0.9414054208358306,-0.20343621308781798,-0.012673627525750587,-0.8782630701852041,-0.16375349713022924,-1.2017343780172185,-0.5939075894630103,-0.9439774990257604,-0.17769169567532153,0.2766579068373907,0.363974529779936,0.34664004248009445,-0.07530657688131927,0.8842831587944829,0.5374543914083624,-0.8306920677564683,-0.35606670194812284,0.3988570789878516,-0.5902936882813506,0.22242793086084514,0.28121174879324584,0.13835825645556973,-0.4524198034429334,-0.20412267441879905,0.11792485881824272,-1.0726829883770665,-0.4635247549566273,-0.6145733483946193,0.07917234667699276,-0.5011792468787774,0.0377725167596955,-0.2565898082633667,0.320078460897874,-0.3541891107169157,0.024266614857572158,-1.0504065968831715,0.39204656003819116,-0.7722451423154272,0.981856281380866,0.20494864498530987,0.9543664304366911,0.20385336406995228,-0.726069820541504,0.6785506065370678,-0.23665261169728194,0.5555939218578488,-0.5150617552353857,0.7123923770623025,0.06778407466982005,0.2107233965067219,0.9178061607558601,0.029671408846932406,0.957740443670759,-1.2163797324152306,-0.31049572289478805,0.581359804862316,0.8626889023175928,0.15007206330517067,-0.44758630153105533,0.241557428987971,-0.27714171033810897,-0.6252932997904252,-1.442987328992836,-1.3921397525309311,-1.2865421018429115,0.101631509061543,-0.8718770055671198,-0.8953755282591617,-0.46244516267786523,0.2501389447889087,0.7380607983882684,1.5654683243109235,-0.324755508670572,0.5137992125953,-0.9852956486441325,0.1287344813320787,0.26417583964616476,0.221297838625974,-0.9709395224824942,-0.05133617952144582,-0.2503355210028958,-0.1463849628336026,-0.34668140872931874,0.6213155234725113,0.10597160124138902,0.6794410536862169,0.1319131749162048,0.294426962316746,-0.35417018460707844,-1.7936541544133155,-1.16155643715918,-1.3244878320372824,-0.46126669363739137,0.23610389953806216,0.22413986497428726,0.7481052553263848,0.23035502041373074,0.5155214041734246,0.4638568247311674,0.19307440762112404,0.942151507187446,0.1632130180419073,-0.7559060719073752,0.09640949724230523,-0.06137889928893999,-0.4792296442885653,-0.313189044825478,-1.5559119678148032,-1.7922944773211125,-0.32915696365646674,0.2635746792262083,0.9820563832346135,0.4489579738585639,0.7608525241746359,-0.789479599013831,0.9647956827615152,0.44338424593066067,-1.2373902354834225,-1.544767543710942,-0.7232053019118332,0.08249102210138093,-0.04236540524575476,-0.34885071011038227,0.8776680785776748,1.0762354374041518,0.33551608811363715,1.757832161890751,1.1302845528071424,-0.5278901505213923,1.0324982672683822,-0.2741783616724019,-0.48436921803271904,-1.0929212233425767,-0.1780322305604077,-0.41737166256228336,-1.5401545147876667,-0.8109748243703958,-0.2576089308727332,0.3943855092863249,-0.22461628941477602,-0.9498895924577332,0.26513528131612235,0.44813841383571035,0.5500969033534607,0.5235242620185708,-0.18089765517197945,0.3495039908413439,0.3498134914489104,-0.9036393471297849,0.9014314780974053,-0.841801606452323,-0.40862578718923714,-0.7486150414771022,1.2012041181211313,0.3629276238066132,0.577119711945854,0.19558787717547768,0.108122674335111,-0.10414414389591577,-0.8197169653474757,0.16485944504641362,0.7495649487205708,-1.2305651333907472,-0.7870292191196342,-0.6096615983940346,-0.1852292357218801,-0.5377888532276919,-0.17932393850929756,-0.10217539171017254,-0.6142728784930903,0.48729249669174124,0.3703264086320258,-0.576980415645042,-0.41510099279703316,0.6207940264345049,0.011027191183910027,0.6524874356984693,0.028967232947564044,0.4079914470548487,0.22417608259867183,0.1572834268665483,1.2264219338806273,-0.24501884896863182,0.5819782142497884,0.8693965974735605,-0.3234873394997416,0.7073357520453271,0.13533735961090593,0.9803510968738169,0.6088863869089435,-1.812690336280854,-1.4900946199071017,0.10062749176591618,-0.7389247106578524,-0.08710786357516488,0.3164911623748736,1.3101966441345756,2.199390105333466,1.219671597890369,0.27905644260833273,0.9612991945539763,-0.5254144822562516,0.8459315961324063,1.1844175095486824,-0.42734626483535626,-0.6229422064515325,0.48001793487696987,-0.4385113156747112,0.27213660843530346,-0.3687248240152117,0.9820188508562918,0.026080250096698388,0.05872092946263397,0.9671803927262633,1.050925148769382,0.32745914708475116,0.09791986866381863,-1.0013851905957314,-1.871557892173232,-0.5428235059558513,0.3556180770898176,0.9155937398134717,0.2428214883930067,2.220679643906095,1.233841547539307,2.0023116622619628,-0.32179612352724696,0.15522500530298183,0.40360935891867555,-1.3966224221066201,0.6759148776380359,0.6042232719081575,0.002102726274716798,-0.38789935323137176,0.35027581752206927,-0.133043564835116,-0.13445594378936276,-0.4677345543411141,0.3046184446454775,0.18494186979591185,0.6339088251764201,0.5833794675621838,0.6012736358311005,0.8802956713423409,1.0177643738110895,-1.1705256902446173,-1.6809526856058459,0.03223281970179694,0.7052996206084519,3.02420789735251,0.9530749656216475,1.1395726664893486,0.4342394961658811,0.30632573421960096,0.37929385400557086,0.1601178765617244,-0.6696202551237928,-0.5484811355175409,-0.002391400037410928,1.2052493665414479,0.2872297270618781,-0.23164305795473697,0.9330887151968803,0.0493761813802681,-0.5871254003248314,-0.42661897584939346,-0.021002866186472516,-0.8072705880010836,0.4209249609851347,0.2874957169392761,0.2644602935334227,0.20204464233357697,-0.6449016253026147,-0.35118734167467414,-0.05232155958913472,1.2914474713353363,2.4220090041642046,0.46993252303746547,0.9747142088297222,0.82667441130245,1.1751977131892781,-1.490078053986067,1.0761089886108341,-0.3142175883481372,0.8438957445742586,-0.19751849806210445,-0.0756479664576037,0.6318025582741307,0.18786231183669366,0.9193175655722966,0.3667864947879808,-0.8401475875136072,0.08203566803684062,-0.37863319456666933,0.48923068859206253,-0.6012456572833794,0.618191649682804,0.7336473692216214,0.43160430482433826,-1.1466431506263304,-0.29983735638085485,1.3717662685873209,2.9380181218199293,1.9349598483833568,-0.24150505966447405,-0.17915069952608198,0.4716999297258242,0.03199032246272638,0.47635034507654256,0.8281101809108479,0.18771601601806714,-0.11834777984014716,0.5818206569071308,0.42415034561895965,1.043229440260337,1.36298367631103,0.36784867671609844,-0.8384089562542077,0.6448806350830381,0.8205980025514376,0.786403480588023,-0.9670061124649582,0.45851326583756336,0.687342002960632,0.5537578041210838,-1.4663729627752573,0.046275871819862736,-0.4438256431392492,-0.20753500352684148,-0.0950658675799043,0.7499029393823368,0.41648371116736776,1.0629038667509378,0.49743063300939333,0.8730825041010244,-0.3200334321298135,0.21144921117458476,0.22975152614543837,0.5107666591965228,-0.9723773475852588,-0.8367313881429709,0.5593141638748348,0.13540850589925899,0.5482381042137984,0.8567022596207688,-0.7049659100434876,-0.26773567707559254,-0.8393647520330809,-0.7848135465644628,-0.08368325395303361,0.8556061897158743,-0.5950894134434346,-0.294882120866682,-0.21724966513808558,-1.0143558924395821,-0.505447281788871,-0.1809358781446005,-0.7844632574946468,-0.8520117382639983,-0.28927859997910405,-0.211175640985334,0.011332373238285617,-0.49681421727613323,0.006517180258973666,-0.8035601634262858,-0.9231544491453743,-0.2911347041650862,-0.6824319266766566,0.4635823694175203,1.0495712459130426,0.5037880224303432,1.2525432217128516,0.9518420248915949,0.4048583885040636,0.5062621021072342,0.540773140811502,0.617799536153969,0.37940615845149717,0.1346184644379025,-1.2640928590040357,-0.25928634130659817,-0.9135257934406151,0.7408489313323947,0.13652699374837057,-0.12956041930632292,-0.44662971383160593,-0.8825515347338767,-0.26783094133339175,-0.7142853383592807,-1.3343326461011626,0.11920292027551307,-0.11963009578983519,-0.22233898491177792,0.396988062799638,-0.48841518901824876,0.5927489031819623,-0.24186520689516647,1.35388677499016,1.5668015691839354,0.8375532228754993,0.8167012657071452,-0.2026729207235873,0.8277773608830988,-0.09448792348435073,0.6031500468098553,0.41803770654703826,0.4423939444942622,0.13787506163676885,-0.3541031724657117,-0.49287649072499684,-0.34113785476449576,0.29957223042723546,-0.8913425614996136,-0.7241931605808248,0.38210140826236916,-0.3165650383046645,-0.5833959129731072,-0.251313516418788,-0.241997007535379,-1.535908740689614,-0.7122546317376736,0.5217002045685187,-1.085889073222787,-0.45175825878998843,-0.026863406989185507,-0.00262919180653754,0.26924436901883503,-0.023124714307552686,-0.44219582566092347,-0.1444636430483473,-0.8367925369206164,-0.20427290370800866,-0.39366898702341624,-0.08774054747372308,0.23100907303455276,0.5485036064612493,-0.5734243341741128,1.1903783907062992,-0.6514010612830133,0.5097365518672416,0.26065969824904756,-0.27287566705306227,-0.31494972252803577,-0.7262717340141475,-0.26173669467315575,0.43134406330364766,-0.2513390157138545,-1.54449049562245,-0.43015241943870985,-0.057081611001069205,-0.7636323382282417,0.282182457817087,0.9740481326669473,0.6724871701631008,-0.36183737197325433,0.8443012279850295,0.721418945413699,0.32819672953548573,-0.09038354151144556,0.46022814553133395,0.4581908543694666,0.6493152940861264,0.49016231300042357,0.6918006984642288,0.9760715685020018,-1.1339316898440244,-0.024578741233358223,-0.4327232292989498,-0.37367171195812876,-0.7081977773370144,-0.9142663991327733,-0.1280365932945991,0.45882052629459025,-0.8824839826793127,-0.34609932843947666,-0.4105277340468424,0.38408858744275615,-0.8471330527392842,0.5635394283787958,-0.5996396996709091,-0.16783719076883227,0.8315065803895066,-0.17217757439723538,0.9200917476592069,1.0364641356775892,-0.26831909999916914,-0.3294245591679108,-0.5712991587397853,-0.689908249930046,-0.08682048191462349,-0.45060046605621773,-0.0495453712907723,4.6934980374643424E-4,0.038258442077068744,-0.15307409255992815,-0.024891562967635204,-0.20209458219634152,0.30726812980159457,1.2790548282648466,-0.45467935693100947,-0.1324908994416776,0.386680044475135,0.30344525704024194,0.27564091884020636,0.8556315867192866,-0.4347159463378726,-0.37296163533131865,0.77125768792789,0.3066599904315037,-0.08322529930062811,-0.036419150049339016,-0.7142440096751178,-0.5932865840617003,-0.5045364996386204,0.28077612655884554,0.8699028014691954,0.30393042960300565,0.15901346507823838,0.6907040893396243,0.8337629409807992,0.18841222373495908,0.9407385217392817,-0.07726369018878221,0.29508626345801686,-0.2798001792475193,-0.2595901246884517,-0.8057852961690349,0.35035737560155295,1.0895850930263113,-0.7119101435382588,1.0465962393942225,0.25548044747813775,0.5312570351729815,0.4913279317642258,-0.2186685235240709,0.3016617811116353,-0.4073072304146075,0.581164206778281,-0.9313841696497288,0.30174890594772774,0.5859564438701517,-0.1087801523701164,0.36420399234012524,0.7137298860337258,0.15732366666429565,-0.07347313998534455,-0.9310481557689247,-0.006956872856298721,-0.22602273843586418,-0.007506090393749099,0.7827244568989844,0.8323414935854926,0.7669381937916804,0.037704813989812916,-0.5182239507493887,-0.07633431892141083,0.44410862756915476,0.19196209904366324,-0.09274876486330277,0.3816796059226192,1.1274182985230934,0.959466617369222,-0.0035587921631797946,0.4739305454083683,-0.3651221137281183,-0.38683209365892046,-0.06039406610035902,-0.25232851101108045,-0.5809464483098667,0.2712595567032039
0.6342287329722249,0.0167411561788966,0.46251222019798255,-0.908833556259977,0.6975534881739305,0.5546774871648665,-0.8769252583155227,0.9626250809227299,0.07929537017125199,-0.5692809289665774,-0.8997398507893994,-0.655579182137247,-0.3568249050285012,-0.057103111874147634,-0.2151571428706694,0.11147156837071759,-0.6750599391466505,0.19038577656192457,-0.4113129995371345,-0.6368245974997717,0.7300580284190241,0.15909217620648253,-0.8667660502228847,0.267866011898243,-0.9696681084428636,0.7184609842573364,0.39294125171548533,-0.4476135258279754,-0.9946124249206945,0.49003971414573755,-0.8454718449941334,0.34136973005057825,-0.8764851236703105,-0.3231906958511581,-0.5145632118921655,0.7087799162666877,-0.3378805161714274,0.6287696909940783,0.3015183620609046,0.5365179380808806,0.1099590018024542,-0.7987362848807531,-0.4886177163959759,0.9316338452406641,0.9080683703385993,0.6374527026843924,-0.8031873140904707,-0.4178402876605688,-0.45219543404757073,-0.5551328351067139,0.9568656310931134,-0.6459868636742396,0.9870826141516698,-0.9233863536442888,-0.852140553803294,0.22628016802433182,-0.11454666613731268,0.48534603791409503,-0.9495800068449434,0.7897382788344289,0.2187307609757869,-0.18744622516395928,0.21434304552669825,-0.8935800399898387,0.7202976386320964,-0.0055794978271705665,0.07241553851301949,0.5229573619864314,-0.009169563729796161,0.16583309200746088,0.23851975760588567,-0.07214834476982677,-0.22516443115953835,0.506688630288082,0.08327858360590094,0.24767753627044797,0.9380232680396169,1.1516178037426865,0.7710760266597849,-0.1344559014185338,-0.7295557000900862,-1.020338754129312,-0.799190160230542,0.4607914046953474,-0.2472939332770765,-0.9504453125709875,0.8678384665787374,-0.19541943961515665,-0.08212206458741386,-0.7516753873243004,-0.5386345309203074,0.5789736725388752,-0.3251140433818784,-0.7273112614662166,-1.0042301490368328,0.6741081539655518,-0.8112929938248001,-0.1446449646161406,-0.39774415395311874,0.4342780663029422,0.1606044143530691,0.08210190571312685,1.4154531379539739,0.3918613950121528,0.4935210010897194,0.2558210359479608,0.3402174364374032,0.4488442371734099,-0.7078635771166273,0.7210407558233474,0.2476811786604065,0.0772466641211349,0.29715677701015064,-0.089981722417028,-0.3682512122709413,0.502273154037918,0.4587630713073117,-0.44707288569672593,0.21870222754103635,0.08198119091334621,0.2606196283077023,0.4634558375226081,-0.026647597183971448,-0.334950865265412,-0.2850289766349718,-0.21108268195035162,0.1453223447886471,0.10681604029543387,0.20353970229073126,0.41866964145405416,0.07041994063615795,0.8215003966480784,0.19344962884520212,-0.17233326907950888,0.4671431629147083,0.8778174124275102,0.82599244178308,0.6266512654123865,0.9110702257878723,-0.652014699479238,-0.9842024050514058,0.4422548644959965,-0.7583311578980981,-0.4640661659103621,-0.5791662771344573,1.2734103979902696,0.025841906853151853,-0.4218604341088287,-0.20728592166354337,0.9233898920596403,0.5620558912487676,0.04535980110635048,-0.43484715567159665,-0.8890149549438425,-0.16402405672992915,-0.30347354765651247,0.31135035448423765,1.2371405419566115,0.028482307205402724,0.18659340415016495,0.36812535563901627,0.1395545699176716,0.05945758910338841,-0.43811989442397004,-0.5882655661521873,-0.21139462505876813,-0.18050339029929297,0.6479057670582873,-0.7992163252077518,0.7987339778714875,0.31996018237083945,-0.29472346794612575,-0.2612367564654698,0.3477876319240367,-1.0579732274112221,-0.23422090559772785,-1.0438710869090515,-0.8865887196968935,1.2881236558606366,-0.07375242347049889,-0.3811592821891975,0.14009168277858677,-0.816569006645843,0.135273193229252,0.4294691723470736,0.04746676221113815,0.03337795353704403,0.04255716102430101,0.5697104450914895,-0.23606800873922837,0.26068400244163964,0.5424471065282661,0.19600667732218574,1.4042493596369374,0.3716052561848833,0.0603816306374777,0.745771018907904,-0.55863373478443,-0.9435019941390689,0.9148798785805969,1.1618199332296308,1.2601070507854377,-0.06829140097493926,0.6577471606881637,-0.03906546144678216,-0.132471401170412,1.0530704380037628,-1.181173916070076,-0.19655331060698833,-0.25470641984183345,-0.3499593559022172,0.5855250204697913,-0.9974195390654218,0.2737842613838319,0.2518861258389367,0.060715920806826036,-0.43478665553787815,-0.07871734823172068,-0.9835615882245955,0.03951581993977735,1.1553898414240722,1.2577566147942565,-0.5736184927706157,0.863525451868569,0.11950685697937945,-0.6784550549276345,0.6201227512550629,-0.6931422373637238,0.656177804705196,-0.46370032862768834,-0.32783436681144607,-0.36847104181167517,-0.9324852057495668,-0.03530015853963325,-0.21796164099674747,0.08370340814445809,0.18034556776372493,-0.8491866652211179,-1.1175471576859972,-0.8162570704367909,0.814611696083318,-0.4260046553997396,0.441497863378893,-0.5989900726568993,0.8542444765563145,0.1105968873340053,-0.8611587583518908,0.49729240584058204,1.148157357986334,0.9447570927630927,-0.09932863868224641,0.1285665418826247,0.21698440594711724,-0.0948727123057499,0.912202471611821,-0.3806240611545312,0.46131051109269255,0.1374633410849984,-1.2954301044857557,0.33906504652101327,0.14544382787680113,-0.5803386266724824,-0.6062424060934446,0.2911120576569246,-0.31397826736964196,-0.080164640007919,-0.4714180598069501,-1.5066153542401275,-0.027294026086392156,-0.20241215825823924,-0.16475814836663488,0.661063801552692,-0.4674788214457652,1.770220056000992,-0.0892570679380252,-0.27131515774192155,2.1033195393680515,-0.21015541154006415,0.7463768187074193,-0.43960236195869,0.5974461660597062,0.0847439131012098,0.5822215734731834,0.5980369174048304,1.4578700838486751,0.027760613928258647,0.3420029344770418,-0.1990081304142888,-0.5779086276019257,-1.1157129305055036,-0.13099939261147836,-0.303691392977822,0.6396429144527633,-0.012625936253402397,0.9277241748916875,-1.572923275484906,-0.27748058298976586,0.5442666976924806,0.0759750388492497,0.8448271099176546,0.401393979574742,0.23449356852082037,0.7241059156889248,0.18725315921144106,0.4108025664900295,0.07917808392710843,0.8570647358299998,-0.6346675045555731,-0.1463180470019588,-0.1838124989591992,0.036026145378478015,0.3760466350551509,-0.1861745088607016,1.3418630118067199,-0.2193681803920514,0.3872831015741824,-0.7392299723817387,-0.6413834713040866,0.780076934072909,0.7931430005260375,0.71456465496166,2.0776119922596004,0.8257072884370172,-0.8048222730979081,0.0028715069209604175,-0.14722375248203606,-0.7858379767219721,1.573771491448425,0.8490740022717145,0.6698481971816024,1.3120395528919737,0.6753729228387281,0.1729119936362027,-0.15457537092735915,-0.6316091632998888,0.8981808690363685,0.5384369093070941,0.3024144468968107,-0.8085568426026316,0.6312194180067047,0.008458487763698702,-0.13353059604725345,0.7670976241364732,0.272492855330494,0.23132063796268562,-0.053720552964174884,1.731944402277244,3.790056613324171,0.7500319341811487,1.4248562463011265,0.5878177159139116,0.8942299164789084,0.44299014704953704,1.3750182972005487,0.19184502127061467,0.4314895118776489,-0.020228052280524374,0.6654832875394937,0.8287781790743092,1.4206568508661048,-0.13077867226445938,-0.1715820230702928,-0.6569337782244177,0.39848631543982427,-0.8360317333185582,0.6595715229631043,0.7750883131880438,0.5335720339547073,0.11448308499538856,0.7911726630546764,2.873419618892249,2.9065099802351613,3.1182173510082056,2.507808476264858,2.7796446724416155,1.0125562410401772,0.1837335752558437,0.7235244907695193,0.2941064294784607,0.24361705974365866,0.5568843433663289,-0.1068670229319296,-0.015058942581672969,1.5971241845595767,0.8060629505992579,0.8058055428682283,0.18358134933911377,-0.33796785252106976,-0.6893647371550529,-0.26618850600520005,0.6456693293784201,-0.8858864116098739,-0.632348594277798,-0.5197234389907779,-0.03452384201569442,0.3504442057595275,-0.00669985579463989,0.7457524530852356,1.8589564023007772,3.0448484554776702,3.417548608557794,2.455360223947447,1.0573115740503027,0.5731642263173402,0.6195041763198395,-7.295753062854868E-4,0.27220948276469675,0.07795043291961887,0.42793918947654197,0.1970479068544445,-1.2580688899960561,1.2301792039203796,0.36180086961694025,1.1365736911013935,-0.523914096386956,-0.6773273783866278,-0.9676555143419149,-0.844200107136689,-1.4818180547720095,0.4394151486814642,-0.6872557661788055,-0.5842230755751672,0.11746534931584611,0.07864154174589151,1.3805380628754247,0.8710570857748553,1.6648356990871023,2.096745900331963,0.7900747315722249,0.5748753708265186,-0.3480307163950832,-0.06987331163313493,-0.8129240399197348,0.5543993303360351,-0.32108200153589045,0.3125048094489442,-0.7388062351961797,0.098037410902288,1.069767106095358,1.1312859295703548,0.7770540106668854,0.3608329868276813,0.82663058543182,-1.1842360261397111,-1.42632440775228,0.098647482513099,-0.2057275923007494,0.09257582540677968,0.7954728734587082,0.9891434155409305,-0.7588180593783549,1.196553733443285,1.7125235408365065,1.1897195005909473,1.1901174132787131,0.571274441814901,-1.4298106993739748,-1.3488447580102543,-0.7143940675564002,0.16185480864957041,0.17196519276254138,-1.1534294489466572,0.3071471429815295,0.14561568269158584,-1.0481835820274406,-0.02059616805798061,1.0081437846635377,-0.20262340305069565,-0.4864472360308091,-0.8415208149416936,0.1171692379652352,-0.6037337295712252,-0.388068483262779,0.06667559141312471,0.18911376915351008,-0.6910614278676035,-0.5734020660180821,0.03010085336309657,0.7814277404871777,-0.4172396582132873,0.9478389676383729,-0.7859683331616377,0.731250806693581,-0.7443710248945898,0.027805997623994137,-1.123312210449346,0.056295809055782825,-0.6032335492888456,-0.5183858269716106,-1.234678380277447,-0.37709518311079604,-0.06295968006414027,0.8004466184256566,2.305239334741259,0.6351695419037573,1.2049718982478181,0.1446297427304249,-0.8872405856313692,-0.26556498694479586,0.3286108224797791,-0.23538626642148733,-0.8779943020765971,-0.5954367351123458,-0.8879156240420715,0.530202631842592,0.5865921362765242,-0.1078248979916096,-0.5754170812114646,0.41970033249298627,-0.6500232963499121,0.707526359574647,-0.42702395081319644,-0.13772325476847003,0.05126942257125752,-1.798745178222143,0.4221221535798814,-1.4560090779668289,-0.7299649274983776,-0.5605494673761281,-0.7316602806551842,0.6630110594650886,0.3932336855229598,0.14762308659669215,0.3609872965708267,1.1921681334269043,0.16261442289624717,0.5442705661104943,-0.16688016464963437,-0.9498205402793912,-0.8931732580470844,-0.6808828912118896,-0.8957896597408451,0.14707733970763104,-0.6054064630894912,0.2616789473099233,-0.10363517169417819,0.3985946735443188,0.17778831343547394,-0.40590564104063254,-0.18346987038059226,0.9361013976369883,-1.4847951015026342,-0.016811621855961446,-0.8078634177219708,-9.335843728456245E-4,-1.5459367261510928,-0.6066514669085237,1.0020829028846183,-0.47478899133596636,0.05397056242915667,0.2143702138659023,-0.207131754635877,-0.35038233417871484,0.5017288339366555,-0.13186203310885694,0.3277918161645693,-0.44309643374914653,-0.221622080588822,-0.5066505063096481,0.8738668162022161,0.702475515399676,-0.6205835572200584,-0.18255153208555325,0.7662925240406466,-0.26430526521492925,-0.41887476788638867,-1.0179611317744588,-0.8282491041257722,0.26467558413311487,-0.61726135698424,-0.24502323908441986,-0.8686363824469618,-0.633333637835207,-0.7338921802467308,0.3094801322574752,-0.5688242634019075,0.4705670936872762,-0.4102705199647013,1.137940479991835,-0.8688411470954263,0.06326858665901768,-0.12975096953168,0.4546483207567849,-0.4627985433406659,-0.19993428838555943,0.6241675255329519,-0.8406105648610511,0.17300040087137428,0.509941672861917,-0.29101864124257265,0.4165164650019105,-0.07824465330822807,0.2802285142870208,0.8351536880988935,-0.13794136495998557,0.9985504240165014,-0.7374872112729646,0.5387858624111255,-0.9242007625693113,0.07472975616274764,-0.25376771840252305,0.3674810658704785,-0.0859483080092947,-0.8516424737514628,-0.010248994143162634,0.025557032333799388,-0.5866878908588447,0.22682001894130377,-0.23382220109089685,0.012803295546930112,-0.4833959903107335,-0.04529112474291789,0.13798949692307053,0.1449228390032791,0.07105138589767448,-0.13550912968251613,-0.668959486308072,-0.8536108129426776,0.32197594184832357,-0.4953355593658814,0.5112118147778678,-1.4883823249754564,-0.639954187350704,-1.0061470839140272,-0.5082742386096387,-0.38777950349245977,0.2386937243178932,0.6203995478796038,0.22866775183124038,1.0135967335978209,0.0413796416426853,-0.5558637161759403,0.1230864666479763,-0.6145177145290147,-0.772322331227915,0.27752796545556707,-0.7828990625480193,-1.4036526680375465,-0.6638525422169885,-0.5021937958351065,0.551088209103938,0.37355556940448087,0.1702321093785953,-0.7992100351977545,0.697561100042285,-0.548098138838162,-0.49394778410229884,-0.08778058340663561,-1.068099740725854,-1.3988504654618754,0.514712120327468,0.7883431133756029,0.71007378148447,0.3568988835880671,0.3333996296879837,-0.046564754937627184,0.04066969724824149,-0.21854647326888105,0.9309075040482986,0.1072831526869966,-0.9458685956524756,-0.22931642970368143,0.4301171022678339,0.25952899630535514,-0.5760715407708524,-0.13169757433689086,-0.44571047125733554,-0.4409809476936317,0.7171698136267946,-0.9085889959007478,0.9673779056929247,0.39424787318283405,-0.3734277101540091,0.6243004167185042,-0.4971023196883708,1.3558072949620215,0.474545235982292,0.2070310773959392,-0.6325187221015739,-0.3585905205665072,0.13664398258589527,0.9441576102013867,0.9392130458898775,-0.26334968348201643,0.3882449365455694,0.9533374360743767,-0.5438740306910241,1.2376651055144077,1.306799448506554,0.34898742227408297,0.5516739842066593,-0.9597895585257898,0.0911176476745191,-0.2637564351185019,0.1504679989977035,1.0595086458529934,0.44963158613938414,0.044897988813810914,0.05928419700415628,0.16219588551397268,-0.2800283736290179,-0.30588697888509175,0.3512685022858376,-0.049041721186101395,0.7205031244872073,0.0969382824766342,-1.2603989877556396,0.2916497622833781,-0.3245337698724284,0.5682333847172991,1.6067974834578072,-0.20520280846406647,0.8504292083334287,-0.2269554073520032,0.8356389058791804,0.2662177030750486,0.12118652801054235,0.5085912356553167,1.2732940246352364,0.859500615280689,0.5558753682864825,0.7027988176308346,0.8530103464919906,0.7527670326128322,0.27907774077681624,-0.9343666802816621,0.6298780786940752,0.6836577073273942,0.4388587875649814,-0.33921068141666644,0.04524973808694299,0.36559599271270604,0.4848309247346319,0.5285577711735506,0.07456571878460941,-0.07655324245357231,-0.03974513260866009,-0.24468669760579903,0.4654970780620271,0.28424157952184037,0.7627444609253242,-0.39774126521999453,-0.8329474542051966,0.9775751525010327,1.0117332269572834,-0.634317259891681,0.28416335600378817,1.015285633518582,0.9800913696497812,0.15104363447073485,0.9724311186641252,-0.6599181322683629,0.46163332509964333,-0.3813939953356891,-0.8565963376841821,0.6533273755681226,-0.4203327298124857,0.9810367210229936,0.1853302373091883,0.8816751959673115,0.18099532236647772,0.7540115930694478,-0.15682723112353203,0.6445732874957356,-0.6045838248452213,0.3545082200829864,-0.5105728622366621,-0.30695869832962674,-0.6750093228785223,-0.04015091809025814,0.7206147303827958,-0.9766332674055985,-0.46667994053662354,-0.44841117917593426,-0.6551660133678833,-0.5988623873344828,1.1129520785287965,-0.822702728246954,-0.687133125654393,0.829906718856458,-0.5643750878567908,0.7193648505653318,0.1792916777597744,0.7647784746717092
-0.34738400662448665,0.7677727676159922,-0.9072521659154913,-0.3733580721019836,0.5736157874947003,-0.05541637774890762,0.08162277334577062,-0.8851287921898279,0.8231640297043128,0.8986364250656291,-0.4721436870480751,0.2615525409805435,0.9084874234257451,0.02592438771915687,-0.7391273242460895,0.31606253889149993,-0.007903314891315905,-0.5270278386036882,0.4590465249503357,0.19770685408895972,0.5369010200846738,-0.5721005885391877,-0.34356318521232243,-0.5250433224313018,-0.6283960227860004,-0.9104985793894231,-0.22924661740399777,-0.3869210105474026,-0.025557848346070777,0.5481620384964434,0.5843697975622106,0.5775887020286048,0.06097981061490987,-0.8338619706864969,0.6869586847196797,0.773432718113418,0.9267070793629623,0.9956393754588859,0.5724809402824198,-0.07968313327501834,0.4212703793847575,0.26134227316191694,0.09988077033983847,-0.15301310965662002,-0.04357398249914973,0.09307908304389423,-0.15047439223839623,0.49166766523299604,-0.720869297837484,0.9666987300759775,0.5664961355992736,0.5411736965953666,-0.1264698109735014,-0.7412849513875681,0.5691766060919103,-0.3973127356642794,0.8361940064947793,0.056261269221772325,0.9816385496863929,-0.24138118857761437,0.334237549152749,-0.4441628599458572,0.20838981516400457,-0.7441836516257049,-0.6034944410757475,-0.15011860723938808,0.28839117992017793,0.1305048824976116,-0.3324708943163886,0.18443280305979828,0.2885176130834122,-0.6645575254612359,-0.46436875171953546,-0.18056904197103396,-0.6198715225425979,-0.6972092391364851,0.6713382079982814,0.7045010787029296,-0.2736028070100633,0.5093472729894338,0.08628712641825989,0.46251223970543315,-0.25576317582947716,-0.02029126096837497,0.09319039342067126,0.1002517255018156,-0.09044719849173163,-0.8453209583609663,-0.6056885855868117,0.30992844091723293,-0.089702440558932,-0.3087566075239584,-0.3900302056973701,0.4972245006370841,-0.19380216818144252,0.2582046077007207,0.43925959787243885,-0.38300742640864094,-0.4163511370519028,-0.20699914009802994,-0.5803781188533584,-0.6109830722787468,0.8433278604313665,0.0819109966502781,0.3240506986869592,-0.10350469739854963,0.19719536241595492,-0.5200004308550629,-0.7191415179167102,-0.1079588352775929,-0.03744528657299462,-0.4217028903091049,-0.051917733179150716,0.04606624898226546,0.11570268562444562,0.28654492696199857,0.5181857914566821,0.3972393640829555,0.5469153214436577,-0.9244225454601616,-0.43358993451071465,0.2214454161945968,-0.10100415526078206,-1.1097933230806316,-0.12700317860231636,0.0790433194998442,0.7457936043421247,0.30251119830199164,0.41487410923610235,0.14354757547224434,-0.8615647648428452,0.23392814469910506,0.9584137900206734,0.4189614524632505,-0.28326886915078675,0.2609609804297227,0.81858829783372,-0.4679135307660764,-0.060108451662180686,-0.7208106131822007,0.5592790275761013,0.8996580107331591,-0.31959737771167956,-0.3553931448423671,0.43287622183060886,0.6877255123079615,-1.0574027009413922,-0.30384258269387954,0.18812319935063956,-0.7929328343278229,-0.6149737439913027,-1.064715063583805,0.08382538981098368,-0.9768567021060854,1.1829013560652566,-0.3013787096025659,0.5779633262531514,3.024246874542288,0.8636651129313935,2.201369891052446,0.2648724987867379,0.6377853702910318,1.4262864524266707,0.8742260109129988,0.8014408968230654,0.6863248602419652,-0.5253320866301112,-0.4692546548476702,-0.594168310691974,-0.6564897597916343,0.6672810282424095,-0.9830448195203169,-0.5662241413012814,-0.15166271145154633,-0.4268494190856221,-0.4296758105216175,-0.12462050653681539,0.10444843877627491,-0.7304030496035814,-0.993373705732706,0.07786671731651125,-0.9788539449506976,-1.3788621550177136,0.7246787966512662,-0.15146592553122815,-0.004237952013336302,-1.4514566315342894,0.9899972312647963,-0.11794655684638147,-0.1043475375619529,1.090506547713921,1.2856734862821335,1.966187704171278,0.714576767179092,-0.2109007169133915,-0.4040107539421536,-0.9238535323021054,-0.6015968827905396,-0.8770170642109554,-0.08774245871124048,-1.0601514465088104,0.21644634765839083,-0.14839366871437473,-0.31580128439618926,0.8228378910937705,-0.06838711705431438,-0.023350649096010024,-0.017182138975855868,-1.8810954804855333,-0.3992485774504911,-1.0034103070212574,-0.45012272838966483,-1.6241719689583412,-0.9604386971112521,-0.5409724280017351,-1.0989192239756216,-1.4968476352216664,0.4132973000217484,0.5033675996046165,0.5084814931400835,1.3556636791020815,0.9790742881074219,-0.5366558054651297,-0.03777762660692567,-0.7000327975801788,0.6451790478872166,0.6555445220914098,0.20380317269799259,0.30955906921377935,-0.04362166504915578,-0.006546270955857509,-0.24219420486917498,0.4806390218488421,-0.04540926765630558,0.5717238925935607,-0.2561713211083913,-1.2167293303432183,0.6926849489212574,-1.2135156395983924,-0.5234326793012162,-1.4694143231032526,-0.7243283415389614,-0.738808285870814,-0.21438332004696595,0.5682960552874834,0.14878997195449767,0.30278256189257385,-0.2942761764232033,0.9978266777090424,0.5441996308539366,0.466264364726256,0.22298494337949581,-0.16990390546947665,-0.8508271395408954,0.7128958694672929,0.2700610905200971,-0.21000871134496102,-5.836381852304332E-4,-1.0132678186258814,-1.2242666713579924,0.0670686394856254,-0.4867252255185799,-0.13711471584118923,-0.4137295512247415,-0.2187087149069065,-0.6404505375162528,-2.374342377721013,-1.9850132603700155,-1.1807365027139831,-0.6320164803058146,-0.8039367565420656,0.07363087222032419,-0.8751603113242075,0.08628318399410062,0.6697084977008279,0.4058222172744834,-0.40495573309702715,-0.11476110438118714,-0.6375792717572437,0.4459616942594731,0.212440948643197,-0.7245319285064904,-1.3630074333282576,-1.3573317659124242,-0.9230484884019579,0.761439078238404,0.3325016136895237,0.49377362418978704,0.6784279105421848,-0.32628737463700164,0.6073121457430029,-0.7373043205499048,0.38424833886779935,-1.8843944346504957,-1.1367989604646342,-0.4441379682752809,-0.46438554554200784,-0.3017232310980723,0.03455272192318837,0.1258659625861354,-0.7191208032271973,-0.384046209521779,0.25225672988404274,-0.3320803243928135,0.3523683347597822,1.419969233292659,0.2587536185108537,-0.9858925509709757,-0.7959443626511922,-0.6118683557182565,-0.05979588943310691,-0.5295294174145967,-0.6510138002552661,-0.2780207591343885,-1.0127101890030865,0.4123631988237915,-0.7077222840168028,0.44866733316125756,-0.5118841688972666,-0.17444053876501472,-0.23739204535335787,-0.524068329438217,-1.0977225279285165,-1.4118384937240431,0.11827489681767567,-0.24223633262896163,-0.9081986678377679,0.4549684403148706,-1.1522335839463798,-1.580394958817689,0.4496413642714606,-0.09673993768272014,-0.17618563653843047,-0.3130494314891752,0.8164706053594042,0.22658993585443588,-0.02030966507338808,0.019306671117999732,-0.6614086303200647,0.14168338881166664,-1.1366915803776836,-0.8167461175062577,0.0268614564840037,-0.43528055212777833,-1.2590184064239853,-0.7176195491598792,0.5769966401851836,0.4918246281806518,1.9050786287743782,1.9883571874231658,-0.20919685689173445,0.10768817940433432,-0.5951115464108515,-0.9807476399239049,-0.5010498109338236,-0.6242685249605993,-0.8872235719032838,0.5524157869749609,0.9459665407670376,-0.9653511330516211,0.08277253088265016,0.24785695913530287,-0.9050737501831114,0.6768973934923866,0.8593279672060945,0.7364407967020599,0.34882183495083374,-0.38147544189882565,-0.8412240336680917,-1.2466543467998206,-0.07241179537168978,0.5595701052420095,0.038017649337367204,0.9996400516854577,-0.08514655347416572,0.7710234722599416,1.8448279934568919,0.5777531645253685,-0.37348331584205774,0.24958681380020156,0.4039406142070996,0.09262274585281992,-0.4555850731505294,1.0704603972740485,-0.2162166238120646,-0.2923149435583018,-0.8432779570843567,0.47465085309458377,0.3988317520933684,0.13019360901268603,-0.25308217223038143,0.5012876046417782,0.4806096880912242,-0.9382603311436194,0.29776981572451305,-0.7203414913344179,0.14979111050436691,-0.10364890558333335,1.2109871993071746,0.14065283157460215,-0.2846870248723611,0.1957064600889226,1.7554171547216773,0.7694582609220171,2.1206846831340975,0.9395651983779105,-0.23496714701991478,-0.16104998401320442,0.05303192728519649,0.9089277805385181,-1.0424271297255594,-0.03266975421006991,-0.18679909912204745,0.2326973943497947,0.3247283295352794,-0.4822172750604053,0.6551985472252235,0.22570633176493612,0.8847671277942362,-0.20650480001396043,-0.26462687995339684,-0.8259366349444058,-0.20016792293389715,-0.3452917290158666,0.8194870942312543,-0.3141213162224553,0.18686554519311285,0.6310558734222647,-0.07871673438557385,1.085145100353558,-0.9723679004809981,1.498822333824482,1.4585585887460921,0.48658314939316694,1.256343470394675,-0.3126378490984309,1.0650462595302983,-0.911798094132908,0.018068003640981534,-1.1781231572776059,-0.08244002547478911,0.36561930095076967,0.20325437300935129,-0.08446951544973356,-0.25513524519940717,0.9896400825248249,-0.30247524435517376,0.32416694226153214,-0.5282693983167189,-0.9331906300236882,0.10707985170134654,0.8471094919552675,-0.3971676189850058,-1.0036183681902204,0.07332655193239887,0.6332689272073398,0.03538797765868345,-0.0038380394563325175,0.7463693316130359,0.7839565087293734,0.6579377843349887,1.0040597338941177,0.8705745053029562,1.8345940925121658,-0.34194942781039966,-0.04203172712607889,0.4921937636211862,-0.19388965405425723,0.09608209881804297,0.21951776236383932,-1.236279973947557,0.6395766102575813,0.7609479689590606,-0.13547373367487547,-0.31661269158199185,-0.7498072477319101,-0.972134465947734,-0.9728263054957274,0.33938128277758156,0.4053959645106901,0.252381295436119,0.29582172275589796,0.3431154406704496,0.08282013461467086,-0.12962965363054593,-0.10715559108471989,-0.21372174165046526,1.600014712298088,0.4610486602696347,0.5893483418563646,0.689158235275965,-0.4136432450530036,0.7636527881159563,0.102622547295575,-0.7777959987829481,-0.8233296183501417,0.878585366621472,0.010100355134418926,-0.8309827375674154,0.7621752142671534,0.1720214523551041,-0.17757509374013575,-0.633110138245105,0.7629117228021215,0.24860437763419602,0.060599234281809244,-0.8192675228711074,0.045720601858039805,0.4901022117136766,-0.04767309011471556,-0.26339545252207525,1.5163523791311262,-0.1873099902975525,0.7158276053932856,-0.10756480188649911,0.5238975976795355,1.929228405419144,1.043398026767948,0.4168761704524565,0.010079384581837002,0.9754644257811848,-0.7219829714308776,0.22581319124733534,-0.45195790049402834,0.003365219500933964,-1.5051065906349181,-0.36714478015442414,0.23497713857471894,0.11874157994671931,-0.1535794584156248,0.12601854759777792,0.3918882347349035,0.6982032432230584,-0.33644904634025313,-0.7931916880306171,-1.1827423529406933,-0.9373968605670716,0.2930298524419808,0.7981773712821021,-0.5049150311955541,0.48461843956208867,0.2865784464200828,1.6195203179730095,1.3723766483200908,0.14836418489329298,0.4348605011815096,1.2060488714130058,0.5294194604732354,0.10708800164267412,-0.8877150152276545,0.4157483571495879,0.18329871650660598,0.1502726322978752,0.5592252420769845,-0.4823107035366301,0.2938889466654619,-0.8630999035273025,0.8792335007595349,-0.12535979943239206,0.9621850894899597,-0.16058117468531696,0.412479606801261,-0.5684315150331734,0.0169425260558904,-1.9200478068805353,-0.15793819773248396,0.635508884231348,1.1552708135043819,1.3812854021006467,0.36584542528675734,1.21416854483125,1.473952149574573,1.0561317388031348,0.025021659593260026,0.2816408409579139,0.3264759105473104,0.019504151101794837,0.44432426512073503,0.43853442877168575,-0.2665986894767161,0.5144396104988609,0.7452186401368724,0.27112189948350857,-0.08712226356293691,-0.4528505352951202,0.32897822143442096,0.11040766763805947,0.8805325766864422,0.5634602096545451,0.0739248187871095,-0.7434264908294478,-0.6859304676697323,-1.6076496161636173,-0.5904492593697508,0.4054659707695717,0.013387154908315251,0.2468637541963648,0.104703612398473,-0.23343540234451202,0.9407233594841108,-0.179774483559249,-0.06070709063263354,0.45253810534573924,-0.6437398917918773,-0.10711191695960871,1.260626033547683,0.4849014210146045,-0.521876137227334,-0.3310717664397466,-0.5061193642606844,0.6313838017202261,0.6558104552725245,0.559523342256285,0.549524210636135,-0.44292048488034114,-0.4547536728256114,0.813276146799097,-0.6690088526363749,-1.0094694052605788,0.32769484108309127,0.0695390952150887,0.1032700860521502,-0.1999604142208623,0.43948368628728957,-0.5208671530941462,0.527744050090913,-0.4198089374265869,0.38537206080753883,0.6270225130251272,-0.7076392611617344,-0.10492320696505908,-0.27519050488251157,0.006513968500857729,0.028463006577278755,1.703933307220757,1.1360183452538901,1.2122604806048263,0.7957633561962291,0.4816381431060016,0.19224553188518165,-0.09313626844030222,0.18294715569220957,0.7500536510971453,-0.7094896311509922,-0.4694628776952454,-0.7686632304903938,-0.2506651449107546,0.5986732402767848,0.34668078380748074,-0.7561917636673634,0.3169609221179908,-1.7550332029159215,0.2075099068979629,0.5811490597632802,-0.16246381223137285,-0.38607122521179893,-0.467299794926899,0.15954957892937993,0.6919222627451637,0.7942159172128267,-0.029389239158731834,0.016115391728832237,0.044752841149029665,0.09316721963664666,1.6423038638199858,1.187573586839779,0.17516489306637328,-0.012644599650533172,0.565129736724922,-0.4916659766645022,-0.17953777550274566,-0.22141494983987364,0.9549088492703286,-0.6088940017870585,0.34786336622697267,-0.9342532437878471,-1.4557093680240294,-1.2737975659916452,-2.485577770781741,-2.052658935283993,-1.1123035137070074,-1.0247559896739828,-0.7379864785594119,0.24820700918551777,0.6813449093415137,-1.0034653748498943,0.39169402044410045,-0.1125299427012282,1.657296369949243,0.20267280149333358,0.8540671711529277,1.2118606912062835,1.3716022311689795,-0.5987739839711786,-0.8732941847089057,0.32901321540528233,-0.5915014028217497,0.2945847279794704,-0.26853103985138727,-0.5270456521137363,-0.9771434032901407,-0.5535884685296013,0.713179296463396,-0.5940960398862275,-1.2044886333200666,-0.39567614978540483,-1.257107003711062,-1.888279321340157,-2.732601234106789,-1.3527921590295238,0.10906545572494179,-0.6572926798005058,-1.3111647391392125,0.1796788244107531,-0.6902473305659372,0.5829479457442849,-0.4893851892567702,-2.102546387784397,-1.9666562254761542,-0.8587341469512215,-1.369067900192974,-1.0066383203280587,0.16858980996376302,-0.6300022877522723,-0.41146111014355385,-0.49583073949416323,0.21707202143198598,-0.610911880740522,0.6486465661036371,-0.461509745653905,-0.9046660509603068,-0.024310933274701824,0.40199157570857885,-0.9840382980621271,0.1008906146516229,-1.4015426625868181,0.06943425836159564,-1.745905482365622,-2.153443702787206,-0.9817900357014068,-0.8414209088826149,-1.3298949925035886,-1.511573821855277,-0.9296265955967015,-2.3075177432367013,-1.3916830662347792,-0.4884637209879083,-0.7356775819586888,-0.728522534155979,0.04900888095236341,-0.3215604538406035,-0.4378835338236957,0.7070145055978456,-0.39999302725480096,0.46212086956133835,0.28835932589409663,-0.8434865015857802,-0.3324468432191152,-0.3379041447084077,0.5304895033845614,-0.5473726642252227,-0.5572109963581559,-0.44928268911495167,0.30139895393405236,0.23014983351886265,0.2534922321562056,0.16384474732600865,0.5389709472568704,-0.3758971696356206,-0.9062644655792578,-1.3098554876193316,-1.014091942980444,0.013081816604562242,-0.004113220979988366,0.08145817570548035,-0.14418048226080202,-0.7387729247473365,0.5416854970950865,-0.13320161513269668,0.8037742241317387,-0.9570688405737755,0.4529110655054893,0.5365402678114024,0.45183588738147007
-0.9431902173685467,0.7554390345158697,0.1034598203521444,0.7670686667468425,0.08457771362691657,0.9727974204361318,-0.44292125400452353,0.6243671277154637,-0.9011665361993695,-0.4980017449089513,0.20727247784115432,0.9262459487605603,0.08433483369683484,-0.24037167434769116,0.17396238200544462,-0.7988752933863623,0.17044054843509082,-0.469807569129165,0.313811248964307,-0.11909922677020579,0.6797891297497918,0.036139679673911074,0.78156235738356,0.12692243318941232,0.7270352778241516,0.9795592740116805,0.9581280989097589,-0.9212019301602068,0.720273710546603,0.19533000091337782,-0.7482745016546593,0.9964548346471696,-0.7193871741531078,-0.47778706378025876,-0.8986785391414269,-0.06678229487236712,-0.6231466205152549,-0.9884139030557533,-0.557051889006305,-0.7366133148040405,-0.5458866023934535,0.5789734625173333,-0.36884498377004243,-0.3161088566705263,-0.7242145671537511,0.4018473405661489,-0.46952837783535134,0.21209087599720733,-0.9153816112374498,-0.8246893116415304,0.21842121033977138,0.31041960068860724,0.20356514358672384,-0.3230067572732276,0.5863112279401477,0.20054744628105858,0.3033829796639389,-0.4562572185249434,-0.13793210404906828,0.6942876205162032,-0.2574934938467285,-0.09133636443851584,-0.7543875817711093,-0.45133054740131423,-0.10955409539570546,0.016565912680402063,-0.5710551624335055,-0.7331509939493752,-0.48448784851778226,0.28993079917066444,-0.1090593143857949,-0.4203559318413645,0.5234198250010427,0.899815451965441,0.3889658420322085,-0.6937892414854582,0.35935811897580644,0.3147008129176566,0.7723222504056447,-0.333396481455523,0.8215191049749262,-0.8564896979378055,-0.4456262861173046,-0.2167262137999313,0.514087742084165,-0.17554049805381577,-0.7859819620607759,0.35591301301485234,0.9827078387899161,-0.6187338639416301,-0.3251082605675823,-0.383715423200222,-0.23498498909952836,1.4661818439407979,0.3511600410085624,0.6794947213870008,1.3140784521031643,0.7489668374330258,0.40710962668187806,0.7628779256872031,1.3133134849317134,0.5002045255252113,0.40928322403522494,1.0832549477407882,0.5098923331955838,0.21458624141934668,-0.6472704835526839,0.4971754525026721,-0.7723516832565541,0.6862016757781491,-0.12283250576132326,0.41445073599185656,-0.5189538197981827,0.6660183173086764,0.14712034089071707,0.18798226137139448,0.35106472739740435,-0.39529436167066656,0.9522640976761203,0.6384602252848832,0.8258695038576699,0.5855426630318279,1.4827154495802233,1.0023836845561693,0.6379292948856327,1.9976426472292272,-0.03431314861573782,0.999595785297145,0.37851779048648554,0.12388640272857739,0.16018860957176406,0.13448696467795407,0.08368941022013186,-0.33393032068718703,-1.2551111115902422,0.11583015337923097,0.8695855287635732,0.7192561928185276,-0.1434223941217069,-0.3732122293919953,0.1008128229972498,-0.8161666443467908,-0.44427659126499747,-0.6286868666032126,-0.0910880600658905,0.9786119651645938,0.27878845412578757,0.45984578817854893,0.24167175211871664,0.962355166835352,0.4979825955168969,-0.028871183284625165,-1.2500372735280276,0.04627103203089158,-0.6323137090142465,-0.46833414384177513,0.368715508514442,0.18349057311214534,0.21751112643199716,-0.24752392681511293,0.04644294136771572,-0.38913418675194467,0.05655730207232847,-0.8630152312864664,-0.30016354749080376,0.4052565609635241,-0.2255769304895052,-0.5006679870269315,0.7862588778285364,-0.854923601350855,0.17542177046301488,-0.2061492710505804,1.2284868280497268,0.200630463781182,-0.12165653568613229,0.23011743822237915,-0.3055183857880339,0.21725274690095403,1.5710351773499962,0.22860726785689328,-0.27574896249237996,0.5934066356955225,0.7980298157304041,0.2676728176821676,1.3331647133281854,-0.4756415663968723,0.2569463601802334,-1.1443873845896961,0.017040327963880473,-0.221424081301131,-0.73782962711422,-1.1249525494843267,0.14789883372099255,0.014212962015148477,0.6636790213366077,0.7483406280339929,0.5258173225782745,0.5212576642717037,0.6041921376256526,0.494837187850934,1.7340512598942543,1.3110448934528678,1.117002836029897,-0.05388839220051756,0.2743935307977167,-0.33598113251196354,0.5359014349089448,0.26039167217989756,0.036854197535895215,0.7442372644577738,-0.10788040951293949,0.36214571424037006,-0.26709332498788835,-0.04893711795413025,0.11765834340097471,-0.08458044858838076,-0.161748397152959,-0.5575142057533136,0.027430651119407713,-1.333042468202696,-0.8559708654647805,-0.5581366440956298,0.4837631230044951,-0.12114382277644387,0.587028478933354,0.02335007543844752,0.34065819737766984,1.052940363599887,1.6992961590464666,0.524088643304113,0.710740437332522,0.16406587606114925,0.7513640231988994,-0.1734807428323649,0.36795837560960454,0.5176322809624722,0.6985140244781429,0.415560682021245,0.09692534070137153,-0.08150890268906626,0.003321190625819057,-0.4418169076661988,0.71959948629995,0.2746849841306139,-0.10692876094071284,0.6714381284845118,0.7405177572057969,-0.9153006362078792,-1.4307907272387927,-1.2606056601381432,-0.2475918875142145,-0.3897105666787709,0.06085077092188288,0.6454464219603777,0.3056327982804017,-0.359874994869082,1.7055053153661428,0.5562167607163526,-0.5205368503162792,1.3130632709453431,0.08464731283194753,0.43393112998828776,-0.172038444349192,-0.48422772248087437,-0.10764910447675018,-0.5172881961600385,1.0607989073107162,1.455040384460806,0.589743458582824,0.17341346671110747,-0.1768292987981266,-0.4854787656827292,-0.01204107301656102,-0.004429334504428484,0.023990461245830492,-1.5501418903607758,-1.6341754472720529,-0.5725857955949301,-0.9440380151233536,-0.19785095806919867,0.7323020212336788,0.7889537423460892,0.9844314422661574,0.9373626795031341,0.38734957794813507,0.1655533636914976,0.18432746653972729,0.05238552892854111,0.31241415997454475,-1.3396339947879836,-1.1261293516487256,-1.3286085436387853,-2.4780129100769144,-1.2538947985319404,-0.7112168789964938,-0.21394673757625945,0.8371604421589497,0.5605981498864308,0.40157084582082814,0.16521421120578292,-0.10070299278503322,0.7231726613877107,-1.151858165223297,0.5031434001959629,0.5185089914868054,0.4854804208461269,4.192266551228572E-4,-0.3286060204251044,0.5193119685613513,0.39688622382959377,-0.07803697950485294,0.34529287099799166,-1.032586908482809,-0.35444812229915557,-0.5195058074704373,-1.9890437032092814,-2.988948639372872,-2.818000831456132,-2.1798346113141474,-2.0854943257501604,-0.6057383401840182,-2.22918989296827,-0.7824067283482606,0.350504194145569,1.1665828917771306,-0.414231848676535,0.2977909735461974,0.21348664376635854,-0.17994667476320095,-0.4899908618621138,-0.6994378356185474,-1.5886912210464637,-0.8622770526996119,1.1678256672942116,0.4840864740090371,-0.7586953098066015,-0.11710847452436626,0.25987174700161136,-0.34166389646214673,0.07521831711960841,-0.08053191323092489,-1.6549857480917507,-4.325271769864451,-5.3023008773388005,-3.248195568278822,-2.38492163513857,-1.4336680128631516,-0.4321039480033532,-0.7070236928985663,-0.3334751378524657,-0.5770123146409427,-0.17100331606592395,0.5075653047873357,-0.37706197433688077,0.24769525039199283,0.07548024019129165,0.07707301045178594,-1.7788300076723909,-1.597813965424163,-1.9441904653289297,-0.2174983726525967,-0.34438903605106497,-0.7059575571814283,0.9703935382563698,0.2041159484404294,0.00792090555289972,-0.665827904158067,0.52057496949703,-1.1706690175765053,-3.6559679294648126,-2.783607683302961,-2.2320972708887097,-0.5181549156161007,-0.3501524388360659,0.2834711153284522,-0.4805095916334553,0.12786350189816945,-0.3853514764144573,9.821658391727554E-5,-0.3862448521741114,0.7198622981172217,0.10433203633983902,0.10928702319798997,0.5210606776997889,-0.12255047308969932,-0.3823884978290979,-0.9919739515152451,0.6361552687946501,0.8330814241354614,0.27715146210308356,0.36009224229615616,-0.1406928199617557,-0.774122970182211,-0.6495713167559244,0.582802054405844,-0.009184572516958499,-0.17485516208249852,-1.9196229512771599,-2.1021907686537613,-0.7599810066520652,-0.31479713773395823,-0.07202863530486975,0.5659926812417908,-0.11570813906858783,0.2158390783852333,0.09112967206147415,-0.3223457127667242,-0.42694231323483106,-0.06694898654547343,0.3160081222015037,0.8196263322223722,0.08956113433643975,0.26328966324943676,0.15214466223636097,-1.1308110938029126,0.17789608264791812,0.5727538091933754,0.7163986038970764,-0.5053700252802911,-0.8206410669121654,0.06857947746587173,-0.5456808027657122,-0.8619451854478813,-0.5054700394282315,0.33662569009092264,0.03684714180663456,0.06991991682209327,-0.12779555537999618,-0.008465596335473866,0.514339315286824,-0.7783733865139393,0.35942339131985124,-0.2368698321636942,-0.048805187595826895,0.8483002007872066,-0.22633098809434238,0.1794214506703936,-0.5956087218539787,-0.47845284465501015,-0.4320392511981711,-0.3003987061730836,0.18676040462736657,0.18048363901018794,0.7698524736533513,1.1036807512645894,0.3770076287385644,0.7043562603820533,-0.05817959103055272,-0.6754320608638857,0.8827393413949111,-0.1401972172036024,1.2754110029074646,1.5373108741961932,0.18545464113087232,2.4654296167663516,0.30731013902421955,-1.2031763254587655,-0.5075113305267976,0.1997766354394704,-0.46981714142149444,0.8877870075889294,-0.3273857265223048,-1.0732682191049326E-4,0.08184100583764499,-0.7189218305898032,0.46493332668524157,0.5834339939916813,0.974426738942275,-0.06535383020837009,0.8471537633117927,1.1207572399661034,0.2084429077218517,1.4479136047836565,0.9965510314613834,0.09025776774054531,-0.8380766440790333,0.06719071792830622,-0.9073402127152289,0.4908158103362717,0.5240312210373891,2.322451751111329,0.38420786410360813,-0.21159168832301137,0.18469281038870677,-0.9374059901222779,-0.3195121064752339,-1.4837690868602527,-0.9498206802223945,-0.4040604146899184,-0.04358256738609634,0.260031428674788,-0.4239828183126323,-0.027373380262225282,0.03152245347344413,0.042443529569628144,1.0979605381865656,0.4190483273382163,0.5151310942388116,1.3705631931140103,1.3557306423888447,1.3889462866573725,0.953330880183422,0.846942507984067,0.789288635157992,-0.6122199275950843,0.8460483587187826,-0.40181157611537677,1.3223766804640371,0.9984156921883007,0.9975412545658622,-0.06341432642650505,0.566407754893463,-0.46542541488222383,-0.46647624804181276,-0.6088099103492776,-0.8185795690580409,-0.48849749076791693,0.06699575717229059,0.49551789159952886,0.5566490187252917,1.5328969635923804,1.1128340427804286,0.009395555009254338,-0.13674356776775953,-0.19202081706780055,0.6356930250988895,0.6031937615993906,0.04536174339732506,1.3408491447494,1.8007505823154917,-0.7517523233136026,-0.7987458375543817,-0.6565171375662129,-0.4735308943789417,-0.8693731866717006,1.6079629581181185,-0.29507220330810396,0.7228456775252925,0.6763405494726914,0.8608518733881293,-1.089430785802592,-0.13333578621010245,0.6376100251020096,-1.3044813776052855,-0.7098246443107441,0.2637209441728246,-0.2867308022041175,0.32157042159709087,0.11058756146086876,0.0620653057695285,1.09545075826332,0.1444940458924566,0.5370935758338691,0.6742607971766872,0.765938490608989,0.47007661679605717,0.14100047363733925,1.4006977976521784,0.37005805842719836,-0.5348173560252018,0.862902219723727,-0.9036810994617615,-0.39771907492371117,0.6391323311713367,1.455738933670752,0.06307607403073724,0.8396145266352171,1.013440144580357,0.8188224073727283,0.42373786809540903,-0.27955586144888767,0.6333885511933411,-0.3811343995966551,-0.6226041367842892,-0.18168258287195072,0.34913710809958376,0.07349811065346543,0.6316716799432797,0.35221086094789605,0.7807528196256616,0.7648648131181394,0.12341900681879532,0.45236282632555447,0.1637254762379995,0.11926487960554438,0.5751454748566721,-0.03330779573528415,0.6620352177807918,0.2581103768693639,-0.8515354523620785,0.4646766342677563,0.1439368149631421,0.6151548446580337,-0.3614422430354807,-0.2138646261560264,-0.06843802322547557,0.05867397900657693,-0.39335457702010956,0.07035434261800143,-0.20425960415895508,-0.15075011946544403,-0.07731045716218635,-0.19001037574583673,-0.8552166523767853,0.33238236800575793,-0.38802703665306126,0.25901782551431035,0.6725672301829512,-0.25898245149343463,0.10334713073828548,0.05734706819066111,-0.7263946232634932,-0.21578226506953474,0.897885265377341,-0.6179406095477531,-0.014041996773937497,-0.4468403073014403,-0.9059468684016456,0.23213866813279294,-0.26631428578435545,1.2340183334226889,0.4711005196584015,1.0453499127742107,-0.18774372546255463,0.39215051391604466,0.9475622954174477,0.17847482386323393,0.041410941583644015,0.1317808400887198,0.04373316826545506,-0.19645376486458765,0.02568095221417994,-0.11215105332590125,-0.10753544218313937,0.879309106687828,-0.6762530275239205,0.29023791808419913,0.4003942345120457,-0.20244349940727904,-0.14587525930405096,-0.6916126864332062,-0.00615309527862503,0.8581952287653558,-0.48221541487540165,0.8170188936921323,0.17169946316473572,-0.14868104910617078,-0.6442168706672906,-0.09739013948781118,0.20915116513036583,0.7761506193577015,2.173058627236088,-0.41087318540590717,-0.3269313570203672,0.2943684858577652,-0.33566266842400583,-0.5976936340857772,-0.6446975634311114,0.11378784438368404,0.10605285596974204,-1.6724015914090562,-0.9934986472066982,0.5336587140356365,0.562877562604711,-0.595487622217504,0.6213671628900456,0.08701230979963041,0.5263208895286428,-0.007522193694121165,0.35559377918116564,-0.271890861412927,0.09683150781799998,-0.8835826841010939,-0.6424977619179935,-0.9241157477058014,0.6843230367765942,1.407650181583509,-0.823290907432806,0.897044407790436,-0.48332343563924285,0.5089662420349331,-0.7094952734160016,0.9373967238070909,-0.30812421403761553,0.6501626226211328,-0.2800130206344509,0.8791838825680321,-0.9766052669312131,0.5847221732184303,-0.44898585987028244,-0.7360996321254584,-1.651318995892343,-0.14812757423085554,0.42319305929205214,0.6629371909819152,0.10559481046021159,1.0955897091704603,-0.03983497924312944,0.9728049862232048,-0.43354864951756866,0.5643443060467221,-0.21252150652035295,-0.7999502840828437,-0.5757996020986249,0.6883027818776523,0.5377054318318469,1.3657665510793753,0.13765727619889168,1.2525789585861857,1.4025571312859229,-0.15313995508113395,0.15026587660299626,0.12849700304337133,-0.31188602151230393,-0.2851497783145513,-0.5112515669043154,-0.5322698783237045,0.32807703600053967,-1.1560228427402384,-0.9917138502133483,-0.43003844584386186,-0.5381252033895956,-1.2908023869103165,-0.8538113844658052,-0.9860714844859216,-0.8754431415470163,0.7905731293930423,0.17694920673905568,-0.7603654544870058,-0.36917917313492365,0.5428420021884008,-0.32103236991254064,-0.51727757762007,0.6631791514477932,-0.48368112570133137,0.32045821558214654,-0.6931553485919236,0.6916843171967915,0.825435831728703,-0.13238840057705564,-0.2274224655910721,-0.6803815891001095,-0.670550717668436,0.3755389499661687,0.7326533361897355,0.07390573140381237,-0.01800432342074319,-0.30961325882827817,-0.5126980851582535,0.38308673117755515,-0.6151488810293019,-0.17994265600844928,-0.5797997365318307,0.41238671766290597,0.5327700376070255,-0.19090469515671238,-0.5117727443932363,-0.31683440806051566,0.14547962137756976,-0.7843384028709119,0.24306582171802488,0.8930008351376051,0.8002197025673905,0.38244396078493226,-0.0070144842786894306,-0.7634923240820451,-0.3978136275858934,-0.12987834544236565,0.02455101480868863,-0.16678825108031092,-0.04970535073577391,0.6053540830906864,-0.9234884068829333,0.22146756349109314,-0.8880941364782273,-0.214798771416363,0.525581443664239,-0.6757959361748147,-0.3614121058173553,0.37086278186863764,0.004396155715945316,-0.025633794407633692,0.14088494168736743,-0.04060434569262572
0.29134857995099717,-0.8017792598162523,0.7070747664757862,-0.4722093028958625,0.4581306015404827,-0.2902561987484371,-0.057133687785303255,0.613499274564338,0.15207562437908195,0.24664304910086288,-0.8411439756299786,0.9624953953414934,-0.009782379921191653,0.7077862141956753,-0.8685417448873559,-0.4398029472525944,0.7299904665352173,-0.5142978141579393,0.6560690680967338,-0.9594410712177641,0.5863233622533608,-0.18644610725820043,0.4790877053273015,-0.8061477617881694,-0.5304312588105755,0.3052934833022598,0.31200306376183895,-0.41333881329333333,-0.003098622715157706,-0.33431534896105664,0.35336621766727294,0.14104003016614475,0.6551563456870982,-0.9629864768095338,-0.9384928468570091,-0.058107506141065225,-0.4926905139267529,-0.9160764827534243,0.9399665757765892,0.4790097666525578,0.6173290827768366,-0.11163863254398447,0.34917603294887506,0.07210681167447501,0.3210398126639132,-0.05521288002468189,-0.3972338487634236,-0.19270911142580605,0.5800005412944391,0.45719087087464955,-0.04064305044187782,0.8943889912918594,-0.4032170242701272,-0.17302322365494094,0.49395261356265796,0.015127643429486914,0.7592151198352548,-0.6296443867294168,0.28824623537733474,0.21605506796554153,-0.7724278378586292,-0.4721747049617904,-0.01402147535574774,-0.7020968411059909,0.8388337248527368,0.8576046285330289,0.9157391253794195,-0.2085527678057504,0.26297843198243515,1.5910206547899552,-0.07507372395134329,0.5551485501202416,-0.38134499007456685,-0.25724915677090554,0.4241783486923889,0.6734791745873828,0.029335802990297494,0.5389627673993446,0.9510841541507763,-0.614487042165499,0.4628745966644529,0.2944738264401513,0.9694392006974097,0.12258117732996077,0.5186387441108429,-0.3682146286671897,-0.9063058947526282,-0.9261113479436333,-0.06967817649033545,-0.06999658146879109,-0.6439307713464739,-0.22234171593501245,-0.14480701840527305,0.5154820346702259,0.12685417776167449,0.5149740982820298,1.192334064017985,0.3858865675379505,0.27228584829772956,0.6237120006391143,1.007094211228903,-0.04282606280087451,2.055261561740392,1.3961541384208334,0.7833252821646308,1.0328027885954019,1.16313685905682,0.1890226217946788,0.3325248909379563,0.24306965499121844,-0.24508576089874826,-0.9873528386845558,0.2762859760470531,0.625782801872942,0.6645150997025445,-0.29289501477111995,-0.34001186429915103,0.9761763335405893,-0.6186099847199207,0.1353498808383323,-1.2470385075894626,-0.42625317158090137,-0.5387132124468338,0.4644895897207475,-0.8049730677184134,-0.07812704859787642,-0.861888183371346,-0.4699496935969525,1.0120759533178314,0.28462067937188895,0.950792175044893,1.609521995372049,1.45838825406312,0.2610823253970216,0.1726598389053279,-0.008397602845138772,-0.8345719888837723,-0.8122488335261978,-0.44870227857786643,-0.7228817938055339,-0.21942830786389522,0.6285269761758492,-0.5943689811641413,-0.22439736886134917,0.528336859793436,0.026684215678530524,-0.42900559612179673,-0.41110121256317056,-0.4372890524036139,-0.6174667931063301,-0.5944015607750888,-1.1598983671007042,0.1784123765195957,-0.10443219132657394,-0.32282552764850736,-0.7652331398677318,-1.1547452820451025,-0.03335960398097901,-0.8205519604481151,0.24070269760030838,-0.47764948345065944,-0.1262505697613275,-1.056490021523293,-0.3226713409517596,0.2744908123224986,0.360447879660611,-1.0819132907067102,-0.19810541712147864,-0.4589947706084587,-0.5991033311356624,-0.5216786086074081,-0.8141381100294656,-0.9760578410413149,-0.9676552848942584,0.021158194164185105,0.20355926308435257,-0.3166503016940158,0.5856483516325703,-0.541396153701636,-0.2539734415362528,0.5491671621224763,-0.9703322448850062,-0.5327286543148185,0.6769251431767355,1.2771303852721738,-0.3343114582053636,0.5879199042687019,-0.7061404722720364,-0.38469840761416935,-0.20276699351590288,-0.9094876267794467,-1.648325308392188,-1.174762899922609,-0.4448078589342632,-0.6496230525613739,0.7483631690141894,-0.6789306628087298,0.24634087281396078,-0.42095713322683276,0.205238546472331,0.16509159943260754,-0.5644018904552749,0.93173183112588,-0.6211430092286477,-0.4352096876989556,0.38674992706760364,0.23070215807769648,0.14397175372895185,0.13621590725265317,0.06445701754963208,0.06847455291195326,-0.24000776693013304,0.0847228531957855,0.5268239786014025,-0.7068753102759849,-1.409687701602831,-0.5551799215059252,-0.6102104083246469,-0.9007824366087192,-1.1600561733609662,-1.214782731260712,-1.1218152840591955,0.23805010678535263,-0.0706499468915667,0.9357033362918392,0.020628794255293237,-0.5669213495424872,0.3179542378133405,-1.0102875697661282,-1.0557990929715129,0.33898611424702424,-0.06897916829122704,0.4033725457668845,-0.09216852109083869,0.11437726542080397,-0.42795209028156445,-0.24835691575465413,-0.6123882965473716,-0.10447716546540188,0.8629571385640789,-0.6081323536995461,-0.3089385051203839,-0.484139237542979,-1.042518913675787,-0.010218991459783762,0.5152328846681198,-0.4234616699888645,-0.5549314750702012,-1.1517108042243405,-0.4803005583133564,-0.9242319473518089,0.34724737829979363,0.29341864298897663,0.10556438152623185,0.10563807031018577,0.38893129933024617,-0.2616443514852374,0.39536765421704384,-0.5664179945359479,0.04089682871876562,0.27915465628418973,-0.6951793507528374,0.8539697482597198,-0.3979444106691418,0.4870201036485512,0.12839037538647025,-0.14534457986336285,0.203268985033581,-0.5449579187586834,-0.05383253824603177,0.029146919461126602,0.19387598873392226,-0.26038155616647934,-1.0451390018038893,-0.9258964077514146,-2.1154566925248877,-2.994712678379202,-1.9419662494123089,-0.6478694529073279,-0.9783303521160381,0.15522580510263614,-0.19951674325855054,0.5892244444067213,-0.6011808729413746,0.5848896924796584,-0.6472924770780382,0.1969762518136867,0.11558652249399673,0.10803322792781064,-0.3617305497619604,0.5116774896127115,-0.49593913134130235,0.2182926193094311,0.9366321447431907,0.43237420250612857,0.1570332514569591,0.29307200369783415,0.5584164293711062,-0.12828934222542596,0.6343508924976771,0.3861554711522141,-0.07907149919478026,0.12190431507551881,-2.067458704810169,-3.1591984570633618,-0.9279910839894177,-1.3537010751631167,0.17215885408169446,-0.9023692893369002,-0.42075340542633494,-0.004872700906985889,-0.37119761739035056,-0.3282347263254237,-0.4178662610561073,-0.5084175451489544,0.7098563437464115,0.8533508533370886,0.47715391265018914,0.4523974585196056,0.9449346488610918,0.958053548563857,0.18482095458546036,-1.4797169092611269,1.6205320676297552,-0.4839216198747499,0.5665804914712307,0.4096822011360171,-0.07435795818098548,0.5055045144253616,0.8172989492340365,1.5439636195438529,-1.803976443152227,-2.5388730039055436,-1.327523126391447,-0.7857672757212524,0.5279850854539501,-0.4009175181109034,-0.4232479432452709,0.38932874294593417,-0.508102513483564,0.3519240178164014,0.672117653945354,0.11399130394721875,0.36129341885372807,-0.4386617121150586,0.8984404158174691,0.7888161642981766,0.5901470294356552,0.3389306172237568,-0.13787769754982376,-0.7994967279475403,0.2080963958986918,0.9302904786513716,0.7177840516967582,0.7521848338028437,-0.5466281664967615,0.4806548554377523,-0.045129760645109956,2.791575766720197,0.16628819960578847,-0.09456352812260668,-1.4397671875225624,0.745322848996439,0.4560364551159894,0.9314451046211567,0.6681271644457606,-0.7903979114921487,-0.03713745252364403,1.1249047480902732,0.5983816021069259,0.30197395099091123,-0.1971838491873119,1.0932733688109126,-0.2959665302933081,0.3231217501572189,-0.3943261354632512,-0.47822064952412674,-1.309590432705297,0.01566424547273853,-0.19935150056078166,1.048205631663846,0.29451760641581703,-0.13182231103478848,0.9077503781774051,-0.07853881629688414,0.5135416054291676,1.0072283480009538,2.106787203971914,1.3630571537000045,-0.6981563073257679,-0.06525721035689896,0.7924627548287493,0.9779984834653282,-0.7393103823522149,-0.11737857675876975,0.3957744827446903,0.5011752542948065,0.6254361477097358,0.8382162208765055,0.27051905896361544,0.613038023195742,-0.04907989662844649,0.6819260388945313,0.2990336243871665,0.2826758468856404,-0.5948150088128682,0.37891117226910687,-0.043815829566219947,0.7479010601831456,0.33106831958324984,0.568260050136501,0.8404331762862516,2.4420251271425824,1.0871786818146578,2.5655920615729464,2.4261871684337377,2.0822926571912177,-0.9925195212206622,-1.1354844115140312,-0.15776383621585377,0.7940829823928481,-0.8229859724348915,-0.3705836060251783,-0.7142429937226886,-0.40441370606361293,1.1530834506944234,0.11571141704850026,0.109923969118153,0.4503626095014129,-0.3048358575435484,0.7051374412379774,1.0372412064725638,-1.409395131692276,-0.8548682004584841,0.27016806470406296,-0.411486930960392,0.6799532408974555,1.3130394871035713,0.6723325640653568,1.4411144000660716,0.6122908446195234,-0.13972186735202802,1.6251630404562973,1.227849687300518,0.04453416596689813,0.06201294228977047,-0.880316285762031,-0.61956725042431,0.7409336520355272,-0.9307445678453693,-0.46263059777644067,-0.2565445339788033,0.738649424770876,0.14769442466340896,1.1129883480827372,1.9749237172527667,0.5537259277670861,-0.521320406915574,0.2223328638019224,0.4789986883953591,-0.8758819627091925,0.07263117087741124,-0.10662715411328803,0.9155873762222986,-0.016482906804415158,1.1138412433694382,0.9192408774192237,0.6701732715878397,0.5936428784007162,-0.2165806062366792,-0.7170755374693434,-0.4783462086582573,0.3438334422615928,-0.7525937261900786,0.4373546447817121,-1.109424308711362,-0.03142653492674752,-0.054968500218191683,0.13174187673697174,-0.3406187845831479,0.22293675622134465,0.14630985768575272,-0.7760885454596865,2.3136154093118995,0.4458465382991937,0.7959635799174349,0.7972663041566973,0.10036843293591077,0.0450146432146499,0.32236953125187356,-0.44003492523422416,1.2588770014549724,0.396024538390281,-0.25510590059527843,-0.9285155280211608,-0.4748921011858661,-1.3094537888962847,0.07090852663169991,0.4634088000598439,-0.7886455877204842,-1.0004939887825652,-0.3618937019833479,-0.9542599586504724,-0.08725450391958531,0.712541847126899,-0.8511963265389365,-0.12391837284155575,-0.9465401904041204,-1.4970186182341663,-0.6540250702434327,-0.7476328868930993,-0.1753156565107075,-0.7578409919458404,0.5552110301515698,0.5986701722850213,0.2939693133584457,-0.1552687635562535,-0.43480642101790473,0.8416932584847302,0.34946349514477976,0.09703144783760173,-0.5091009984910582,-0.12412032332729193,-1.2859091509554974,-1.2562816856877226,-0.8359491328052199,-1.8790662001754612,-2.3488563202653596,-1.4978632968319237,-0.6549064822530208,-0.38376315869045824,0.6924113478004291,0.5805624034815975,0.1471951922892909,0.2541457844998548,-0.9630563083197051,-1.5072532712505635,-0.2606048990257281,-0.90345408983692,-0.9586393912450095,-0.40054277385318626,-0.7375924106563729,0.020406697327933848,0.9429719252536275,0.8605444506016207,0.02059449484845359,-0.35491472985115646,-0.4691610699148179,-0.8085066964170511,-0.29706340405354453,-0.9555750794073264,0.03511498299340922,0.1992887385281856,0.1556606632191993,-1.0052855498671411,-1.7186956140040615,-0.6216500280698493,-0.6844219926405675,-0.46125649069087704,0.8818239206653498,0.8692257526723615,-0.42509319451894634,-1.021935561098524,-0.4577460266910292,-0.7514854824286306,-0.32123910041157727,-1.8155456729853294,-1.407647731165797,-2.363360679644859,-2.058957612116002,-0.0022557675177464383,-1.5444688016424126,-0.6681154981261664,-0.38822676642737014,0.5355934938684205,0.36680423304169174,-0.19834337628901821,-0.5147527005146215,-0.9014245822275092,-0.0016728085866506192,-1.6392809729947504,-0.27118761093578697,-1.5611314756306243,-1.492996005357278,-0.6451725712855894,0.006791158586341518,-0.6338701368261032,0.7366460872601893,-0.7051960415585754,-0.07376378464418304,0.796635583552136,0.13631716858272017,-1.454818364388227,-0.13723613624463965,-1.9978876536376406,-1.8050905549533267,-0.4897121198794112,-1.5565068706166005,-0.1994241773376041,0.7281563888643652,0.9976397422190485,-0.5623421070864107,-0.02194878765706726,-0.8563919326934872,0.2548424663093401,-0.025776331380942322,-0.33475952525736025,-0.6246724786817693,0.20995024631389309,-0.23999962632369337,-1.9229530359786118,-1.012734838985927,0.703872578140645,-1.0229492802028535,0.7680581081508253,0.6661970352648363,-0.6592919406051607,0.14075938505359784,-0.2628905571626794,-0.9913349772083418,-0.12944221552618942,-0.8238264010371686,-0.9814469427270773,-0.5064842719725013,0.5759463198500105,-0.632250716534847,-1.0049547899463274,-1.1648470774665607,-0.7019484826367622,-0.635294278348308,-0.8434481123666809,0.20555790133775234,0.1958684010566839,-0.4647258708800042,-0.25627769443235454,-0.16798762051284089,-1.008997536505779,-0.7548853576381488,-0.05336064846501092,-0.585738333165528,0.03974021280548498,0.003540709848588725,0.5721753913668948,-0.4790167635228783,-0.34708870074665854,-0.8671983572603452,-0.3335716985086588,-1.0702493975610985,0.5487638635568524,-1.1645391519628836,-0.5217400028870154,-0.8047456485126886,0.047099239509200426,-0.644223558280145,0.2701764756521802,-1.8074711342101937,-0.8851827285961736,-1.1419407971945625,-0.02286952005684929,-1.716227520925658,-1.2685646038816019,-1.7587961202298352,-0.4826409647546525,-0.6404090559343357,-0.7740421499239228,0.5675688709993776,-0.7030506426071075,0.6744482273372382,0.7811994122886247,-0.5352116797998357,-0.6008998354794993,0.2693975848922221,-0.409332628436212,-0.8995657469970553,-0.9322538776249198,0.6961951350295289,-0.8495546073667951,-0.09178004681494462,0.1595790286460971,0.39153909530275033,-0.20151750864923984,0.024267208025622686,1.0204498941226794,-0.33347081881958807,-0.6903750787558923,-0.7482997987085149,-0.8175607083443172,-0.9047118448557718,-0.2964025908035077,0.6141720684131624,-0.49377715741442185,-0.525994212993035,0.315440386847904,1.6284103744261866,-0.17073942103146364,0.5870616329570264,-0.7340749223590253,-0.27715957524285173,0.5508745908747313,0.8438014601058852,-0.8493335580386943,0.0983408495442708,-0.561386356394849,-0.06037342238561049,-0.3178541035100024,1.0470875574438308,0.5685335994847768,1.6016544168051448,-0.3069568357211221,-0.016449360856250757,0.3325882494468881,0.8795094758985916,-0.22999506217019686,-0.0473999093708875,0.202830733399078,0.15199022001795837,0.9469481604460159,-0.7723420894314079,0.6326987752719763,-0.7061446025083138,0.30330682421040606,1.3004851249103773,-0.2760694192208516,0.8911722770675231,0.5358318514944637,0.16131525669208963,-0.4437089418414488,0.9225633915518532,-0.9682680271770916,-0.9807136103107119,-0.9395783727872404,0.47646334724390565,0.36090063306775905,0.6663379159165623,0.3057980044003156,0.7066419638948812,1.1237228472522554,0.9018688486601204,0.04334434922116479,1.382688683694597,0.45690941746107433,0.409533334981988,0.9706877767364012,0.9514442269495796,-0.44737477852005525,-0.02517463179168755,-0.49223838409499326,0.4483338537959351,0.14533603362886918,0.6275434037398542,0.9563968063975103,0.7710524126021295,0.9276528674405119,0.5646636446994602,0.3339019954034621,-0.047998446905760384,-0.40666442618935017,0.675858794290813,-0.7738335547725361,-0.23896831852689293,-0.8268729685459337,-0.9896524218615744,-0.011411086050277913,-0.4803995447064204,-0.3592912546353594,-0.7031999410056032,0.5693107017240665,0.546379377289832,-0.7772800631531224,0.42583028740455464,-0.4216305666340443,0.6767219975036554,-0.22753074891810304,0.09742740165162397,0.21419060688788094,0.18736746263372941,0.38763968258333015,-0.7424544397480973,-0.905183372995053,0.08771740754220018,0.5015019954128395,0.7069119059943452,-0.017542060811828186,0.1380930344186675
