-0.748026577683798,0.982983241172722,-0.6621045859929915,-0.8240011287880966,-0.019272158555005747,-0.9820916573839018,-0.16850367809717248,0.258242480230235,-0.14564457846682588,0.323659949558158,-0.8012459745353451,0.46251679141052127,-0.9801874997371367,0.06111402750184669,-0.4872303496255168,-0.34616788457002196,0.8197248930384649,-0.26027965266532815,-0.1153244266345188,-0.9000754465101339,-0.34668229391607674,-0.036619385577284724,0.6448909884004923,-0.04583552868734153,0.30459623538438385,-0.5849476818365063,-0.3530157662679445,0.3622021866016558,-0.4745535735687132,-0.8095623035373765,-0.05636599029312683,-0.6962633400211253,0.7257606261467807,-0.6411928455516679,0.6811228334766469,0.8331743037515267,0.25348151702815375,0.460716636596687,0.20365173400811679,1.080114934991213,1.136124110208311,0.6221499293545474,0.1536154945452333,-0.766800724989174,-0.8558761255876756,0.1919891082897493,-0.625279639128654,-0.5579411488301074,0.8259895527534452,0.6608172050602157,-0.07051498609635251,0.3041991736256289,-0.4537863294119957,0.3926849685637075,-0.2629202929816308,-0.8874031065496018,0.6661297138675011,0.7712391188113741,-0.054842808942521824,-0.1705757834744036,0.9855984758882843,0.2080507732741565,0.09752217983796113,-0.18626412713524199,0.360190115970353,0.831784560690107,0.2819201331364488,-0.4778424674100337,0.8902579585251629,-0.4519706857775302,0.9210046216156272,0.2315326368803139,0.21240011173303855,-9.96239723372981E-4,0.13153172889915082,0.26118269999784194,0.79491168355074,0.5851929921691754,0.05782761378932213,0.05020800559969593,0.5507244497049893,0.0070050953797567385,-0.14745695937255987,-0.39920924015498915,-0.12119486593342743,-0.6505442184669701,-0.0012191839615493829,0.3957150984282828,-0.15072531540572223,0.2822396304776545,-0.08104754247055182,-0.8447666215740258,0.8309015950158819,-0.010799140917415746,-0.7850049352949976,-0.03951490151344699,-0.6853672312901589,0.5345169235161482,-1.3341361788641384,0.2502675414302588,-0.499500048069655,0.3129741672807806,0.09966259670527577,0.6334478601823098,0.48661983361668776,0.5888988490779934,0.5391866689732151,-0.16762180078522615,-0.6755646343987783,-0.6801165042288706,0.9705265077942593,-0.5151389715991694,-0.9194587448171831,-0.6948770611168401,-0.8575064414478725,-0.4924625756009831,0.5562155040788394,-0.7443622340417769,0.5200918344476696,-0.8452241751469785,-0.588187515449498,-0.9306029139294745,0.031244498612494776,-0.6485251180072409,0.12618972768097061,1.4421086072585332,0.24805085658734255,-1.1041531807108267,0.6012479063324536,-0.38070134119302923,0.6025319804031977,0.2545668607067156,0.36482669681053687,0.8513269678252668,-0.7712196220587066,0.3594475358727201,0.07985347404373987,0.21496313659544586,-0.4492661228333775,0.9320408164095887,-0.24310827877036467,-0.8324188356531046,0.6708047484077168,0.9180878733744067,-0.5206498227644925,-0.8681556735715814,0.4939764947421845,0.4353781469679307,0.023696356185028987,0.7192703711640822,0.1568920041982738,-0.4938864412359058,-2.2633275805709117,-1.214868584903862,-0.38898416832869825,-0.2083830700263687,-0.6117143318434405,0.3848466633750834,-0.03457111768787144,-0.37360234281753596,-0.7425957629094918,-0.11414134204038033,-0.15445986726868177,-0.2752331720661543,0.33886263186826654,-0.2819090431051451,0.3036904218356713,-0.2970602085216436,-0.9925736215276222,0.5811614971693946,0.41743748212550646,0.376253556413613,1.5346601725017477,-0.682129618500977,0.08313328287502983,-0.8912661946900373,0.20668945781985681,-0.8651425053410562,-1.2268464193048734,0.12517941244827746,0.25952464816524096,0.2677081924255073,0.21626887559579222,-1.0277549431695707,0.3164917425734998,0.290414719370755,-0.146671952981855,-0.07713631162709048,0.001971580954159175,0.5093947683709231,0.5725012469694535,-0.22524694684153368,-0.6408049924860508,-1.253252072740026,0.14360520502755852,0.7977960915589342,-0.09926169176081605,-0.20321357002880214,-0.4336166349136661,0.30588946035482656,0.7898235484110305,0.24435256724819868,0.24600799736129064,-0.06131475641116105,-0.022678093689891685,0.5000662916298297,-0.5046901661013858,-0.16682009383852558,-0.664167977777168,-0.11170189218004245,-0.665355993663098,-1.3796005600832995,1.0569694277923865,-0.371965132723443,0.27683611495167604,-0.024599469101788785,-0.06649545989723067,0.006406199141463582,0.17526791392255273,-0.6434908247820194,-1.472792338503686,0.2665239911337625,-0.5467122455054888,-0.8262410302370611,0.2050521641804805,0.4634843491353896,0.251035182020336,0.7591685870810846,1.414399956081221,-0.2565837771305321,-0.036885035720459335,-0.2936169335650272,1.2392799979960494,0.25406758661584045,0.22916334154037943,0.8497732551381341,-0.198979706477775,-0.527078420291057,0.047827080524342064,0.881137797056595,-0.4603216841934361,0.07056999887784922,-0.14205100696151576,-1.0198340456788586,0.42677859550367875,-0.18129537203645874,-0.08617496389603614,2.0912792421123827,-0.5278881015102663,0.16150345047722092,-0.39196028329384347,0.9839709067776532,-0.6170882946937473,-0.8467726997628586,-0.10402914954592138,1.546367527106025,0.33390827975132037,0.91089778459382,-0.3974421188647683,-0.23514207747060192,0.6055701725019216,0.9556668226882084,0.4552173686786192,-0.44148961757150595,-0.2571383922093208,0.27254777855249446,-0.06389655164701333,0.5337057983254959,-0.03481610889982796,0.9259523963465405,0.6215107558297348,0.2388104967476702,1.1025340285561633,-0.183580038068945,-0.28101308703619887,0.944277639997643,0.5126570183710866,-1.2576412046636172,0.44563422362358657,-0.6408155683273126,0.7458223913576666,0.18614207427795829,0.7284531506769059,1.7556017452341561,0.028789032781304433,0.48027853098556583,0.8159422700143429,0.10523434606209263,-0.9547173511364515,0.061587023441441215,0.8388884869857148,0.3000232460871634,0.9888174944794395,0.6383341287424981,-0.21010792121552702,-0.43666304465987515,0.39536001653974323,0.5773969713643436,0.036933206990704584,0.8919448550912841,0.5831139987968806,0.6325698388493061,0.7355710942403949,2.1682441727766446,-0.5056141169329728,-1.6656708118729844,-0.13874837052149408,0.337994191449496,-0.9717765752780865,1.2318378456046692,0.7113498557420206,1.0112522542963627,-0.02242940570094089,0.5402154334893122,-0.5918354584834533,0.1725856351879014,-0.5338419058825554,-0.13450447996269604,0.1111441783223105,1.2545963813770973,0.2853125257201667,0.5467997619216528,-1.771399452846515,-0.6883508177350325,-0.3276363381292702,-0.28276398174333245,-0.6461282675442327,0.7370471045846572,0.7008215625531917,1.0811841562908295,-0.8772405036025032,-0.1432454646229047,0.5244056027800051,-1.011253244734318,-0.20483263636676902,0.7626982696239945,0.8199405448712282,0.008905020292535945,1.0502093966564692,1.5375397265186508,1.3937847030067967,-0.21544210628796798,1.236655331861759,0.2375391297633907,1.0406271559923623,0.8187024962226147,-0.14241439354636912,0.41316430709522295,0.6757918242094428,-0.9626007689469591,-2.1095935681754985,-0.9480881050209621,0.5192883793139362,0.11766523273731384,-0.5745638115353128,0.30126098015905245,-0.4479596969963307,1.0083077045401168,0.04866380101587927,1.612043241845612,0.5848956651457197,0.05810487195632261,-0.5160657326483251,0.051794006141252534,0.5297114891844966,0.031224903366915555,1.1104328802752705,-0.4995002253202854,-0.2732616909995924,0.3525066764992495,-0.34950552085586245,-0.32505919024782026,-0.4482691729174381,0.8722672955156953,-0.46765305923392114,1.3600597659252183,-0.6772265339601428,-2.197193541968499,-1.8203929168284485,-0.8893386809990023,-0.3588301925339118,0.2717708525130036,-0.7071738507055265,-1.2737508479519064,-0.27932431850645895,-1.0648823393842772,1.0652878374885772,1.3547123021061926,0.45264536549026746,0.5743127012099842,0.3441164019616571,0.3738335801803599,-0.7025241078275845,-0.06694205016818566,1.2544136755605404,-0.4059196838143909,0.3014695863922577,0.42605274402608717,0.6480117263916724,0.10825162896038484,-0.14012517603298377,-0.6002758853616331,0.7450987974185224,0.3699083947043676,-1.2412438630522014,-4.350368539996389,-1.9765337063208894,0.7403003706082708,0.1465907395339623,-0.1624878433066249,0.7106161457977126,-0.361633075892563,-0.006280234390494049,0.7061857189146767,1.4999550140373,0.4092073572281393,1.1949923778271365,-0.2544942176729943,0.8049331809677164,0.9047953473109738,-0.23718842515212196,-0.4296051735236587,-0.24802407044981983,0.6352868952713396,-0.825506734800387,0.27415951276382144,-1.109904202311457,1.1842513684174463,0.17616464878224222,1.4039104584236686,1.332038741116705,-0.36277572169603817,-4.098095617227189,-2.93214018284485,0.059982435201183924,0.05486842434287812,-0.5964435962406353,0.6188612702352512,-0.5583280240930072,-0.12781969973764487,1.1156528697308397,-0.08165167003630511,0.40195778730128795,1.2690975993240128,-1.3564951852401577,0.5433955259190263,0.38446325733717834,-0.7789227054013229,-0.011009165741136206,0.8084220689689848,-0.46336898301369633,0.035897479054897166,-0.10752753547632675,-0.4252016605017254,0.34418368455254356,0.34057653639453733,0.35710916739187226,0.2440224203897789,-0.041562417777405894,-3.399640917596547,-3.8173374255949013,-0.9134463020473649,-0.18441916401806485,0.47951455362241746,-0.9317647541738797,0.7633208530590442,0.08304572602673989,0.13357748285115725,-0.07707742658422821,0.15613942921894777,-0.4697024167618305,-0.4763671988641636,0.5325901279794961,-0.5697172702765991,-0.5357609672841429,0.4628774016051778,-0.7421888270872703,-0.4210482734769944,-0.8207101117075203,0.33721721490192064,0.18078451041089927,1.011097802015687,-0.918292545946631,0.7359888658234367,-0.45242567364855163,-0.18909064700739037,0.04512170641660058,-3.214272550402853,-2.2041866014415112,-0.13408157719131336,0.9802194997758226,0.6508997017384288,0.560345084846416,-0.6159578076162332,0.07642334391755223,0.02801058093162182,0.3447375465578958,0.11769874663271923,0.6212985815547103,-0.23242709117472746,-0.5817272961172475,-0.4768616887022403,-0.8671050177576477,-0.5141573979627366,0.7552669708436907,-0.8209225902342707,-0.5892045132914742,-0.0720145465955345,-0.21731303722988293,1.667297223258533,1.0718208356534815,-0.03360503850462472,0.8235506771108112,0.21312727499099002,-2.1559429233885794,-3.230885570103024,-1.7346189559654244,-0.48669894061798663,-0.08765197292252479,-0.44939158161728876,0.14539210707998104,0.41455324814039773,0.5844495642985246,-0.054865429877964084,-0.015351778535687937,1.6444853240005628,0.24718490684722952,-0.5643759765610963,0.2464373457206407,-0.9613391588605085,0.9488029067211683,-0.7518065884600554,-0.6362699553248676,-0.16871055570029636,-0.8715127919412412,-0.33855984548610624,-1.028839582484984,-0.4860223977614064,-0.20512899929027942,-0.06553642509253717,0.18140958261346857,-0.13582278660804886,-0.2491366585114022,-1.1578410269147228,-0.682430299349798,-0.8485852714633538,-0.4141038119003066,-0.35991456276510364,0.1606878972231634,0.49314842498921563,0.45326866170077373,0.2959502803539176,-0.761712732101509,0.29313732616384636,0.408539731109511,-0.11487762805439915,-0.17378393962075928,-0.8314120650423217,0.6110164494060252,-0.9729139508374641,-0.8215342091832105,-0.8278632812238622,-1.0279231418463997,-0.8085193553362986,-0.32223485517554595,0.25524387749021193,-0.6205725386164562,-0.21262555993650456,-0.6754699669791966,0.7286092830366853,0.28690338362007084,0.07258921746811384,0.5699307356678167,0.5189752889134649,-0.08859127285548399,-0.09160247916593409,-1.1729631166927188,-0.7773929204988507,-0.5832915314550343,-0.1605879775586715,-0.7537491516080113,-0.5213710130130148,-0.5728860768558459,-0.13373084780813946,-0.4345609805293063,-0.052260182115548164,0.028194470899597403,-0.16185284596072966,0.0680978913258555,0.3802822896515159,0.08791888406129279,-1.0214974445831395,-0.11161831931652155,0.40013970217081696,0.2158995351528649,-0.9228400408500136,-0.4077390704229157,-0.22678446700654464,1.1079567702968613,0.7164368431357157,0.5085909942384617,-0.565562786500155,-0.40508380505144476,-0.397368301863885,0.7350424543348762,-0.09275305001787156,0.9998911383999124,-0.5850250493424787,-0.3127487331672944,-0.2701458669363852,-0.793264923655909,-0.014872584698276346,0.9524158164245754,0.08831302273371115,0.11367024411863809,0.2060993553917869,-0.8070180019212905,0.12963579523087146,-0.07777793222282857,0.5331577429622443,0.017999806897024604,-0.646740720802787,-0.2655972750974941,-0.015117176915280847,0.4820500840129647,0.7049185150613151,-0.2202455296472206,-0.3595689349690675,-0.7550184041417598,1.1131708465501478,0.5240059911705816,0.08878697154870886,0.015669963481000103,-0.9545675912807425,-0.3168083940920842,-0.8616623950670469,0.03942596687127847,0.4423526350900048,-0.9500418843293879,-0.3708474221304478,0.49579820502816535,0.4398993163337425,0.6727703199846642,0.49697500350481644,-0.025812083130811292,-0.564046159373288,-0.08939050841830035,-0.29823091801050583,-0.3451624079106959,-1.23928189290098,-0.12598267795789947,-0.1347653663855554,0.3992570459106975,-1.1521260762534358,0.2574034003211356,-0.5960478807670926,0.031701553209204765,-0.4445485615567055,-0.1252973750987897,0.5654150932918612,-0.6563010203138072,1.296947885585111,0.3685176669432166,0.06505866759893521,0.11575579197265964,-0.8314723469905058,-0.2587619045051389,0.015651614244774605,0.20670807969316315,-0.4502900828281735,0.7285621733656711,-0.2110019200061728,-0.8432955609050798,0.5707602169927699,-0.16996732766458597,0.6065013511864688,-0.5330109318121409,-0.09974564311829909,0.7353935454129861,0.3455193882812862,-0.029881879669053337,0.5081569574738212,0.05246350993544293,0.4842032571724221,0.6937787953138437,-0.7020330079593907,-0.0800120915251135,-0.6876006837741145,0.012916633080887835,-0.19375277655114492,-0.5156292936310027,-0.04123190633853934,-0.1703803422513607,-0.4937022733896021,0.3408808853795156,-0.8536697542125543,-0.04546324667683721,-0.9007314208691267,-0.8538914426503182,-0.08132248371985296,-0.5729719603614543,0.5606295680286326,0.5848490460031213,0.08856501234558521,0.8034049135295843,-0.19331204745764702,-0.13037162187896634,-0.07572423318144576,0.25333989669877066,0.6652745391590394,-0.7183858847555629,0.9414837340694808,0.25470695943657023,0.20595483962755706,0.9160408289079945,0.10107348364699517,0.5160110409605259,0.37119701116568415,0.13801554309984315,-0.026857763993927416,0.38913622077740717,0.10677985324434361,0.24064663263782213,0.5601512110236888,0.5146782241142717,0.18850596852552698,-0.8310383480216358,-0.39283881941839227,0.8673018065767866,0.09181602930224741,-0.7593028715783827,0.6537465411762061,-0.11462165211329668,-1.058494727553929,-0.052710717495868586,-0.5150110094163344,-0.6259008780432064,0.7617571899049068,-1.241792872904634,0.057594772788019354,0.8173105086477898,0.16565625167345593,0.1805939215309713,0.15374958903788766,0.7998199521245658,0.4994983082910787,-0.011637850428956148,1.5105844162575355,-0.6003730032560881,-0.39509649558581206,0.2975674655997942,-0.032280470346811245,-0.8844036311467524,-0.5145778748697448,-0.0417586937125658,-0.7571182803724854,-0.7198775842989622,0.74619466769221,0.0892437287551675,0.7129714043653164,0.49871013957399757,-0.6542317965420561,-0.21597742429064753,0.0038941675970726205,0.487327246227528,-0.8776923435753058,-0.8307776905726616,0.05251181452088704,-0.7533204526271435,0.12585899758308355,-0.1884922853281514,0.281011872627595,0.23367855868880932,-0.4886542809454407,1.174804115373183,0.024046004128258545,-0.17812371849681108,-0.42675158783719075,-0.0014496146953994924,0.1423281090592545,0.3768919663733934,0.5297983633551993,0.010934759509510616,0.007366242198135087
-0.8924125882014058,-0.11269454831608194,0.2786703599242304,0.711248589777568,0.4518551614274062,0.21039208313890656,0.45184072255619245,0.08879357984488756,0.1567043901632268,0.8363849471604035,0.5318356350267719,0.4857888942518831,0.5906123324387568,0.8888309441387171,-0.9177698499860675,-0.3122049115986729,-0.9652434826069625,0.9765335464948917,0.26123590111747985,-0.3062429056354541,-0.26922459476227667,-0.5302052842975076,0.9304146022466899,0.9807177397706359,-0.2771826320103914,-0.6829028243979944,0.9390568409876332,-0.41998383282076146,-0.7048922664173924,-0.6546355541880811,-0.03360972294985731,-0.9783362927420511,0.11150266633371687,-0.015345734319955584,-0.8501607611892331,-0.9975588795854612,0.04365577136240275,-0.5535370477727829,-0.86678462723569,-0.5083438334637513,-0.8771557957028556,0.506854013064019,0.10078596332333539,0.941743005893898,0.025522066166642828,0.4538453316415204,0.2903281632636803,0.1252811849695198,-0.9207835310791304,0.24151294931780842,-0.9012505456669611,-0.48637915968347784,0.010148509575426345,0.8805419223662179,-0.40544159372887467,0.6439606227883863,0.0149630720993712,-0.6823145040539746,-0.39420501284340176,0.7488102347530777,-0.5087061914404509,0.3541703260447373,0.4577768001031807,0.661859027704716,-0.9502825338732466,0.5323192748000106,0.05919717156389091,0.2938168236348428,0.4252910454163111,-0.3366899855257788,0.2831122471291962,-0.7939197305675869,0.9339517038119128,-0.15048271724971088,-0.7541260307319428,0.14675962003880502,-0.6912890173766553,0.6579675887271864,0.18401357150654665,-0.600624167363928,0.8498686236059494,-0.8170738950682731,0.006034832512410659,-0.16108270578251638,0.6665317268375797,0.6060330647790793,-0.8747180511399589,-0.1115472750900407,-0.18895287994523088,-0.7338122404642599,0.7955286410281829,-0.7428127202746918,0.7286450265790809,-0.882340421443242,-0.06173149051936157,-0.8111123821866251,0.541438116099328,-0.9149361322317082,-0.3635615678166836,-0.9586828196768977,-1.3213902635118193,-0.3110628031603824,-0.7243031405883469,-0.9925949802993809,-0.2858826807615882,0.588549150418294,0.30681613245741757,-0.71707431078791,0.840692814517765,0.5547455381003638,-4.317451417169523E-4,-0.33167453286853665,-0.9904211169874311,0.455051586228957,-0.1694200993235929,-0.7215095979086658,-0.9141948069097731,0.3303138100717383,-0.2366702125787739,-0.7747320422293325,-0.30094122105719173,0.16964136448743264,-0.8933403295063249,-0.016028634264084896,-1.104772118271747,-0.696118998530624,-0.4371619029650483,-0.9471184945670059,-1.8836994349880245,-1.9701773038915862,-1.3927881766844865,-1.4325765613358352,-0.2701051820288503,-1.1723183653508176,-1.0447523950231417,-0.48969868576753195,0.02423641943919556,-0.17171044168736352,0.782722208067332,0.1719180880570096,-0.3360590739476639,-0.16437553929682647,-0.26030556904413105,-0.03587384454302648,-1.0035422131256824,-0.7338259297626796,0.23663689503618265,-1.1784165265771975,-0.5170463269242309,-0.1675614818817243,-0.08487150626684996,-0.6040222231623406,-0.3233379865758165,3.0197379511631555,0.12722574058739033,-0.12258182279118104,-0.4851329658509933,-0.8407838084096768,0.2477408974240932,0.46241245909325,-0.6727515992543535,0.47774304047045774,-0.11025468751229826,-0.24070974562386688,-0.1497075896755857,0.2515319554166687,0.5870466135538414,0.8533226153214091,-0.4766037894097628,-0.9641077519198288,-0.7749987141177886,1.0496359622596296,0.17223150119070504,-0.750565976636802,-0.0675856061930657,-0.3311694492610858,-0.3640595296475718,0.07170828675210371,1.5207074158383054,0.3549887851161712,1.460231341663641,0.5472614889495254,1.6188602545089288,1.979472142377658,1.2713163791675488,1.6522589079658998,1.8899542463267622,0.20719386820323651,-0.024065937601476944,0.9831204458056926,-0.06771447878493725,-2.0214640103866204,-0.8901494608539148,-1.214342985135261,0.16598521665576496,0.7629774922556911,-0.11647532320782207,-0.12475491640197778,0.668457618257714,1.0871448720397683,0.6003790793703876,1.0726627467470025,-0.07775779268255208,0.2844730325199098,-0.6845525778319154,0.2936294975274837,0.23553451824669341,1.1288413600678193,2.6388706740578276,1.6815049649656664,1.8574966077331214,1.6633847801098873,1.6778527411634172,0.9311718770835405,1.564701674808079,0.6971043277770838,1.8814737254545224,0.5731504390580493,-0.6391356052940048,0.2426745167130543,-0.2522699892804555,-1.3089505832257182,0.734159575827066,0.8701807566998218,0.27707886769787127,0.7881770077574309,0.8174323426428667,0.8284303414305002,0.2073083850532443,-0.5588399511939587,0.377277133216396,-0.7546109255564538,2.2104998134431963,-0.37096487824612995,-0.34633900548243524,0.4837704814595529,0.8157434007034543,0.6639151661053381,1.6836449518041574,0.6779737753781229,2.6699533386966996,0.3269672271074338,0.3673618063939395,0.2648380893208275,-0.5186944976846382,-0.09907334803514328,0.19813705461493825,1.0168583417131274,-0.4212317825384824,-0.18892110127604322,0.014898040463991536,0.7640457343567216,-0.8988281606440941,-0.9314433068317184,-0.1554019605236207,-0.10891735814846312,0.7007862834988502,0.8609244578358562,1.5306144972314368,-0.012616451701385901,-0.2602319760820017,1.5125307888366128,1.1465109945942176,0.5652597096964539,1.3179371404459497,0.5553344183220187,1.6427369756215624,0.9843560356394687,-0.48349556035042657,-0.2422729405337912,0.8720866189285857,-0.9261247261646057,-0.11559153030766951,-1.637193186254718,-0.28746684051264015,0.3106528668192502,-0.512155258990835,-0.9156915341050883,-0.33093436244660596,0.6192353705719871,-0.6862122591399611,0.30749178939517696,0.8384824832291005,0.6698458975655553,-0.7576040180158281,-0.43135319087167434,0.447585666675014,-0.06593472920598092,0.38339420583258255,0.004264802241983216,0.5341539966246232,0.40127804808244116,-0.5249034789427126,2.380353837953626,1.7562964894393225,-0.33682287605114625,1.0183706232940977,-0.6986718267319494,-0.31028855215770734,0.0648626148762303,0.631299107021475,-0.5260478307151744,-0.4161553823809768,1.4167503984538676,0.9478858862212859,-0.3697522771273344,-0.549301279692035,0.6081245835228601,-0.7802354852617082,0.3662563708122376,1.2065563555645025,-0.456492523595225,-0.1438224096663098,0.447700916256011,1.8979271293955375,0.7888035226776338,1.088663923735609,0.5350671572958536,-0.04617111894059885,1.1033196200798434,0.9243937436580062,3.34528979766361,2.269937704413095,0.7585118929590686,0.27287541585567926,0.6026907578042043,1.8210889350243167,0.022508419334240408,2.0852939393232113,0.2788005305320741,1.9466058521119343,2.0184520198094136,1.9744762570874987,1.2332743987071706,0.14684305977586518,-0.7520686573473645,-0.3687930571153004,-0.8279524291850553,0.8960475284645517,0.9079527529786764,2.4599135552817617,1.2591033034355554,-0.017835952702402378,0.24376446184224318,-0.2046390882107641,-0.08107825766446018,-0.44763333216334317,-1.4606004526400171,-2.0808919469445395,-0.3520790770003151,2.313781518463645,-0.31323512595807057,0.3024338153592244,2.130762676781431,0.3731261141881112,1.2480614118814133,0.7776162062727936,0.179876281447438,1.3482917381836232,0.19402199895443845,0.5679867262097676,0.6357060564773934,1.0195081424266772,-0.3695887555547985,0.30275081674190524,-0.12307858625010412,1.17762535096279,0.00933515915182452,1.0551678803046032,0.9207282056324112,-0.8382820179337991,-0.05506423442038991,-1.4193681878593192,-0.7202277506256963,-1.705003817346153,-2.962195065120292,-2.7848138479452715,0.038352230894262054,2.315063998371149,-1.1089237591081909,-0.34352428148337044,-0.1663610469843078,0.143888178871325,0.6387659262072403,-0.03341907601867052,-0.6317755935198432,-0.13551614104209345,0.2678966120497445,-1.1311526819140931,0.37793471849358173,-0.2609737986756154,-0.39047725908193315,-0.5107932688066394,0.4401173680872474,0.5191470617020363,-0.20645217883222244,-0.3922989000479315,-2.1076599287185678,-0.9121334331742234,-2.002027506395404,-0.4654799169186235,-1.7436828401171836,-1.066362482316126,-2.309365502015429,-1.760755208917226,0.3115735063687011,0.8967773593663128,-0.34515925277427423,0.28671388706641937,-0.8410531330845996,0.0723509365957606,-0.11512460252748591,-0.7610643802333455,0.13958006211289237,-0.09045537900172493,-0.9050790543100823,-0.597053455125942,0.7737717846624838,-0.6467794347730885,0.7835436212980109,0.18478022803355,-0.7496018923304049,0.06397974826745,-0.377976698768341,-1.2035085216704353,-1.6475447838460098,0.06564044810759341,-1.0232466354760805,-0.44576115907402875,-0.9040991907353395,-0.17400375555881353,-0.7600141425726972,-1.6263494547166422,0.08754266085867378,-0.4211899650074327,0.6077398021941735,-1.5980786152054807,0.14511754858127074,-0.1926719353412882,-1.4334338784338398,0.05425569700995519,0.9783303532525213,-1.4300179143670202,-0.37799768535341405,-0.0631246665727569,0.2183018554134272,-0.11374083886458161,-0.6994554914011053,-0.700541874569352,-0.1875039903209265,0.6945585648397605,0.10559698689558318,0.01765096662467595,-0.0645116675036307,-1.178900461247588,-0.46396785882105895,-0.28571768619000876,-1.2460507293075676,-0.4859443687297945,-0.15792029808444744,-0.2756934911934574,0.015334208588302471,-1.066139752281692,-1.3382286231017415,-1.0193565959707016,-0.21208215865973543,-0.25570743169361587,0.2804462242465144,-1.570087189225125,0.14427994687679324,-0.3412657967221336,-0.5212876494107112,0.13837354683598943,-1.3421835007640133,0.6502758279898556,0.5026643283397626,-0.3457653563184926,-0.42970083883448046,-1.162979063845749,-0.10982777810172774,-0.09957634509910408,0.5066256018779607,-0.9807844318915983,-0.4185054038218137,-0.7177068304367239,-1.9931610392827324E-4,0.34056423367571076,-1.0945297318520817,0.8214607942429467,-1.0427013613022689,-0.3436048905101085,-0.7603491104118894,-0.23111250634744376,-0.7393019394175384,-0.49761562861974534,-0.5816947640062958,0.06869007889256602,0.4106662939348323,0.27725970876984585,-1.7830506450602832,-0.2957707091375681,-0.1673621416122073,-0.5805184055150391,-0.9789431414723775,-0.753098594446431,-0.0128028927202896,-0.45110697861639204,-1.034669425613353,-0.34150050638635904,-0.9254470014658202,0.625742938884168,-1.8430598490039072,0.3666979561363804,-0.3076432634106106,0.630890259956536,0.4966919800688845,-1.306180569732513,-0.20141807642451218,-1.2423208573753886,-0.6065854431069705,-1.4152176330036632,0.4124337633477339,0.8560048067411544,0.40787954090183914,-0.06309893807914106,0.8621032956670011,0.9011110235078447,-2.343748993737404,-1.6241261287704258,0.2296355411775314,0.7790182188562409,0.33443949638638765,-0.30251042779110254,-0.20097063429915243,0.5285183795127442,-0.14835487164698147,-0.542216894455541,0.5473847245401675,-0.4727696308932257,-0.36472935714240085,0.47814595852425684,-0.15641293164132916,-0.5220304271428421,-0.37475612242580664,-0.1411078053214995,-1.6393237612723504,-0.49953123041980946,-0.4302875936115919,-0.9753446707066575,-0.4923634698323964,-1.0803618654606695,-0.002497811187598119,0.2064779295976073,-0.6332552799866071,1.0275890970366028,-0.05868686951400941,-1.0858448295772014,-0.9122037728363082,-0.649467157777809,-0.49259498640776184,0.37842487170997674,0.4718081264223972,0.7243870323395548,0.17944709773141965,0.7419432030362104,1.0152826836259312,1.4644275994796427,0.8169800440623146,0.18063976480969113,0.03735883195363868,-1.8279589167505905,-0.7827371175156274,-0.4739885497545886,0.39389575237370483,0.5027922255106884,0.40240705572921076,-0.5615978984591905,-0.8145744662930996,0.020869190311472156,0.38689872101705686,-0.6568859471026798,0.04643673358980895,-0.21804783358467564,-0.5162084783890214,0.7607739134440907,-0.07931091592214903,0.021492850628163602,0.22844377285402717,-0.20172358040015262,0.5296867806561533,0.7711474935485441,-0.5548394967201723,0.5495620123297623,1.4146426360637845,1.1849364832294917,1.1512076461294867,1.0886997896420567,-1.0783595034242754,0.44489702500577766,-1.4225817396830815,0.2195644479566705,-0.9081875923015662,-1.02336253887907,0.2745257841509866,0.6908023591416231,-1.3772199072906959,-0.025514587232375947,0.11811230569896222,0.24264488346416532,0.3110325285987947,-0.5574183312498663,-0.8467683643331466,0.062241797012817,0.3305111637697229,-0.8045002333694022,0.04613204315005305,0.5138040625238932,-0.6802769553388731,0.6417539835626431,-0.06227757360852905,-0.7509254627452246,0.8381054717230209,2.3463335188076426,1.5478791067663207,1.673008438895813,0.7278369198366553,-0.10933686914352182,0.0799451552955827,0.5499110594636561,-1.8056029740280193,0.613812958967586,-1.1365291158384268,0.0684641396297324,0.9604388174267549,-0.7335040976595791,-0.6315776506959088,0.4756121776124435,-0.09824477635715059,0.5541498367948656,0.5010561750086635,-0.36056115613565665,-0.8147893802120689,-0.09483739671155968,-0.37913631236661416,0.7839670195340573,-0.5916262541159276,0.606965958677796,-0.34597260344159647,0.582771521534032,0.5729922811922152,1.2841012029331098,0.38103600948664634,0.9251192358271043,-0.039370785813769245,1.9577456300846214,0.9184486794987412,0.8089305620504984,0.6486276582824105,0.8663158497470794,0.9145693221299043,1.0230221493587845,0.39022022840923615,0.6427284739906098,0.7492464364973008,-0.4400076257945833,0.3749652174984309,-0.19267265875189535,0.9559981267239791,0.5993221635875499,0.5280966338087715,0.8885623523661512,-0.23773255554006067,0.5253915098920181,-0.4665549080898448,0.6147990641704723,-0.27784735705061187,0.872765991723211,-0.009262500512686426,0.013176141561165283,1.265617631448158,1.772074721217468,1.5976106875951939,0.46239445927007516,0.30079495606186324,0.6691895474641024,0.4951692014966609,0.22690145995583683,0.16417844562830256,-0.44902375403512884,0.146584268990712,-0.6538885966378287,-1.6554302244599965,0.46614450780349553,0.6262441697906137,0.1859388981394352,-0.30115085037191713,1.5326782065368427,0.20803803082130398,0.8601179375074123,0.8409261551592146,0.21111625819621804,-0.5516629651234393,0.12265014106523664,-0.724903073640765,-0.3267333663632609,-0.12686633989366397,-0.04238982046311491,0.8271714580319403,1.2564253558048573,0.4043702853717204,1.4298701719677787,0.8159454079629784,2.25021824574325,1.2846798816310956,0.7670780545074051,0.20755188272507366,1.722750001178371,0.5461863196993093,1.4666210294180275,1.0856129815141744,0.9368880721769115,0.8070419011898156,0.4934187627176768,0.3197025558748627,0.08005590461528371,0.28516888218917563,0.6890454241792563,-0.26983264973532717,-0.5754634831805687,-0.24570526091635836,-0.9087849350997999,0.9840233379339001,-0.8012122666484429,0.4257262538955,0.9474923661053214,-0.1382406280561302,1.4236787042034844,1.8443964343198518,2.169680211663547,1.2964620321907185,2.031488304684149,0.9440055811207705,2.2883573550503273,2.528211712580842,1.355077010965485,3.0158787683227035,1.5145818790575158,0.30583373347289977,0.49522817497268706,1.068358791304963,0.2619403846265895,0.7441729845702231,-0.7143421780176425,0.8043012584905297,-0.7700417468220344,-0.6542363823836261,0.7822815925757447,0.008533043340678725,0.7465811144691665,0.2155813931803623,0.36983671414208236,0.18838895714084736,1.0164765673688207,0.09369454927550099,-0.2732241499157274,-0.2777203979361339,0.036726937532020686,0.92572800256535,0.3874815524502334,0.32793394348911564,0.286459331965716,-0.9157359282593626,0.8180928224290202,-0.8765968706525221,0.6173270511828604,0.6945307922275493,-0.7651257752477063,-0.31605196543204567,-0.9164275594679976,-0.49190596023407757,0.08004759951459706,0.8131346673787763,0.7092887639926628,-0.7873434261629833
0.8793168816921315,-0.9547907190925495,-0.40284815725726064,-0.2631305391888259,-0.0038099679116885277,0.2969868827707034,-0.5643831418013818,0.7014843066922252,-0.8365068602215049,0.6548756610121385,-0.050012939084681074,-0.021839981057169,-0.627826357054943,0.10331235337800909,0.8178648247261128,-0.9829268326936055,-0.23490664822827134,0.39350223235537496,-0.6416794844196891,-0.15161971191539503,0.9478297545277485,0.6334141117993914,-0.0011747835846553922,-0.15153282946140534,-0.6202884307331871,-0.15739532414258117,-0.49803763059287376,0.2866726051140871,0.7864763535884716,0.52529508695604,0.4670966536787595,-0.3455004060345068,0.8794251072861154,-0.9011038225511738,0.7183696461910236,0.8338181104456655,-0.059881267288850605,-0.376729524359793,-0.12524970398399315,0.23930750700071668,-0.66906757653242,-0.6719473783845084,0.4711149101392513,-0.6658360569475437,-1.0845197046164539,-0.2126978449360472,0.22624306411421446,0.09558269502839893,-0.8839620089112498,0.48639238310099536,-0.1289361183798606,-0.41983977025123737,0.913513022323472,-0.24755672061690914,-0.19207137547961572,-0.5044754500031303,0.4450921950764708,0.24897786746744122,0.6706420319831176,-0.47675115264498064,-0.9875943926775992,-0.5297576631967155,0.3924163808831109,0.8018845377742513,-0.42264123484274974,-0.7882548957799607,-0.18227747347067547,0.43425973880739493,0.8385294066289476,-0.48858044934984624,-0.7623066453477313,-0.23756327794505225,0.7209196288032751,-0.5437078322384116,-0.327554313733412,0.5943950945583587,-0.4007687064636213,-0.3501442073743093,-0.27958599346117485,0.16468038928458753,0.2839054705009747,0.8196271658328992,-0.4859318767930698,-0.8627779873848371,0.055339320168892536,-0.2807004620728726,-0.26586273976726693,0.34145314683452316,0.2582341021715198,-0.21496801816204922,0.6872279842676213,-0.06558390000546847,1.0208604255018943,0.7158769524264522,0.05070647674333059,0.33457316843141205,-1.1993012070160327,-0.4450601682046919,-0.913465489183168,0.24677890382457535,-0.5126342652866877,-0.7788357714452591,0.5561309343066623,0.33245389354560273,0.23177482538597324,1.3323681997872727,-0.15102018713230728,0.22993508258187487,0.9088310533483294,0.2966970102720985,-0.8358660796229296,-0.6146590868815591,-0.7556326488302985,0.838337044218208,-0.7022963397529416,0.2741643003445638,0.5376227824302406,0.24151157278910113,-0.17183567409904896,0.21591909666093023,-0.30739814637906115,-1.5199974213050034,-1.2715990573008331,-1.3934649037234275,-0.23943504188472822,-0.9089740896505714,-0.6065832579730034,-1.50783243822296,-0.8238721491428189,-0.2977208279720078,-0.16577639654619822,-0.1541347550924838,-1.136319935471116,0.540400375155993,1.8042928582688231,-0.050602201309406986,-0.21855712300898358,0.5238767925417454,0.5610094539771878,0.6994397161409723,-0.5727558174758902,-0.5528278520710201,-0.005680004527400612,-0.37332300012756126,-0.9045624566463858,0.33054278113234603,-0.9820694512751951,-0.4486127755837895,-0.5395328250639584,0.6177605433041377,-0.45033408369335237,-0.9547830502620734,-0.12809724413335913,-1.5527226561316896,-0.34509533295606226,-1.0542310169289097,0.020662764495971885,0.828563502918561,0.6251444205981896,-0.06235400241429531,0.8308236278191572,-0.4093925103349969,0.8612054652724144,1.0891776316725366,1.001886758654601,0.3925931043884064,-0.9161787818213779,0.9366137496012119,0.3381896979397898,0.688932283677259,0.12283289574214613,-0.5346907550065882,0.5125084803988632,-0.4916179845901691,-0.6583679457166239,0.26947258127167073,-0.42986029285363625,-0.3276635033667157,0.4714206658352957,-0.8602971992711824,0.3523223037282641,-1.1291948796326596,-1.6021540986987486,-0.13029777066245304,-1.786285224249342,-0.7397707343339134,-1.8769825215325948,0.18298171850864084,0.572803320919346,0.15145145073746177,1.6074092358523595,2.9005143171622803,1.0936168865254774,1.219829022884432,-0.7600159911188787,-0.6560733786329677,0.21079073030870576,0.8756731145070616,-0.9353154415351794,-0.2919709016701629,-0.017815278058174365,-1.1685488061255727,-0.07005143154514208,-0.23929253976063206,0.19737819246646196,-0.12679486088596809,0.4017463980869586,-0.8048315194342778,-0.9723855419198952,-0.8855465653210285,-1.7837255176545377,0.2616166088454417,-0.3525593144821657,0.3464192051650505,0.11893366437318975,0.35493200617443227,-0.09926743189650483,-0.38608882947148765,-0.21167322769531466,1.3463235347373153,2.1441395441419027,0.3116040700747904,-0.085153999893575,0.4162155877347595,0.5282539507927246,0.7225696543177474,0.8614273359927607,-0.7365210758337423,0.39297648814843045,-0.212336903772817,0.5046852268425931,-0.19544966473622785,0.5934805139677658,-0.28007033013566573,-0.4188834604957491,0.30569471407166665,-0.9582498800746083,-0.212420475408503,-2.569962762725838,-1.830670830586434,-1.1011863619603428,-1.3363903782581148,-1.046588990576158,-0.8761042539526552,-0.7782908636278361,-0.885543557804406,0.6094092385889857,1.3402885125257875,2.372370714264371,1.960463732984079,1.0814823839252237,-0.5675922012377627,0.6445085500390664,-0.793122889555259,-0.948660091834746,0.5784143710291032,-1.0503328889633634,-0.14898857780762573,1.352883622514498,0.44150638114867885,0.5834218258786462,0.2934243856290873,-0.1794545828667454,0.8692148331996561,0.5402081369245378,0.09985938976111598,-1.8230724637894753,-3.141176250217575,-2.2956121259337054,-2.0178942272315243,-1.4099178371741117,-1.6667874583158606,-0.6457487827544875,-0.7627708435959496,-1.6853203056515778,1.5926545823886562,2.9302349880558163,1.7187551752597234,-0.3002832946823663,0.06693812006253606,0.8529034332550037,0.7614466386964441,-0.3288549870394703,-0.9853213561147011,-0.5264525049236175,0.2567323860290897,0.5271532444549697,0.47389112963512137,1.095290174616942,1.3860273355075439,0.9622525242884153,1.5798437737189825,0.894071131328803,1.417456132481889,-0.8095969036897439,-0.4097209171119005,-0.4076868436856173,-1.4823632029680038,-1.2846069970578917,-0.13539569094355455,-1.676194907985265,-0.7604949734394973,-1.1323274014945006,-0.2837607767973941,1.4598389976718673,0.3180346015696349,0.41898287093888986,0.7840042790536675,0.8332074553152893,-0.6192292880249496,-0.3232070242619683,0.1987947443285957,0.8993123531844031,0.05269752240425013,0.6600961015773862,0.8214404332388261,0.6577117760256493,1.266467958482068,0.583021008439832,-0.1726412236956029,2.1806989075634706,0.7270629908637883,0.6138499169148061,-0.5008959644577142,1.3674366676829992,-0.22173664336458607,0.115709423744391,-1.1800797120131776,-0.9470482011619826,-1.1887801269498501,-1.1879473936683442,-0.6058979433868841,0.01467149575721402,0.9534488168012561,0.8455185260393508,-0.9772862067940631,-0.5435711062036357,-0.34873568197530586,0.5871553106568405,0.5438581722616085,0.3822163876863444,1.1137944460082367,-0.17373983484932995,0.7415589086882065,-0.07341084002765368,-0.2714881667447394,0.03617997191055544,0.9153173059094433,1.310989999348338,1.7796828453979818,0.35756038330660234,-0.30172133022861264,0.5299411351213457,0.1230097135803749,0.6434791631483152,0.3538791762335788,-0.5177020013552237,0.09210430946133709,0.38678378290502036,0.19751793636805534,-0.7447039502057329,0.9737805073440905,-0.1611318159938315,-0.23511828253604067,0.16763131075396098,0.5719670061099901,-0.5089195233905653,0.6394862860976399,0.007140508364491855,0.5564870285655827,0.3281002876664043,-0.4594354164138172,-0.6623030688665731,1.1722598864490916,0.5987223013518786,-0.25338566336880797,0.8700843322321622,0.9565624370764042,0.7054414531645078,0.176591292670358,-0.15623983870336025,-0.7353351120694511,-0.1937337304818054,-0.2620573025604737,0.12541360100362317,-0.043881607227227185,0.8190573386525352,1.2045030317739867,1.0583620613649318,0.700845653409228,0.2099050049707878,-0.8443538717153859,-0.8133088521775423,-0.7940402540858499,-0.5012983778837314,0.19961948077257213,-0.43937559789209546,-0.08440695697048324,0.6819796328824171,-0.02886051363492565,0.5975448552488399,0.7356332013849701,0.04504416713965191,0.45376947595146516,0.42427335323618853,0.7212407490710373,0.1084864730893045,0.36442934441615665,0.8278657129597653,-0.5238028519959954,0.24602469807182364,-0.982244216724295,0.0659510812107235,0.5345441620354248,0.5267698232955533,0.5442374410489061,-0.06878577207781433,0.8763516199130562,0.11010092565700981,0.458176626730626,-0.2843677002915698,0.2743799140861861,-0.41192114378401523,0.9591819230961384,-1.6726857311674472,-0.6163691233732167,0.3068176244663732,0.32483035085652734,0.12015324507794305,1.3176511469390808,0.37409448195809153,-0.22369317922800003,0.5060718041052277,0.4040046440995176,1.4839985320162616,-0.45664387841954,-0.891155064799367,0.45990343119137667,-0.6617279819025897,0.35868066489995065,0.805575552229988,-0.22193066084789925,-0.4713433741837926,0.019977029971505213,0.5647738826445557,-0.20142213839639436,-0.2827893513375184,-0.14774638239284785,0.49867554329541364,-0.7540326880489949,0.4496510783278235,0.43394871103607413,-1.0541260543622066,-0.39047415110362793,-0.5068820806097735,1.3757769985784054,0.48678340536397474,-0.6488560381443808,0.02137579930774539,0.18685157642604375,0.4697919509325685,0.16362944691203157,1.4170339676164652,0.7486321638443961,0.22188923077454722,0.26955947679700054,-0.5952928881269183,-0.06417504442561932,-0.3539192231001716,-0.33145122458288456,-0.1411375191740114,0.04013895956954547,-0.447515131556136,-0.2815244923509911,-0.41967793027282724,0.19301330087763913,0.553917493311838,0.8249408433444975,-0.7187163562922241,-0.46681912406520326,-0.7945513101247332,0.1388914342298145,-0.2566465533396925,0.7162684003192487,-0.0276756990706969,0.8808317310264205,1.0040874240854376,0.5839024060857089,0.9280047548217575,0.7129427408656864,0.83928539388372,1.0655986296243871,-0.7031084687259659,0.12145533433714034,0.6024721679422266,0.4363727435975412,0.23587112386134435,1.154258729394383,-0.21241084005119626,1.278240728960451,-0.5074145644178516,-0.17394701915876587,0.25819552829393927,0.8511120447656022,-0.850220574590643,-0.8688820577000412,0.28054869330506194,0.48427838184737276,-0.4647839095749674,-0.08409680141115444,-0.5137517600157069,0.00542245610336724,-0.10076111793312695,-0.31205469629669597,0.296453737728043,0.6563887579482535,0.19804172056712158,0.799769555256137,-0.5841916671904829,-0.8373611499532776,-0.5569215870281409,0.48080689342682015,-0.08689598666782694,-0.2777178534737283,-0.31894229457458706,0.10709538074219342,-0.10538915363893757,-0.9909141755878186,-0.4465168790434877,-0.03995917953464275,-0.21901669255150036,0.3950398103066868,-0.40267221591959107,0.8460494822085038,-0.08385236434024265,-0.9964247472303167,0.0966441122238138,-0.6738133896735737,0.7838083411493243,-0.02585175062684201,-0.3357245812698359,0.27020112465711915,-0.335576341644618,-0.5071043086193389,0.17522589808239036,0.11745199332635689,0.38603905142499145,0.8306410033984089,0.15814234184861145,-1.226289374053407,0.2966873615195956,-0.5537041751078252,-0.09506920095450397,-0.3695848427899495,0.2532844057422338,-1.2820378831861392,-0.011293231624763722,-0.1902325006736601,0.784254097242813,0.5115878733228904,0.11548690886918633,-0.03301585971769369,-1.0195364186102227,0.30445481030816585,-0.9547488322364286,-0.7063753017343211,-0.2116634696885768,0.33213937835967133,0.12796698429241177,0.03538193000819284,0.318180105254277,0.8822686314307692,-0.13405516638114717,0.10731259531429217,-0.13718927132483766,1.031884930172478,0.31371379412897715,-0.5527016881096272,0.3124350013423115,-0.2495890246127791,-0.6293612665814435,-0.3947855378561787,-0.5670639544105175,-0.48022346101696317,-0.30614602545706154,-0.1728088445075543,0.47486547892723807,0.26604252389740735,0.8172967586957425,0.7076873418776444,0.6240176483615832,0.48633951210708387,0.24697291387880907,-0.06681208374504313,0.2649734695431945,-0.2497954689803675,-0.13871381720992354,1.315435815778681,-0.044956119291788464,0.11240727607210409,1.1073130030569938,0.29265376226004286,0.7962599606631924,0.25821545648887195,0.22256350783721665,1.1867711251991622,0.7571421690742657,-0.6366597160747341,0.6085570500418862,-0.7404734824340224,0.38856043455201517,0.026033062569656647,0.53160671584746,-1.2958270408124788,0.8139366852388539,-0.20634399084613786,0.23374546286247339,-0.7613135745934014,0.7494263959151812,0.7247677312697789,-0.17989286484846112,0.08723011113664125,-1.1754071031915092,-0.15699669303639033,-0.08992004127174887,0.17685122967211983,-0.2210121493943795,0.44188913491632653,0.164934992039951,-0.17815875244023924,-0.28690920949780657,0.8043613625158825,-0.08593355986464372,0.5192440947355095,0.7839849105344336,0.3376968201769527,0.24620238018053206,0.31451028220291044,-0.4775157260574778,-0.420999816831342,-0.8504182758679528,0.21476428736613398,0.5978952704366577,0.6042982008338533,0.4395918935724732,-0.20670824873468874,0.9694887626856953,-0.8681938480122673,-0.5669420515473186,-0.07592211677722996,-0.8642315728474439,-0.3600768809232108,0.5724595837621629,0.6863073834547488,-0.10577748601623213,0.258471188447805,0.09633691090377125,0.18688439480496116,0.9134845374918613,-0.2784354885369496,0.5245820925430741,-0.1993709721003266,-0.021042137850635908,-0.6949218394575313,1.4842475022260397,0.9499982142151199,-0.12388445567437001,0.1505918748373765,0.10869805140664389,-0.1881623792699302,0.8599909018244114,-0.9221626424461298,0.2125810258434946,-0.2795567616054897,0.5964596921230467,-0.5952982667117162,0.013320524864629217,-1.0662398432756228,-0.9732045146947591,-1.065214568761021,-1.0658264948364407,0.18063791813880029,-0.5981243993646708,0.7358830875177322,-0.17946995985631847,-0.6295875633124839,-0.3153362816414635,-0.14633235096682776,0.6365776113742718,-0.20209835192114503,-0.2572957400169121,0.8687673495449951,0.49762081883068043,-0.8054693565370713,-1.061041431151615,-1.0742821615476514,-0.8312511457615281,-0.04616205347918115,0.19473569084635195,0.8908931751848517,-0.9441770528718478,-0.3313528295526913,0.33502235938027486,0.5744622689765748,0.7785075922379947,-0.8902008562205075,0.18497033847797897,-0.9723431223880011,-1.151581666375933,-0.9459681677631336,-2.218631021382385,-0.43290375719701246,-1.9722960922049069,-0.2742887503073985,-0.1606996484065075,-1.0926025593800548,-0.8019774256847597,-1.1466312317931924,-0.3018200769910411,-0.38193589500668235,-0.038401610096866115,-1.2055233715517406,0.7729851953979919,0.7453671218278164,0.38508768439141877,0.4677422038851362,0.410246259321885,0.6859171847415233,-0.774191499559181,-0.882856089191655,-0.7969006079749634,0.8555742994546911,0.22593728851475584,0.037501842665336474,0.22610373607514953,-0.55432828872539,-1.1845998471846972,-0.9823201287057833,-0.2951027815912469,-0.3148073316480742,0.3231365293674805,-1.2869539452089551,-2.1739809668381973,-0.7515691670443833,-0.9395890840096084,-1.2926910985153055,-1.0782273650402725,-0.4360636614716289,-0.16338968340433088,0.7691666098996652,0.08226213522438168,0.20142209997462945,-0.3924227669876423,0.7555383500302847,0.4193288882308457,-0.43769089189583044,0.15856982373361173,-0.09008872048559557,-0.6459058871971992,-0.9132257035999973,0.7969412486003684,-0.30683389364708735,0.31605675034419856,-0.11825945063372538,0.4437991157013972,-0.8774185408278324,-0.30055044617451676,-0.5750132444840381,0.5211563011109911,-0.23288663442698498,0.6968044038735405,-0.13585708556395842,-0.43102068401457566,0.4233044222567471,0.2887524722724429,0.4737576740969474,-0.1607136489187461,0.07271102483758918,0.8828323412693386,-0.21301955468285358,-0.6282087088146229,0.14771207030256783,0.6592562080735893,0.5596353553678168
-0.12263972075710727,-0.653472511672978,-0.1538149732163625,0.17129314749926428,0.7574995366640305,0.37809037654961064,-0.759317750934646,-0.3776076349758206,0.14536572158437666,0.756602093532186,-0.9408456627137622,0.8717586952188947,-0.5008348144143291,0.3092397662754602,-0.0760767759784312,-0.15815157043270653,0.271015143018565,0.8472527247700661,0.23355120245626648,-0.2884608384087648,-0.43161145612073026,-0.270791225123175,-0.4563930741294888,0.028639453941423865,-0.6321390019999098,-0.5660842542043674,-0.17732532439019288,-0.6468835085288953,-0.9083193685465918,-0.2868857074141291,-0.7683781385584529,0.378368225887886,0.17305567264156288,-0.5863770872409992,0.41917429067166617,0.766869071804596,-0.5370041328938849,-0.4090842848952053,-0.7817487690445778,0.35246403149399996,-0.5602816354242859,0.5190420796220627,0.23164311268572566,-0.3220697453393088,0.6960181006820788,0.8386704541955966,0.36169563224005163,0.3461823378649633,-0.9791851382066532,-0.23195730205490478,0.10219615487974704,0.5826844535485911,0.479917425552872,-0.10950051623665824,0.1002165363163936,-0.1321364478985012,-0.23799395952635072,0.9041789327128016,-0.6096247736955913,-0.6973938770372095,0.6422977752403815,0.10288823759609428,-0.09539499703380819,-0.6307536504308338,0.1331963228258271,-0.5184053716884585,-0.12636568638169887,0.08255678098920258,-0.2142144471951578,-0.1500531610926071,0.67944231349423,0.5886499420237765,-0.34866956617860106,0.21789688747266983,-0.5593260561804769,-0.5274507863340452,-0.262920385244484,0.3554781494205458,0.6478193407769486,-0.8169971486295798,0.9076868088235849,0.2992557061940088,-0.9864489045499272,0.4421731238240896,0.9065191518002331,0.9912504509171047,-0.42896993088683305,0.46864112495819016,-0.6168221364136836,0.9151727696441501,-0.7555966314052172,0.7390848960234708,-0.9772009177025167,-0.011526842016418586,0.10881779673738277,-0.6319389093497394,-0.340882450821541,-1.2922572685566067,0.21690942032759225,-0.15511536635541123,-0.14535920865744703,0.3728361981788037,-1.1984406688924911,0.7701286069159665,0.836617879757244,1.081472834040673,0.10879848027866686,-0.7578199590921268,-0.8964053186171937,-0.9640113076115171,-0.18576462814294017,-0.46848015493770645,0.36560864808970006,0.2367841162371075,0.0723556983464156,0.935138002042134,-0.6617841807234731,0.23910333108499782,-0.38295552110385694,0.14604053724720004,-1.950153744789445,-1.4193959824145839,-0.17956889444161545,-0.3710306291605866,-0.15551106919843877,-0.928586518158177,-0.7979038852626065,-1.7533055390146357,0.3379044432534784,0.420284264153847,-1.0027493359138875,-0.14220794475882076,-0.08049015034651572,0.8752574906764747,0.129015417654566,1.5741795896830981,-0.3542081535793717,-0.47203549557946967,0.31983025057163755,0.7436960679081254,0.1168459411303091,-0.8681097891226319,-0.5962872648800233,0.02470898438969502,-0.5358284075274073,-1.203842319431039,-2.2432185929441837,-0.8256350226988288,-0.5543822228275588,-0.7184312146710977,-0.4263538649787004,0.9571042106367427,-0.5011646258279964,0.19811284039352411,-0.5579128635018955,-0.9542872840782755,0.47515367161249356,0.06737027132732411,0.667889088732644,0.1462713350116331,1.0002782635823688,0.2878438182145643,1.3032455929158095,1.9255231153540546,0.08515560480883728,0.025010461875591455,-0.5955561152964386,-0.7681282654724978,0.5476053121211581,0.5540051038784434,-0.8243353520594456,-0.9341022450095302,-0.48553663421519805,-1.5645699742354033,-0.605922584717538,-1.4826786358895532,0.22268371512833168,0.3357340849082797,-1.3215249367726234,-0.025994737647441625,0.4006343436034855,-0.6940751583233239,0.16870751279433,-0.17620001809800417,-0.3977414029830841,0.8278058498823286,-0.25562180001058465,0.6922257730129083,0.2203907936245313,0.14627183999514082,1.702751127808641,1.0571473738753305,2.4660176332996593,1.0498392094356854,-0.001639751205527064,-0.8380819796317094,-0.15555339148684658,0.09163371329220887,0.8313529607590736,-1.3585312849245874,-0.9440965331759026,-0.5144649525304507,-0.2881468356735008,0.885991664651571,0.3651439018695321,0.4865419992145817,1.2104578691164292,0.36017102905366627,-0.3469120773303595,0.36291983210409823,-0.4403046271787188,-0.5675291149275301,0.7607313590027389,0.11373229315014888,0.04242689796824598,0.6177188395625507,-0.3392093635895201,0.16912067961997826,1.4810875442900504,0.8715253285243755,0.8023378627143063,0.36478418690467357,0.00950507800295902,0.9647847313160599,0.3478318698542148,-0.9899544077294731,-0.030299969335505682,-0.869062514073931,-1.9095633283653282,-0.606709659481346,-1.1090992463226033,-0.1532893502315726,-0.5100271686631951,-0.38420327894523915,0.1946186267320162,0.4615504951485863,-0.4896456199325138,-1.1855558755383158,-0.34639493944078514,-0.39244590402265617,0.6799569886049922,1.1721803615883397,0.4470156586019866,1.3420555341205684,0.29769549320795946,0.896915126226904,0.8937315666732393,1.2365753987421155,0.886852667395122,0.18102321347063463,1.113739032270312,0.01677350984627144,0.3479158354370789,-0.963093262466226,-0.72127920163571,-0.9594889301372888,-1.089048072557334,0.005861730904438324,0.11382781995215346,-0.2520890962609249,0.08108495342054702,0.5202827145009937,0.6238122261981139,1.8522090416860255,1.2898200490853071,0.14170004207539807,-1.5626449210019002,-2.308455003364534,-1.9443465651283731,-0.2439661948293815,0.4098354541694722,-0.3709365503679368,-0.3780308982667819,1.049554277195407,-0.5606589824854877,1.8815520509841608,2.095544419441059,0.0626908848002326,0.994180219544971,-0.33035798926990395,-0.639603761582514,-0.3242745221729492,0.8831631114645627,0.005750157778225164,-0.4353137471187888,1.039703525086126,-0.3246586066147368,0.4814759605825029,1.99645057539332,2.1791913659270583,1.8875053822634686,0.5382507264774914,1.4859950737051764,0.11622532588263008,-1.6863798902262954,-1.196192180736069,-2.659286899222798,-2.761133216306162,-0.9404937852146816,-2.5346502039641696,-1.1641009104218418,-1.601706568873229,-0.9787433769161862,-0.539626554802671,1.3006732283176294,1.3241949523117158,1.5165794628635205,-0.2942402584866296,-0.5746667977092825,0.13456886573029256,0.15427571964704934,0.8433507371963211,-0.5029368058252469,0.6785602327236262,1.3755912863005155,1.7791761606303156,-0.014519683661999147,-0.3145518887930497,0.6970979352179926,-0.6724080693289511,0.07853324515008606,-0.16288311575460734,-1.1196546255573616,-0.33418644238398737,-0.9909765485032012,-0.942578594952904,-0.2838156996147198,-2.6373121131345467,-2.610741182342324,-1.8713783442201775,-1.2891722351580097,-1.2175664064427751,-0.2025043170274281,1.3931797654118396,1.2319378306696562,-0.04071298087748342,0.4130940828533148,0.26566697880206,-0.1916292586307213,0.722122243634147,0.9603279066663564,0.3015151741238867,1.0308063812172361,0.14803133929803694,0.4911991153424984,0.07789486809704041,0.3509696493143748,0.09279789630994276,0.5491505024970929,0.5928467419846388,-0.7531753841483185,-1.246902505761645,-1.9459459766435536,-0.36137115138174053,-0.5750227493533983,-0.03392258522508116,0.33016980000209567,0.4569026447201935,0.06766457810736384,-1.0225443298405228,-0.4136934510898298,0.8715299099855783,-0.5663555012471725,0.5296055375089371,-0.3130366297982937,-0.27137452512929344,-0.21276410220545416,0.8727888292694452,0.67850765582375,0.9981628575958055,1.1560325135522316,0.11206446456828488,-0.05577272079353991,-1.1131829527054304,0.48741261403112757,0.7103968129594078,0.18431512060007962,-0.03835113662594363,-0.8953472363908809,-1.7703600864097229,-2.2410044838520937,-0.5319450659239818,-1.3208711619617244,-0.7532520608616845,0.3259065240623454,0.3048899602569691,1.561872016545982,0.40026735824478643,-0.1381456446118257,-0.406921643505842,-0.016961504133355745,0.8011129662519324,-0.18530229049439373,0.9369221917565275,0.8947106555128146,-0.939705396667243,1.1865268223585366,0.45072521337532406,0.06008916025623352,0.7878581041670036,0.9650393283868345,0.17234296141876215,0.9046159785798643,-0.24227004450124445,-0.38612015453083426,-0.20820771622474027,-0.3067055891319116,-0.8647981851441431,-1.435329184811731,-1.4895340220073454,-0.2650508788920879,-0.18072537698192712,0.3789354360944462,-0.5263417896710336,1.033508579401122,-0.5116814947794578,0.2789881822741045,-0.11139264880531187,0.47612183617541987,-0.19033011314528228,0.18751461951055884,-0.32833504009509656,-0.7922147148382306,-0.6044055861187804,1.0895769275410805,0.7144413891452142,0.10295871780099088,-0.09907612553617462,0.7135816167693811,0.11442648268235064,0.44916155841243527,0.3351602961258865,0.07931375311350645,0.14687782092853044,-1.3712463492837121,-1.8069941564060568,-1.5323871848353818,-1.878253255955841,0.711103582891015,0.3766010172204344,0.3120674613500189,0.7644626049810389,-0.45856960431957455,0.30733702280618425,0.2792100696840509,-0.0993119400513893,0.49793782024029876,-0.4629751961478391,-0.16932389238088186,0.35138257506325576,-0.5781420709461476,-0.6687315073124798,1.368046329148698,0.03360299430110164,0.022490422997391617,-1.4267102347618503,-1.2747978672582394,-1.9696510986969311,0.7666300432741925,-0.24083814568840647,1.526835830145046,-2.032809389312153,-1.6188040197641413,-2.7907643333943564,-0.7330238403690867,1.0261010674742257,0.2659656187457487,-0.041986643426822796,0.2778124725171471,1.4417912468113494,-0.292536800366108,0.44632888008745025,0.8232565238231601,-0.18307746669464334,-0.04880256094693815,0.46065418694798227,0.39363639764840963,-0.18154897822046895,0.7984603124027853,-1.3475830699082307,-0.5104094557367038,1.2322961101834753,0.4709583904605882,0.14189283208127762,-1.0256881486906024,-0.7661234947432356,-1.448862342124839,-0.5907723431086146,-0.9511755666634663,-2.391112985246539,-2.300603882642904,0.041782382224269284,0.4454173252426647,0.22991159887149842,1.5831575298456706,-0.15873632980714297,1.1622026824263338,-0.4988411646613557,0.5771340781004966,0.6445112814243724,0.08890702960396457,0.7519657349161388,-0.5963191076143773,0.5119693201171222,-0.1627526025072345,0.04618263399402767,0.8693973215336319,-1.6092499099733049,0.2105818223530363,0.056919359373645395,0.5782153725381753,0.9174088323638565,-1.6173366692523383,-1.4566543278996897,-2.0536602027828814,-1.8599835645268477,-2.2109387691259843,-1.0979475684945186,-1.2895850308613872,1.8119686173652318,0.16921388726712053,1.7152764922574846,0.46768112161305236,0.6604373812425057,0.03684480021934056,0.022134522036554867,-0.8431625676399856,0.5293539630642045,1.660797646014814,-0.6043841309971414,-0.5775570856836254,-0.38853388459586435,-0.9602444549092404,-0.6581186517910762,0.8545937937381288,-1.0013096569787874,0.2741428355210854,0.13479448079744275,-0.004444018865923162,0.5632424332738294,1.0641371024638828,-0.4010836534178016,-0.15989741247109324,-0.31546604371634746,-0.06467568030553132,-0.8370708600479986,1.4781905304179894,0.44561087794187937,0.1446307354662733,-0.6282809604269927,-1.2181772732231646,0.3716277152165934,-1.2767645217393566,0.5196175474256438,-0.5603794598687932,-7.187157924260706E-4,0.49834320625809303,0.5146778943159682,-0.09362959165021047,-0.8798380297599611,0.5695797879584961,-0.6262357219416704,-0.7653939235963596,-1.6877512812760365,0.7411548561180396,0.5651373641380284,0.02408609554799901,-1.356364356841632,0.7442285611040841,0.460766531328884,-0.587865996285068,0.7810033710455972,0.025317000089022258,2.2617775015598696,0.004629157457425977,-0.6591664832696652,0.18581136221015046,0.038554940878937315,-0.019811911264615064,-0.2588052715346898,-0.9357171480946034,-0.7916968275473156,-0.41320141956496215,-0.14104889944390908,-0.0444606349016685,-0.7320714375621536,-0.1136318677233064,-0.532745678514968,0.760593256671286,-0.6444879187704825,-0.969084879896008,-0.8545815489444013,0.5996305955386418,-0.7479649351365967,-0.1407594929539936,1.1099891835503564,0.45612813729899776,0.46202290683673325,1.2874989825626073,0.17541524549500295,-0.23268333061948243,0.8481817788243001,0.956662088375807,0.0485491663274969,0.8041649262680566,0.46316785326845744,0.648325392134043,0.06878106701574033,0.9804978670410405,0.9645553277309993,1.302595421986243,0.025991139068201708,-0.24828009469214296,-0.18339838766250754,0.35930275703367687,0.4792167332126628,-0.9747076604626308,-0.6956291234959455,-0.38150194970693413,-0.7786992450364993,-0.4465966794714265,0.027229478188575358,-0.1782573940679348,-0.35988106512096796,0.6376363530329351,0.15394289110352666,-0.3474483800487404,0.48346597825236326,1.383628291597676,0.5572636890271668,-0.30377812627437756,0.7952452978576701,-0.2777464392973033,-0.12856924257879246,0.4655017748921464,0.09477421063804099,0.8519289480656921,-0.4123335804589027,-0.3438330934024023,1.0019169684926705,-0.316394617836632,-0.5315478985343395,0.7253375016032392,0.6366368688012755,0.0962623056954095,-0.84088844547758,-0.22113963404457385,-0.6701335206333511,-0.04447254053069289,-0.12233874317533304,-0.08020776914536998,-0.790303204015124,0.2847974736711634,-0.7045686868149257,0.2818517512603633,0.3207501018791312,0.7757583097811962,-0.9039879713066166,0.7461741064625791,0.4321367079806431,0.48704276416813996,-1.5307370823398845,-1.1526345304928038,-1.122114776522936,0.576124422264974,0.8949420410755178,0.04523478971141235,0.12044296282478002,0.9030401986626427,0.25521891367721444,-0.014873391346166026,-0.6528160091281474,-0.42425200121729256,0.01345164756894901,0.7594867186101392,-0.5411798781886604,-0.8545863191487816,-0.1721017578421458,-0.5716965810007479,0.7145923091078102,-0.07866530562519489,-0.044571892370744985,-0.16049456911261012,0.06379847824071266,0.4311953383120711,1.045171290147165,-0.1533115581724428,1.3783490124287805,-0.6945553933011307,0.516924941882336,0.720843018070177,-1.0205894940727125,0.21720967247115402,-0.0867745215087427,0.13554303849365043,0.3308442869620984,0.727223164059796,0.9592720476517093,0.20111883618741405,-0.14049625748345917,0.8001074149362515,-0.4910996208983063,-0.5818906434963644,-0.5147766125252872,0.029899495793111932,-0.7429661207054168,3.144998967344802E-4,1.0172875652821651,-0.38734756050613606,0.26192792751983507,0.393468785421563,0.3018410797902928,1.3089917171922234,0.27873236639853516,0.058333823553331395,0.6744209940363357,1.2224545264274396,-0.34716189140823067,0.6248938672158376,0.32718044496242915,0.7466867770254415,-0.46483689023652897,0.5197592971108668,-0.7946084958823318,-0.7713506877503967,0.36597350371051346,0.41273161871771297,-0.5499623490237631,-0.40962506758700257,-0.28833107495062293,0.15361577545909033,-0.2311696734354255,0.2237877064620105,0.6893150376385931,-0.662857016876143,0.6309196580938069,-0.8118514513653908,-0.7672704322538709,-0.5018996724648426,0.48249159492195204,-0.15039286358563186,-0.6300769187585663,1.2671008768403997,0.019787488528584883,0.7891641897097518,0.3601677209421955,0.42138765701656844,0.7126530795926039,0.0238414329185907,1.0594404864448692,1.1236271172966084,-0.7750523460802554,-0.6391363689162464,-0.49427131275300457,-0.35640236734911257,-0.06506918934472772,0.9621165904790636,0.5012994564303372,0.6453278665148328,0.5603338449008255,-0.9164603202558472,0.9044780723734145,0.40413176224428804,0.631391860476864,0.814956347942276,-0.0462158029390486,0.26139475839609755,0.0817231476911746,-0.9135485510372502,0.08802783038000492,0.949121353887042,-0.4108398126975583,-0.4694726169332758,-0.0910536790584288,-0.18339205283679025,-0.44554534599597895,0.6611261049615095,-0.8682297224168309,0.9440182019712394,-0.0396569253593043,-0.09291343118752438,0.4722671927881228,-0.007629729491067216,-0.5796779351960486
0.30721071667697863,0.641378626164689,-0.2600913586319433,0.7801464252808101,-0.3453784548559471,0.11742826517869154,0.5947236041855204,0.47260867679834395,0.5829887314872662,0.8288620936216027,0.1566368732543566,0.5553141157576766,-0.03367812398391264,-0.18107330759228074,0.9211253480293066,-0.19011525417456776,0.6207551407461072,-0.6098903590892653,0.48041579324812056,0.5145630196012356,0.6085419257073983,0.5984677845983775,0.4983490661867689,0.872691756082083,-0.4060648769491906,0.07626806450954748,-0.7920002605052066,-0.49656090369416206,0.9371419124249458,0.2827631301048954,-0.7884926397587926,-0.11265033719017437,-0.5106637287194149,0.5174163570396086,-0.04690413514116285,-0.8062240127654886,-0.5332100035356879,0.5996691757506036,0.43310719076078263,-0.3664644596366356,-0.19677966378531128,0.2202203849772723,0.41407278459212776,1.0168912271328243,-0.66221890519427,-0.2859025815722147,-0.7112956899935268,-0.01922122686031581,-0.3312053103241597,0.766000750197663,-0.7672739457166595,0.86848639851345,0.28781552631979834,-0.16494084524250496,0.398542557771113,0.8731550463631677,0.19184839003559162,0.6673233819762463,0.8658995925176906,0.07395643377912747,0.838125417603535,0.23998141425670017,0.5415149583947738,0.3896679162526006,0.37436963705699494,-0.49995097075093375,-0.6897749572360315,-0.30389433126767473,-1.2802764192755849,-0.47859961790077776,-0.9549072414264003,1.172964561506566,-0.606389770349169,-1.7274305532217933,-0.6015384635784395,0.10798857853090242,0.5881643650324703,0.5883083886682225,-1.2885422565513243,-0.24664338396861202,-0.5438212974266895,0.50388620062599,0.7536743317275096,0.4325048903528097,-0.4298828280527456,-0.7447121632159026,-0.4582282546571979,0.15255814989003982,-0.8100316003919089,0.14543231678380386,-0.5936338417812069,-0.8062136860595235,0.5619764695283265,-1.519085029030842,-1.28332102522066,-0.5635235633129118,-0.35470132619657285,-0.38941459037974546,-0.22215701049258396,0.36504444656595897,0.2805563285376015,-0.8641056691854017,0.3173225745821588,0.6777963045750138,0.2867570425209663,0.5014817234442039,0.3730049272098935,0.04096499504042988,0.21413548561512577,0.03633866773439149,-0.6372553981792359,0.6769862358515695,0.5269727859956945,-0.6081486243332384,-0.7583066146594653,1.0311013982716355,0.9650550904201117,0.3535207486468713,0.3462708326321925,0.5397737377307424,-0.7527436111015062,0.025529077798952624,0.613414824354521,0.8802628235399669,0.6156464377317264,-0.3052832614061692,-0.03954744260707437,1.3076492674691416,0.6214661933880955,0.48998092191508785,0.9601245090316759,0.3872987446775015,-0.5555152061572899,-0.24856140874570012,-0.13371999092203685,0.17391554062995165,0.2868513590727598,-0.16049285995591134,-0.03526389847087063,-0.8890661193310576,0.7104604185103376,0.958780112166866,0.26589290183390263,0.5534941629823298,1.1456171930880712,0.5507645526663166,0.9786797938736547,1.095081107663984,-0.5020827620515562,0.4578301809704742,-0.36192912151229395,-0.8816981989505679,0.24737714655520407,-0.7601415575022903,0.4696642584858319,-0.08399791423909986,-0.12865785081580622,-0.3626150460706672,-1.0926866700266402,0.1693454041066589,1.0509970341529373,0.5505514867736603,1.1018373608673515,-0.2787231234728164,0.7455829296069609,0.8871552559363698,-0.30125259865505316,-0.02347121871940945,-0.5253242055441503,0.22463401908817748,-0.009845855503084176,-0.7408499421437788,-0.4296601018207777,0.5854143960373965,-0.2725848584200589,-1.1806869881778663,1.202717584854109,0.9159431644385816,-0.434378292121815,0.43458405262292465,-0.32883455075562473,0.7298437464984088,-0.19913463742369783,-0.09250956863338029,-0.5586240763274961,-0.14397444595819345,0.8692402872267343,-0.19790456952847124,0.6916193908896411,0.03363673336215569,-0.8329101015037575,0.7382973521405284,0.42076698147027036,0.9015880229281811,0.6229790940212797,0.4545088220721943,0.5078664276581101,-0.6838505660271299,-0.035488851923731995,0.9564818206958213,1.0157425702569625,0.39504158699076863,0.026887176168820665,1.4200903294939782,0.44822370633572456,-0.7344592106909609,0.9592554143916359,-0.2608898205163788,-0.02428509792958118,-0.20438109991685258,0.9053548647937173,0.01302003545249322,0.8888347812970564,0.4115653548281136,0.4496578667675182,0.2947947179172919,0.17900373939803152,-0.12072738899664447,0.23121037913466397,-0.3809200219117942,1.4295178467706455,1.4281493530080813,0.5015841058709896,-0.9761573328946627,-0.6461917045628935,0.2852976825848722,-0.6083328646879106,0.8643846458182282,0.6641131383627344,0.42068259583129725,-0.49981862228591484,0.32634083598456776,-0.2396489791889062,-0.016058548548523708,0.11991772563225586,0.8581707319773703,-0.27523709002542324,0.02775793465237035,-0.20770252891124832,0.12135811270190397,-0.2174682175519959,-0.12896244238371884,-0.0302529991372433,0.86782095309618,0.3700708757382607,0.14199042292519723,0.7534653935232576,-0.34045954709230875,1.8568544362910964,1.8053049048502632,0.1510534033511157,-0.03588448648880765,0.4815631841268429,0.37870194236061494,0.6444324507255316,0.8394006024371979,0.13732980978118878,-1.2228107924756568,-0.6167480301598784,0.5160948232199593,0.7304857244953882,0.6486301261113205,-0.4280391421632821,0.1352922679195518,-0.3805743382204036,-1.1071375838290811,-0.04592352671929127,0.5432160954592768,-0.16852154888920048,-0.1539941513382952,0.28582433423203135,-0.7147683334416605,0.7035449378941844,1.5406585932105554,0.8318452083360875,-0.23904346605316196,1.7573912705467716,2.014040168024415,-0.027468343618765746,-0.701255945413226,0.3740595517100116,0.9215079577870476,0.7074122315616604,-0.49617452660850647,0.10012048623446027,0.6272902660345444,0.22760409156082628,0.20726144019768689,0.8187578126098858,0.06480132135471778,0.264370956480722,0.5396786638176944,-0.11588242095213883,0.8272910272263022,0.434980693956683,-0.8865671140389481,1.2369027185602313,-0.40606104277418387,0.09516765727215126,0.29857727128423467,-0.031044264428867235,0.14009223858292733,0.8747326630202882,0.6877844881492788,0.8148416858399198,1.5477442458953694,0.7796126784133134,-0.5062644687130194,-0.1445207786871241,-0.6262575502515655,0.7219560549317926,0.45800663057472424,0.3797150259242629,-0.38216511655104235,-1.069843310394987,-0.5286177218400349,0.1701885965818186,0.4254506662929821,-0.051707768253445544,0.6300498738321301,1.5248531165668031,1.2297302924457396,2.0766146857504686,1.0344516806484634,-0.3301666904686571,1.0456103352175314,0.8294253251030426,-0.05871406467617394,-1.0539236925934183,-1.0459158986984571,-0.3072005378004967,-1.1408826134701233,-0.40880818705026956,0.898931782806836,0.6645607603976083,-0.7948671118066907,0.5704437278100379,0.7168394745813551,-0.6351297884554068,-0.6730645837679976,1.2249287627796985,-0.3766538924298055,1.6274115911886755,0.4361027687356039,0.7420586946294198,0.7831405645896535,0.8087066713665984,0.9908786890913035,0.462711099262076,0.2907308685144042,1.881830187824973,1.6020578274298924,1.5277439327265367,-0.3433154335494804,0.7827866322946636,-0.6419816798407922,-0.8395053427303628,-1.2758967797223206,-1.4574759056856141,-2.0401837956244138,-2.3352799946134684,0.20371831749990238,-1.037043609900321,-0.6842407204849439,-0.848640788287705,0.04335324990152299,-0.9541617614420334,1.0406050216463922,0.9224099492674076,1.0478696638459344,-0.609209781204031,0.30895215586172914,0.06932881538204523,0.4572165260813696,-0.05615834238799378,-0.8501379377003159,0.6362225570868992,1.2589320125608943,0.4171788430127936,0.4936700129568088,0.10785241958274625,0.5249208735456034,-0.21691359337130503,1.1621910168305876,0.34513665543776373,-0.8929231032821465,-0.16472339438138317,-1.8595090523870514,-1.3827900093969243,-0.8989513210614678,0.32935919799970514,-0.4261580716825233,0.17789014291377359,0.22431379387195233,-0.1222689330557231,0.9317463552294487,-0.25654558199777344,-0.16180123460820173,-0.8142931428284166,-1.4084326413702986,-0.156899270431861,0.5730025835985304,-0.3018567122322432,-0.08960983008302562,0.6022488347040093,-0.19249539292791568,2.1790740646170352,0.8893361122183209,0.7345826950343324,0.6748236176223407,0.7494649038369368,-0.5142080475751665,0.22611692215306492,0.791695539152945,-0.33077014247510894,-0.3744786751641489,-0.9021560770937543,-0.06342144413669958,-0.47967628755124914,-0.9812352691596169,-0.4684359370130508,0.22183000120289303,-0.5488120344023687,-0.06412519038707684,-1.76174291496796,-2.0834235845935893,-0.47279650369649806,-1.7889867760678502,-1.5550209862927473,-1.4888826476642387,-0.5487654113586087,1.0250324902161603,0.6450906017378113,0.26211733301976275,0.3831944140152481,0.02438535897805566,0.2392185470623987,-0.5313066712072115,-0.22287246188917942,0.8972354224845851,0.06911839951800869,-0.1601605361797595,1.558950405067736,0.37352467757185476,-0.47803146645179123,-0.863591499003482,-1.1758654163770819,0.2680076906237291,-0.8094171734041509,0.3163532894984121,0.008605741400967893,-0.505141932923218,-0.6413991243554938,-0.12389829552652433,-1.248994971577837,-0.983733628284706,-1.6807583214766721,-1.220444225435057,-1.1396155608553078,-0.5478143289975573,0.5893675720015872,1.6183536820838793,0.376425609530662,0.5827947730390386,-0.17454014556052255,-0.38042168860398073,0.3144485929834565,-0.7188760620346387,0.5467772159479426,-1.2334469929849903,0.22768331035450773,-0.22478349283480276,0.4196075873532979,-1.5531705347644555,-1.3107396218323044,0.5563859960097324,0.8848419581141023,-0.9518918486040564,0.12599284193328128,1.3720104941661924,0.5051155976433348,-0.10428164189174736,-0.2545533287364074,-0.14217730058160538,-1.0425523115855804,-2.271386981433125,-2.426942981370482,-1.3006982583225064,-0.6888460552636174,-0.5589289898969092,-0.3932753458716298,-0.8395567954749195,0.2560805531775319,-0.0908251076870078,-0.3762099799774698,0.2219256268849685,-0.4415557451629935,1.5448082403383425E-6,-0.1940831186163873,1.2679233167664556,-1.4940974241888392,-1.6892241719320125,-0.9475350628660039,-0.6086083938730189,-0.6514929015957341,0.26353826572574346,0.41772331474682134,-0.12840191257981318,0.6586765102415699,-0.24960187662736152,0.024023652561826512,-1.196728275449422,-0.6708287180025072,0.26788812466361983,-2.324631736631576,-2.3634865174157014,-3.5683179713633706,-0.31473420312416533,0.8098358922468861,-0.6490894812872599,-0.4189747455296236,-0.4201002985676597,-1.1553179913191811,-0.5596371037269346,0.2803770920812288,0.3356141680835633,-0.7385243548553654,-0.5791156533573947,-2.2163457321490645,-0.6997139096425646,0.09904980088294701,-0.18333399116652999,0.14617982314445171,0.5972782333241785,-1.0008208846157338,0.21346318179818422,-0.4002223764609546,0.05836466183294072,0.42800986722679496,-0.007678357975205026,-0.4914013765830212,-0.20899898032976455,0.03852724666860278,-0.2576427144642679,-0.907740814104036,-0.7246791407199719,-0.8513295253797836,0.7830818084470935,-0.3126770010999164,0.20256349376877497,0.18173637432048212,0.027265219773762048,-1.1441694751285658,0.21066498694605532,-0.03234151178498062,0.26040909821153496,-1.2277710759685159,-0.2983800750311287,0.05001307182971207,0.8812231453771058,0.2824179805528255,-0.43061099455742063,0.6667206246209556,-0.4856730429007365,-0.9099744313898935,-1.8218155787264794,-0.28366251558604916,-0.5470916701645318,0.40539580968520017,-0.26055040809888885,-0.31491836849726335,-0.501237651011957,-1.055325934048033,-1.0215984096514392,-0.14165059496733506,-0.38116806139284404,-1.3044930519147038,0.6865887139083168,0.17152723097239486,0.06494388099673147,-0.41285442072825634,0.2570825377650228,-0.8084298091331453,-0.44222659198566844,0.16956781074036772,-1.0395160465719488,0.6425022507503596,-0.6140634998957132,-0.15663899334330528,-0.2483385554936437,-0.4505477870289203,0.710532040464979,1.2012294438540447,0.24819577233784915,0.022603532103018326,0.5817792937396888,0.7759739073222915,-1.0526120219076052,0.19832699040195892,-1.1906839177960007,-0.055380669646198546,-0.18232407401424464,0.08030991409650179,-0.2116882434718507,-0.39954882915072426,-0.5179852671730976,-0.6744644467691138,-0.6661037598252773,-0.4388617674460486,0.49281592932329177,-1.2290622303262662,-1.4965609412923806,-1.1229920812317165,0.4059204755920097,-0.20884962482576372,-0.2537016607860489,0.09305452703436978,0.8558702497191365,-0.35184401306190255,-0.6281856022861486,-0.7208904596538172,-0.8369627150457609,0.7672635004603789,-0.17887223839190217,-1.0196899252819767,-0.25591833480375886,-0.39648042059090716,-1.109987118298316,-0.14730478603039474,-1.0052306615027635,0.18141640934308836,-0.3879976916003485,-0.2597063729205311,0.4904967118568723,-0.34357429480533097,0.49531842634896917,-1.6547577937293414,-0.5486141427779169,-1.0929456107466546,-0.9542172284839869,-1.3598477502168091,-0.7727988473856031,0.6433076169185001,0.05371460334506534,-0.6375286435150807,-0.899056051619399,-0.9462528514248935,0.38964699079710635,0.8819507763223821,0.6912464420705282,0.8555754142236948,-0.3934768552861414,-0.5028494396949486,-0.5825420696415536,0.4251400370022248,-0.7449627896965431,-0.12471537968124831,0.3283578002456189,-0.8152687803422602,1.1057333676530543,0.03722686354396176,-0.7335390740940264,-0.2259461190928636,-1.38753618248214,-1.304809545681898,-1.117902370413475,-0.6129439819874448,-1.1117007228354583,-0.47073180139426374,-0.21728342898590922,-0.605018295587627,-0.8290688028951814,-0.9491104387223603,0.5558446272102384,-0.4139805231210481,0.454572739830033,0.3957681710164074,1.3928952917872266,0.8319823107673401,0.9157424677929248,-0.18954728747732275,0.2801357410697945,0.28624247055404317,0.330346045466582,-0.38694599082685516,0.24422146655919097,-0.6113205605625822,0.3922011336814003,0.23394719241914536,-0.1479923338070896,1.3292657043179934,0.9282342095126864,-0.16696917032960032,-1.328298344839029,-1.0546889911438952,-0.3154660356958353,0.07601351109393248,-0.4883498479646116,-0.05665203150902683,-0.46207619508524833,-0.07533181136533118,-0.5081461740288415,-0.07310308310044192,-0.7178296558530577,0.40460262120512047,0.684138769800604,0.554849073668673,1.893164883291404,1.357161747936354,2.3767247241652134,3.2882962764667627,2.97935590967399,2.9791384192310306,2.2148952681532403,2.7830597249490268,2.7125379294662304,2.642762531904921,2.031286556786259,1.274256334511754,0.948486631857751,0.4398677448827115,0.8647717996874438,0.280434724841957,-0.8614284630210872,-0.1719452487771127,-0.34213273800819877,0.43512024655324427,-0.46267832177902046,-0.28518719067444653,-0.8735238154138181,0.22731350171749898,0.1316429967551088,-0.3631768235397341,-0.26638257363249246,-0.493139058812751,0.8832635584567412,0.8143367122149752,0.6933513072829042,0.6649719504091378,-0.2774477840183373,-0.1686326805660235,0.03798393441580437,1.7728560881698838,0.5510569701255187,1.3599549418612356,0.930854654214809,0.6339229653429459,0.7192151139383868,1.0789020305846613,1.0343950097365175,0.4689217195932569,-0.7459440534046381,0.4995567188086512,-0.3710505087697817,-0.018465521022839937,-0.0286604070970633,0.7656898503800988,-0.829627715284255,0.6719356486497403,-0.3719182865830304,0.7080255602164283,0.6064134660843218,0.30486880373901504,-0.8899405275760608,-0.6967522281873015,0.4753830540687746,0.051412773115856236,0.43034125654496663,0.5820957888463041,-0.526328084178399,0.4542402609870073,0.975568838649705,0.37664897614444437,0.3561825201668631,0.9343120343285296,-0.7303593126906316,-0.549852762544418,0.44426404145824816,0.7438937952554576,0.8506080175257775,0.08303918415329181,0.5345009730465928,-0.2701029752653301,-0.6952512975459431
-0.8225680635958348,-0.037115975424245384,-0.3046801169021438,-0.5531799319657948,-0.5525564750093921,0.5761001052318406,-0.773725052238651,-0.8686157965136552,0.9537332839110415,-0.22334497478539173,-0.2859414601931156,-0.007618677051698386,-0.3453892150913285,-0.1984503074259642,-0.5550696324144813,0.15236645756396391,-0.39391175259717204,0.313125639951622,-0.09735394852168011,0.7882468611784041,-0.8396459748267202,0.5531569427755816,0.15057668684231418,-0.02922891033917896,-0.9268144846628235,-0.8740179780268311,-0.0996403170610296,-0.12158481337057503,0.5112724160450199,0.8137534807049458,-0.7957956196481162,-0.7754039996050912,-0.3979236139304394,-0.2613103753240855,0.5134434780702823,-0.47144195705833386,-0.7227088731187677,-0.2114495787335098,-0.7194975528915597,-0.2631225887170262,0.45593964284257016,-1.0616047442620067,0.1887119655846863,0.5277020477946752,0.8465854922254323,-0.9054481181938916,0.09857322525959406,0.5506996056258525,-0.7821203852879131,-0.44011011140058576,-0.9113936982347786,0.15477789891114735,0.10992129059537303,0.8296914976385497,-0.28642266675712436,0.28426332500848317,-0.3084626012859839,0.4362289867122915,-0.57024656271196,-0.8494270971193026,-0.22723497312294103,0.242716519391378,0.5840855522748851,-0.40649572840624865,-0.2541885040273414,0.34055923606066935,-0.6150595916130458,-0.4015056765718039,-0.28569044276043365,-0.501911943436886,-0.8487165949757476,-0.9584983087718671,-0.4050077314795723,0.4164693573880206,0.09459869375966402,0.048551373429318305,-0.4459369220784843,-0.34814067486554146,0.07949687707716518,-0.6352320175682648,-0.586874576669872,0.25191304585227825,0.8015381030472675,-0.48365131029579644,0.23997557020436355,0.06182867252681912,0.3979397353801089,-0.33746384068824353,0.4114858545542608,-0.02480319042550571,-0.6726961958456132,-0.7775352733331795,0.0013365242636957327,-0.2505193384612104,-1.0658326333994759,-1.6473877512113375,-0.5691159274054653,-0.17458981980730176,-1.4126349202535693,-1.4635647735415527,-0.1918344236609607,1.3542766409335731,-0.3690109176825885,-0.47547930681252776,0.27387138885660717,0.1309449313370148,0.5727949920036602,-0.03993727081344143,-0.2992444156138168,-0.622332306010752,-0.8143233706535803,0.3740535760006356,0.4175611016072658,0.9695459569897842,0.060394671631201186,0.5626879370690293,-0.5391413632514704,0.022857671060556074,0.4106597542699465,0.32117626140671796,-0.337611230953137,0.6009140587368769,-0.5989660639724174,0.4352598237933885,-0.22046958506929953,0.32235254349532666,-0.5325314764365929,-0.5735338552606438,-0.22941667884664504,-0.3035523312343459,0.29572340963964244,-0.24474130458388818,-0.5090778795988791,-0.4500920972302097,-0.04024558637322572,-0.8105778183406925,0.3565423622903506,0.6556689019067401,-0.7559054454338564,0.8910948235311926,-0.7741435617895307,-0.25711979317036304,0.03621550817187218,0.058930687439338665,-1.0563702301842979,-0.5560779212031846,0.28617951528182345,-0.5530268554344835,-0.3181923466237278,0.8528139014916135,-0.27221766328621827,1.5901017379312965,-0.12494361108054587,-0.39202727121885644,0.11924958942163617,0.15876891403735202,1.5668281356821816,0.7311931957821424,0.7842392694009871,-0.20504292124754842,0.1429464665201187,0.012103479839047594,0.18409004074744112,0.5719014026265055,-0.04919513622653681,0.7640756851715979,-0.4847445552208305,-0.6896434095877325,-0.4655245942924433,0.5838295204395417,0.6949471428310661,0.1276856489302499,0.4072447020676451,-0.7108399981423092,-0.5267096624225435,-0.22673902626483036,-0.7441250090878226,-0.6679779981607255,0.0189386195699302,0.18315931254495196,0.2045409075722849,0.8995975370749083,-0.5916884745580644,0.7649268403982843,0.1445456057838482,0.4514703584775176,0.26007967473701893,0.27390655263349817,0.5722851015855914,-0.553739393493539,-0.7435209379077579,0.56638233099752,0.6651461159303,-0.08096557701433445,-0.12163053578149223,0.2513893463250372,0.8531361006199324,0.47098432134085133,0.5625903890747971,-0.11245464222210191,-0.31128185864134583,-1.3655617774492657,-0.8083325809771409,-0.5227630113371073,-0.12085281825851953,0.055344377504713306,-0.23467221995330856,-0.4496656827197865,1.2291950755038739,0.016240727798132796,0.27454494291231835,0.5455043013405599,0.7917558161118295,-0.32987692554869946,-0.666092697659818,0.703267483294689,-1.0045186903861907,0.6816482068673054,0.6260995633520743,0.12354045595721747,0.12755166756981948,0.11945258146228456,0.9101005170244375,-0.5090330770016042,0.453789832939645,-0.1999925560449888,0.43083017196649664,-1.1658646971485294,-1.357235137268157,-0.3965011669093359,-1.2715331170832087,-0.4942547317265304,-0.8136287987344005,-0.23788918274410295,0.2869082468269589,-0.03739691254680259,-0.6521550743599341,0.2799876199396495,0.06344596941359129,-0.41379192368405193,0.30666030053660653,-0.13734353783589304,1.212179581935811,0.04643399382119473,-0.33918067284328607,-0.33994648665984734,-0.47506817081187874,-0.5240394525708318,0.46642774843437124,0.9567479865069864,0.9630998166276877,-0.5730349375053703,0.6947526500520804,0.7871160995344776,-0.990500323819278,-0.5117632246911699,-0.6611391549386478,0.4790246874960896,0.1302927656502237,-0.8921662291426464,0.44996658516301796,-0.29083278528025736,-0.2735410782196594,0.8139303752571142,-1.1951952983332041,0.8563630400932586,-0.9489464223360661,0.37250531289768785,-0.029815021297020385,-0.1697248480217147,0.08199892142523268,-0.23061172541677696,0.6001862956379778,0.4121672951684316,0.5044757789114348,0.563641897921149,0.5123708883567047,0.7464854878860147,-0.7579557016185683,0.42909218705914337,0.39581427359213794,0.617568463816393,-1.3326595230174905,0.12099795816750081,0.9889288120050166,-0.8030164918563824,-0.2553010526994694,-0.8356201300078682,0.10432621304080106,0.6765560600631719,-0.9549502506280056,1.1931264571665627,0.7594361617126426,-1.1822124313715363,-0.5982010523420527,-1.1151435880901959,0.16995132132157378,0.20669892035939252,-0.5652922431052894,0.23846186869588837,-0.5975563940402643,-0.8234954146534399,-0.4092069606884274,1.607187421173989,0.2834406761985808,-0.31766039104920346,-0.25750155200419683,0.5376834485045426,-0.7520141369299667,0.5062709007767816,0.15089687713177186,-0.7112986555549702,-1.16465586035045,-1.0938557977650167,-0.18498441477524072,-0.6854766559177017,0.1302451054630039,0.10355982088350374,0.17903298548838342,0.2875291412799249,1.485321243417777,0.8326640286095035,-1.0348878630709673,-0.03560254767088629,0.20825005602922783,0.09446556380733308,0.23987668031570267,-0.2953401507224236,-0.49534815897704826,0.45867258278286077,0.4028943770579366,0.9504648589454137,-0.6093464682948787,0.6835546900003003,-0.845706253353939,-0.24506588000711235,0.02119319293342148,0.5509867061350696,0.4654699472463486,0.3775372134728328,-0.8580332220882825,-0.5602771398653453,0.45572342210102695,-0.21418388537701574,-0.9915609374834281,0.04731480903925197,-0.20155076109178743,0.46006855754797943,1.7327039395115986,0.8049688485794035,-0.3940167267602729,-0.10556744377029836,-0.1282464097067116,-0.44284653405512653,0.35598665818562797,0.39919237574479577,0.7939154328269816,0.014881222186398046,0.45565684819364,-0.5444569457745153,0.317610344882373,-0.41585273023142094,0.21789862968837337,-0.15056870530791602,0.32093112739453333,-0.19891384949997454,0.4991876721110689,-1.0644814446604345,-0.2358070082061703,0.021318712753325773,-0.032271022460544654,0.15371422203271606,0.0626767189284528,1.5243457151380047,0.8204342215337017,0.038929383973967446,0.8892385966686563,1.628350869760631,0.30382379764807477,-0.14469894886050452,-0.28675591391117516,0.12818821789352935,-0.8393411480895367,-0.2702478991740934,0.14252831123777268,-0.3759539974075952,-0.6134537257066771,-0.504841046217863,-0.1714927525125243,-0.9025288587182412,-0.23033414736107238,0.86067809239832,-0.5617243332563119,-0.7370313261885902,-0.7228348243253662,0.1930187118427456,0.37113806112683323,-0.4235537806152345,0.5966980346210303,0.9295143484603527,0.8045242951036523,0.46299978403730147,1.3170091525278154,0.5403973454691864,0.7024146719269079,0.7269749420815435,0.051147552250727576,0.061629739759379215,0.18150466562639989,-0.010572454327899838,0.42681331694582086,-0.5977625133047023,-0.8030793952711526,0.6527914266101309,-0.8377642455400804,-0.7565651355378282,0.3894422202664622,-0.3662848974212627,-0.6782585027410829,0.5321357969880953,0.548582863154159,-0.49269300862124726,-0.8406241052599553,0.8204896594047539,0.6364813211300002,-0.04066247771893211,1.5382061192683179,0.5907023408295599,1.1149793303640743,1.8410409788139825,0.7368094504997758,-0.3051968711625848,-0.248972535268261,0.13059132376988564,-0.9151326323054316,0.18101428390384178,1.2053723045312053,-0.43942196250559673,-1.498555350452674,0.19554282800505968,-0.7559107306997769,-1.3048867171484229,-0.6641245378788435,-0.613055093170526,-0.7146417224397992,-0.4910901490180586,0.4984006842165892,0.19894462167682855,0.2540026508229625,-0.8349561541279019,-0.8390754640072629,0.7563571106414051,-1.0130876892369876,0.022705442620655207,0.6581954466463719,0.18689065393231166,0.6687253273749754,0.3532223892922115,0.5379586454086436,-0.5808922418915999,0.16972169406675175,-0.4294536107569988,0.2593783307595861,-0.18573201785081211,-0.22911086045479095,0.17517305109675532,0.4940838127872461,0.22939462243544018,0.19580504080314573,-1.209606336606686,1.0275309842447837,0.027022270620899274,0.5375340181120085,-0.8692004413743268,-0.035616897788463726,-0.4989201676892287,0.06010649892728459,-0.28009975540853266,-0.7272497987000026,-0.39183691229563966,0.18225047709276368,0.10025012137623855,0.9501671977756094,1.6152092833226095,0.9662260328892048,0.8591749794055678,-0.5414919456891557,-1.1535735796403963,0.47180629617592595,0.10681900891445126,-0.46324052222776396,0.3220978991159305,-0.15534800550282782,1.114664190345813,-1.614153113842739,-1.2074592879550243,-0.42474894366388466,0.4898148706493424,-0.16408376153451026,-0.06857031961259849,-0.905029198613094,0.8301097120483254,1.0560707107816758,0.05254318723090741,-0.054041252971876,-0.14475467655225815,-0.34102870371682276,-0.037939604866988406,0.8467950158799127,1.5055876438728306,1.8979014175850528,0.6522356851972503,1.2935898329540967,0.2705169330393429,-0.4715130055326123,-0.8609535082749442,-1.1741707208383454,-0.6814879612368414,-0.3354806493860727,-0.7442276942423074,0.24201026044579663,0.793184964766125,0.09571311843828584,-1.0436380557824383,0.837559978309189,0.6502979852790839,1.4538616992315339,-0.22005325549258353,0.3961131639072749,-0.7457446882262505,0.6175143226869991,-0.8285851398528915,0.7564096285964024,0.8389811804679559,0.665797161320824,-0.32663411666378017,0.5270986092315113,0.3562262949030589,1.2815933199668432,2.527738688351436,1.053869664960834,-0.7515144964567857,-1.481232178277185,-1.540233981017773,-0.7376281660695715,0.01172560904014844,0.06843461104532707,-0.2683915567035976,-0.23450942502075034,-0.1726657807740033,1.29797295012595,1.0571472096465522,-0.013115543122905634,0.4962500831659912,0.12180698863125994,0.5865832947146077,-0.29695336417908474,0.5987732305638461,0.9004273405443641,0.6989759298175702,-0.6612845151094338,0.5350341771355902,0.8091013204041668,0.5745817379929694,0.2852783707458083,1.7752977457591366,1.7685529526990917,1.3453667008679322,-0.4929019227608805,0.060972823784299454,-1.2424277297621529,-0.8456939964835604,-2.0391247921056035,-0.47016756203550425,-0.6358575946327919,-0.1985417063066312,0.8110888450206728,-0.12095775316447684,0.5745233425636842,-0.3364121524521956,1.6345712732038704,1.7764675350382841,1.7172142511328747,1.1439596229970608,0.36721739259823594,0.6591580048264892,0.6987133477762125,-0.2550175014191893,-0.7892325601309802,-0.22084201627813568,0.4838321667869077,0.19628118668223626,1.1099602104320603,0.39411647766808,0.3991744667275686,0.4820599296386727,0.20198783310952587,-0.11395758946751575,0.8168301306137313,-0.33450673258686725,-0.4999295038266859,-1.2252045949888384,0.10229473946226232,-0.8912177554850685,-0.6639150890882474,0.958365657764844,1.240289897538964,2.116254591027382,1.128067733023275,0.7855487837146825,0.5547170358505109,0.7239393386981162,-0.31161017019299414,0.9985523972201613,-0.028816153175079275,0.4364006587513722,0.2564278023895304,0.8330264966257946,0.386105089136348,0.3562667784889373,1.548817525409472,-0.32350971493452585,0.6813363711313136,-0.015282164413660754,-0.12192958855402375,1.4549985482125756,0.5185101630217402,1.9388854597864331,-0.11609748780463061,0.8809635883558272,-0.44792299691591286,0.7897083947667506,0.7332716324066347,-0.12743538667363313,0.25698047924478173,1.8682272965719346,1.6660003292178969,1.5728669825289783,0.21990002071193035,1.0234190106666126,0.8275647244134878,0.9383842144247909,-0.4237890984158139,0.4210142465141864,-0.32151543973406826,-0.11284764909483846,-0.16263660744977615,0.5732611109887974,0.014629404934399855,-0.5992229878241224,-0.07432361461670552,-0.5380125185510144,-0.04359532216319457,-0.7115186677738916,-0.09131102706963337,-1.0487409392850489,-0.08665529107681555,-0.7753575988500149,-0.03838749371906482,-0.45037243030390006,-0.026855944589946817,-0.7645571165518702,0.3675345421938629,0.31564735492922885,0.6212317495911045,0.2041707962781866,0.4289772017759378,0.21703365687328105,-0.7046163877347531,0.7740455726719704,-0.8373953501646968,0.7824662065857866,-0.6115740269544219,0.4285159119737476,0.5179472888510166,0.29698325627137356,0.021151211631993853,-0.34552425517265234,-0.011423888919454513,0.9419496946603104,0.16944929515480017,0.4005420063255378,-0.055178620968752104,-0.20649268250181022,-0.599498423017539,-0.46427845178286764,-0.7088534396737628,-1.3873860080548308,0.16990348726862867,-0.9254275644130927,0.2589405928369877,0.4877136480932605,1.3910284666331454,1.1140076684339726,0.020497886536925417,0.6797571366162853,0.4242316461202079,-0.03342212238642737,0.2104275558412007,-0.015777278416702067,-0.792233959229051,0.1433208246013844,-0.42569259178239116,-0.46954484827687115,0.09002897777907541,0.5771142564446226,0.7621445467043427,0.2750847715610735,-0.10975463804317055,0.20146188811938232,0.35925698917061294,0.9478038035245276,0.969051680321461,0.481109701345945,0.4589106455849319,-0.11967480431029638,-0.22036460226630217,0.21947008830999354,-0.25675990591737213,-0.6918553405869003,-0.14871872444634737,0.5078071559024482,-0.5002483801251207,-0.4879993487318288,0.6423010993599398,-0.9131556995674693,-0.14877198717480106,-0.046062371047600026,0.31126358443732083,0.9294091955276489,-0.6244410847454516,-0.5771379076374058,0.014259386270517595,0.4749470396229724,-0.343029632223049,-0.9027076580793645,0.02302382774535013,1.6046667923951528,0.09670175117764875,0.6270224890590951,1.0882071696806308,0.30766420436714276,0.16648173264463226,-0.23588415028730164,0.5586349697563854,0.5764529023482836,0.0690544118663093,0.6444393137362538,0.4764739156600586,0.5262904208192161,-0.49281119851541716,0.12686726074291002,-0.8285136065573803,-0.11582682908601523,0.25718708637648313,-0.6551992096212016,-0.655137327562638,0.7802421603387382,0.5268843719195586,-0.6172877167866815,0.9738869291943493,0.8981244306965972,-0.2662350447703448,0.41321698815985214,-0.773817388020262,-0.9775922679898511,0.28241185080319625,-0.705023760608604,-0.8394274043496096,0.19395620897163351,0.5918285338816811,0.49874668348809237,-0.9164847921386579,0.2579444300157928,-0.5756980436608578,0.548614139288664,0.19957088065681597,0.3844597096459443,0.9924253479086541,0.5112934567456814,0.48378228280556934,0.5102801196711164,-0.04474025757243294,-0.6282371835447322
